{"learner":{"attributes":{"scikit_learn":"{\"_estimator_type\": \"regressor\"}"},"feature_names":[],"feature_types":[],"gradient_booster":{"model":{"cats":{"enc":[],"feature_segments":[],"sorted_idx":[]},"gbtree_model_param":{"num_parallel_tree":"1","num_trees":"200"},"iteration_indptr":[0,1,2,3,4,5,6,7,8,9,10,11,12,13,14,15,16,17,18,19,20,21,22,23,24,25,26,27,28,29,30,31,32,33,34,35,36,37,38,39,40,41,42,43,44,45,46,47,48,49,50,51,52,53,54,55,56,57,58,59,60,61,62,63,64,65,66,67,68,69,70,71,72,73,74,75,76,77,78,79,80,81,82,83,84,85,86,87,88,89,90,91,92,93,94,95,96,97,98,99,100,101,102,103,104,105,106,107,108,109,110,111,112,113,114,115,116,117,118,119,120,121,122,123,124,125,126,127,128,129,130,131,132,133,134,135,136,137,138,139,140,141,142,143,144,145,146,147,148,149,150,151,152,153,154,155,156,157,158,159,160,161,162,163,164,165,166,167,168,169,170,171,172,173,174,175,176,177,178,179,180,181,182,183,184,185,186,187,188,189,190,191,192,193,194,195,196,197,198,199,200],"tree_info":[0,0,0,0,0,0,0,0,0,0,0,0,0,0,0,0,0,0,0,0,0,0,0,0,0,0,0,0,0,0,0,0,0,0,0,0,0,0,0,0,0,0,0,0,0,0,0,0,0,0,0,0,0,0,0,0,0,0,0,0,0,0,0,0,0,0,0,0,0,0,0,0,0,0,0,0,0,0,0,0,0,0,0,0,0,0,0,0,0,0,0,0,0,0,0,0,0,0,0,0,0,0,0,0,0,0,0,0,0,0,0,0,0,0,0,0,0,0,0,0,0,0,0,0,0,0,0,0,0,0,0,0,0,0,0,0,0,0,0,0,0,0,0,0,0,0,0,0,0,0,0,0,0,0,0,0,0,0,0,0,0,0,0,0,0,0,0,0,0,0,0,0,0,0,0,0,0,0,0,0,0,0,0,0,0,0,0,0,0,0,0,0,0,0,0,0,0,0,0,0],"trees":[{"base_weights":[-0E0,-2.8080372E-2,8.45098E-1,4.5424837E-1,-4.0073533E-2,5.3676475E-2,-0E0,3.5784315E-2,-0E0,-3.2366372E-3,1.6928104E-1,1.4411764E-2,-0E0],"categories":[],"categories_nodes":[],"categories_segments":[],"categories_sizes":[],"default_left":[0,0,0,0,0,0,0,0,0,0,0,0,0],"id":0,"left_children":[1,3,5,7,9,-1,-1,-1,-1,-1,11,-1,-1],"loss_changes":[3.6986916E0,7.482286E-1,1.0389085E0,4.05389E-1,7.8468686E-1,0E0,0E0,0E0,0E0,0E0,4.0095472E-1,0E0,0E0],"parents":[2147483647,0,0,1,1,2,2,3,3,4,4,10,10],"right_children":[2,4,6,8,10,-1,-1,-1,-1,-1,12,-1,-1],"split_conditions":[3.0336022E0,-1.637565E0,-4.9020196E-3,1.495116E0,1.3610215E0,5.3676475E-2,-0E0,3.5784315E-2,-0E0,-3.2366372E-3,2.900172E0,1.4411764E-2,-0E0],"split_indices":[8,2,0,0,8,0,0,0,0,0,6,0,0],"split_type":[0,0,0,0,0,0,0,0,0,0,0,0,0],"sum_hessian":[1.65E2,1.61E2,4E0,2E0,1.59E2,3E0,1E0,1E0,1E0,1.45E2,1.4E1,9E0,5E0],"tree_param":{"num_deleted":"0","num_feature":"10","num_nodes":"13","size_leaf_vector":"1"}},{"base_weights":[1.1056599E-2,-4.6838365E-2,3.7465045E-1,4.423203E-1,-3.0585742E-3,6.8426913E-1,4.5384612E-2,3.488971E-2,-0E0,-0E0,3.8246322E-2,1.16642155E-1,-0E0,9.16013E-3,-0E0],"categories":[],"categories_nodes":[],"categories_segments":[],"categories_sizes":[],"default_left":[0,0,0,0,0,0,0,0,0,0,0,0,0,0,0],"id":1,"left_children":[1,3,5,7,-1,9,11,-1,-1,-1,-1,13,-1,-1,-1],"loss_changes":[3.507394E0,7.900017E-1,1.9488957E0,3.8689166E-1,0E0,7.0065784E-1,8.2066216E-2,0E0,0E0,0E0,0E0,9.253605E-2,0E0,0E0,0E0],"parents":[2147483647,0,0,1,1,2,2,3,3,5,5,6,6,11,11],"right_children":[2,4,6,8,-1,10,12,-1,-1,-1,-1,14,-1,-1,-1],"split_conditions":[1.3610215E0,-1.637565E0,-4.9020196E-3,1.495116E0,-3.0585742E-3,-1.5187658E0,2.900172E0,3.488971E-2,-0E0,-0E0,3.8246322E-2,9.9511E-1,-0E0,9.16013E-3,-0E0],"split_indices":[8,2,0,0,0,2,6,0,0,0,0,0,0,0,0],"split_type":[0,0,0,0,0,0,0,0,0,0,0,0,0,0,0],"sum_hessian":[1.57E2,1.35E2,2.2E1,2E0,1.33E2,1E1,1.2E1,1E0,1E0,1E0,9E0,7E0,5E0,5E0,2E0],"tree_param":{"num_deleted":"0","num_feature":"10","num_nodes":"15","size_leaf_vector":"1"}},{"base_weights":[6.7594233E-3,-4.326249E-2,2.9826316E-1,4.3069035E-1,-2.8969513E-3,6.529767E-1,-0E0,3.4017462E-2,-0E0,-0E0,7.3050475E-1,1.5899867E-2,4.8970636E-2],"categories":[],"categories_nodes":[],"categories_segments":[],"categories_sizes":[],"default_left":[0,0,0,0,0,0,0,0,0,0,0,0,0],"id":2,"left_children":[1,3,5,7,-1,9,-1,-1,-1,-1,11,-1,-1],"loss_changes":[2.3713849E0,7.4285597E-1,2.5551028E0,3.6926764E-1,0E0,6.4620733E-1,0E0,0E0,0E0,0E0,6.660843E-2,0E0,0E0],"parents":[2147483647,0,0,1,1,2,2,3,3,5,5,10,10],"right_children":[2,4,6,8,-1,10,-1,-1,-1,-1,12,-1,-1],"split_conditions":[1.3610215E0,-1.637565E0,-4.9020196E-3,1.495116E0,-2.8969513E-3,-1.5187658E0,-0E0,3.4017462E-2,-0E0,-0E0,1.6366489E0,1.5899867E-2,4.8970636E-2],"split_indices":[8,2,0,0,0,2,0,0,0,0,9,0,0],"split_type":[0,0,0,0,0,0,0,0,0,0,0,0,0],"sum_hessian":[1.52E2,1.29E2,2.3E1,2E0,1.27E2,1E1,1.3E1,1E0,1E0,1E0,9E0,5E0,4E0],"tree_param":{"num_deleted":"0","num_feature":"10","num_nodes":"13","size_leaf_vector":"1"}},{"base_weights":[2.1380382E-3,-8.635101E-3,5.726198E-2,-4.27479E-2,2.0513174E-1,4.193512E-1,-2.7775164E-3,3.0685058E-1,-0E0,3.3167027E-2,-0E0,-0E0,1.7130671E-2,1.4036277E-3,-0E0],"categories":[],"categories_nodes":[],"categories_segments":[],"categories_sizes":[],"default_left":[0,0,0,0,0,0,0,0,0,0,0,0,0,0,0],"id":3,"left_children":[1,3,-1,5,7,9,-1,11,13,-1,-1,-1,-1,-1,-1],"loss_changes":[2.6347618E0,1.1380799E0,0E0,7.0512915E-1,3.403849E-1,3.52475E-1,0E0,1.8456304E-1,3.940341E-3,0E0,0E0,0E0,0E0,0E0,0E0],"parents":[2147483647,0,0,1,1,3,3,4,4,5,5,7,7,8,8],"right_children":[2,4,-1,6,8,10,-1,12,14,-1,-1,-1,-1,-1,-1],"split_conditions":[6.3787637E0,1.3610215E0,5.726198E-2,-1.637565E0,4.9510399E-1,1.495116E0,-2.7775164E-3,-1.5187658E0,1.6366489E0,3.3167027E-2,-0E0,-0E0,1.7130671E-2,1.4036277E-3,-0E0],"split_indices":[8,8,0,2,0,0,0,2,9,0,0,0,0,0,0],"split_type":[0,0,0,0,0,0,0,0,0,0,0,0,0,0,0],"sum_hessian":[1.66E2,1.65E2,1E0,1.45E2,2E1,2E0,1.43E2,1.2E1,8E0,1E0,1E0,1E0,1.1E1,4E0,4E0],"tree_param":{"num_deleted":"0","num_feature":"10","num_nodes":"15","size_leaf_vector":"1"}},{"base_weights":[6.671479E-3,-4.0584892E-2,3.3425963E-1,4.082955E-1,-2.6435496E-3,6.8673706E-1,2.2900058E-2,3.233785E-2,-0E0,-0E0,3.883153E-2,1.0716006E-1,-2.6199777E-4,-0E0,8.8413125E-3],"categories":[],"categories_nodes":[],"categories_segments":[],"categories_sizes":[],"default_left":[0,0,0,0,0,0,0,0,0,0,0,0,0,0,0],"id":4,"left_children":[1,3,5,7,-1,9,11,-1,-1,-1,-1,13,-1,-1,-1],"loss_changes":[2.8075905E0,6.6560805E-1,2.1536415E0,3.3647358E-1,0E0,7.123165E-1,8.4716655E-2,0E0,0E0,0E0,0E0,9.573891E-2,0E0,0E0,0E0],"parents":[2147483647,0,0,1,1,2,2,3,3,5,5,6,6,11,11],"right_children":[2,4,6,8,-1,10,12,-1,-1,-1,-1,14,-1,-1,-1],"split_conditions":[1.3610215E0,-1.637565E0,-4.9020196E-3,1.495116E0,-2.6435496E-3,-1.5187658E0,1.4442252E-1,3.233785E-2,-0E0,-0E0,3.883153E-2,-6.1570704E-1,-2.6199777E-4,-0E0,8.8413125E-3],"split_indices":[8,2,0,0,0,2,2,0,0,0,0,1,0,0,0],"split_type":[0,0,0,0,0,0,0,0,0,0,0,0,0,0,0],"sum_hessian":[1.7E2,1.48E2,2.2E1,2E0,1.46E2,9E0,1.3E1,1E0,1E0,1E0,8E0,7E0,6E0,2E0,5E0],"tree_param":{"num_deleted":"0","num_feature":"10","num_nodes":"15","size_leaf_vector":"1"}},{"base_weights":[-0E0,-3.7566014E-2,1.5350935E-1,3.9751625E-1,-2.5234397E-3,3.1058702E-1,-0E0,3.1529408E-2,-0E0,5.0020635E-2,1.18582755E-1,4.9751416E-2,-9.857519E-4,-2.8271796E-4,1.1563337E-2,-0E0,6.876691E-3],"categories":[],"categories_nodes":[],"categories_segments":[],"categories_sizes":[],"default_left":[0,0,0,0,0,0,0,0,0,0,0,0,0,0,0,0,0],"id":5,"left_children":[1,3,5,7,-1,9,11,-1,-1,-1,13,15,-1,-1,-1,-1,-1],"loss_changes":[1.0680671E0,6.268525E-1,7.6798356E-1,3.212252E-1,0E0,1.5735114E0,3.3589266E-2,0E0,0E0,0E0,3.2410684E-1,1.027064E-1,0E0,0E0,0E0,0E0,0E0],"parents":[2147483647,0,0,1,1,2,2,3,3,5,5,6,6,10,10,11,11],"right_children":[2,4,6,8,-1,10,12,-1,-1,-1,14,16,-1,-1,-1,-1,-1],"split_conditions":[5.997657E-1,-1.637565E0,-4.9020196E-3,1.495116E0,-2.5234397E-3,-1.2811675E0,1.4442252E-1,3.1529408E-2,-0E0,5.0020635E-2,-9.317582E-2,-1.2811675E0,-9.857519E-4,-2.8271796E-4,1.1563337E-2,-0E0,6.876691E-3],"split_indices":[9,2,0,0,0,2,2,0,0,0,2,2,0,0,0,0,0],"split_type":[0,0,0,0,0,0,0,0,0,0,0,0,0,0,0,0,0],"sum_hessian":[1.74E2,1.38E2,3.6E1,2E0,1.36E2,1.6E1,2E1,1E0,1E0,2E0,1.4E1,1.1E1,9E0,5E0,9E0,5E0,6E0],"tree_param":{"num_deleted":"0","num_feature":"10","num_nodes":"17","size_leaf_vector":"1"}},{"base_weights":[4.161194E-3,-5.8400477E-3,5.360912E-2,-3.61095E-2,1.8890546E-1,3.8700646E-1,-2.4115022E-3,3.2817206E-1,-0E0,3.074117E-2,-0E0,-0E0,1.8648366E-2,1.6715503E-4,-0E0],"categories":[],"categories_nodes":[],"categories_segments":[],"categories_sizes":[],"default_left":[0,0,0,0,0,0,0,0,0,0,0,0,0,0,0],"id":6,"left_children":[1,3,-1,5,7,9,-1,11,13,-1,-1,-1,-1,-1,-1],"loss_changes":[2.3018866E0,8.97177E-1,0E0,5.928948E-1,4.7096032E-1,3.0669367E-1,0E0,2.0638037E-1,6.705792E-5,0E0,0E0,0E0,0E0,0E0,0E0],"parents":[2147483647,0,0,1,1,3,3,4,4,5,5,7,7,8,8],"right_children":[2,4,-1,6,8,10,-1,12,14,-1,-1,-1,-1,-1,-1],"split_conditions":[6.3787637E0,1.3610215E0,5.360912E-2,-1.637565E0,4.9510399E-1,1.495116E0,-2.4115022E-3,-1.5187658E0,1.6366489E0,3.074117E-2,-0E0,-0E0,1.8648366E-2,1.6715503E-4,-0E0],"split_indices":[8,8,0,2,0,0,0,2,9,0,0,0,0,0,0],"split_type":[0,0,0,0,0,0,0,0,0,0,0,0,0,0,0],"sum_hessian":[1.64E2,1.63E2,1E0,1.44E2,1.9E1,2E0,1.42E2,1E1,9E0,1E0,1E0,1E0,9E0,5E0,4E0],"tree_param":{"num_deleted":"0","num_feature":"10","num_nodes":"15","size_leaf_vector":"1"}},{"base_weights":[-0E0,-3.3812027E-2,2.2343788E-1,3.767594E-1,-2.2884542E-3,2.3325823E-2,1.820198E-2,2.9972643E-2,-0E0,9.908794E-2,-4.6731453E-4,1.0686999E-2,-0E0],"categories":[],"categories_nodes":[],"categories_segments":[],"categories_sizes":[],"default_left":[0,0,0,0,0,0,0,0,0,0,0,0,0],"id":7,"left_children":[1,3,5,7,-1,-1,9,-1,-1,11,-1,-1,-1],"loss_changes":[1.1631181E0,5.586774E-1,7.4691826E-1,2.928445E-1,0E0,0E0,7.4764416E-2,0E0,0E0,1.4987653E-1,0E0,0E0,0E0],"parents":[2147483647,0,0,1,1,2,2,3,3,6,6,9,9],"right_children":[2,4,6,8,-1,-1,10,-1,-1,12,-1,-1,-1],"split_conditions":[1.3610215E0,-1.637565E0,-4.9020196E-3,1.495116E0,-2.2884542E-3,2.3325823E-2,2.900172E0,2.9972643E-2,-0E0,4.1807267E-1,-4.6731453E-4,1.0686999E-2,-0E0],"split_indices":[8,2,0,0,0,0,6,0,0,1,0,0,0],"split_type":[0,0,0,0,0,0,0,0,0,0,0,0,0],"sum_hessian":[1.62E2,1.43E2,1.9E1,2E0,1.41E2,7E0,1.2E1,1E0,1E0,7E0,5E0,4E0,3E0],"tree_param":{"num_deleted":"0","num_feature":"10","num_nodes":"13","size_leaf_vector":"1"}},{"base_weights":[-1.9568663E-2,3.6676854E-1,-2.9688682E-2,2.9223327E-2,-0E0,-2.179855E-3,5.0969258E-2,1.3404495E-1,-1.9583465E-3,1.0092904E-2,-0E0],"categories":[],"categories_nodes":[],"categories_segments":[],"categories_sizes":[],"default_left":[0,0,0,0,0,0,0,0,0,0,0],"id":8,"left_children":[1,3,5,-1,-1,-1,7,9,-1,-1,-1],"loss_changes":[4.835462E-1,2.7964476E-1,1.8027157E-1,0E0,0E0,0E0,1.9496354E-1,1.7388219E-1,0E0,0E0,0E0],"parents":[2147483647,0,0,1,1,2,2,6,6,7,7],"right_children":[2,4,6,-1,-1,-1,8,10,-1,-1,-1],"split_conditions":[-1.637565E0,1.495116E0,1.3610215E0,2.9223327E-2,-0E0,-2.179855E-3,2.900172E0,1.4442252E-1,-1.9583465E-3,1.0092904E-2,-0E0],"split_indices":[2,0,8,0,0,0,6,2,0,0,0],"split_type":[0,0,0,0,0,0,0,0,0,0,0],"sum_hessian":[1.63E2,2E0,1.61E2,1E0,1E0,1.43E2,1.8E1,1.2E1,6E0,9E0,3E0],"tree_param":{"num_deleted":"0","num_feature":"10","num_nodes":"11","size_leaf_vector":"1"}},{"base_weights":[-0E0,-1.624799E-2,5.26243E-1,3.570274E-1,-2.59081E-2,4.29408E-2,-0E0,2.8492743E-2,-0E0,-2.0897572E-3,1.0347452E-1,1.0147902E-2,-0E0],"categories":[],"categories_nodes":[],"categories_segments":[],"categories_sizes":[],"default_left":[0,0,0,0,0,0,0,0,0,0,0,0,0],"id":9,"left_children":[1,3,5,7,9,-1,-1,-1,-1,-1,11,-1,-1],"loss_changes":[1.7059417E0,4.4947833E-1,1.2886693E0,2.670634E-1,3.1469935E-1,0E0,0E0,0E0,0E0,0E0,2.51315E-1,0E0,0E0],"parents":[2147483647,0,0,1,1,2,2,3,3,4,4,10,10],"right_children":[2,4,6,8,10,-1,-1,-1,-1,-1,12,-1,-1],"split_conditions":[3.0336022E0,-1.637565E0,-4.9020196E-3,1.495116E0,1.3610215E0,4.29408E-2,-0E0,2.8492743E-2,-0E0,-2.0897572E-3,4.1807267E-1,1.0147902E-2,-0E0],"split_indices":[8,2,0,0,8,0,0,0,0,0,1,0,0],"split_type":[0,0,0,0,0,0,0,0,0,0,0,0,0],"sum_hessian":[1.72E2,1.67E2,5E0,2E0,1.65E2,3E0,2E0,1E0,1E0,1.51E2,1.4E1,9E0,5E0],"tree_param":{"num_deleted":"0","num_feature":"10","num_nodes":"13","size_leaf_vector":"1"}},{"base_weights":[-0E0,-2.9441293E-2,2.4268118E-1,3.0455634E-2,-1.9752018E-3,4.6051505E-1,1.741568E-2,-0E0,1.2464351E-1,4.4682465E-2,4.220676E-2,1.1046191E-1,-5.3537695E-4,1.282718E-2,-0E0,4.967117E-3,-0E0,9.627525E-3,-0E0],"categories":[],"categories_nodes":[],"categories_segments":[],"categories_sizes":[],"default_left":[0,0,0,0,0,0,0,0,0,0,0,0,0,0,0,0,0,0,0],"id":10,"left_children":[1,3,5,7,-1,9,11,-1,13,15,-1,17,-1,-1,-1,-1,-1,-1,-1],"loss_changes":[1.3139691E0,1.00355536E-1,7.3442364E-1,9.39113E-2,0E0,9.535687E-1,8.2461074E-2,0E0,1.5450649E-1,3.7365366E-2,0E0,9.9965625E-2,0E0,0E0,0E0,0E0,0E0,0E0,0E0],"parents":[2147483647,0,0,1,1,2,2,3,3,5,5,6,6,8,8,9,9,11,11],"right_children":[2,4,6,8,-1,10,12,-1,14,16,-1,18,-1,-1,-1,-1,-1,-1,-1],"split_conditions":[1.3610215E0,-1.1325969E0,-4.9020196E-3,9.9511E-1,-1.9752018E-3,1.6366489E0,2.900172E0,-0E0,1.495116E0,2.900172E0,4.220676E-2,2.673532E0,-5.3537695E-4,1.282718E-2,-0E0,4.967117E-3,-0E0,9.627525E-3,-0E0],"split_indices":[8,1,0,0,0,9,6,0,0,6,0,9,0,0,0,0,0,0,0],"split_type":[0,0,0,0,0,0,0,0,0,0,0,0,0,0,0,0,0,0,0],"sum_hessian":[1.75E2,1.56E2,1.9E1,1.5E1,1.41E2,8E0,1.1E1,9E0,6E0,5E0,3E0,6E0,5E0,3E0,3E0,4E0,1E0,4E0,2E0],"tree_param":{"num_deleted":"0","num_feature":"10","num_nodes":"19","size_leaf_vector":"1"}},{"base_weights":[2.4698996E-3,-5.989603E-3,6.0256773E-1,-2.5777182E-2,1.0964725E-1,4.960602E-2,-0E0,2.805054E-2,-1.8407047E-3,2.0760883E-1,-8.258355E-4,-0E0,5.9573078E-3,1.4518174E-2,1.1883597E-3],"categories":[],"categories_nodes":[],"categories_segments":[],"categories_sizes":[],"default_left":[0,0,0,0,0,0,0,0,0,0,0,0,0,0,0],"id":11,"left_children":[1,3,5,7,9,-1,-1,11,-1,13,-1,-1,-1,-1,-1],"loss_changes":[1.0938368E0,3.1327006E-1,8.793421E-1,8.621093E-2,3.3380026E-1,0E0,0E0,8.678131E-2,0E0,3.3812344E-2,0E0,0E0,0E0,0E0,0E0],"parents":[2147483647,0,0,1,1,2,2,3,3,4,4,7,7,9,9],"right_children":[2,4,6,8,10,-1,-1,12,-1,14,-1,-1,-1,-1,-1],"split_conditions":[6.3787637E0,1.3610215E0,-4.9020196E-3,-1.1325969E0,4.9510399E-1,4.960602E-2,-0E0,9.9511E-1,-1.8407047E-3,2.900172E0,-8.258355E-4,-0E0,5.9573078E-3,1.4518174E-2,1.1883597E-3],"split_indices":[8,8,0,1,0,0,0,0,0,6,0,0,0,0,0],"split_type":[0,0,0,0,0,0,0,0,0,0,0,0,0,0,0],"sum_hessian":[1.55E2,1.53E2,2E0,1.35E2,1.8E1,1E0,1E0,1.5E1,1.2E2,1.2E1,6E0,9E0,6E0,6E0,6E0],"tree_param":{"num_deleted":"0","num_feature":"10","num_nodes":"15","size_leaf_vector":"1"}},{"base_weights":[1.100555E-2,-0E0,4.836587E-2,-2.5294641E-2,1.7125285E-1,4.2503316E-2,-1.7707316E-3,1.6662084E-2,7.4719144E-3,-0E0,8.952363E-3,3.65173E-3,-0E0],"categories":[],"categories_nodes":[],"categories_segments":[],"categories_sizes":[],"default_left":[0,0,0,0,0,0,0,0,0,0,0,0,0],"id":12,"left_children":[1,3,-1,5,7,9,-1,-1,11,-1,-1,-1,-1],"loss_changes":[1.8511783E0,7.092919E-1,0E0,9.813366E-2,3.842975E-1,1.368047E-1,0E0,0E0,4.1946642E-2,0E0,0E0,0E0,0E0],"parents":[2147483647,0,0,1,1,3,3,4,4,5,5,8,8],"right_children":[2,4,-1,6,8,10,-1,-1,12,-1,-1,-1,-1],"split_conditions":[6.3787637E0,1.3610215E0,4.836587E-2,-1.1325969E0,-4.9020196E-3,9.9511E-1,-1.7707316E-3,1.6662084E-2,2.900172E0,-0E0,8.952363E-3,3.65173E-3,-0E0],"split_indices":[8,8,0,1,0,0,0,0,6,0,0,0,0],"split_type":[0,0,0,0,0,0,0,0,0,0,0,0,0],"sum_hessian":[1.66E2,1.65E2,1E0,1.45E2,2E1,1.2E1,1.33E2,8E0,1.2E1,8E0,4E0,7E0,5E0],"tree_param":{"num_deleted":"0","num_feature":"10","num_nodes":"13","size_leaf_vector":"1"}},{"base_weights":[-0E0,-2.3765821E-2,1.6644451E-1,3.3331433E-1,-1.7331766E-3,1.624312E-2,5.505598E-3,2.7087003E-2,-0E0,7.181053E-2,-2.426232E-5,9.526092E-3,-0E0],"categories":[],"categories_nodes":[],"categories_segments":[],"categories_sizes":[],"default_left":[0,0,0,0,0,0,0,0,0,0,0,0,0],"id":13,"left_children":[1,3,5,7,-1,-1,9,-1,-1,11,-1,-1,-1],"loss_changes":[6.631125E-1,4.225836E-1,3.684352E-1,2.536693E-1,0E0,0E0,4.0861383E-2,0E0,0E0,1.4023882E-1,0E0,0E0,0E0],"parents":[2147483647,0,0,1,1,2,2,3,3,6,6,9,9],"right_children":[2,4,6,8,-1,-1,10,-1,-1,12,-1,-1,-1],"split_conditions":[1.3610215E0,-1.637565E0,-4.9020196E-3,1.495116E0,-1.7331766E-3,1.624312E-2,1.4442252E-1,2.7087003E-2,-0E0,9.9511E-1,-2.426232E-5,9.526092E-3,-0E0],"split_indices":[8,2,0,0,0,0,2,0,0,0,0,0,0],"split_type":[0,0,0,0,0,0,0,0,0,0,0,0,0],"sum_hessian":[1.63E2,1.43E2,2E1,2E0,1.41E2,8E0,1.2E1,1E0,1E0,7E0,5E0,4E0,3E0],"tree_param":{"num_deleted":"0","num_feature":"10","num_nodes":"13","size_leaf_vector":"1"}},{"base_weights":[1.28327515E-2,-2.1866724E-2,2.8008744E-1,3.2428533E-1,-1.6428251E-3,4.1901344E-1,-0E0,2.6409829E-2,-0E0,-0E0,4.746421E-1,2.5404522E-2,-0E0,2.6955158E-2,-0E0,8.440115E-3,-0E0],"categories":[],"categories_nodes":[],"categories_segments":[],"categories_sizes":[],"default_left":[0,0,0,0,0,0,0,0,0,0,0,0,0,0,0,0,0],"id":14,"left_children":[1,3,5,7,-1,9,11,-1,-1,-1,13,15,-1,-1,-1,-1,-1],"loss_changes":[1.6097369E0,3.975193E-1,7.1345973E-1,2.4250028E-1,0E0,4.2098212E-1,2.581559E-3,0E0,0E0,0E0,4.935329E-1,5.4406866E-2,0E0,0E0,0E0,0E0,0E0],"parents":[2147483647,0,0,1,1,2,2,3,3,5,5,6,6,10,10,11,11],"right_children":[2,4,6,8,-1,10,12,-1,-1,-1,14,16,-1,-1,-1,-1,-1],"split_conditions":[1.3610215E0,-1.637565E0,4.9510399E-1,1.495116E0,-1.6428251E-3,-1.5187658E0,1.6366489E0,2.6409829E-2,-0E0,-0E0,6.014041E0,9.9511E-1,-0E0,2.6955158E-2,-0E0,8.440115E-3,-0E0],"split_indices":[8,2,0,0,0,2,9,0,0,0,6,0,0,0,0,0,0],"split_type":[0,0,0,0,0,0,0,0,0,0,0,0,0,0,0,0,0],"sum_hessian":[1.58E2,1.39E2,1.9E1,2E0,1.37E2,1.2E1,7E0,1E0,1E0,1E0,1.1E1,3E0,4E0,1E1,1E0,1E0,2E0],"tree_param":{"num_deleted":"0","num_feature":"10","num_nodes":"17","size_leaf_vector":"1"}},{"base_weights":[-0E0,-1.8755544E-2,5.1896736E-2,2.6094032E-2,-1.4439123E-3,9.9573396E-2,-7.030377E-4,-0E0,1.0065317E-1,1.4083515E-1,-9.46521E-5,1.120274E-2,-0E0,9.683849E-3,1.2465891E-3],"categories":[],"categories_nodes":[],"categories_segments":[],"categories_sizes":[],"default_left":[0,0,0,0,0,0,0,0,0,0,0,0,0,0,0],"id":15,"left_children":[1,3,5,7,-1,9,-1,-1,11,13,-1,-1,-1,-1,-1],"loss_changes":[1.4467764E-1,6.025752E-2,1.6050781E-1,6.0703956E-2,0E0,1.7859143E-1,0E0,0E0,1.2988475E-1,2.0606905E-2,0E0,0E0,0E0,0E0,0E0],"parents":[2147483647,0,0,1,1,2,2,3,3,5,5,8,8,9,9],"right_children":[2,4,6,8,-1,10,-1,-1,12,14,-1,-1,-1,-1,-1],"split_conditions":[5.997657E-1,-1.1325969E0,9.9511E-1,9.9511E-1,-1.4439123E-3,3.7104151E0,-7.030377E-4,-0E0,1.495116E0,4.1807267E-1,-9.46521E-5,1.120274E-2,-0E0,9.683849E-3,1.2465891E-3],"split_indices":[9,1,0,0,0,9,0,0,0,1,0,0,0,0,0],"split_type":[0,0,0,0,0,0,0,0,0,0,0,0,0,0,0],"sum_hessian":[1.63E2,1.27E2,3.6E1,1.4E1,1.13E2,2.5E1,1.1E1,8E0,6E0,2.1E1,4E0,3E0,3E0,1.1E1,1E1],"tree_param":{"num_deleted":"0","num_feature":"10","num_nodes":"15","size_leaf_vector":"1"}},{"base_weights":[-0E0,3.117478E-1,-8.105539E-3,2.5469512E-2,-0E0,-1.4378991E-3,4.018001E-2,7.569297E-2,-2.1826122E-4,5.000535E-3,-0E0],"categories":[],"categories_nodes":[],"categories_segments":[],"categories_sizes":[],"default_left":[0,0,0,0,0,0,0,0,0,0,0],"id":16,"left_children":[1,3,5,-1,-1,-1,7,9,-1,-1,-1],"loss_changes":[3.0161208E-1,2.2739682E-1,1.480183E-1,0E0,0E0,0E0,9.768966E-2,8.9629576E-2,0E0,0E0,0E0],"parents":[2147483647,0,0,1,1,2,2,6,6,7,7],"right_children":[2,4,6,-1,-1,-1,8,10,-1,-1,-1],"split_conditions":[-1.637565E0,2.900172E0,5.997657E-1,2.5469512E-2,-0E0,-1.4378991E-3,1.567682E0,3.7104151E0,-2.1826122E-4,5.000535E-3,-0E0],"split_indices":[2,6,9,0,0,0,3,9,0,0,0],"split_type":[0,0,0,0,0,0,0,0,0,0,0],"sum_hessian":[1.54E2,2E0,1.52E2,1E0,1E0,1.14E2,3.8E1,2.7E1,1.1E1,2.4E1,3E0],"tree_param":{"num_deleted":"0","num_feature":"10","num_nodes":"11","size_leaf_vector":"1"}},{"base_weights":[8.987307E-3,-1.8951593E-2,2.186282E-1,3.0325794E-1,-1.4721004E-3,4.8073158E-1,-0E0,2.4832774E-2,-0E0,-0E0,2.8585479E-2,5.850027E-2,-1.6949511E-3,8.072801E-3,-0E0],"categories":[],"categories_nodes":[],"categories_segments":[],"categories_sizes":[],"default_left":[0,0,0,0,0,0,0,0,0,0,0,0,0,0,0],"id":17,"left_children":[1,3,5,7,-1,9,11,-1,-1,-1,-1,13,-1,-1,-1],"loss_changes":[1.0411235E0,3.452361E-1,1.0761614E0,2.1743718E-1,0E0,5.348892E-1,3.4273118E-2,0E0,0E0,0E0,0E0,1.02961965E-1,0E0,0E0,0E0],"parents":[2147483647,0,0,1,1,2,2,3,3,5,5,6,6,11,11],"right_children":[2,4,6,8,-1,10,12,-1,-1,-1,-1,14,-1,-1,-1],"split_conditions":[1.3610215E0,-1.637565E0,-4.9020196E-3,1.495116E0,-1.4721004E-3,-1.5187658E0,2.900172E0,2.4832774E-2,-0E0,-0E0,2.8585479E-2,1.4442252E-1,-1.6949511E-3,8.072801E-3,-0E0],"split_indices":[8,2,0,0,0,2,6,0,0,0,0,2,0,0,0],"split_type":[0,0,0,0,0,0,0,0,0,0,0,0,0,0,0],"sum_hessian":[1.59E2,1.39E2,2E1,2E0,1.37E2,8E0,1.2E1,1E0,1E0,1E0,7E0,7E0,5E0,4E0,3E0],"tree_param":{"num_deleted":"0","num_feature":"10","num_nodes":"15","size_leaf_vector":"1"}},{"base_weights":[1.025665E-2,-0E0,3.4061944E-1,2.9498035E-1,-7.711031E-3,3.871384E-2,-0E0,2.4211956E-2,-0E0,-1.319422E-3,5.6814775E-2,6.6484897E-3,-0E0],"categories":[],"categories_nodes":[],"categories_segments":[],"categories_sizes":[],"default_left":[0,0,0,0,0,0,0,0,0,0,0,0,0],"id":18,"left_children":[1,3,5,7,9,-1,-1,-1,-1,-1,11,-1,-1],"loss_changes":[6.786666E-1,2.7049437E-1,1.1023839E0,2.0793477E-1,1.7790888E-1,0E0,0E0,0E0,0E0,0E0,1.6837698E-1,0E0,0E0],"parents":[2147483647,0,0,1,1,2,2,3,3,4,4,10,10],"right_children":[2,4,6,8,10,-1,-1,-1,-1,-1,12,-1,-1],"split_conditions":[3.7104151E0,-1.637565E0,-4.9020196E-3,1.495116E0,5.997657E-1,3.871384E-2,-0E0,2.4211956E-2,-0E0,-1.319422E-3,-4.9020196E-3,6.6484897E-3,-0E0],"split_indices":[9,2,0,0,9,0,0,0,0,0,0,0,0],"split_type":[0,0,0,0,0,0,0,0,0,0,0,0,0],"sum_hessian":[1.65E2,1.6E2,5E0,2E0,1.58E2,2E0,3E0,1E0,1E0,1.29E2,2.9E1,1.4E1,1.5E1],"tree_param":{"num_deleted":"0","num_feature":"10","num_nodes":"13","size_leaf_vector":"1"}},{"base_weights":[-0E0,-1.8328073E-2,1.3442768E-1,2.8690973E-1,-1.3949603E-3,2.4881956E-1,-0E0,2.3606658E-2,-0E0,3.4463176E-1,-0E0,-1.8864146E-3,-0E0,2.4298834E-2,-0E0],"categories":[],"categories_nodes":[],"categories_segments":[],"categories_sizes":[],"default_left":[0,0,0,0,0,0,0,0,0,0,0,0,0,0,0],"id":19,"left_children":[1,3,5,7,-1,9,11,-1,-1,13,-1,-1,-1,-1,-1],"loss_changes":[3.5691953E-1,3.1087705E-1,3.7381926E-1,1.9886786E-1,0E0,3.8791668E-1,7.11712E-3,0E0,0E0,5.842737E-1,0E0,0E0,0E0,0E0,0E0],"parents":[2147483647,0,0,1,1,2,2,3,3,5,5,6,6,9,9],"right_children":[2,4,6,8,-1,10,12,-1,-1,14,-1,-1,-1,-1,-1],"split_conditions":[1.3610215E0,-1.637565E0,2.900172E0,1.495116E0,-1.3949603E-3,3.0336022E0,4.706183E0,2.3606658E-2,-0E0,9.9511E-1,-0E0,-1.8864146E-3,-0E0,2.4298834E-2,-0E0],"split_indices":[8,2,6,0,0,8,8,0,0,0,0,0,0,0,0],"split_type":[0,0,0,0,0,0,0,0,0,0,0,0,0,0,0],"sum_hessian":[1.63E2,1.47E2,1.6E1,2E0,1.45E2,1E1,6E0,1E0,1E0,8E0,2E0,4E0,2E0,6E0,2E0],"tree_param":{"num_deleted":"0","num_feature":"10","num_nodes":"15","size_leaf_vector":"1"}},{"base_weights":[-0E0,-8.9130085E-3,5.144087E-1,2.790408E-1,-1.7328838E-2,4.439665E-2,-0E0,2.3016488E-2,-0E0,-1.345223E-3,3.595317E-2,7.385436E-3,-0E0],"categories":[],"categories_nodes":[],"categories_segments":[],"categories_sizes":[],"default_left":[0,0,0,0,0,0,0,0,0,0,0,0,0],"id":20,"left_children":[1,3,5,7,9,-1,-1,-1,-1,-1,11,-1,-1],"loss_changes":[8.06798E-1,2.689888E-1,7.8300107E-1,1.9021568E-1,7.85865E-2,0E0,0E0,0E0,0E0,0E0,1.3075031E-1,0E0,0E0],"parents":[2147483647,0,0,1,1,2,2,3,3,4,4,10,10],"right_children":[2,4,6,8,10,-1,-1,-1,-1,-1,12,-1,-1],"split_conditions":[6.3787637E0,-1.637565E0,-4.9020196E-3,1.495116E0,1.3610215E0,4.439665E-2,-0E0,2.3016488E-2,-0E0,-1.345223E-3,-4.9020196E-3,7.385436E-3,-0E0],"split_indices":[8,2,0,0,8,0,0,0,0,0,0,0,0],"split_type":[0,0,0,0,0,0,0,0,0,0,0,0,0],"sum_hessian":[1.64E2,1.62E2,2E0,2E0,1.6E2,1E0,1E0,1E0,1E0,1.44E2,1.6E1,6E0,1E1],"tree_param":{"num_deleted":"0","num_feature":"10","num_nodes":"13","size_leaf_vector":"1"}},{"base_weights":[2.8221E-3,-1.4822449E-2,1.4854616E-1,2.7136865E-1,-1.2388079E-3,2.6054448E-1,-0E0,2.2441078E-2,-0E0,-0E0,1.588113E-2,8.887941E-2,-1.3983173E-3,-0E0,1.1060175E-2],"categories":[],"categories_nodes":[],"categories_segments":[],"categories_sizes":[],"default_left":[0,0,0,0,0,0,0,0,0,0,0,0,0,0,0],"id":21,"left_children":[1,3,5,7,-1,9,11,-1,-1,-1,-1,13,-1,-1,-1],"loss_changes":[4.701763E-1,2.736941E-1,2.3751503E-1,1.8195872E-1,0E0,2.2912276E-1,5.2089997E-2,0E0,0E0,0E0,0E0,1.4832664E-1,0E0,0E0,0E0],"parents":[2147483647,0,0,1,1,2,2,3,3,5,5,6,6,11,11],"right_children":[2,4,6,8,-1,10,12,-1,-1,-1,-1,14,-1,-1,-1],"split_conditions":[1.3610215E0,-1.637565E0,-4.9020196E-3,1.495116E0,-1.2388079E-3,-1.5187658E0,1.4442252E-1,2.2441078E-2,-0E0,-0E0,1.588113E-2,-6.1570704E-1,-1.3983173E-3,-0E0,1.1060175E-2],"split_indices":[8,2,0,0,0,2,2,0,0,0,0,1,0,0,0],"split_type":[0,0,0,0,0,0,0,0,0,0,0,0,0,0,0],"sum_hessian":[1.55E2,1.36E2,1.9E1,2E0,1.34E2,9E0,1E1,1E0,1E0,1E0,8E0,5E0,5E0,2E0,3E0],"tree_param":{"num_deleted":"0","num_feature":"10","num_nodes":"15","size_leaf_vector":"1"}},{"base_weights":[3.2422913E-3,-2.5699923E-3,4.9431607E-1,-1.412751E-2,6.2493037E-2,4.2889703E-2,-0E0,2.996215E-2,-1.090085E-3,1.3356504E-1,-1.5211893E-3,-0E0,5.0505465E-3,1.063483E-2,-0E0],"categories":[],"categories_nodes":[],"categories_segments":[],"categories_sizes":[],"default_left":[0,0,0,0,0,0,0,0,0,0,0,0,0,0,0],"id":22,"left_children":[1,3,5,7,9,-1,-1,11,-1,13,-1,-1,-1,-1,-1],"loss_changes":[7.3236763E-1,1.0303058E-1,7.385761E-1,4.7325853E-2,1.8110609E-1,0E0,0E0,4.9548745E-2,0E0,1.12164095E-1,0E0,0E0,0E0,0E0,0E0],"parents":[2147483647,0,0,1,1,2,2,3,3,4,4,7,7,9,9],"right_children":[2,4,6,8,10,-1,-1,12,-1,14,-1,-1,-1,-1,-1],"split_conditions":[6.3787637E0,1.3610215E0,-4.9020196E-3,-1.1325969E0,4.9510399E-1,4.2889703E-2,-0E0,9.9511E-1,-1.090085E-3,2.900172E0,-1.5211893E-3,-0E0,5.0505465E-3,1.063483E-2,-0E0],"split_indices":[8,8,0,1,0,0,0,0,0,6,0,0,0,0,0],"split_type":[0,0,0,0,0,0,0,0,0,0,0,0,0,0,0],"sum_hessian":[1.69E2,1.67E2,2E0,1.49E2,1.8E1,1E0,1E0,1.2E1,1.37E2,1.3E1,5E0,7E0,5E0,7E0,6E0],"tree_param":{"num_deleted":"0","num_feature":"10","num_nodes":"15","size_leaf_vector":"1"}},{"base_weights":[7.2067096E-3,-0E0,4.8001954E-1,2.605213E-1,-6.413139E-3,4.1817464E-2,-0E0,2.1753788E-2,-0E0,-1.1470427E-3,7.632746E-2,6.669751E-3,-0E0],"categories":[],"categories_nodes":[],"categories_segments":[],"categories_sizes":[],"default_left":[0,0,0,0,0,0,0,0,0,0,0,0,0],"id":23,"left_children":[1,3,5,7,9,-1,-1,-1,-1,-1,11,-1,-1],"loss_changes":[6.8268675E-1,2.1023567E-1,7.077038E-1,1.7496781E-1,1.952273E-1,0E0,0E0,0E0,0E0,0E0,1.2094982E-1,0E0,0E0],"parents":[2147483647,0,0,1,1,2,2,3,3,4,4,10,10],"right_children":[2,4,6,8,10,-1,-1,-1,-1,-1,12,-1,-1],"split_conditions":[6.3787637E0,-1.637565E0,-4.9020196E-3,1.495116E0,1.3610215E0,4.1817464E-2,-0E0,2.1753788E-2,-0E0,-1.1470427E-3,4.9510399E-1,6.669751E-3,-0E0],"split_indices":[8,2,0,0,8,0,0,0,0,0,0,0,0],"split_type":[0,0,0,0,0,0,0,0,0,0,0,0,0],"sum_hessian":[1.64E2,1.62E2,2E0,2E0,1.6E2,1E0,1E0,1E0,1E0,1.39E2,2.1E1,1.3E1,8E0],"tree_param":{"num_deleted":"0","num_feature":"10","num_nodes":"13","size_leaf_vector":"1"}},{"base_weights":[-0E0,-1.373297E-2,1.029309E-1,-1.0229419E-3,-0E0,1.3857781E-2,-0E0,5.7329466E-3,-3.2168042E-4,-0E0,-2.5232052E-3,9.7367784E-4,-0E0,4.6419087E-3,-0E0],"categories":[],"categories_nodes":[],"categories_segments":[],"categories_sizes":[],"default_left":[0,0,0,0,0,0,0,0,0,0,0,0,0,0,0],"id":24,"left_children":[1,3,5,-1,7,-1,9,11,-1,13,-1,-1,-1,-1,-1],"loss_changes":[2.0896605E-1,1.4257142E-2,4.344107E-1,0E0,1.9136583E-3,0E0,1.7826382E-2,6.284902E-3,0E0,1.7237851E-2,0E0,0E0,0E0,0E0,0E0],"parents":[2147483647,0,0,1,1,2,2,4,4,6,6,7,7,9,9],"right_children":[2,4,6,-1,8,-1,10,12,-1,14,-1,-1,-1,-1,-1],"split_conditions":[1.3610215E0,9.9511E-1,-4.9020196E-3,-1.0229419E-3,1.495116E0,1.3857781E-2,2.900172E0,1.5310984E0,-3.2168042E-4,4.9510399E-1,-2.5232052E-3,9.7367784E-4,-0E0,4.6419087E-3,-0E0],"split_indices":[8,0,0,0,0,0,6,4,0,0,0,0,0,0,0],"split_type":[0,0,0,0,0,0,0,0,0,0,0,0,0,0,0],"sum_hessian":[1.68E2,1.52E2,1.6E1,1.02E2,5E1,7E0,9E0,2.7E1,2.3E1,3E0,6E0,1.8E1,9E0,1E0,2E0],"tree_param":{"num_deleted":"0","num_feature":"10","num_nodes":"15","size_leaf_vector":"1"}},{"base_weights":[1.9522711E-3,-3.5322136E-3,4.6230218E-1,2.5305268E-1,-1.1495877E-2,4.042558E-2,-0E0,2.1185601E-2,-0E0,-1.0534379E-3,3.688441E-2,-2.3405987E-3,6.215013E-3],"categories":[],"categories_nodes":[],"categories_segments":[],"categories_sizes":[],"default_left":[0,0,0,0,0,0,0,0,0,0,0,0,0],"id":25,"left_children":[1,3,5,7,9,-1,-1,-1,-1,-1,11,-1,-1],"loss_changes":[6.4255744E-1,2.1111093E-1,6.6621214E-1,1.6695677E-1,6.6508345E-2,0E0,0E0,0E0,0E0,0E0,1.7625792E-1,0E0,0E0],"parents":[2147483647,0,0,1,1,2,2,3,3,4,4,10,10],"right_children":[2,4,6,8,10,-1,-1,-1,-1,-1,12,-1,-1],"split_conditions":[6.3787637E0,-1.637565E0,-4.9020196E-3,1.495116E0,1.3610215E0,4.042558E-2,-0E0,2.1185601E-2,-0E0,-1.0534379E-3,-2.11975E-1,-2.3405987E-3,6.215013E-3],"split_indices":[8,2,0,0,8,0,0,0,0,0,2,0,0],"split_type":[0,0,0,0,0,0,0,0,0,0,0,0,0],"sum_hessian":[1.62E2,1.6E2,2E0,2E0,1.58E2,1E0,1E0,1E0,1E0,1.41E2,1.7E1,6E0,1.1E1],"tree_param":{"num_deleted":"0","num_feature":"10","num_nodes":"13","size_leaf_vector":"1"}},{"base_weights":[1.1388847E-2,-9.994401E-3,1.6772972E-1,2.459908E-1,-9.622058E-4,3.7265438E-1,-0E0,2.065596E-2,-0E0,-0E0,4.4539157E-1,2.068289E-2,-1.6829403E-3,3.2560404E-2,7.530766E-3,-0E0,4.2551304E-3],"categories":[],"categories_nodes":[],"categories_segments":[],"categories_sizes":[],"default_left":[0,0,0,0,0,0,0,0,0,0,0,0,0,0,0,0,0],"id":26,"left_children":[1,3,5,7,-1,9,11,-1,-1,-1,13,15,-1,-1,-1,-1,-1],"loss_changes":[6.1209303E-1,2.1811557E-1,7.6978105E-1,1.5980051E-1,0E0,3.9664996E-1,1.0219747E-2,0E0,0E0,0E0,4.703474E-2,4.003246E-2,0E0,0E0,0E0,0E0,0E0],"parents":[2147483647,0,0,1,1,2,2,3,3,5,5,6,6,10,10,11,11],"right_children":[2,4,6,8,-1,10,12,-1,-1,-1,14,16,-1,-1,-1,-1,-1],"split_conditions":[1.3610215E0,-1.637565E0,-4.9020196E-3,1.495116E0,-9.622058E-4,-1.5187658E0,4.1807267E-1,2.065596E-2,-0E0,-0E0,-9.881718E-2,-6.1570704E-1,-1.6829403E-3,3.2560404E-2,7.530766E-3,-0E0,4.2551304E-3],"split_indices":[8,2,0,0,0,2,1,0,0,0,1,1,0,0,0,0,0],"split_type":[0,0,0,0,0,0,0,0,0,0,0,0,0,0,0,0,0],"sum_hessian":[1.58E2,1.37E2,2.1E1,2E0,1.35E2,9E0,1.2E1,1E0,1E0,1E0,8E0,7E0,5E0,3E0,5E0,2E0,5E0],"tree_param":{"num_deleted":"0","num_feature":"10","num_nodes":"17","size_leaf_vector":"1"}},{"base_weights":[4.7140336E-3,-2.674841E-3,4.314794E-1,-1.0635439E-2,3.737477E-2,3.260057E-2,-0E0,-8.818195E-4,-0E0,1.1070946E-1,-1.6095206E-3,7.4207754E-4,-7.0685695E-5,1.21315075E-2,-0E0],"categories":[],"categories_nodes":[],"categories_segments":[],"categories_sizes":[],"default_left":[0,0,0,0,0,0,0,0,0,0,0,0,0,0,0],"id":27,"left_children":[1,3,5,7,9,-1,-1,-1,11,13,-1,-1,-1,-1,-1],"loss_changes":[7.4216014E-1,3.931412E-2,5.306588E-1,1.622982E-2,1.295495E-1,0E0,0E0,0E0,4.889945E-3,2.6500675E-1,0E0,0E0,0E0,0E0,0E0],"parents":[2147483647,0,0,1,1,2,2,3,3,4,4,8,8,9,9],"right_children":[2,4,6,8,10,-1,-1,-1,12,14,-1,-1,-1,-1,-1],"split_conditions":[4.706183E0,1.3610215E0,-4.9020196E-3,9.9511E-1,4.9510399E-1,3.260057E-2,-0E0,-8.818195E-4,1.495116E0,2.900172E0,-1.6095206E-3,7.4207754E-4,-7.0685695E-5,1.21315075E-2,-0E0],"split_indices":[8,8,0,0,0,0,0,0,0,6,0,0,0,0,0],"split_type":[0,0,0,0,0,0,0,0,0,0,0,0,0,0,0],"sum_hessian":[1.66E2,1.63E2,3E0,1.47E2,1.6E1,2E0,1E0,1.05E2,4.2E1,1.1E1,5E0,2.1E1,2.1E1,6E0,5E0],"tree_param":{"num_deleted":"0","num_feature":"10","num_nodes":"15","size_leaf_vector":"1"}},{"base_weights":[3.0109216E-4,-4.430531E-3,4.2710668E-1,2.3888168E-1,-1.1948973E-2,3.7785918E-2,-0E0,2.0121008E-2,-0E0,-9.3875994E-4,1.630536E-2,3.1160086E-3,-0E0],"categories":[],"categories_nodes":[],"categories_segments":[],"categories_sizes":[],"default_left":[0,0,0,0,0,0,0,0,0,0,0,0,0],"id":28,"left_children":[1,3,5,7,9,-1,-1,-1,-1,-1,11,-1,-1],"loss_changes":[5.5048406E-1,1.9122729E-1,5.9496015E-1,1.5269062E-1,3.297894E-2,0E0,0E0,0E0,0E0,0E0,4.1820083E-2,0E0,0E0],"parents":[2147483647,0,0,1,1,2,2,3,3,4,4,10,10],"right_children":[2,4,6,8,10,-1,-1,-1,-1,-1,12,-1,-1],"split_conditions":[6.3787637E0,-1.637565E0,-4.9020196E-3,1.495116E0,1.3610215E0,3.7785918E-2,-0E0,2.0121008E-2,-0E0,-9.3875994E-4,2.900172E0,3.1160086E-3,-0E0],"split_indices":[8,2,0,0,8,0,0,0,0,0,6,0,0],"split_type":[0,0,0,0,0,0,0,0,0,0,0,0,0],"sum_hessian":[1.66E2,1.64E2,2E0,2E0,1.62E2,1E0,1E0,1E0,1E0,1.45E2,1.7E1,1.1E1,6E0],"tree_param":{"num_deleted":"0","num_feature":"10","num_nodes":"13","size_leaf_vector":"1"}},{"base_weights":[8.935277E-3,-1.0013768E-2,1.7127898E-1,2.3217468E-1,-9.008699E-4,2.2417423E-1,-0E0,1.9617984E-2,-0E0,-0E0,2.5484493E-1,1.4257751E-2,-0E0],"categories":[],"categories_nodes":[],"categories_segments":[],"categories_sizes":[],"default_left":[0,0,0,0,0,0,0,0,0,0,0,0,0],"id":29,"left_children":[1,3,5,7,-1,9,-1,-1,-1,-1,11,-1,-1],"loss_changes":[6.176167E-1,1.9561607E-1,2.8850716E-1,1.4617698E-1,0E0,1.995076E-1,0E0,0E0,0E0,0E0,1.9693327E-1,0E0,0E0],"parents":[2147483647,0,0,1,1,2,2,3,3,5,5,10,10],"right_children":[2,4,6,8,-1,10,-1,-1,-1,-1,12,-1,-1],"split_conditions":[1.3610215E0,-1.637565E0,1.567682E0,2.900172E0,-9.008699E-4,-1.5187658E0,-0E0,1.9617984E-2,-0E0,-0E0,6.014041E0,1.4257751E-2,-0E0],"split_indices":[8,2,3,6,0,2,0,0,0,0,6,0,0],"split_type":[0,0,0,0,0,0,0,0,0,0,0,0,0],"sum_hessian":[1.73E2,1.53E2,2E1,2E0,1.51E2,1.7E1,3E0,1E0,1E0,1E0,1.6E1,1.5E1,1E0],"tree_param":{"num_deleted":"0","num_feature":"10","num_nodes":"13","size_leaf_vector":"1"}},{"base_weights":[8.958349E-3,-0E0,3.6484823E-2,2.2563538E-1,-4.2255507E-3,1.9127537E-2,-0E0,-8.179635E-4,5.652844E-2,-0E0,5.4561794E-3],"categories":[],"categories_nodes":[],"categories_segments":[],"categories_sizes":[],"default_left":[0,0,0,0,0,0,0,0,0,0,0],"id":30,"left_children":[1,3,-1,5,7,-1,-1,-1,9,-1,-1],"loss_changes":[1.0518328E0,1.5559082E-1,0E0,1.3995613E-1,9.878767E-2,0E0,0E0,0E0,6.707823E-2,0E0,0E0],"parents":[2147483647,0,0,1,1,3,3,4,4,8,8],"right_children":[2,4,-1,6,8,-1,-1,-1,10,-1,-1],"split_conditions":[6.3787637E0,-1.637565E0,3.6484823E-2,1.495116E0,1.3610215E0,1.9127537E-2,-0E0,-8.179635E-4,-2.11975E-1,-0E0,5.4561794E-3],"split_indices":[8,2,0,0,8,0,0,0,2,0,0],"split_type":[0,0,0,0,0,0,0,0,0,0,0],"sum_hessian":[1.62E2,1.61E2,1E0,2E0,1.59E2,1E0,1E0,1.4E2,1.9E1,9E0,1E1],"tree_param":{"num_deleted":"0","num_feature":"10","num_nodes":"11","size_leaf_vector":"1"}},{"base_weights":[5.1213655E-4,-3.3883534E-3,3.8543552E-1,2.192595E-1,-1.0403746E-2,3.5572704E-2,-0E0,1.8649345E-2,-0E0,-0E0,-2.7240783E-2,-6.7355315E-4,5.307508E-3,-6.2169036E-4,-3.8621488E-3],"categories":[],"categories_nodes":[],"categories_segments":[],"categories_sizes":[],"default_left":[0,0,0,0,0,0,0,0,0,0,0,0,0,0,0],"id":31,"left_children":[1,3,5,7,9,-1,-1,-1,-1,11,13,-1,-1,-1,-1],"loss_changes":[4.4756582E-1,1.602629E-1,5.6665206E-1,1.3401428E-1,3.6944963E-2,0E0,0E0,0E0,0E0,1.6118118E-1,8.989401E-3,0E0,0E0,0E0,0E0],"parents":[2147483647,0,0,1,1,2,2,3,3,4,4,9,9,10,10],"right_children":[2,4,6,8,10,-1,-1,-1,-1,12,14,-1,-1,-1,-1],"split_conditions":[6.3787637E0,-1.637565E0,-4.9020196E-3,1.495116E0,4.9510399E-1,3.5572704E-2,-0E0,1.8649345E-2,-0E0,1.3610215E0,1.3610215E0,-6.7355315E-4,5.307508E-3,-6.2169036E-4,-3.8621488E-3],"split_indices":[8,2,0,0,0,0,0,0,0,8,8,0,0,0,0],"split_type":[0,0,0,0,0,0,0,0,0,0,0,0,0,0,0],"sum_hessian":[1.69E2,1.67E2,2E0,2E0,1.65E2,1E0,1E0,1E0,1E0,9.2E1,7.3E1,8E1,1.2E1,6.5E1,8E0],"tree_param":{"num_deleted":"0","num_feature":"10","num_nodes":"15","size_leaf_vector":"1"}},{"base_weights":[-0E0,-7.488031E-3,5.0567515E-2,1.4015187E-2,-6.831365E-4,1.5926114E-1,-3.4940287E-3,-0E0,5.8657475E-2,2.6820013E-1,-0E0,7.336538E-3,-0E0,1.748669E-2,-0E0],"categories":[],"categories_nodes":[],"categories_segments":[],"categories_sizes":[],"default_left":[0,0,0,0,0,0,0,0,0,0,0,0,0,0,0],"id":32,"left_children":[1,3,5,7,-1,9,-1,-1,11,13,-1,-1,-1,-1,-1],"loss_changes":[5.932778E-2,1.9400537E-2,3.176583E-1,2.1138513E-2,0E0,2.4571699E-1,0E0,0E0,6.2034763E-2,2.8074557E-1,0E0,0E0,0E0,0E0,0E0],"parents":[2147483647,0,0,1,1,2,2,3,3,5,5,8,8,9,9],"right_children":[2,4,6,8,-1,10,-1,-1,12,14,-1,-1,-1,-1,-1],"split_conditions":[1.3610215E0,-1.1325969E0,4.9510399E-1,9.9511E-1,-6.831365E-4,2.900172E0,-3.4940287E-3,-0E0,1.495116E0,3.0336022E0,-0E0,7.336538E-3,-0E0,1.748669E-2,-0E0],"split_indices":[8,1,0,0,0,6,0,0,0,8,0,0,0,0,0],"split_type":[0,0,0,0,0,0,0,0,0,0,0,0,0,0,0],"sum_hessian":[1.64E2,1.45E2,1.9E1,1.4E1,1.31E2,1.2E1,7E0,8E0,6E0,7E0,5E0,3E0,3E0,6E0,1E0],"tree_param":{"num_deleted":"0","num_feature":"10","num_nodes":"15","size_leaf_vector":"1"}},{"base_weights":[-0E0,2.1059752E-1,-3.1448393E-3,1.7999697E-2,-0E0,-7.83774E-4,5.628957E-2,9.9940136E-2,-0E0,7.41035E-3,-0E0,-3.5837393E-3,1.2205305E-3],"categories":[],"categories_nodes":[],"categories_segments":[],"categories_sizes":[],"default_left":[0,0,0,0,0,0,0,0,0,0,0,0,0],"id":33,"left_children":[1,3,5,-1,-1,-1,7,9,11,-1,-1,-1,-1],"loss_changes":[1.346858E-1,1.2613733E-1,1.0345926E-1,0E0,0E0,0E0,8.011312E-2,1.3572858E-1,2.806989E-2,0E0,0E0,0E0,0E0],"parents":[2147483647,0,0,1,1,2,2,6,6,7,7,8,8],"right_children":[2,4,6,-1,-1,-1,8,10,12,-1,-1,-1,-1],"split_conditions":[-1.637565E0,1.495116E0,1.3610215E0,1.7999697E-2,-0E0,-7.83774E-4,2.900172E0,3.0336022E0,3.0336022E0,7.41035E-3,-0E0,-3.5837393E-3,1.2205305E-3],"split_indices":[2,0,8,0,0,0,6,8,8,0,0,0,0],"split_type":[0,0,0,0,0,0,0,0,0,0,0,0,0],"sum_hessian":[1.66E2,2E0,1.64E2,1E0,1E0,1.43E2,2.1E1,1.4E1,7E0,1.2E1,2E0,4E0,3E0],"tree_param":{"num_deleted":"0","num_feature":"10","num_nodes":"13","size_leaf_vector":"1"}},{"base_weights":[-0E0,2.0459764E-1,-3.3838763E-3,1.7549707E-2,-0E0,-6.5250497E-4,4.3798678E-2,1.606919E-1,-1.0497523E-3,-0E0,1.3281101E-2],"categories":[],"categories_nodes":[],"categories_segments":[],"categories_sizes":[],"default_left":[0,0,0,0,0,0,0,0,0,0,0],"id":34,"left_children":[1,3,5,-1,-1,-1,7,9,-1,-1,-1],"loss_changes":[1.2750429E-1,1.20813146E-1,6.1818235E-2,0E0,0E0,0E0,2.2470112E-1,1.6511145E-1,0E0,0E0,0E0],"parents":[2147483647,0,0,1,1,2,2,6,6,7,7],"right_children":[2,4,6,-1,-1,-1,8,10,-1,-1,-1],"split_conditions":[-1.637565E0,1.495116E0,1.3610215E0,1.7549707E-2,-0E0,-6.5250497E-4,-4.9020196E-3,-2.11975E-1,-1.0497523E-3,-0E0,1.3281101E-2],"split_indices":[2,0,8,0,0,0,0,2,0,0,0],"split_type":[0,0,0,0,0,0,0,0,0,0,0],"sum_hessian":[1.69E2,2E0,1.67E2,1E0,1E0,1.48E2,1.9E1,9E0,1E1,4E0,5E0],"tree_param":{"num_deleted":"0","num_feature":"10","num_nodes":"11","size_leaf_vector":"1"}},{"base_weights":[6.5204655E-3,1.4751256E-1,-6.427738E-3,3.8849905E-2,3.465287E-2,-0E0,-5.7996827E-4,1.9874772E-1,-0E0,-4.6403278E-3,2.97344E-2,1.7110962E-2,-0E0,-0E0,-2.7495658E-3,4.285516E-3,-0E0],"categories":[],"categories_nodes":[],"categories_segments":[],"categories_sizes":[],"default_left":[0,0,0,0,0,0,0,0,0,0,0,0,0,0,0,0,0],"id":35,"left_children":[1,3,5,7,-1,9,-1,11,-1,13,15,-1,-1,-1,-1,-1,-1],"loss_changes":[3.6906242E-1,6.1488706E-1,3.4792908E-3,9.435292E-2,0E0,7.7177593E-3,0E0,1.15726046E-1,0E0,1.056736E-2,3.0542357E-2,0E0,0E0,0E0,0E0,0E0,0E0],"parents":[2147483647,0,0,1,1,2,2,3,3,5,5,7,7,9,9,10,10],"right_children":[2,4,6,8,-1,10,-1,12,-1,14,16,-1,-1,-1,-1,-1,-1],"split_conditions":[-1.1325969E0,2.673532E0,4.9510399E-1,-1.637565E0,3.465287E-2,1.6366489E0,-5.7996827E-4,1.495116E0,-0E0,2.900172E0,3.7104151E0,1.7110962E-2,-0E0,-0E0,-2.7495658E-3,4.285516E-3,-0E0],"split_indices":[1,9,0,2,0,9,0,0,0,6,9,0,0,0,0,0,0],"split_type":[0,0,0,0,0,0,0,0,0,0,0,0,0,0,0,0,0],"sum_hessian":[1.62E2,1.6E1,1.46E2,1.5E1,1E0,7.6E1,7E1,2E0,1.3E1,7E1,6E0,1E0,1E0,6.7E1,3E0,4E0,2E0],"tree_param":{"num_deleted":"0","num_feature":"10","num_nodes":"17","size_leaf_vector":"1"}},{"base_weights":[9.097798E-4,1.2526596E-1,-9.094304E-3,1.2421083E-2,4.4345337E-1,-1.7877141E-2,-0E0,1.9304411E-1,-0E0,-0E0,3.378655E-2,-3.2439016E-2,-0E0,5.6221288E-2,-1.0239006E-2,1.6683191E-2,-0E0,-0E0,-3.4057875E-3,-2.1788602E-4,-0E0,4.1026105E-3,-0E0,-0E0,-7.3715794E-4],"categories":[],"categories_nodes":[],"categories_segments":[],"categories_sizes":[],"default_left":[0,0,0,0,0,0,0,0,0,0,0,0,0,0,0,0,0,0,0,0,0,0,0,0,0],"id":36,"left_children":[1,3,5,7,9,11,13,15,-1,-1,-1,17,19,21,23,-1,-1,-1,-1,-1,-1,-1,-1,-1,-1],"loss_changes":[2.6325244E-1,3.4104767E-1,7.4914657E-3,1.0963812E-1,3.232721E-1,7.544821E-3,3.9890476E-2,1.10865004E-1,0E0,0E0,0E0,9.758504E-3,5.507021E-4,2.8984752E-2,2.3685321E-3,0E0,0E0,0E0,0E0,0E0,0E0,0E0,0E0,0E0,0E0],"parents":[2147483647,0,0,1,1,2,2,3,3,4,4,5,5,6,6,7,7,11,11,12,12,13,13,14,14],"right_children":[2,4,6,8,10,12,14,16,-1,-1,-1,18,20,22,24,-1,-1,-1,-1,-1,-1,-1,-1,-1,-1],"split_conditions":[-1.1325969E0,-1.3999667E0,2.562335E-2,-1.637565E0,-1.004914E0,-4.9020196E-3,4.1807267E-1,1.495116E0,-0E0,-0E0,3.378655E-2,-9.881718E-2,-9.881718E-2,9.9511E-1,-4.9020196E-3,1.6683191E-2,-0E0,-0E0,-3.4057875E-3,-2.1788602E-4,-0E0,4.1026105E-3,-0E0,-0E0,-7.3715794E-4],"split_indices":[1,2,2,2,0,0,1,0,0,0,0,1,1,0,0,0,0,0,0,0,0,0,0,0,0],"split_type":[0,0,0,0,0,0,0,0,0,0,0,0,0,0,0,0,0,0,0,0,0,0,0,0,0],"sum_hessian":[1.63E2,1.5E1,1.48E2,1.3E1,2E0,6.1E1,8.7E1,2E0,1.1E1,1E0,1E0,2.5E1,3.6E1,9E0,7.8E1,1E0,1E0,1.8E1,7E0,2.8E1,8E0,8E0,1E0,3E1,4.8E1],"tree_param":{"num_deleted":"0","num_feature":"10","num_nodes":"25","size_leaf_vector":"1"}},{"base_weights":[8.231692E-3,-0E0,2.7449074E-1,1.8748304E-1,-5.5617164E-3,2.545881E-2,-0E0,1.6266111E-2,-0E0,-6.41518E-4,3.0285552E-2,4.226576E-3,-0E0],"categories":[],"categories_nodes":[],"categories_segments":[],"categories_sizes":[],"default_left":[0,0,0,0,0,0,0,0,0,0,0,0,0],"id":37,"left_children":[1,3,5,7,9,-1,-1,-1,-1,-1,11,-1,-1],"loss_changes":[4.4102603E-1,1.1027517E-1,5.849705E-1,1.0621942E-1,3.2308497E-2,0E0,0E0,0E0,0E0,0E0,4.340641E-2,0E0,0E0],"parents":[2147483647,0,0,1,1,2,2,3,3,4,4,10,10],"right_children":[2,4,6,8,10,-1,-1,-1,-1,-1,12,-1,-1],"split_conditions":[3.0336022E0,-1.637565E0,-4.9020196E-3,1.495116E0,1.3610215E0,2.545881E-2,-0E0,1.6266111E-2,-0E0,-6.41518E-4,-4.9020196E-3,4.226576E-3,-0E0],"split_indices":[8,2,0,0,8,0,0,0,0,0,0,0,0],"split_type":[0,0,0,0,0,0,0,0,0,0,0,0,0],"sum_hessian":[1.62E2,1.57E2,5E0,2E0,1.55E2,3E0,2E0,1E0,1E0,1.41E2,1.4E1,7E0,7E0],"tree_param":{"num_deleted":"0","num_feature":"10","num_nodes":"13","size_leaf_vector":"1"}},{"base_weights":[4.3865084E-3,-0E0,3.418874E-1,-4.9704663E-3,1.9635852E-2,3.2305416E-2,-0E0,1.4618406E-2,-5.3035974E-4,6.1355457E-2,-0E0,-0E0,2.943993E-3,5.4590683E-3,-0E0,-3.5662092E-3,1.1968426E-5],"categories":[],"categories_nodes":[],"categories_segments":[],"categories_sizes":[],"default_left":[0,0,0,0,0,0,0,0,0,0,0,0,0,0,0,0,0],"id":38,"left_children":[1,3,5,7,9,-1,-1,11,-1,13,15,-1,-1,-1,-1,-1,-1],"loss_changes":[3.4742847E-1,1.206477E-2,4.842509E-1,1.4159942E-2,4.4220418E-2,0E0,0E0,1.8022956E-2,0E0,9.034397E-2,3.0523062E-2,0E0,0E0,0E0,0E0,0E0,0E0],"parents":[2147483647,0,0,1,1,2,2,3,3,4,4,7,7,9,9,10,10],"right_children":[2,4,6,8,10,-1,-1,12,-1,14,16,-1,-1,-1,-1,-1,-1],"split_conditions":[6.3787637E0,1.3610215E0,-4.9020196E-3,-1.1325969E0,2.900172E0,3.2305416E-2,-0E0,9.9511E-1,-5.3035974E-4,3.0336022E0,3.0336022E0,-0E0,2.943993E-3,5.4590683E-3,-0E0,-3.5662092E-3,1.1968426E-5],"split_indices":[8,8,0,1,6,0,0,0,0,8,8,0,0,0,0,0,0],"split_type":[0,0,0,0,0,0,0,0,0,0,0,0,0,0,0,0,0],"sum_hessian":[1.67E2,1.65E2,2E0,1.44E2,2.1E1,1E0,1E0,1.2E1,1.32E2,1.3E1,8E0,7E0,5E0,1.1E1,2E0,5E0,3E0],"tree_param":{"num_deleted":"0","num_feature":"10","num_nodes":"17","size_leaf_vector":"1"}},{"base_weights":[9.992022E-3,-3.982658E-3,1.2812278E-1,-4.499691E-4,-0E0,2.831501E-1,-5.2195573E-3,1.1093595E-2,-0E0,-0E0,1.7213227E-2,-0E0,-2.7490659E-3,1.1791278E-3,-0E0,8.5294497E-4,-0E0],"categories":[],"categories_nodes":[],"categories_segments":[],"categories_sizes":[],"default_left":[0,0,0,0,0,0,0,0,0,0,0,0,0,0,0,0,0],"id":39,"left_children":[1,3,5,-1,7,9,11,13,-1,-1,-1,15,-1,-1,-1,-1,-1],"loss_changes":[3.1515875E-1,5.0825602E-3,5.5387735E-1,0E0,2.5844248E-3,3.0326688E-1,1.7865235E-2,5.201493E-3,0E0,0E0,0E0,8.730181E-4,0E0,0E0,0E0,0E0,0E0],"parents":[2147483647,0,0,1,1,2,2,4,4,5,5,6,6,7,7,11,11],"right_children":[2,4,6,-1,8,10,12,14,-1,-1,-1,16,-1,-1,-1,-1,-1],"split_conditions":[1.3610215E0,9.9511E-1,-4.9020196E-3,-4.499691E-4,1.495116E0,5.997657E-1,2.900172E0,1.5310984E0,-0E0,-0E0,1.7213227E-2,1.6366489E0,-2.7490659E-3,1.1791278E-3,-0E0,8.5294497E-4,-0E0],"split_indices":[8,0,0,0,0,9,6,4,0,0,0,9,0,0,0,0,0],"split_type":[0,0,0,0,0,0,0,0,0,0,0,0,0,0,0,0,0],"sum_hessian":[1.52E2,1.33E2,1.9E1,8.8E1,4.5E1,1E1,9E0,2E1,2.5E1,1E0,9E0,4E0,5E0,1.3E1,7E0,2E0,2E0],"tree_param":{"num_deleted":"0","num_feature":"10","num_nodes":"17","size_leaf_vector":"1"}},{"base_weights":[5.022738E-3,-0E0,3.2629758E-1,1.797053E-1,-4.2236676E-3,3.1067451E-2,-0E0,1.5756382E-2,-0E0,-5.982157E-4,2.285155E-2,4.3013184E-3,-1.7978834E-3],"categories":[],"categories_nodes":[],"categories_segments":[],"categories_sizes":[],"default_left":[0,0,0,0,0,0,0,0,0,0,0,0,0],"id":40,"left_children":[1,3,5,7,9,-1,-1,-1,-1,-1,11,-1,-1],"loss_changes":[3.1522253E-1,9.977197E-2,4.527389E-1,1.01728834E-1,2.8781692E-2,0E0,0E0,0E0,0E0,0E0,1.0986341E-1,0E0,0E0],"parents":[2147483647,0,0,1,1,2,2,3,3,4,4,10,10],"right_children":[2,4,6,8,10,-1,-1,-1,-1,-1,12,-1,-1],"split_conditions":[6.3787637E0,-1.637565E0,-1.1325969E0,2.900172E0,1.3610215E0,3.1067451E-2,-0E0,1.5756382E-2,-0E0,-5.982157E-4,2.900172E0,4.3013184E-3,-1.7978834E-3],"split_indices":[8,2,1,6,8,0,0,0,0,0,6,0,0],"split_type":[0,0,0,0,0,0,0,0,0,0,0,0,0],"sum_hessian":[1.65E2,1.63E2,2E0,2E0,1.61E2,1E0,1E0,1E0,1E0,1.4E2,2.1E1,1.4E1,7E0],"tree_param":{"num_deleted":"0","num_feature":"10","num_nodes":"13","size_leaf_vector":"1"}},{"base_weights":[7.2784727E-3,-0E0,3.1067747E-1,1.7445318E-1,-3.3985458E-3,2.5108585E-2,-0E0,1.5362471E-2,-0E0,-5.6539703E-4,3.0409418E-2,5.4390305E-3,-1.4224275E-3],"categories":[],"categories_nodes":[],"categories_segments":[],"categories_sizes":[],"default_left":[0,0,0,0,0,0,0,0,0,0,0,0,0],"id":41,"left_children":[1,3,5,7,9,-1,-1,-1,-1,-1,11,-1,-1],"loss_changes":[3.772349E-1,9.3172856E-2,3.704474E-1,9.750268E-2,3.4112014E-2,0E0,0E0,0E0,0E0,0E0,1.309033E-1,0E0,0E0],"parents":[2147483647,0,0,1,1,2,2,3,3,4,4,10,10],"right_children":[2,4,6,8,10,-1,-1,-1,-1,-1,12,-1,-1],"split_conditions":[4.706183E0,-1.637565E0,-4.9020196E-3,1.495116E0,1.3610215E0,2.5108585E-2,-0E0,1.5362471E-2,-0E0,-5.6539703E-4,2.900172E0,5.4390305E-3,-1.4224275E-3],"split_indices":[8,2,0,0,8,0,0,0,0,0,6,0,0],"split_type":[0,0,0,0,0,0,0,0,0,0,0,0,0],"sum_hessian":[1.66E2,1.63E2,3E0,2E0,1.61E2,2E0,1E0,1E0,1E0,1.43E2,1.8E1,1.1E1,7E0],"tree_param":{"num_deleted":"0","num_feature":"10","num_nodes":"13","size_leaf_vector":"1"}},{"base_weights":[8.466039E-3,-0E0,2.966305E-2,1.6933236E-1,-1.6498455E-3,1.4978409E-2,-0E0,-4.974408E-4,3.192161E-2,3.1264971E-3,-0E0],"categories":[],"categories_nodes":[],"categories_segments":[],"categories_sizes":[],"default_left":[0,0,0,0,0,0,0,0,0,0,0],"id":42,"left_children":[1,3,-1,5,7,-1,-1,-1,9,-1,-1],"loss_changes":[6.9187605E-1,8.646946E-2,0E0,9.346186E-2,3.5301592E-2,0E0,0E0,0E0,4.8981108E-2,0E0,0E0],"parents":[2147483647,0,0,1,1,3,3,4,4,8,8],"right_children":[2,4,-1,6,8,-1,-1,-1,10,-1,-1],"split_conditions":[6.3787637E0,-1.637565E0,2.966305E-2,2.900172E0,1.3610215E0,1.4978409E-2,-0E0,-4.974408E-4,1.567682E0,3.1264971E-3,-0E0],"split_indices":[8,2,0,6,8,0,0,0,3,0,0],"split_type":[0,0,0,0,0,0,0,0,0,0,0],"sum_hessian":[1.67E2,1.66E2,1E0,2E0,1.64E2,1E0,1E0,1.44E2,2E1,1.7E1,3E0],"tree_param":{"num_deleted":"0","num_feature":"10","num_nodes":"11","size_leaf_vector":"1"}},{"base_weights":[5.2796025E-3,-7.353336E-5,2.2334577E-1,1.6433954E-1,-6.694638E-3,2.2052208E-2,-0E0,1.4603949E-2,-0E0,-0E0,-1.29144555E-2,-1.9412073E-4,6.936177E-3,-1.0680532E-3,-0E0],"categories":[],"categories_nodes":[],"categories_segments":[],"categories_sizes":[],"default_left":[0,0,0,0,0,0,0,0,0,0,0,0,0,0,0],"id":43,"left_children":[1,3,5,7,9,-1,-1,-1,-1,11,13,-1,-1,-1,-1],"loss_changes":[2.9492456E-1,8.774437E-2,4.7877982E-1,8.9597784E-2,1.1456638E-2,0E0,0E0,0E0,0E0,7.756473E-2,6.00427E-3,0E0,0E0,0E0,0E0],"parents":[2147483647,0,0,1,1,2,2,3,3,4,4,9,9,10,10],"right_children":[2,4,6,8,10,-1,-1,-1,-1,12,14,-1,-1,-1,-1],"split_conditions":[3.0336022E0,-1.637565E0,-4.9020196E-3,1.495116E0,-5.04908E-1,2.2052208E-2,-0E0,1.4603949E-2,-0E0,1.3610215E0,-9.317582E-2,-1.9412073E-4,6.936177E-3,-1.0680532E-3,-0E0],"split_indices":[8,2,0,0,0,0,0,0,0,8,2,0,0,0,0],"split_type":[0,0,0,0,0,0,0,0,0,0,0,0,0,0,0],"sum_hessian":[1.56E2,1.51E2,5E0,2E0,1.49E2,3E0,2E0,1E0,1E0,4.1E1,1.08E2,3.8E1,3E0,5.2E1,5.6E1],"tree_param":{"num_deleted":"0","num_feature":"10","num_nodes":"15","size_leaf_vector":"1"}},{"base_weights":[-0E0,-3.8716746E-3,2.714839E-1,1.5947156E-1,-1.0317151E-2,2.837017E-2,-0E0,1.4238849E-2,-0E0,-1.5557089E-2,7.104872E-3,-1.1382416E-3,-0E0,3.3758462E-3,-0E0],"categories":[],"categories_nodes":[],"categories_segments":[],"categories_sizes":[],"default_left":[0,0,0,0,0,0,0,0,0,0,0,0,0,0,0],"id":44,"left_children":[1,3,5,7,9,-1,-1,-1,-1,11,13,-1,-1,-1,-1],"loss_changes":[2.9713747E-1,9.025598E-2,3.4907913E-1,8.5902326E-2,1.8304057E-2,0E0,0E0,0E0,0E0,1.5867587E-2,3.1203037E-2,0E0,0E0,0E0,0E0],"parents":[2147483647,0,0,1,1,2,2,3,3,4,4,9,9,10,10],"right_children":[2,4,6,8,10,-1,-1,-1,-1,12,14,-1,-1,-1,-1],"split_conditions":[4.706183E0,-1.637565E0,-1.1325969E0,1.495116E0,1.6366489E0,2.837017E-2,-0E0,1.4238849E-2,-0E0,1.5310984E0,4.9510399E-1,-1.1382416E-3,-0E0,3.3758462E-3,-0E0],"split_indices":[8,2,1,0,9,0,0,0,0,5,0,0,0,0,0],"split_type":[0,0,0,0,0,0,0,0,0,0,0,0,0,0,0],"sum_hessian":[1.57E2,1.54E2,3E0,2E0,1.52E2,1E0,2E0,1E0,1E0,1.39E2,1.3E1,9.5E1,4.4E1,6E0,7E0],"tree_param":{"num_deleted":"0","num_feature":"10","num_nodes":"15","size_leaf_vector":"1"}},{"base_weights":[4.5583304E-3,-0E0,2.7660916E-2,1.5472528E-1,-5.684679E-3,1.3882878E-2,-0E0,4.4124383E-3,-1.8759998E-2,-2.3657377E-4,6.6327127E-3,-2.8607724E-4,-3.8508677E-3],"categories":[],"categories_nodes":[],"categories_segments":[],"categories_sizes":[],"default_left":[0,0,0,0,0,0,0,0,0,0,0,0,0],"id":45,"left_children":[1,3,-1,5,7,-1,-1,9,11,-1,-1,-1,-1],"loss_changes":[6.088803E-1,7.6731704E-2,0E0,8.236772E-2,2.7324053E-2,0E0,0E0,1.4081013E-1,2.5033442E-2,0E0,0E0,0E0,0E0],"parents":[2147483647,0,0,1,1,3,3,4,4,7,7,8,8],"right_children":[2,4,-1,6,8,-1,-1,10,12,-1,-1,-1,-1],"split_conditions":[6.3787637E0,-1.637565E0,2.7660916E-2,1.495116E0,-4.9020196E-3,1.3882878E-2,-0E0,1.3610215E0,1.3610215E0,-2.3657377E-4,6.6327127E-3,-2.8607724E-4,-3.8508677E-3],"split_indices":[8,2,0,0,0,0,0,8,8,0,0,0,0],"split_type":[0,0,0,0,0,0,0,0,0,0,0,0,0],"sum_hessian":[1.54E2,1.53E2,1E0,2E0,1.51E2,1E0,1E0,6.4E1,8.7E1,5.7E1,7E0,7.9E1,8E0],"tree_param":{"num_deleted":"0","num_feature":"10","num_nodes":"13","size_leaf_vector":"1"}},{"base_weights":[-7.36386E-3,1.5009765E-1,-1.31772375E-2,1.3535807E-2,-0E0,-2.3241902E-2,-0E0,-3.265283E-4,-8.961538E-2,3.8059436E-2,-5.155859E-3,-6.8971664E-3,-0E0,4.426818E-3,-0E0,-0E0,-4.1260553E-4],"categories":[],"categories_nodes":[],"categories_segments":[],"categories_sizes":[],"default_left":[0,0,0,0,0,0,0,0,0,0,0,0,0,0,0,0,0],"id":46,"left_children":[1,3,5,-1,-1,7,9,-1,11,13,15,-1,-1,-1,-1,-1,-1],"loss_changes":[8.730205E-2,7.898653E-2,1.7091637E-2,0E0,0E0,4.5622896E-2,9.316068E-3,0E0,1.01943545E-1,2.411214E-2,9.909149E-4,0E0,0E0,0E0,0E0,0E0,0E0],"parents":[2147483647,0,0,1,1,2,2,5,5,6,6,8,8,9,9,10,10],"right_children":[2,4,6,-1,-1,8,10,-1,12,14,16,-1,-1,-1,-1,-1,-1],"split_conditions":[-1.637565E0,1.495116E0,1.4442252E-1,1.3535807E-2,-0E0,1.3610215E0,4.1807267E-1,-3.265283E-4,1.5310984E0,-4.9020196E-3,-4.9020196E-3,-6.8971664E-3,-0E0,4.426818E-3,-0E0,-0E0,-4.1260553E-4],"split_indices":[2,0,2,0,0,8,1,0,5,0,0,0,0,0,0,0,0],"split_type":[0,0,0,0,0,0,0,0,0,0,0,0,0,0,0,0,0],"sum_hessian":[1.67E2,2E0,1.65E2,1E0,1E0,8.4E1,8.1E1,7.4E1,1E1,4E0,7.7E1,9E0,1E0,3E0,1E0,3.3E1,4.4E1],"tree_param":{"num_deleted":"0","num_feature":"10","num_nodes":"17","size_leaf_vector":"1"}},{"base_weights":[5.37302E-3,-0E0,2.5714692E-1,1.455857E-1,-2.0905382E-3,2.7141823E-2,-0E0,1.319741E-2,-0E0,-4.3471818E-4,1.924077E-2,4.6111117E-3,-1.9629602E-3],"categories":[],"categories_nodes":[],"categories_segments":[],"categories_sizes":[],"default_left":[0,0,0,0,0,0,0,0,0,0,0,0,0],"id":47,"left_children":[1,3,5,7,9,-1,-1,-1,-1,-1,11,-1,-1],"loss_changes":[1.9366792E-1,6.428047E-2,3.9096916E-1,7.5751714E-2,1.7292134E-2,0E0,0E0,0E0,0E0,0E0,1.1549036E-1,0E0,0E0],"parents":[2147483647,0,0,1,1,2,2,3,3,4,4,10,10],"right_children":[2,4,6,8,10,-1,-1,-1,-1,-1,12,-1,-1],"split_conditions":[6.3787637E0,-1.637565E0,6.014041E0,2.900172E0,1.3610215E0,2.7141823E-2,-0E0,1.319741E-2,-0E0,-4.3471818E-4,2.900172E0,4.6111117E-3,-1.9629602E-3],"split_indices":[8,2,6,6,8,0,0,0,0,0,6,0,0],"split_type":[0,0,0,0,0,0,0,0,0,0,0,0,0],"sum_hessian":[1.62E2,1.6E2,2E0,2E0,1.58E2,1E0,1E0,1E0,1E0,1.39E2,1.9E1,1.2E1,7E0],"tree_param":{"num_deleted":"0","num_feature":"10","num_nodes":"13","size_leaf_vector":"1"}},{"base_weights":[-2.969834E-3,1.4118657E-1,-8.779204E-3,1.2867475E-2,-0E0,-1.8082082E-2,-0E0,-3.2988764E-2,-0E0,-1.8748922E-4,1.5810026E-2,-2.0703324E-4,-5.1696827E-3,1.7829443E-3,-0E0],"categories":[],"categories_nodes":[],"categories_segments":[],"categories_sizes":[],"default_left":[0,0,0,0,0,0,0,0,0,0,0,0,0,0,0],"id":48,"left_children":[1,3,5,-1,-1,7,9,11,-1,-1,13,-1,-1,-1,-1],"loss_changes":[7.070401E-2,7.265659E-2,1.1209331E-2,0E0,0E0,2.54304E-2,4.0962324E-3,3.7201848E-2,0E0,0E0,3.3582968E-3,0E0,0E0,0E0,0E0],"parents":[2147483647,0,0,1,1,2,2,5,5,6,6,7,7,10,10],"right_children":[2,4,6,-1,-1,8,10,12,-1,-1,14,-1,-1,-1,-1],"split_conditions":[-1.637565E0,2.900172E0,-9.317582E-2,1.2867475E-2,-0E0,1.5310984E0,1.3610215E0,1.3610215E0,-0E0,-1.8748922E-4,1.5310984E0,-2.0703324E-4,-5.1696827E-3,1.7829443E-3,-0E0],"split_indices":[2,6,2,0,0,5,8,8,0,0,4,0,0,0,0],"split_type":[0,0,0,0,0,0,0,0,0,0,0,0,0,0,0],"sum_hessian":[1.61E2,2E0,1.59E2,1E0,1E0,7.1E1,8.8E1,4.4E1,2.7E1,7.7E1,1.1E1,3.7E1,7E0,4E0,7E0],"tree_param":{"num_deleted":"0","num_feature":"10","num_nodes":"15","size_leaf_vector":"1"}},{"base_weights":[-0E0,-6.177084E-3,7.445332E-2,1.3689741E-1,-1.2413884E-2,2.190773E-1,-0E0,1.2545789E-2,-0E0,-1.4804669E-2,-0E0,-0E0,2.002224E-2,-0E0,-9.395173E-4,-2.2434349E-4,-3.1941023E-3,2.6711791E-3,-0E0],"categories":[],"categories_nodes":[],"categories_segments":[],"categories_sizes":[],"default_left":[0,0,0,0,0,0,0,0,0,0,0,0,0,0,0,0,0,0,0],"id":49,"left_children":[1,3,5,7,9,11,13,-1,-1,15,-1,-1,-1,17,-1,-1,-1,-1,-1],"loss_changes":[1.11046076E-1,7.330672E-2,2.7863628E-1,6.969474E-2,8.09666E-3,2.5746515E-1,2.8246166E-3,0E0,0E0,3.692715E-2,0E0,0E0,0E0,5.7081585E-3,0E0,0E0,0E0,0E0,0E0],"parents":[2147483647,0,0,1,1,2,2,3,3,4,4,5,5,6,6,9,9,13,13],"right_children":[2,4,6,8,10,12,14,-1,-1,16,-1,-1,-1,18,-1,-1,-1,-1,-1],"split_conditions":[1.6366489E0,-1.637565E0,-4.9020196E-3,1.495116E0,2.900172E0,2.900172E0,2.673532E0,1.2545789E-2,-0E0,5.997657E-1,-0E0,-0E0,2.002224E-2,4.9510399E-1,-9.395173E-4,-2.2434349E-4,-3.1941023E-3,2.6711791E-3,-0E0],"split_indices":[9,2,0,0,7,6,9,0,0,9,0,0,0,0,0,0,0,0,0],"split_type":[0,0,0,0,0,0,0,0,0,0,0,0,0,0,0,0,0,0,0],"sum_hessian":[1.67E2,1.49E2,1.8E1,2E0,1.47E2,7E0,1.1E1,1E0,1E0,1.4E2,7E0,4E0,3E0,4E0,7E0,1.25E2,1.5E1,1E0,3E0],"tree_param":{"num_deleted":"0","num_feature":"10","num_nodes":"19","size_leaf_vector":"1"}},{"base_weights":[1.12841015E-4,-1.3398122E-3,2.4518517E-1,1.8492515E-3,-5.174732E-3,2.6091961E-2,-0E0,-0E0,2.8345987E-2,-0E0,-1.6330678E-2,2.4812284E-3,-0E0,-1.789503E-4,2.5114352E-3,-0E0,-3.6397127E-3],"categories":[],"categories_nodes":[],"categories_segments":[],"categories_sizes":[],"default_left":[0,0,0,0,0,0,0,0,0,0,0,0,0,0,0,0,0],"id":50,"left_children":[1,3,5,7,9,-1,-1,-1,11,13,15,-1,-1,-1,-1,-1,-1],"loss_changes":[1.8063603E-1,3.6535372E-3,3.64285E-1,1.199087E-2,1.318544E-2,0E0,0E0,0E0,1.7498747E-2,2.8674418E-2,2.5323799E-2,0E0,0E0,0E0,0E0,0E0,0E0],"parents":[2147483647,0,0,1,1,2,2,3,3,4,4,8,8,9,9,10,10],"right_children":[2,4,6,8,10,-1,-1,-1,12,14,16,-1,-1,-1,-1,-1,-1],"split_conditions":[6.3787637E0,-1.1325969E0,-4.9020196E-3,-1.004914E0,4.9510399E-1,2.6091961E-2,-0E0,-0E0,1.495116E0,1.3610215E0,1.3610215E0,2.4812284E-3,-0E0,-1.789503E-4,2.5114352E-3,-0E0,-3.6397127E-3],"split_indices":[8,1,0,0,0,0,0,0,0,8,8,0,0,0,0,0,0],"split_type":[0,0,0,0,0,0,0,0,0,0,0,0,0,0,0,0,0],"sum_hessian":[1.63E2,1.61E2,2E0,1.7E1,1.44E2,1E0,1E0,3E0,1.4E1,8.1E1,6.3E1,1.1E1,3E0,7.1E1,1E1,5.6E1,7E0],"tree_param":{"num_deleted":"0","num_feature":"10","num_nodes":"17","size_leaf_vector":"1"}},{"base_weights":[4.5536016E-3,-0E0,2.3648785E-1,-1.8606965E-3,1.677391E-2,2.5439663E-2,-0E0,4.8399332E-4,-2.9203095E-4,5.5374596E-2,-0E0,-0E0,1.163141E-3,5.4333876E-3,-0E0,-2.1216257E-3,-0E0],"categories":[],"categories_nodes":[],"categories_segments":[],"categories_sizes":[],"default_left":[0,0,0,0,0,0,0,0,0,0,0,0,0,0,0,0,0],"id":51,"left_children":[1,3,5,7,9,-1,-1,11,-1,13,15,-1,-1,-1,-1,-1,-1],"loss_changes":[1.6427526E-1,6.1396854E-3,3.4996158E-1,4.0622293E-3,3.4235217E-2,0E0,0E0,3.7845976E-3,0E0,9.0032965E-2,9.002591E-3,0E0,0E0,0E0,0E0,0E0,0E0],"parents":[2147483647,0,0,1,1,2,2,3,3,4,4,7,7,9,9,10,10],"right_children":[2,4,6,8,10,-1,-1,12,-1,14,16,-1,-1,-1,-1,-1,-1],"split_conditions":[6.3787637E0,1.3610215E0,-4.9020196E-3,-1.1325969E0,2.900172E0,2.5439663E-2,-0E0,9.9511E-1,-2.9203095E-4,3.0336022E0,3.0336022E0,-0E0,1.163141E-3,5.4333876E-3,-0E0,-2.1216257E-3,-0E0],"split_indices":[8,8,0,1,6,0,0,0,0,8,8,0,0,0,0,0,0],"split_type":[0,0,0,0,0,0,0,0,0,0,0,0,0,0,0,0,0],"sum_hessian":[1.68E2,1.66E2,2E0,1.47E2,1.9E1,1E0,1E0,1.4E1,1.33E2,1.2E1,7E0,8E0,6E0,1E1,2E0,4E0,3E0],"tree_param":{"num_deleted":"0","num_feature":"10","num_nodes":"17","size_leaf_vector":"1"}},{"base_weights":[-0E0,1.3111301E-1,-3.462865E-4,1.2141037E-2,-0E0,-3.5625577E-4,2.1375675E-2,-2.0006604E-2,1.06269255E-1,-0E0,-3.8404067E-3,9.104296E-3,-0E0],"categories":[],"categories_nodes":[],"categories_segments":[],"categories_sizes":[],"default_left":[0,0,0,0,0,0,0,0,0,0,0,0,0],"id":52,"left_children":[1,3,5,-1,-1,-1,7,9,11,-1,-1,-1,-1],"loss_changes":[5.159117E-2,6.6351965E-2,1.6734188E-2,0E0,0E0,0E0,1.1903231E-1,1.919505E-2,7.470694E-2,0E0,0E0,0E0,0E0],"parents":[2147483647,0,0,1,1,2,2,6,6,7,7,8,8],"right_children":[2,4,6,-1,-1,-1,8,10,12,-1,-1,-1,-1],"split_conditions":[-1.637565E0,1.495116E0,1.3610215E0,1.2141037E-2,-0E0,-3.5625577E-4,-2.11975E-1,2.900172E0,-4.9020196E-3,-0E0,-3.8404067E-3,9.104296E-3,-0E0],"split_indices":[2,0,8,0,0,0,2,6,0,0,0,0,0],"split_type":[0,0,0,0,0,0,0,0,0,0,0,0,0],"sum_hessian":[1.62E2,2E0,1.6E2,1E0,1E0,1.4E2,2E1,1E1,1E1,7E0,3E0,5E0,5E0],"tree_param":{"num_deleted":"0","num_feature":"10","num_nodes":"13","size_leaf_vector":"1"}},{"base_weights":[3.0244875E-3,-0E0,2.3056827E-1,1.2706602E-1,-3.7322317E-3,2.4899682E-2,-0E0,1.1837512E-2,-0E0,-0E0,-7.348898E-3,-0E0,2.7334252E-3,-4.2789182E-4,-0E0],"categories":[],"categories_nodes":[],"categories_segments":[],"categories_sizes":[],"default_left":[0,0,0,0,0,0,0,0,0,0,0,0,0,0,0],"id":53,"left_children":[1,3,5,7,9,-1,-1,-1,-1,11,13,-1,-1,-1,-1],"loss_changes":[1.5801242E-1,5.0624255E-2,3.3651018E-1,6.3664034E-2,4.941892E-3,0E0,0E0,0E0,0E0,8.9659365E-3,2.0257393E-3,0E0,0E0,0E0,0E0],"parents":[2147483647,0,0,1,1,2,2,3,3,4,4,9,9,10,10],"right_children":[2,4,6,8,10,-1,-1,-1,-1,12,14,-1,-1,-1,-1],"split_conditions":[6.3787637E0,-1.637565E0,-4.9020196E-3,1.495116E0,-1.004914E0,2.4899682E-2,-0E0,1.1837512E-2,-0E0,1.3610215E0,2.900172E0,-0E0,2.7334252E-3,-4.2789182E-4,-0E0],"split_indices":[8,2,0,0,0,0,0,0,0,8,7,0,0,0,0],"split_type":[0,0,0,0,0,0,0,0,0,0,0,0,0,0,0],"sum_hessian":[1.6E2,1.58E2,2E0,2E0,1.56E2,1E0,1E0,1E0,1E0,2.5E1,1.31E2,2.3E1,2E0,1.24E2,7E0],"tree_param":{"num_deleted":"0","num_feature":"10","num_nodes":"15","size_leaf_vector":"1"}},{"base_weights":[-0E0,-5.375394E-3,2.2226836E-1,-0E0,-1.4658825E-2,2.427719E-2,-0E0,-4.1568237E-3,2.3295432E-3,-0E0,-3.276011E-2,-0E0,-6.567331E-4,7.8900484E-4,-0E0,-2.158954E-3,-0E0],"categories":[],"categories_nodes":[],"categories_segments":[],"categories_sizes":[],"default_left":[0,0,0,0,0,0,0,0,0,0,0,0,0,0,0,0,0],"id":54,"left_children":[1,3,5,7,9,-1,-1,11,13,-1,15,-1,-1,-1,-1,-1,-1],"loss_changes":[1.5297733E-1,5.546642E-3,3.232959E-1,1.487307E-3,6.857303E-3,0E0,0E0,4.9838745E-3,7.956894E-3,0E0,3.3371672E-3,0E0,0E0,0E0,0E0,0E0,0E0],"parents":[2147483647,0,0,1,1,2,2,3,3,4,4,7,7,8,8,10,10],"right_children":[2,4,6,8,10,-1,-1,12,14,-1,16,-1,-1,-1,-1,-1,-1],"split_conditions":[6.3787637E0,1.5310984E0,-4.9020196E-3,4.9510399E-1,5.997657E-1,2.427719E-2,-0E0,-5.04908E-1,1.495116E0,-0E0,9.9511E-1,-0E0,-6.567331E-4,7.8900484E-4,-0E0,-2.158954E-3,-0E0],"split_indices":[8,4,0,0,9,0,0,0,0,0,0,0,0,0,0,0,0],"split_type":[0,0,0,0,0,0,0,0,0,0,0,0,0,0,0,0,0],"sum_hessian":[1.66E2,1.64E2,2E0,1.17E2,4.7E1,1E0,1E0,7E1,4.7E1,3.2E1,1.5E1,3.5E1,3.5E1,3.2E1,1.5E1,1E1,5E0],"tree_param":{"num_deleted":"0","num_feature":"10","num_nodes":"17","size_leaf_vector":"1"}},{"base_weights":[7.609962E-4,-1.3144614E-4,2.1417595E-1,1.22857176E-1,-5.7008974E-3,2.367026E-2,-0E0,1.1521849E-2,-0E0,-1.3354161E-2,-0E0,-1.2494609E-3,-0E0,9.674799E-4,-1.6959572E-4],"categories":[],"categories_nodes":[],"categories_segments":[],"categories_sizes":[],"default_left":[0,0,0,0,0,0,0,0,0,0,0,0,0,0,0],"id":55,"left_children":[1,3,5,7,9,-1,-1,-1,-1,11,13,-1,-1,-1,-1],"loss_changes":[1.375241E-1,5.0348956E-2,3.106109E-1,6.092075E-2,7.7699833E-3,0E0,0E0,0E0,0E0,1.7134106E-2,6.795866E-3,0E0,0E0,0E0,0E0],"parents":[2147483647,0,0,1,1,2,2,3,3,4,4,9,9,10,10],"right_children":[2,4,6,8,10,-1,-1,-1,-1,12,14,-1,-1,-1,-1],"split_conditions":[6.3787637E0,-1.637565E0,-4.9020196E-3,1.495116E0,-9.317582E-2,2.367026E-2,-0E0,1.1521849E-2,-0E0,1.5310984E0,4.1807267E-1,-1.2494609E-3,-0E0,9.674799E-4,-1.6959572E-4],"split_indices":[8,2,0,0,2,0,0,0,0,5,1,0,0,0,0],"split_type":[0,0,0,0,0,0,0,0,0,0,0,0,0,0,0],"sum_hessian":[1.59E2,1.57E2,2E0,2E0,1.55E2,1E0,1E0,1E0,1E0,7.1E1,8.4E1,4.7E1,2.4E1,1.5E1,6.9E1],"tree_param":{"num_deleted":"0","num_feature":"10","num_nodes":"15","size_leaf_vector":"1"}},{"base_weights":[5.4723513E-3,-0E0,2.3078501E-2,1.19016565E-1,-3.36522E-3,1.1233804E-2,-0E0,-0E0,-1.5128894E-2,-9.335811E-5,2.766413E-3,-7.887262E-5,-2.2071411E-3],"categories":[],"categories_nodes":[],"categories_segments":[],"categories_sizes":[],"default_left":[0,0,0,0,0,0,0,0,0,0,0,0,0],"id":56,"left_children":[1,3,-1,5,7,-1,-1,9,11,-1,-1,-1,-1],"loss_changes":[4.2172158E-1,4.4114262E-2,0E0,5.8463845E-2,1.1884688E-2,0E0,0E0,3.0877119E-2,2.6788097E-4,0E0,0E0,0E0,0E0],"parents":[2147483647,0,0,1,1,3,3,4,4,7,7,8,8],"right_children":[2,4,-1,6,8,-1,-1,10,12,-1,-1,-1,-1],"split_conditions":[6.3787637E0,-1.637565E0,2.3078501E-2,1.495116E0,4.9510399E-1,1.1233804E-2,-0E0,1.3610215E0,1.3610215E0,-9.335811E-5,2.766413E-3,-7.887262E-5,-2.2071411E-3],"split_indices":[8,2,0,0,0,0,0,8,8,0,0,0,0],"split_type":[0,0,0,0,0,0,0,0,0,0,0,0,0],"sum_hessian":[1.45E2,1.44E2,1E0,2E0,1.42E2,1E0,1E0,8.4E1,5.8E1,7.5E1,9E0,5.2E1,6E0],"tree_param":{"num_deleted":"0","num_feature":"10","num_nodes":"13","size_leaf_vector":"1"}},{"base_weights":[2.4939491E-3,-5.868128E-4,1.7013258E-1,1.1527196E-1,-5.7830676E-3,2.2501541E-2,-0E0,1.0952959E-2,-0E0,-0E0,-1.1726217E-2,-1.519481E-4,2.063724E-3,-1.09255336E-4,-1.5998324E-3],"categories":[],"categories_nodes":[],"categories_segments":[],"categories_sizes":[],"default_left":[0,0,0,0,0,0,0,0,0,0,0,0,0,0,0],"id":57,"left_children":[1,3,5,7,9,-1,-1,-1,-1,11,13,-1,-1,-1,-1],"loss_changes":[1.7267004E-1,4.5257412E-2,2.3138489E-1,5.6110963E-2,9.949116E-3,0E0,0E0,0E0,0E0,2.082164E-2,4.5002773E-3,0E0,0E0,0E0,0E0],"parents":[2147483647,0,0,1,1,2,2,3,3,4,4,9,9,10,10],"right_children":[2,4,6,8,10,-1,-1,-1,-1,12,14,-1,-1,-1,-1],"split_conditions":[3.7104151E0,-1.637565E0,-1.1325969E0,1.495116E0,-5.04908E-1,2.2501541E-2,-0E0,1.0952959E-2,-0E0,5.997657E-1,5.997657E-1,-1.519481E-4,2.063724E-3,-1.09255336E-4,-1.5998324E-3],"split_indices":[9,2,1,0,0,0,0,0,0,9,9,0,0,0,0],"split_type":[0,0,0,0,0,0,0,0,0,0,0,0,0,0,0],"sum_hessian":[1.69E2,1.64E2,5E0,2E0,1.62E2,1E0,4E0,1E0,1E0,5.1E1,1.11E2,4E1,1.1E1,9.3E1,1.8E1],"tree_param":{"num_deleted":"0","num_feature":"10","num_nodes":"15","size_leaf_vector":"1"}},{"base_weights":[1.2110084E-4,-2.097391E-4,1.8339968E-1,1.11620985E-1,-5.8156615E-3,2.1939E-2,-0E0,1.0679135E-2,-0E0,-1.575022E-2,-0E0,-0E0,-3.7192218E-3,-4.6057576E-5,1.3657385E-3],"categories":[],"categories_nodes":[],"categories_segments":[],"categories_sizes":[],"default_left":[0,0,0,0,0,0,0,0,0,0,0,0,0,0,0],"id":58,"left_children":[1,3,5,7,9,-1,-1,-1,-1,11,13,-1,-1,-1,-1],"loss_changes":[1.0091072E-1,4.2410553E-2,2.8414947E-1,5.385741E-2,1.2325395E-2,0E0,0E0,0E0,0E0,3.7965573E-2,8.266459E-3,0E0,0E0,0E0,0E0],"parents":[2147483647,0,0,1,1,2,2,3,3,4,4,9,9,10,10],"right_children":[2,4,6,8,10,-1,-1,-1,-1,12,14,-1,-1,-1,-1],"split_conditions":[4.706183E0,-1.637565E0,-1.1325969E0,2.900172E0,-9.317582E-2,2.1939E-2,-0E0,1.0679135E-2,-0E0,-9.881718E-2,1.3610215E0,-0E0,-3.7192218E-3,-4.6057576E-5,1.3657385E-3],"split_indices":[8,2,1,6,2,0,0,0,0,1,8,0,0,0,0],"split_type":[0,0,0,0,0,0,0,0,0,0,0,0,0,0,0],"sum_hessian":[1.52E2,1.5E2,2E0,2E0,1.48E2,1E0,1E0,1E0,1E0,6.9E1,7.9E1,6E1,9E0,6.9E1,1E1],"tree_param":{"num_deleted":"0","num_feature":"10","num_nodes":"15","size_leaf_vector":"1"}},{"base_weights":[9.61766E-3,9.09604E-2,-0E0,-0E0,2.8804475E-1,-2.7581763E-3,5.334953E-3,1.0806128E-1,-5.597845E-4,-0E0,1.9431932E-2,-1.1422217E-2,-0E0,5.8028318E-2,-0E0,1.0412157E-2,-0E0,-0E0,-3.3767184E-3,4.109761E-4,-0E0,4.243323E-3,-0E0,7.7498606E-7,-1.0710629E-4],"categories":[],"categories_nodes":[],"categories_segments":[],"categories_sizes":[],"default_left":[0,0,0,0,0,0,0,0,0,0,0,0,0,0,0,0,0,0,0,0,0,0,0,0,0],"id":59,"left_children":[1,3,5,7,9,11,13,15,-1,-1,-1,17,19,21,23,-1,-1,-1,-1,-1,-1,-1,-1,-1,-1],"loss_changes":[1.0819701E-1,2.0777223E-1,3.086475E-3,3.628515E-2,1.21240765E-1,3.3890917E-3,3.1111304E-2,5.169869E-2,0E0,0E0,0E0,3.257311E-2,6.7560526E-4,3.1147998E-2,2.1567746E-4,0E0,0E0,0E0,0E0,0E0,0E0,0E0,0E0,0E0,0E0],"parents":[2147483647,0,0,1,1,2,2,3,3,4,4,5,5,6,6,7,7,11,11,12,12,13,13,14,14],"right_children":[2,4,6,8,10,12,14,16,-1,-1,-1,18,20,22,24,-1,-1,-1,-1,-1,-1,-1,-1,-1,-1],"split_conditions":[-1.1325969E0,-1.3999667E0,2.562335E-2,-1.637565E0,-1.004914E0,-4.9020196E-3,4.1807267E-1,1.495116E0,-5.597845E-4,-0E0,1.9431932E-2,-9.881718E-2,4.9510399E-1,9.9511E-1,-4.9020196E-3,1.0412157E-2,-0E0,-0E0,-3.3767184E-3,4.109761E-4,-0E0,4.243323E-3,-0E0,7.7498606E-7,-1.0710629E-4],"split_indices":[1,2,2,2,0,0,1,0,0,0,0,1,0,0,0,0,0,0,0,0,0,0,0,0,0],"split_type":[0,0,0,0,0,0,0,0,0,0,0,0,0,0,0,0,0,0,0,0,0,0,0,0,0],"sum_hessian":[1.71E2,1.4E1,1.57E2,1.1E1,3E0,6.8E1,8.9E1,2E0,9E0,1E0,2E0,2.9E1,3.9E1,9E0,8E1,1E0,1E0,2.2E1,7E0,9E0,3E1,8E0,1E0,3.4E1,4.6E1],"tree_param":{"num_deleted":"0","num_feature":"10","num_nodes":"25","size_leaf_vector":"1"}},{"base_weights":[8.618675E-3,-6.718523E-4,9.749389E-2,1.04590535E-1,-3.127417E-4,1.87842E-2,2.2122089E-2,1.0151851E-2,-0E0,8.915686E-2,-1.8695327E-2,5.6972606E-3,-0E0,-3.684253E-3,-0E0],"categories":[],"categories_nodes":[],"categories_segments":[],"categories_sizes":[],"default_left":[0,0,0,0,0,0,0,0,0,0,0,0,0,0,0],"id":60,"left_children":[1,3,5,7,-1,-1,9,-1,-1,11,13,-1,-1,-1,-1],"loss_changes":[1.871937E-1,3.8462684E-2,2.3310754E-1,4.9630526E-2,0E0,0E0,8.888512E-2,0E0,0E0,4.7431283E-2,1.892183E-2,0E0,0E0,0E0,0E0],"parents":[2147483647,0,0,1,1,2,2,3,3,6,6,9,9,10,10],"right_children":[2,4,6,8,-1,-1,10,-1,-1,12,14,-1,-1,-1,-1],"split_conditions":[1.3610215E0,-1.637565E0,-1.1325969E0,1.495116E0,-3.127417E-4,1.87842E-2,2.900172E0,1.0151851E-2,-0E0,9.9511E-1,1.4442252E-1,5.6972606E-3,-0E0,-3.684253E-3,-0E0],"split_indices":[8,2,1,0,0,0,6,0,0,0,2,0,0,0,0],"split_type":[0,0,0,0,0,0,0,0,0,0,0,0,0,0,0],"sum_hessian":[1.67E2,1.47E2,2E1,2E0,1.45E2,2E0,1.8E1,1E0,1E0,1.1E1,7E0,1E1,1E0,3E0,4E0],"tree_param":{"num_deleted":"0","num_feature":"10","num_nodes":"15","size_leaf_vector":"1"}},{"base_weights":[4.643726E-3,9.819332E-2,-1.8591128E-3,1.691255E-2,2.0435123E-2,-0E0,-3.3988603E-3,1.0120658E-1,-0E0,-3.4680877E-5,1.4572571E-2,9.898054E-3,-0E0,1.8987887E-3,-0E0],"categories":[],"categories_nodes":[],"categories_segments":[],"categories_sizes":[],"default_left":[0,0,0,0,0,0,0,0,0,0,0,0,0,0,0],"id":61,"left_children":[1,3,5,7,-1,9,-1,11,-1,-1,13,-1,-1,-1,-1],"loss_changes":[1.5115876E-1,1.8409504E-1,4.105584E-2,2.64378E-2,0E0,6.0033267E-3,0E0,4.764887E-2,0E0,0E0,2.4339272E-2,0E0,0E0,0E0,0E0],"parents":[2147483647,0,0,1,1,2,2,3,3,5,5,7,7,10,10],"right_children":[2,4,6,8,-1,10,-1,12,-1,-1,14,-1,-1,-1,-1],"split_conditions":[-1.1325969E0,2.673532E0,2.900172E0,-1.637565E0,2.0435123E-2,5.997657E-1,-3.3988603E-3,1.495116E0,-0E0,-3.4680877E-5,9.9511E-1,9.898054E-3,-0E0,1.8987887E-3,-0E0],"split_indices":[1,9,6,2,0,9,0,0,0,0,0,0,0,0,0],"split_type":[0,0,0,0,0,0,0,0,0,0,0,0,0,0,0],"sum_hessian":[1.68E2,1.5E1,1.53E2,1.4E1,1E0,1.45E2,8E0,2E0,1.2E1,1.18E2,2.7E1,1E0,1E0,2E1,7E0],"tree_param":{"num_deleted":"0","num_feature":"10","num_nodes":"15","size_leaf_vector":"1"}},{"base_weights":[-0E0,9.790722E-2,-3.0963921E-3,9.650603E-3,-0E0,-1.1514496E-2,-0E0,-0E0,-1.3727094E-2,-5.024288E-5,3.6585737E-2,-0E0,-2.9624763E-3,6.6910246E-3,-0E0],"categories":[],"categories_nodes":[],"categories_segments":[],"categories_sizes":[],"default_left":[0,0,0,0,0,0,0,0,0,0,0,0,0,0,0],"id":62,"left_children":[1,3,5,-1,-1,7,9,-1,11,-1,13,-1,-1,-1,-1],"loss_changes":[3.024356E-2,4.5749836E-2,7.794768E-3,0E0,0E0,1.6482677E-3,1.4800419E-2,0E0,1.3644423E-2,0E0,5.690801E-2,0E0,0E0,0E0,0E0],"parents":[2147483647,0,0,1,1,2,2,5,5,6,6,8,8,10,10],"right_children":[2,4,6,-1,-1,8,10,-1,12,-1,14,-1,-1,-1,-1],"split_conditions":[-1.637565E0,1.495116E0,-9.317582E-2,9.650603E-3,-0E0,-1.1325969E0,1.3610215E0,-0E0,1.3610215E0,-5.024288E-5,-4.9020196E-3,-0E0,-2.9624763E-3,6.6910246E-3,-0E0],"split_indices":[2,0,2,0,0,1,8,0,8,0,0,0,0,0,0],"split_type":[0,0,0,0,0,0,0,0,0,0,0,0,0,0,0],"sum_hessian":[1.56E2,2E0,1.54E2,1E0,1E0,6.9E1,8.5E1,1.2E1,5.7E1,7.5E1,1E1,5.1E1,6E0,3E0,7E0],"tree_param":{"num_deleted":"0","num_feature":"10","num_nodes":"15","size_leaf_vector":"1"}},{"base_weights":[5.281627E-4,9.469036E-2,-0E0,9.409338E-3,-0E0,-5.1035075E-3,2.7990578E-2,-2.5615524E-4,-0E0,7.884726E-2,-1.2006775E-2,6.0053854E-3,-0E0,-2.6393558E-3,-0E0],"categories":[],"categories_nodes":[],"categories_segments":[],"categories_sizes":[],"default_left":[0,0,0,0,0,0,0,0,0,0,0,0,0,0,0],"id":63,"left_children":[1,3,5,-1,-1,7,9,-1,-1,11,13,-1,-1,-1,-1],"loss_changes":[2.6853325E-2,4.3929726E-2,1.8610524E-2,0E0,0E0,2.4132896E-6,7.301547E-2,0E0,0E0,8.607385E-2,1.3067423E-2,0E0,0E0,0E0,0E0],"parents":[2147483647,0,0,1,1,2,2,5,5,6,6,9,9,10,10],"right_children":[2,4,6,-1,-1,8,10,-1,-1,12,14,-1,-1,-1,-1],"split_conditions":[-1.637565E0,2.900172E0,1.3610215E0,9.409338E-3,-0E0,6.014041E0,2.900172E0,-2.5615524E-4,-0E0,1.567682E0,4.706183E0,6.0053854E-3,-0E0,-2.6393558E-3,-0E0],"split_indices":[2,6,8,0,0,7,6,0,0,3,8,0,0,0,0],"split_type":[0,0,0,0,0,0,0,0,0,0,0,0,0,0,0],"sum_hessian":[1.62E2,2E0,1.6E2,1E0,1E0,1.42E2,1.8E1,1.41E2,1E0,1.3E1,5E0,1.1E1,2E0,4E0,1E0],"tree_param":{"num_deleted":"0","num_feature":"10","num_nodes":"15","size_leaf_vector":"1"}},{"base_weights":[5.4125995E-3,-0E0,1.9924244E-2,9.155393E-2,-1.142641E-3,9.174106E-3,-0E0,-1.1936376E-2,2.9413346E-3,-1.1196699E-3,-0E0,-6.1015085E-6,3.149918E-3],"categories":[],"categories_nodes":[],"categories_segments":[],"categories_sizes":[],"default_left":[0,0,0,0,0,0,0,0,0,0,0,0,0],"id":64,"left_children":[1,3,-1,5,7,-1,-1,9,11,-1,-1,-1,-1],"loss_changes":[3.1277582E-1,2.5356572E-2,0E0,4.2185E-2,1.1629728E-2,0E0,0E0,1.4461463E-2,4.689989E-2,0E0,0E0,0E0,0E0],"parents":[2147483647,0,0,1,1,3,3,4,4,7,7,8,8],"right_children":[2,4,-1,6,8,-1,-1,10,12,-1,-1,-1,-1],"split_conditions":[6.3787637E0,-1.637565E0,1.9924244E-2,1.495116E0,2.562335E-2,9.174106E-3,-0E0,1.5310984E0,1.3610215E0,-1.1196699E-3,-0E0,-6.1015085E-6,3.149918E-3],"split_indices":[8,2,0,0,2,0,0,5,8,0,0,0,0],"split_type":[0,0,0,0,0,0,0,0,0,0,0,0,0],"sum_hessian":[1.63E2,1.62E2,1E0,2E0,1.6E2,1E0,1E0,7.7E1,8.3E1,5E1,2.7E1,7.2E1,1.1E1],"tree_param":{"num_deleted":"0","num_feature":"10","num_nodes":"13","size_leaf_vector":"1"}},{"base_weights":[2.203461E-3,-2.5954419E-3,7.68058E-2,8.849589E-2,-7.984802E-3,1.8104254E-1,-0E0,8.944753E-3,-0E0,-1.6194083E-2,-0E0,2.4587919E-1,-0E0,-0E0,-5.763482E-3,-0E0,1.7142002E-2],"categories":[],"categories_nodes":[],"categories_segments":[],"categories_sizes":[],"default_left":[0,0,0,0,0,0,0,0,0,0,0,0,0,0,0,0,0],"id":65,"left_children":[1,3,5,7,9,11,-1,-1,-1,13,-1,15,-1,-1,-1,-1,-1],"loss_changes":[9.458603E-2,3.1635065E-2,2.0060149E-1,4.051231E-2,7.928878E-3,1.88665E-1,0E0,0E0,0E0,4.9389303E-2,0E0,2.2158307E-1,0E0,0E0,0E0,0E0,0E0],"parents":[2147483647,0,0,1,1,2,2,3,3,4,4,5,5,9,9,11,11],"right_children":[2,4,6,8,10,12,-1,-1,-1,14,-1,16,-1,-1,-1,-1,-1],"split_conditions":[1.6366489E0,-1.637565E0,4.9510399E-1,1.495116E0,-9.317582E-2,6.014041E0,-0E0,8.944753E-3,-0E0,1.3610215E0,-0E0,1.3610215E0,-0E0,-0E0,-5.763482E-3,-0E0,1.7142002E-2],"split_indices":[9,2,0,0,2,6,0,0,0,8,0,8,0,0,0,0,0],"split_type":[0,0,0,0,0,0,0,0,0,0,0,0,0,0,0,0,0],"sum_hessian":[1.59E2,1.44E2,1.5E1,2E0,1.42E2,8E0,7E0,1E0,1E0,6.4E1,7.8E1,7E0,1E0,6E1,4E0,2E0,5E0],"tree_param":{"num_deleted":"0","num_feature":"10","num_nodes":"17","size_leaf_vector":"1"}},{"base_weights":[-0E0,5.0670053E-3,-6.354286E-3,1.1876254E-2,-0E0,-0E0,-1.2214474E-2,-0E0,2.9718287E-2,-0E0,-2.7728302E-3,-3.6837524E-4,8.328746E-4,2.1485512E-3,-0E0],"categories":[],"categories_nodes":[],"categories_segments":[],"categories_sizes":[],"default_left":[0,0,0,0,0,0,0,0,0,0,0,0,0,0,0],"id":66,"left_children":[1,3,5,7,-1,-1,9,11,13,-1,-1,-1,-1,-1,-1],"loss_changes":[5.276659E-3,7.806213E-3,3.4958613E-3,2.001378E-2,0E0,0E0,1.18881E-2,3.2328847E-3,2.7213773E-2,0E0,0E0,0E0,0E0,0E0,0E0],"parents":[2147483647,0,0,1,1,2,2,3,3,6,6,7,7,8,8],"right_children":[2,4,6,8,-1,-1,10,12,14,-1,-1,-1,-1,-1,-1],"split_conditions":[4.1807267E-1,1.495116E0,-4.9020196E-3,-4.9020196E-3,-0E0,-0E0,1.3610215E0,1.6366489E0,2.673532E0,-0E0,-2.7728302E-3,-3.6837524E-4,8.328746E-4,2.1485512E-3,-0E0],"split_indices":[1,0,0,0,0,0,8,9,9,0,0,0,0,0,0],"split_type":[0,0,0,0,0,0,0,0,0,0,0,0,0,0,0],"sum_hessian":[1.6E2,8.5E1,7.5E1,7E1,1.5E1,3.2E1,4.3E1,3.7E1,3.3E1,3.8E1,5E0,3.3E1,4E0,3E1,3E0],"tree_param":{"num_deleted":"0","num_feature":"10","num_nodes":"15","size_leaf_vector":"1"}},{"base_weights":[4.5210705E-3,-0E0,1.8976763E-2,8.4798135E-2,-1.575891E-3,8.6674215E-3,-0E0,-9.105001E-3,-0E0,-8.776095E-4,-0E0,-4.9886217E-5,1.8481009E-3],"categories":[],"categories_nodes":[],"categories_segments":[],"categories_sizes":[],"default_left":[0,0,0,0,0,0,0,0,0,0,0,0,0],"id":67,"left_children":[1,3,-1,5,7,-1,-1,9,11,-1,-1,-1,-1],"loss_changes":[2.8468052E-1,2.1979455E-2,0E0,3.8527183E-2,5.9760967E-3,0E0,0E0,9.636747E-3,1.9201329E-2,0E0,0E0,0E0,0E0],"parents":[2147483647,0,0,1,1,3,3,4,4,7,7,8,8],"right_children":[2,4,-1,6,8,-1,-1,10,12,-1,-1,-1,-1],"split_conditions":[6.3787637E0,-1.637565E0,1.8976763E-2,1.495116E0,-9.317582E-2,8.6674215E-3,-0E0,1.5310984E0,1.3610215E0,-8.776095E-4,-0E0,-4.9886217E-5,1.8481009E-3],"split_indices":[8,2,0,0,2,0,0,5,8,0,0,0,0],"split_type":[0,0,0,0,0,0,0,0,0,0,0,0,0],"sum_hessian":[1.66E2,1.65E2,1E0,2E0,1.63E2,1E0,1E0,7.6E1,8.7E1,5.1E1,2.5E1,7.4E1,1.3E1],"tree_param":{"num_deleted":"0","num_feature":"10","num_nodes":"13","size_leaf_vector":"1"}},{"base_weights":[1.6744828E-3,-0E0,1.8502343E-2,8.190898E-2,-4.305988E-3,8.450734E-3,-0E0,-1.6901642E-2,-0E0,-2.0824982E-5,-6.0617058E-3,-3.176399E-5,1.7150957E-3],"categories":[],"categories_nodes":[],"categories_segments":[],"categories_sizes":[],"default_left":[0,0,0,0,0,0,0,0,0,0,0,0,0],"id":68,"left_children":[1,3,-1,5,7,-1,-1,9,11,-1,-1,-1,-1],"loss_changes":[2.7340108E-1,2.3168053E-2,0E0,3.7004687E-2,1.6098777E-2,0E0,0E0,5.435989E-2,1.6507003E-2,0E0,0E0,0E0,0E0],"parents":[2147483647,0,0,1,1,3,3,4,4,7,7,8,8],"right_children":[2,4,-1,6,8,-1,-1,10,12,-1,-1,-1,-1],"split_conditions":[6.3787637E0,-1.637565E0,1.8502343E-2,1.495116E0,-2.11975E-1,8.450734E-3,-0E0,-9.881718E-2,1.3610215E0,-2.0824982E-5,-6.0617058E-3,-3.176399E-5,1.7150957E-3],"split_indices":[8,2,0,0,2,0,0,1,8,0,0,0,0],"split_type":[0,0,0,0,0,0,0,0,0,0,0,0,0],"sum_hessian":[1.66E2,1.65E2,1E0,2E0,1.63E2,1E0,1E0,6.6E1,9.7E1,6.2E1,4E0,8.4E1,1.3E1],"tree_param":{"num_deleted":"0","num_feature":"10","num_nodes":"13","size_leaf_vector":"1"}},{"base_weights":[1.7040339E-3,6.976054E-2,-1.9501733E-3,-0E0,1.8039783E-2,6.7226584E-3,-1.40742175E-2,7.909206E-2,-0E0,-0E0,1.0746447E-1,-0E0,-6.52339E-2,8.239466E-3,-0E0,-8.795061E-4,-0E0,8.313307E-3,-0E0,-0E0,-4.4889688E-3],"categories":[],"categories_nodes":[],"categories_segments":[],"categories_sizes":[],"default_left":[0,0,0,0,0,0,0,0,0,0,0,0,0,0,0,0,0,0,0,0,0],"id":69,"left_children":[1,3,5,7,-1,9,11,13,15,-1,17,-1,19,-1,-1,-1,-1,-1,-1,-1,-1],"loss_changes":[7.3085964E-2,1.8734905E-1,1.8806817E-2,1.8766664E-2,0E0,8.967725E-2,3.4426525E-2,3.5544377E-2,3.0941241E-3,0E0,4.583323E-2,0E0,1.3417136E-2,0E0,0E0,0E0,0E0,0E0,0E0,0E0,0E0],"parents":[2147483647,0,0,1,1,2,2,3,3,5,5,6,6,7,7,8,8,10,10,12,12],"right_children":[2,4,6,8,-1,10,12,14,16,-1,18,-1,20,-1,-1,-1,-1,-1,-1,-1,-1],"split_conditions":[-1.1325969E0,4.706183E0,-4.9020196E-3,-1.637565E0,1.8039783E-2,1.3610215E0,1.3610215E0,1.495116E0,-1.3999667E0,-0E0,2.900172E0,-0E0,-2.11975E-1,8.239466E-3,-0E0,-8.795061E-4,-0E0,8.313307E-3,-0E0,-0E0,-4.4889688E-3],"split_indices":[1,8,0,2,0,8,8,0,2,0,6,0,2,0,0,0,0,0,0,0,0],"split_type":[0,0,0,0,0,0,0,0,0,0,0,0,0,0,0,0,0,0,0,0,0],"sum_hessian":[1.56E2,1.4E1,1.42E2,1.3E1,1E0,5.9E1,8.3E1,2E0,1.1E1,5.2E1,7E0,7.2E1,1.1E1,1E0,1E0,9E0,2E0,4E0,3E0,4E0,7E0],"tree_param":{"num_deleted":"0","num_feature":"10","num_nodes":"21","size_leaf_vector":"1"}},{"base_weights":[-0E0,7.634556E-2,-2.964106E-3,8.033479E-3,-0E0,-0E0,-4.264819E-4,-2.4768844E-5,4.2647887E-2,-0E0,5.1514963E-3],"categories":[],"categories_nodes":[],"categories_segments":[],"categories_sizes":[],"default_left":[0,0,0,0,0,0,0,0,0,0,0],"id":70,"left_children":[1,3,5,-1,-1,7,-1,-1,9,-1,-1],"loss_changes":[1.8891683E-2,3.414348E-2,5.2876864E-3,0E0,0E0,1.4565953E-2,0E0,0E0,5.9755415E-2,0E0,0E0],"parents":[2147483647,0,0,1,1,2,2,5,5,8,8],"right_children":[2,4,6,-1,-1,8,-1,-1,10,-1,-1],"split_conditions":[-1.637565E0,1.495116E0,-4.9020196E-3,8.033479E-3,-0E0,1.3610215E0,-4.264819E-4,-2.4768844E-5,-1.5187658E0,-0E0,5.1514963E-3],"split_indices":[2,0,0,0,0,8,0,0,2,0,0],"split_type":[0,0,0,0,0,0,0,0,0,0,0],"sum_hessian":[1.61E2,2E0,1.59E2,1E0,1E0,6.8E1,9.1E1,6.1E1,7E0,1E0,6E0],"tree_param":{"num_deleted":"0","num_feature":"10","num_nodes":"11","size_leaf_vector":"1"}},{"base_weights":[-0E0,5.1012844E-2,-6.270181E-3,-0E0,1.7460002E-2,-0E0,-3.2763947E-3,7.366773E-2,-0E0,-2.7480237E-3,4.2895093E-3,7.832641E-3,-0E0,-7.445509E-4,-0E0,-1.3857418E-4,-0E0,1.734597E-3,-0E0],"categories":[],"categories_nodes":[],"categories_segments":[],"categories_sizes":[],"default_left":[0,0,0,0,0,0,0,0,0,0,0,0,0,0,0,0,0,0,0],"id":71,"left_children":[1,3,5,7,-1,9,-1,11,13,15,17,-1,-1,-1,-1,-1,-1,-1,-1],"loss_changes":[5.4948013E-2,1.9443741E-1,3.314102E-2,1.6280802E-2,0E0,1.1236982E-3,0E0,3.27994E-2,3.1043936E-3,8.116127E-6,8.222316E-3,0E0,0E0,0E0,0E0,0E0,0E0,0E0,0E0],"parents":[2147483647,0,0,1,1,2,2,3,3,5,5,7,7,8,8,9,9,10,10],"right_children":[2,4,6,8,-1,10,-1,12,14,16,18,-1,-1,-1,-1,-1,-1,-1,-1],"split_conditions":[-1.1325969E0,4.706183E0,2.900172E0,-1.637565E0,1.7460002E-2,1.3610215E0,-3.2763947E-3,2.900172E0,-1.3999667E0,6.014041E0,4.1807267E-1,7.832641E-3,-0E0,-7.445509E-4,-0E0,-1.3857418E-4,-0E0,1.734597E-3,-0E0],"split_indices":[1,8,6,2,0,8,0,6,2,7,1,0,0,0,0,0,0,0,0],"split_type":[0,0,0,0,0,0,0,0,0,0,0,0,0,0,0,0,0,0,0],"sum_hessian":[1.57E2,1.8E1,1.39E2,1.7E1,1E0,1.31E2,8E0,2E0,1.5E1,1.21E2,1E1,1E0,1E0,1.3E1,2E0,1.2E2,1E0,6E0,4E0],"tree_param":{"num_deleted":"0","num_feature":"10","num_nodes":"19","size_leaf_vector":"1"}},{"base_weights":[-0E0,-2.268865E-3,1.7023502E-2,7.105684E-2,-6.5156594E-3,7.636824E-3,-0E0,-1.3890174E-2,-0E0,-0E0,-5.0509996E-3,5.482123E-4,-2.9651308E-4],"categories":[],"categories_nodes":[],"categories_segments":[],"categories_sizes":[],"default_left":[0,0,0,0,0,0,0,0,0,0,0,0,0],"id":72,"left_children":[1,3,-1,5,7,-1,-1,9,11,-1,-1,-1,-1],"loss_changes":[2.3271993E-1,2.1441655E-2,0E0,3.1509645E-2,5.1732697E-3,0E0,0E0,3.8677223E-2,5.889144E-3,0E0,0E0,0E0,0E0],"parents":[2147483647,0,0,1,1,3,3,4,4,7,7,8,8],"right_children":[2,4,-1,6,8,-1,-1,10,12,-1,-1,-1,-1],"split_conditions":[6.3787637E0,-1.637565E0,1.7023502E-2,2.900172E0,-2.11975E-1,7.636824E-3,-0E0,-9.881718E-2,4.1807267E-1,-0E0,-5.0509996E-3,5.482123E-4,-2.9651308E-4],"split_indices":[8,2,0,6,2,0,0,1,1,0,0,0,0],"split_type":[0,0,0,0,0,0,0,0,0,0,0,0,0],"sum_hessian":[1.71E2,1.7E2,1E0,2E0,1.68E2,1E0,1E0,6.3E1,1.05E2,5.9E1,4E0,2.4E1,8.1E1],"tree_param":{"num_deleted":"0","num_feature":"10","num_nodes":"13","size_leaf_vector":"1"}},{"base_weights":[1.1333727E-2,9.0764925E-2,-0E0,-0E0,1.5549804E-2,5.0282357E-3,-2.478418E-2,6.851125E-2,-0E0,-0E0,4.471892E-2,-3.6648368E-3,-0E0,7.445905E-3,-0E0,3.7664857E-3,-0E0],"categories":[],"categories_nodes":[],"categories_segments":[],"categories_sizes":[],"default_left":[0,0,0,0,0,0,0,0,0,0,0,0,0,0,0,0,0],"id":73,"left_children":[1,3,5,7,-1,9,11,13,-1,-1,15,-1,-1,-1,-1,-1,-1],"loss_changes":[1.0263617E-1,1.6658163E-1,9.093224E-3,1.4081373E-2,0E0,5.0429188E-2,2.1333756E-2,3.0271824E-2,0E0,0E0,6.517176E-2,0E0,0E0,0E0,0E0,0E0,0E0],"parents":[2147483647,0,0,1,1,2,2,3,3,5,5,6,6,7,7,10,10],"right_children":[2,4,6,8,-1,10,12,14,-1,-1,16,-1,-1,-1,-1,-1,-1],"split_conditions":[-1.1325969E0,-1.3999667E0,2.900172E0,-1.637565E0,1.5549804E-2,5.997657E-1,1.4442252E-1,1.495116E0,-0E0,-0E0,2.673532E0,-3.6648368E-3,-0E0,7.445905E-3,-0E0,3.7664857E-3,-0E0],"split_indices":[1,2,6,2,0,9,2,0,0,0,9,0,0,0,0,0,0],"split_type":[0,0,0,0,0,0,0,0,0,0,0,0,0,0,0,0,0],"sum_hessian":[1.62E2,1.4E1,1.48E2,1.2E1,2E0,1.4E2,8E0,2E0,1E1,1.14E2,2.6E1,4E0,4E0,1E0,1E0,2E1,6E0],"tree_param":{"num_deleted":"0","num_feature":"10","num_nodes":"17","size_leaf_vector":"1"}},{"base_weights":[-0E0,6.602927E-2,-3.489774E-3,7.2597563E-3,-0E0,-6.8817763E-3,-0E0,-1.6869416E-2,-0E0,6.603789E-2,-0E0,-0E0,-5.6229667E-3,-1.869357E-5,1.00460275E-4,6.4232647E-3,-0E0],"categories":[],"categories_nodes":[],"categories_segments":[],"categories_sizes":[],"default_left":[0,0,0,0,0,0,0,0,0,0,0,0,0,0,0,0,0],"id":74,"left_children":[1,3,5,-1,-1,7,9,11,13,15,-1,-1,-1,-1,-1,-1,-1],"loss_changes":[1.50038E-2,2.9083654E-2,4.9901847E-3,0E0,0E0,9.875662E-3,2.1805018E-2,4.644545E-2,5.1411673E-5,4.420831E-2,0E0,0E0,0E0,0E0,0E0,0E0,0E0],"parents":[2147483647,0,0,1,1,2,2,5,5,6,6,7,7,8,8,9,9],"right_children":[2,4,6,-1,-1,8,10,12,14,16,-1,-1,-1,-1,-1,-1,-1],"split_conditions":[-1.637565E0,1.495116E0,1.6366489E0,7.2597563E-3,-0E0,-9.317582E-2,4.9510399E-1,1.3610215E0,1.3610215E0,3.7104151E0,-0E0,-0E0,-5.6229667E-3,-1.869357E-5,1.00460275E-4,6.4232647E-3,-0E0],"split_indices":[2,0,9,0,0,2,0,8,8,9,0,0,0,0,0,0,0],"split_type":[0,0,0,0,0,0,0,0,0,0,0,0,0,0,0,0,0],"sum_hessian":[1.59E2,2E0,1.57E2,1E0,1E0,1.45E2,1.2E1,5.8E1,8.7E1,4E0,8E0,5.4E1,4E0,7.8E1,9E0,3E0,1E0],"tree_param":{"num_deleted":"0","num_feature":"10","num_nodes":"17","size_leaf_vector":"1"}},{"base_weights":[3.3583078E-3,-5.83139E-4,5.0656512E-2,6.360936E-2,-2.6293885E-4,2.0375237E-1,-1.1244769E-2,7.0782634E-3,-0E0,-0E0,1.3796438E-2,-0E0,-3.5406095E-3,2.5879533E-3,-0E0],"categories":[],"categories_nodes":[],"categories_segments":[],"categories_sizes":[],"default_left":[0,0,0,0,0,0,0,0,0,0,0,0,0,0,0],"id":75,"left_children":[1,3,5,7,-1,9,11,-1,-1,-1,-1,13,-1,-1,-1],"loss_changes":[5.7131045E-2,1.6180344E-2,3.1651202E-1,2.7942996E-2,0E0,2.3545825E-1,3.3203892E-2,0E0,0E0,0E0,0E0,1.6074007E-2,0E0,0E0,0E0],"parents":[2147483647,0,0,1,1,2,2,3,3,5,5,6,6,11,11],"right_children":[2,4,6,8,-1,10,12,-1,-1,-1,-1,14,-1,-1,-1],"split_conditions":[1.3610215E0,-1.637565E0,-4.9020196E-3,1.495116E0,-2.6293885E-4,-1.5187658E0,1.4442252E-1,7.0782634E-3,-0E0,-0E0,1.3796438E-2,2.900172E0,-3.5406095E-3,2.5879533E-3,-0E0],"split_indices":[8,2,0,0,0,2,2,0,0,0,0,6,0,0,0],"split_type":[0,0,0,0,0,0,0,0,0,0,0,0,0,0,0],"sum_hessian":[1.71E2,1.49E2,2.2E1,2E0,1.47E2,8E0,1.4E1,1E0,1E0,1E0,7E0,8E0,6E0,5E0,3E0],"tree_param":{"num_deleted":"0","num_feature":"10","num_nodes":"15","size_leaf_vector":"1"}},{"base_weights":[5.794353E-3,-0E0,1.5864259E-2,6.124993E-2,-0E0,6.901306E-3,-0E0,-2.4138263E-4,1.9527255E-2,4.081253E-3,-4.7080228E-4],"categories":[],"categories_nodes":[],"categories_segments":[],"categories_sizes":[],"default_left":[0,0,0,0,0,0,0,0,0,0,0],"id":76,"left_children":[1,3,-1,5,7,-1,-1,-1,9,-1,-1],"loss_changes":[1.9583355E-1,1.1254662E-2,0E0,2.6847757E-2,9.861736E-3,0E0,0E0,0E0,6.742746E-2,0E0,0E0],"parents":[2147483647,0,0,1,1,3,3,4,4,8,8],"right_children":[2,4,-1,6,8,-1,-1,-1,10,-1,-1],"split_conditions":[4.706183E0,-1.637565E0,1.5864259E-2,1.495116E0,1.3610215E0,6.901306E-3,-0E0,-2.4138263E-4,2.900172E0,4.081253E-3,-4.7080228E-4],"split_indices":[8,2,0,0,8,0,0,0,6,0,0],"split_type":[0,0,0,0,0,0,0,0,0,0,0],"sum_hessian":[1.63E2,1.62E2,1E0,2E0,1.6E2,1E0,1E0,1.44E2,1.6E1,1E1,6E0],"tree_param":{"num_deleted":"0","num_feature":"10","num_nodes":"11","size_leaf_vector":"1"}},{"base_weights":[1.5869141E-3,-0E0,1.5467653E-2,-0E0,-2.251885E-3,-0E0,9.18058E-3,-1.5830038E-3,-0E0,-0E0,-1.4081127E-4,-2.962269E-4,2.6929239E-3],"categories":[],"categories_nodes":[],"categories_segments":[],"categories_sizes":[],"default_left":[0,0,0,0,0,0,0,0,0,0,0,0,0],"id":77,"left_children":[1,3,-1,5,7,9,11,-1,-1,-1,-1,-1,-1],"loss_changes":[1.9096044E-1,4.5638873E-5,0E0,1.1799627E-3,5.968524E-3,1.1024264E-3,3.373416E-2,0E0,0E0,0E0,0E0,0E0,0E0],"parents":[2147483647,0,0,1,1,3,3,4,4,5,5,6,6],"right_children":[2,4,-1,6,8,10,12,-1,-1,-1,-1,-1,-1],"split_conditions":[6.3787637E0,2.900172E0,1.5467653E-2,1.3610215E0,3.0336022E0,-1.1325969E0,-6.1570704E-1,-1.5830038E-3,-0E0,-0E0,-1.4081127E-4,-2.962269E-4,2.6929239E-3],"split_indices":[8,6,0,8,8,1,1,0,0,0,0,0,0],"split_type":[0,0,0,0,0,0,0,0,0,0,0,0,0],"sum_hessian":[1.73E2,1.72E2,1E0,1.64E2,8E0,1.51E2,1.3E1,5E0,3E0,1.3E1,1.38E2,2E0,1.1E1],"tree_param":{"num_deleted":"0","num_feature":"10","num_nodes":"13","size_leaf_vector":"1"}},{"base_weights":[-2.3431578E-3,-0E0,-4.2846937E-2,6.7287744E-3,-1.4124261E-3,-3.966568E-3,-0E0,2.0375992E-3,-1.3677108E-2,-8.581338E-5,3.0422143E-3,-0E0,-1.7108361E-3],"categories":[],"categories_nodes":[],"categories_segments":[],"categories_sizes":[],"default_left":[0,0,0,0,0,0,0,0,0,0,0,0,0],"id":78,"left_children":[1,3,5,-1,7,-1,-1,9,11,-1,-1,-1,-1],"loss_changes":[1.75021E-2,3.6512386E-2,1.9402187E-2,0E0,1.2025389E-2,0E0,0E0,4.799089E-2,3.248142E-3,0E0,0E0,0E0,0E0],"parents":[2147483647,0,0,1,1,2,2,4,4,7,7,8,8],"right_children":[2,4,6,-1,8,-1,-1,10,12,-1,-1,-1,-1],"split_conditions":[2.900172E0,-1.637565E0,1.4442252E-1,6.7287744E-3,4.9510399E-1,-3.966568E-3,-0E0,5.997657E-1,5.997657E-1,-8.581338E-5,3.0422143E-3,-0E0,-1.7108361E-3],"split_indices":[6,2,2,0,0,0,0,9,9,0,0,0,0],"split_type":[0,0,0,0,0,0,0,0,0,0,0,0,0],"sum_hessian":[1.55E2,1.46E2,9E0,1E0,1.45E2,5E0,4E0,8.2E1,6.3E1,7E1,1.2E1,5.1E1,1.2E1],"tree_param":{"num_deleted":"0","num_feature":"10","num_nodes":"13","size_leaf_vector":"1"}},{"base_weights":[-3.6119844E-3,4.5313664E-2,-1.2671522E-2,-0E0,1.5180126E-2,-1.4131369E-4,-6.1276354E-2,5.8556445E-2,-0E0,-7.4146786E-3,-0E0,6.560555E-3,-0E0,-6.9243595E-4,-0E0,2.080269E-3,-0E0],"categories":[],"categories_nodes":[],"categories_segments":[],"categories_sizes":[],"default_left":[0,0,0,0,0,0,0,0,0,0,0,0,0,0,0,0,0],"id":79,"left_children":[1,3,5,7,-1,-1,9,11,13,-1,15,-1,-1,-1,-1,-1,-1],"loss_changes":[5.916131E-2,1.4738907E-1,4.051155E-2,1.0286571E-2,0E0,0E0,1.3408738E-1,2.4146134E-2,2.493231E-3,0E0,1.0386045E-2,0E0,0E0,0E0,0E0,0E0,0E0],"parents":[2147483647,0,0,1,1,2,2,3,3,6,6,7,7,8,8,10,10],"right_children":[2,4,6,8,-1,-1,10,12,14,-1,16,-1,-1,-1,-1,-1,-1],"split_conditions":[-1.1325969E0,4.706183E0,1.3610215E0,-1.637565E0,1.5180126E-2,-1.4131369E-4,1.6366489E0,1.495116E0,-1.3999667E0,-7.4146786E-3,3.7104151E0,6.560555E-3,-0E0,-6.9243595E-4,-0E0,2.080269E-3,-0E0],"split_indices":[1,8,8,2,0,0,9,0,2,0,9,0,0,0,0,0,0],"split_type":[0,0,0,0,0,0,0,0,0,0,0,0,0,0,0,0,0],"sum_hessian":[1.68E2,1.7E1,1.51E2,1.6E1,1E0,1.35E2,1.6E1,2E0,1.4E1,8E0,8E0,1E0,1E0,1.2E1,2E0,5E0,3E0],"tree_param":{"num_deleted":"0","num_feature":"10","num_nodes":"17","size_leaf_vector":"1"}},{"base_weights":[-5.797011E-4,-4.7578206E-3,5.9958022E-2,5.636959E-2,-8.972879E-3,1.4800623E-2,-0E0,6.396541E-3,-0E0,-2.2156315E-2,-0E0,-1.927799E-5,-5.7362374E-3,1.9167962E-4,-1.4179856E-4],"categories":[],"categories_nodes":[],"categories_segments":[],"categories_sizes":[],"default_left":[0,0,0,0,0,0,0,0,0,0,0,0,0,0,0],"id":80,"left_children":[1,3,5,7,9,-1,-1,-1,-1,11,13,-1,-1,-1,-1],"loss_changes":[1.4419252E-2,1.8805306E-2,1.6446187E-1,2.3199998E-2,1.8946124E-2,0E0,0E0,0E0,0E0,7.339412E-2,1.0609893E-3,0E0,0E0,0E0,0E0],"parents":[2147483647,0,0,1,1,2,2,3,3,4,4,9,9,10,10],"right_children":[2,4,6,8,10,-1,-1,-1,-1,12,14,-1,-1,-1,-1],"split_conditions":[6.3787637E0,-1.637565E0,-4.9020196E-3,1.495116E0,-2.11975E-1,1.4800623E-2,-0E0,6.396541E-3,-0E0,1.3610215E0,-4.9020196E-3,-1.927799E-5,-5.7362374E-3,1.9167962E-4,-1.4179856E-4],"split_indices":[8,2,0,0,2,0,0,0,0,8,0,0,0,0,0],"split_type":[0,0,0,0,0,0,0,0,0,0,0,0,0,0,0],"sum_hessian":[1.64E2,1.62E2,2E0,2E0,1.6E2,1E0,1E0,1E0,1E0,6.4E1,9.6E1,5.7E1,7E0,4E1,5.6E1],"tree_param":{"num_deleted":"0","num_feature":"10","num_nodes":"15","size_leaf_vector":"1"}},{"base_weights":[-2.3896524E-3,5.4237414E-2,-6.509971E-3,6.2366277E-3,-0E0,-0E0,-1.4538316E-2,-2.0078098E-5,3.360802E-2,-2.8277014E-5,-6.3094415E-2,-0E0,5.7274685E-3,-0E0,-3.8189068E-3],"categories":[],"categories_nodes":[],"categories_segments":[],"categories_sizes":[],"default_left":[0,0,0,0,0,0,0,0,0,0,0,0,0,0,0],"id":81,"left_children":[1,3,5,-1,-1,7,9,-1,11,-1,13,-1,-1,-1,-1],"loss_changes":[1.4754094E-2,2.2291329E-2,1.3002574E-2,0E0,0E0,1.1304664E-2,3.1909905E-2,0E0,6.7434356E-2,0E0,7.508099E-4,0E0,0E0,0E0,0E0],"parents":[2147483647,0,0,1,1,2,2,5,5,6,6,8,8,10,10],"right_children":[2,4,6,-1,-1,8,10,-1,12,-1,14,-1,-1,-1,-1],"split_conditions":[-1.637565E0,1.495116E0,-4.9020196E-3,6.2366277E-3,-0E0,1.3610215E0,1.3610215E0,-2.0078098E-5,-2.11975E-1,-2.8277014E-5,-2.11975E-1,-0E0,5.7274685E-3,-0E0,-3.8189068E-3],"split_indices":[2,0,0,0,0,8,8,0,2,0,2,0,0,0,0],"split_type":[0,0,0,0,0,0,0,0,0,0,0,0,0,0,0],"sum_hessian":[1.63E2,2E0,1.61E2,1E0,1E0,6.8E1,9.3E1,5.9E1,9E0,8.1E1,1.2E1,4E0,5E0,4E0,8E0],"tree_param":{"num_deleted":"0","num_feature":"10","num_nodes":"15","size_leaf_vector":"1"}},{"base_weights":[-0E0,7.857533E-2,-5.3770444E-3,-0E0,1.3691361E-2,-1.9030336E-2,-0E0,5.2158523E-2,-0E0,-0E0,-1.111994E-1,-0E0,2.2540554E-2,6.080711E-3,-0E0,-0E0,-9.390361E-3,5.4888236E-3,-0E0],"categories":[],"categories_nodes":[],"categories_segments":[],"categories_sizes":[],"default_left":[0,0,0,0,0,0,0,0,0,0,0,0,0,0,0,0,0,0,0],"id":82,"left_children":[1,3,5,7,-1,9,11,13,-1,-1,15,-1,17,-1,-1,-1,-1,-1,-1],"loss_changes":[1.0297764E-1,1.2615874E-1,1.7174741E-2,8.161535E-3,0E0,6.519008E-2,7.113072E-3,2.14185E-2,0E0,0E0,1.2507215E-1,0E0,6.519218E-2,0E0,0E0,0E0,0E0,0E0,0E0],"parents":[2147483647,0,0,1,1,2,2,3,3,5,5,6,6,7,7,10,10,12,12],"right_children":[2,4,6,8,-1,10,12,14,-1,-1,16,-1,18,-1,-1,-1,-1,-1,-1],"split_conditions":[-1.1325969E0,1.3610215E0,-9.317582E-2,-1.637565E0,1.3691361E-2,1.3610215E0,1.3610215E0,1.495116E0,-0E0,-0E0,-1.004914E0,-0E0,-4.9020196E-3,6.080711E-3,-0E0,-0E0,-9.390361E-3,5.4888236E-3,-0E0],"split_indices":[1,8,2,2,0,8,8,0,0,0,0,0,0,0,0,0,0,0,0],"split_type":[0,0,0,0,0,0,0,0,0,0,0,0,0,0,0,0,0,0,0],"sum_hessian":[1.59E2,1.5E1,1.44E2,1.3E1,2E0,5.8E1,8.6E1,2E0,1.1E1,5.2E1,6E0,7.3E1,1.3E1,1E0,1E0,1E0,5E0,5E0,8E0],"tree_param":{"num_deleted":"0","num_feature":"10","num_nodes":"19","size_leaf_vector":"1"}},{"base_weights":[4.577057E-3,3.9584275E-2,-0E0,-0E0,1.9210552E-1,-4.3256558E-3,2.3946222E-3,5.0131608E-2,-5.954129E-4,-0E0,1.3234983E-2,-4.4343877E-3,-0E0,1.6262552E-2,-0E0,5.9286924E-3,-0E0,-5.353433E-4,-0E0,1.4603281E-3,-0E0,-0E0,-1.839194E-5],"categories":[],"categories_nodes":[],"categories_segments":[],"categories_sizes":[],"default_left":[0,0,0,0,0,0,0,0,0,0,0,0,0,0,0,0,0,0,0,0,0,0,0],"id":83,"left_children":[1,3,5,7,9,11,13,15,-1,-1,-1,17,-1,19,21,-1,-1,-1,-1,-1,-1,-1,-1],"loss_changes":[2.6168078E-2,1.1784673E-1,1.5376576E-3,9.524826E-3,6.257965E-2,2.7961098E-5,6.274143E-3,2.057998E-2,0E0,0E0,0E0,6.8206806E-5,0E0,1.1037251E-2,6.088742E-6,0E0,0E0,0E0,0E0,0E0,0E0,0E0,0E0],"parents":[2147483647,0,0,1,1,2,2,3,3,4,4,5,5,6,6,7,7,11,11,13,13,14,14],"right_children":[2,4,6,8,10,12,14,16,-1,-1,-1,18,-1,20,22,-1,-1,-1,-1,-1,-1,-1,-1],"split_conditions":[-1.1325969E0,-1.3999667E0,-3.3077416E-1,-1.637565E0,-1.004914E0,2.900172E0,4.1807267E-1,1.495116E0,-5.954129E-4,-0E0,1.3234983E-2,-1.1623683E0,-0E0,9.9511E-1,-4.9020196E-3,5.9286924E-3,-0E0,-5.353433E-4,-0E0,1.4603281E-3,-0E0,-0E0,-1.839194E-5],"split_indices":[1,2,2,2,0,7,1,0,0,0,0,2,0,0,0,0,0,0,0,0,0,0,0],"split_type":[0,0,0,0,0,0,0,0,0,0,0,0,0,0,0,0,0,0,0,0,0,0,0],"sum_hessian":[1.71E2,1.8E1,1.53E2,1.5E1,3E0,4.9E1,1.04E2,2E0,1.3E1,1E0,2E0,4.8E1,1E0,2.5E1,7.9E1,1E0,1E0,8E0,4E1,2E1,5E0,3.5E1,4.4E1],"tree_param":{"num_deleted":"0","num_feature":"10","num_nodes":"23","size_leaf_vector":"1"}},{"base_weights":[-0E0,3.7248358E-2,-3.867773E-3,-0E0,1.375745E-2,-0E0,-3.0407752E-3,4.8155393E-2,-0E0,-2.4897587E-3,1.9239346E-2,5.7804766E-3,-0E0,-6.3821237E-4,-0E0,-1.2579092E-4,-0E0,2.8062225E-3,-0E0],"categories":[],"categories_nodes":[],"categories_segments":[],"categories_sizes":[],"default_left":[0,0,0,0,0,0,0,0,0,0,0,0,0,0,0,0,0,0,0],"id":84,"left_children":[1,3,5,7,-1,9,-1,11,13,15,17,-1,-1,-1,-1,-1,-1,-1,-1],"loss_changes":[2.8650194E-2,1.2505257E-1,2.7299372E-2,6.9568264E-3,0E0,5.2786805E-3,0E0,1.97743E-2,2.280964E-3,1.1280412E-5,2.7057705E-2,0E0,0E0,0E0,0E0,0E0,0E0,0E0,0E0],"parents":[2147483647,0,0,1,1,2,2,3,3,5,5,7,7,8,8,9,9,10,10],"right_children":[2,4,6,8,-1,10,-1,12,14,16,18,-1,-1,-1,-1,-1,-1,-1,-1],"split_conditions":[-1.1325969E0,4.706183E0,2.900172E0,-1.637565E0,1.375745E-2,1.3610215E0,-3.0407752E-3,1.495116E0,-1.3999667E0,6.014041E0,9.9511E-1,5.7804766E-3,-0E0,-6.3821237E-4,-0E0,-1.2579092E-4,-0E0,2.8062225E-3,-0E0],"split_indices":[1,8,6,2,0,8,0,0,2,7,0,0,0,0,0,0,0,0,0],"split_type":[0,0,0,0,0,0,0,0,0,0,0,0,0,0,0,0,0,0,0],"sum_hessian":[1.7E2,1.8E1,1.52E2,1.7E1,1E0,1.45E2,7E0,2E0,1.5E1,1.34E2,1.1E1,1E0,1E0,1.3E1,2E0,1.33E2,1E0,9E0,2E0],"tree_param":{"num_deleted":"0","num_feature":"10","num_nodes":"19","size_leaf_vector":"1"}},{"base_weights":[1.4085957E-3,-0E0,2.3209535E-2,4.6228576E-2,-3.2648721E-3,1.01743735E-1,-0E0,5.635965E-3,-0E0,-1.6487227E-4,-0E0,-0E0,8.119255E-3,-0E0,-2.4746805E-3,2.599309E-3,-0E0],"categories":[],"categories_nodes":[],"categories_segments":[],"categories_sizes":[],"default_left":[0,0,0,0,0,0,0,0,0,0,0,0,0,0,0,0,0],"id":85,"left_children":[1,3,5,7,9,11,13,-1,-1,-1,-1,-1,-1,15,-1,-1,-1],"loss_changes":[1.1543471E-2,7.818283E-3,8.131508E-2,1.9000037E-2,1.7342507E-5,1.1778527E-1,1.7147323E-2,0E0,0E0,0E0,0E0,0E0,0E0,1.6215377E-2,0E0,0E0,0E0],"parents":[2147483647,0,0,1,1,2,2,3,3,4,4,5,5,6,6,13,13],"right_children":[2,4,6,8,10,12,14,-1,-1,-1,-1,-1,-1,16,-1,-1,-1],"split_conditions":[1.3610215E0,-1.637565E0,-4.9020196E-3,1.495116E0,9.12791E0,-1.5187658E0,2.900172E0,5.635965E-3,-0E0,-1.6487227E-4,-0E0,-0E0,8.119255E-3,1.4442252E-1,-2.4746805E-3,2.599309E-3,-0E0],"split_indices":[8,2,0,0,7,2,6,0,0,0,0,0,0,2,0,0,0],"split_type":[0,0,0,0,0,0,0,0,0,0,0,0,0,0,0,0,0],"sum_hessian":[1.54E2,1.33E2,2.1E1,2E0,1.31E2,8E0,1.3E1,1E0,1E0,1.3E2,1E0,1E0,7E0,7E0,6E0,5E0,2E0],"tree_param":{"num_deleted":"0","num_feature":"10","num_nodes":"17","size_leaf_vector":"1"}},{"base_weights":[-4.532591E-3,4.4349916E-2,-8.309738E-3,5.4950654E-3,-0E0,-2.3399439E-2,-0E0,-9.2672394E-4,-1.3004386E-1,-6.144405E-5,3.2566004E-2,-4.7819995E-5,-0E0,-9.415354E-3,-0E0,4.8658373E-3,-0E0],"categories":[],"categories_nodes":[],"categories_segments":[],"categories_sizes":[],"default_left":[0,0,0,0,0,0,0,0,0,0,0,0,0,0,0,0,0],"id":86,"left_children":[1,3,5,-1,-1,7,9,11,13,-1,15,-1,-1,-1,-1,-1,-1],"loss_changes":[1.4105907E-2,1.825585E-2,2.8778702E-2,0E0,0E0,1.1174184E-1,1.391544E-2,2.7736096E-6,1.3147373E-1,0E0,4.3036208E-2,0E0,0E0,0E0,0E0,0E0,0E0],"parents":[2147483647,0,0,1,1,2,2,5,5,6,6,7,7,8,8,10,10],"right_children":[2,4,6,-1,-1,8,10,12,14,-1,16,-1,-1,-1,-1,-1,-1],"split_conditions":[-1.637565E0,1.495116E0,-2.11975E-1,5.4950654E-3,-0E0,1.3610215E0,1.3610215E0,9.12791E0,1.5310984E0,-6.144405E-5,-4.9020196E-3,-4.7819995E-5,-0E0,-9.415354E-3,-0E0,4.8658373E-3,-0E0],"split_indices":[2,0,2,0,0,8,8,7,5,0,0,0,0,0,0,0,0],"split_type":[0,0,0,0,0,0,0,0,0,0,0,0,0,0,0,0,0],"sum_hessian":[1.71E2,2E0,1.69E2,1E0,1E0,7.3E1,9.6E1,6.5E1,8E0,8.4E1,1.2E1,6.4E1,1E0,7E0,1E0,5E0,7E0],"tree_param":{"num_deleted":"0","num_feature":"10","num_nodes":"17","size_leaf_vector":"1"}},{"base_weights":[-0E0,3.6818404E-2,-6.2297857E-3,-0E0,1.3445917E-2,-1.2481672E-3,-3.6979113E-2,4.2518225E-2,-0E0,-3.8771422E-3,-0E0,-2.3859583E-3,-0E0,5.3576888E-3,-0E0,-5.6787353E-4,-0E0,-5.663475E-4,-0E0,2.834564E-4,-0E0],"categories":[],"categories_nodes":[],"categories_segments":[],"categories_sizes":[],"default_left":[0,0,0,0,0,0,0,0,0,0,0,0,0,0,0,0,0,0,0,0,0],"id":87,"left_children":[1,3,5,7,-1,9,11,13,15,17,19,-1,-1,-1,-1,-1,-1,-1,-1,-1,-1],"loss_changes":[3.1888317E-2,1.1887784E-1,5.042868E-3,5.4233987E-3,0E0,1.9744916E-3,2.7230736E-3,1.7540464E-2,1.8058898E-3,4.846751E-3,9.641704E-5,0E0,0E0,0E0,0E0,0E0,0E0,0E0,0E0,0E0,0E0],"parents":[2147483647,0,0,1,1,2,2,3,3,5,5,6,6,7,7,8,8,9,9,10,10],"right_children":[2,4,6,8,-1,10,12,14,16,18,20,-1,-1,-1,-1,-1,-1,-1,-1,-1,-1],"split_conditions":[-1.1325969E0,4.706183E0,2.673532E0,-1.637565E0,1.3445917E-2,1.6366489E0,9.9511E-1,1.495116E0,-1.3999667E0,-9.317582E-2,4.9510399E-1,-2.3859583E-3,-0E0,5.3576888E-3,-0E0,-5.6787353E-4,-0E0,-5.663475E-4,-0E0,2.834564E-4,-0E0],"split_indices":[1,8,9,2,0,9,0,0,2,2,0,0,0,0,0,0,0,0,0,0,0],"split_type":[0,0,0,0,0,0,0,0,0,0,0,0,0,0,0,0,0,0,0,0,0],"sum_hessian":[1.75E2,1.8E1,1.57E2,1.7E1,1E0,1.5E2,7E0,2E0,1.5E1,1.46E2,4E0,5E0,2E0,1E0,1E0,1.3E1,2E0,5.4E1,9.2E1,2E0,2E0],"tree_param":{"num_deleted":"0","num_feature":"10","num_nodes":"21","size_leaf_vector":"1"}},{"base_weights":[3.4844878E-3,7.79734E-2,-7.6769205E-4,-0E0,1.2383631E-2,-0E0,-2.126696E-3,4.0732313E-2,-0E0,-1.7537918E-3,1.7658623E-2,5.223745E-3,-0E0,-8.899761E-5,-0E0,2.4560813E-3,-0E0],"categories":[],"categories_nodes":[],"categories_segments":[],"categories_sizes":[],"default_left":[0,0,0,0,0,0,0,0,0,0,0,0,0,0,0,0,0],"id":88,"left_children":[1,3,5,7,-1,9,-1,11,-1,13,15,-1,-1,-1,-1,-1,-1],"loss_changes":[8.934116E-2,9.282739E-2,7.1504912E-3,4.9773636E-3,0E0,5.3829327E-3,0E0,1.6852647E-2,0E0,8.66456E-6,2.6378911E-2,0E0,0E0,0E0,0E0,0E0,0E0],"parents":[2147483647,0,0,1,1,2,2,3,3,5,5,7,7,9,9,10,10],"right_children":[2,4,6,8,-1,10,-1,12,-1,14,16,-1,-1,-1,-1,-1,-1],"split_conditions":[-1.1325969E0,1.3610215E0,3.0336022E0,-1.637565E0,1.2383631E-2,1.3610215E0,-2.126696E-3,1.495116E0,-0E0,6.014041E0,9.9511E-1,5.223745E-3,-0E0,-8.899761E-5,-0E0,2.4560813E-3,-0E0],"split_indices":[1,8,8,2,0,8,0,0,0,7,0,0,0,0,0,0,0],"split_type":[0,0,0,0,0,0,0,0,0,0,0,0,0,0,0,0,0],"sum_hessian":[1.59E2,1.4E1,1.45E2,1.2E1,2E0,1.42E2,3E0,2E0,1E1,1.27E2,1.5E1,1E0,1E0,1.26E2,1E0,1.2E1,3E0],"tree_param":{"num_deleted":"0","num_feature":"10","num_nodes":"17","size_leaf_vector":"1"}},{"base_weights":[-0E0,5.0428145E-2,-2.8620963E-3,-0E0,1.28001785E-2,-0E0,-3.6842193E-2,3.899106E-2,-0E0,-8.414062E-5,1.0029596E-2,-3.8298487E-3,-0E0,5.0931512E-3,-0E0,-2.6668675E-4,-0E0,2.2847827E-3,-0E0],"categories":[],"categories_nodes":[],"categories_segments":[],"categories_sizes":[],"default_left":[0,0,0,0,0,0,0,0,0,0,0,0,0,0,0,0,0,0,0],"id":89,"left_children":[1,3,5,7,-1,9,11,13,15,-1,17,-1,-1,-1,-1,-1,-1,-1,-1],"loss_changes":[3.939009E-2,9.293068E-2,1.0971002E-2,4.560909E-3,0E0,1.5837507E-3,5.385166E-3,1.6191244E-2,2.8448732E-4,0E0,1.5497627E-2,0E0,0E0,0E0,0E0,0E0,0E0,0E0,0E0],"parents":[2147483647,0,0,1,1,2,2,3,3,5,5,6,6,7,7,8,8,10,10],"right_children":[2,4,6,8,-1,10,12,14,16,-1,18,-1,-1,-1,-1,-1,-1,-1,-1],"split_conditions":[-1.1325969E0,4.706183E0,2.900172E0,-1.637565E0,1.28001785E-2,1.3610215E0,-2.11975E-1,1.495116E0,-1.3999667E0,-8.414062E-5,4.1807267E-1,-3.8298487E-3,-0E0,5.0931512E-3,-0E0,-2.6668675E-4,-0E0,2.2847827E-3,-0E0],"split_indices":[1,8,6,2,0,8,2,0,2,0,1,0,0,0,0,0,0,0,0],