{"learner":{"attributes":{"scikit_learn":"{\"_estimator_type\": \"regressor\"}"},"feature_names":[],"feature_types":[],"gradient_booster":{"model":{"cats":{"enc":[],"feature_segments":[],"sorted_idx":[]},"gbtree_model_param":{"num_parallel_tree":"1","num_trees":"200"},"iteration_indptr":[0,1,2,3,4,5,6,7,8,9,10,11,12,13,14,15,16,17,18,19,20,21,22,23,24,25,26,27,28,29,30,31,32,33,34,35,36,37,38,39,40,41,42,43,44,45,46,47,48,49,50,51,52,53,54,55,56,57,58,59,60,61,62,63,64,65,66,67,68,69,70,71,72,73,74,75,76,77,78,79,80,81,82,83,84,85,86,87,88,89,90,91,92,93,94,95,96,97,98,99,100,101,102,103,104,105,106,107,108,109,110,111,112,113,114,115,116,117,118,119,120,121,122,123,124,125,126,127,128,129,130,131,132,133,134,135,136,137,138,139,140,141,142,143,144,145,146,147,148,149,150,151,152,153,154,155,156,157,158,159,160,161,162,163,164,165,166,167,168,169,170,171,172,173,174,175,176,177,178,179,180,181,182,183,184,185,186,187,188,189,190,191,192,193,194,195,196,197,198,199,200],"tree_info":[0,0,0,0,0,0,0,0,0,0,0,0,0,0,0,0,0,0,0,0,0,0,0,0,0,0,0,0,0,0,0,0,0,0,0,0,0,0,0,0,0,0,0,0,0,0,0,0,0,0,0,0,0,0,0,0,0,0,0,0,0,0,0,0,0,0,0,0,0,0,0,0,0,0,0,0,0,0,0,0,0,0,0,0,0,0,0,0,0,0,0,0,0,0,0,0,0,0,0,0,0,0,0,0,0,0,0,0,0,0,0,0,0,0,0,0,0,0,0,0,0,0,0,0,0,0,0,0,0,0,0,0,0,0,0,0,0,0,0,0,0,0,0,0,0,0,0,0,0,0,0,0,0,0,0,0,0,0,0,0,0,0,0,0,0,0,0,0,0,0,0,0,0,0,0,0,0,0,0,0,0,0,0,0,0,0,0,0,0,0,0,0,0,0,0,0,0,0,0,0],"trees":[{"base_weights":[7.860714E-3,-3.5699308E-2,5.924303E-1,1.374502E-1,-2.046601E-3,7.5149405E-1,-0E0,1.1404383E-2,-0E0,4.1055778E-1,7.353918E-2,2.620767E-2,-0E0],"categories":[],"categories_nodes":[],"categories_segments":[],"categories_sizes":[],"default_left":[0,0,0,0,0,0,0,0,0,0,0,0,0],"id":0,"left_children":[1,3,5,7,-1,9,-1,-1,-1,11,-1,-1,-1],"loss_changes":[5.494143E0,1.295148E-1,1.5123153E0,4.737028E-2,0E0,1.3982701E0,0E0,0E0,0E0,5.123173E-1,0E0,0E0,0E0],"parents":[2147483647,0,0,1,1,2,2,3,3,5,5,9,9],"right_children":[2,4,6,8,-1,10,-1,-1,-1,12,-1,-1,-1],"split_conditions":[2.2738688E0,-1.6411011E0,9.980139E-1,9.980139E-1,-2.046601E-3,4.788147E0,-0E0,1.1404383E-2,-0E0,4.913354E0,7.353918E-2,2.620767E-2,-0E0],"split_indices":[8,2,0,0,0,8,0,0,0,6,0,0,0],"split_type":[0,0,0,0,0,0,0,0,0,0,0,0,0],"sum_hessian":[2.03E2,1.89E2,1.4E1,2E0,1.87E2,1.1E1,3E0,1E0,1E0,9E0,2E0,7E0,2E0],"tree_param":{"num_deleted":"0","num_feature":"10","num_nodes":"13","size_leaf_vector":"1"}},{"base_weights":[4.888414E-3,-3.343777E-2,5.0547534E-1,1.3364874E-1,-1.9392427E-3,7.801253E-1,-0E0,1.11192735E-2,-0E0,3.7949765E-1,7.108787E-2,2.1998612E-2,-0E0],"categories":[],"categories_nodes":[],"categories_segments":[],"categories_sizes":[],"default_left":[0,0,0,0,0,0,0,0,0,0,0,0,0],"id":1,"left_children":[1,3,5,7,-1,9,-1,-1,-1,11,-1,-1,-1],"loss_changes":[4.032481E0,1.21248394E-1,2.253376E0,4.532463E-2,0E0,1.1303744E0,0E0,0E0,0E0,2.0288146E-1,0E0,0E0,0E0],"parents":[2147483647,0,0,1,1,2,2,3,3,5,5,9,9],"right_children":[2,4,6,8,-1,10,-1,-1,-1,12,-1,-1,-1],"split_conditions":[2.2738688E0,-1.6411011E0,9.980139E-1,9.980139E-1,-1.9392427E-3,4.788147E0,-0E0,1.11192735E-2,-0E0,4.913354E0,7.108787E-2,2.1998612E-2,-0E0],"split_indices":[8,2,0,0,0,8,0,0,0,6,0,0,0],"split_type":[0,0,0,0,0,0,0,0,0,0,0,0,0],"sum_hessian":[1.96E2,1.82E2,1.4E1,2E0,1.8E2,9E0,5E0,1E0,1E0,7E0,2E0,6E0,1E0],"tree_param":{"num_deleted":"0","num_feature":"10","num_nodes":"13","size_leaf_vector":"1"}},{"base_weights":[-8.1730215E-3,-3.1499945E-2,3.0268914E-1,1.2994231E-1,-1.8411499E-3,4.1819376E-1,-0E0,1.08412905E-2,-0E0,2.2709602E-2,3.909358E-2,1.01992255E-2,-0E0],"categories":[],"categories_nodes":[],"categories_segments":[],"categories_sizes":[],"default_left":[0,0,0,0,0,0,0,0,0,0,0,0,0],"id":2,"left_children":[1,3,5,7,-1,9,-1,-1,-1,11,-1,-1,-1],"loss_changes":[1.2662199E0,1.13770455E-1,4.7452557E-1,4.3371852E-2,0E0,8.744128E-1,0E0,0E0,0E0,8.012499E-2,0E0,0E0,0E0],"parents":[2147483647,0,0,1,1,2,2,3,3,5,5,9,9],"right_children":[2,4,6,8,-1,10,-1,-1,-1,12,-1,-1,-1],"split_conditions":[2.2738688E0,-1.6411011E0,9.980139E-1,9.980139E-1,-1.8411499E-3,-3.9611727E-1,-0E0,1.08412905E-2,-0E0,-9.980139E-1,3.909358E-2,1.01992255E-2,-0E0],"split_indices":[8,2,0,0,0,1,0,0,0,0,0,0,0],"split_type":[0,0,0,0,0,0,0,0,0,0,0,0,0],"sum_hessian":[1.91E2,1.8E2,1.1E1,2E0,1.78E2,8E0,3E0,1E0,1E0,5E0,3E0,1E0,4E0],"tree_param":{"num_deleted":"0","num_feature":"10","num_nodes":"13","size_leaf_vector":"1"}},{"base_weights":[-0E0,-1.3472304E-2,5.681137E-2,-3.0056331E-2,1.5098204E-1,1.2632856E-1,-1.7552624E-3,3.461276E-1,-0E0,1.057026E-2,-0E0,2.7055189E-2,-0E0,-0E0,3.5153255E-3],"categories":[],"categories_nodes":[],"categories_segments":[],"categories_sizes":[],"default_left":[0,0,0,0,0,0,0,0,0,0,0,0,0,0,0],"id":3,"left_children":[1,3,-1,5,7,9,-1,11,13,-1,-1,-1,-1,-1,-1],"loss_changes":[2.6188705E0,4.9772012E-1,0E0,1.0726306E-1,3.5409665E-1,4.1507594E-2,0E0,4.5234722E-1,1.9772021E-2,0E0,0E0,0E0,0E0,0E0,0E0],"parents":[2147483647,0,0,1,1,3,3,4,4,5,5,7,7,8,8],"right_children":[2,4,-1,6,8,10,-1,12,14,-1,-1,-1,-1,-1,-1],"split_conditions":[9.816703E0,2.2738688E0,5.681137E-2,-1.6411011E0,-4.9900696E-1,9.980139E-1,-1.7552624E-3,4.913354E0,4.3242803E-1,1.057026E-2,-0E0,2.7055189E-2,-0E0,-0E0,3.5153255E-3],"split_indices":[8,8,0,2,0,0,0,6,1,0,0,0,0,0,0],"split_type":[0,0,0,0,0,0,0,0,0,0,0,0,0,0,0],"sum_hessian":[2.03E2,2.02E2,1E0,1.87E2,1.5E1,2E0,1.85E2,5E0,1E1,1E0,1E0,3E0,2E0,7E0,3E0],"tree_param":{"num_deleted":"0","num_feature":"10","num_nodes":"15","size_leaf_vector":"1"}},{"base_weights":[-4.409437E-3,-1.736207E-2,5.5391084E-2,-2.8706001E-2,9.8689444E-2,1.22805126E-1,-1.6739154E-3,1.9448006E-1,-0E0,1.0306003E-2,-0E0,1.6007403E-2,-0E0],"categories":[],"categories_nodes":[],"categories_segments":[],"categories_sizes":[],"default_left":[0,0,0,0,0,0,0,0,0,0,0,0,0],"id":4,"left_children":[1,3,-1,5,7,9,-1,11,-1,-1,-1,-1,-1],"loss_changes":[2.5137382E0,2.4430214E-1,0E0,1.0116717E-1,1.9430836E-1,3.9727647E-2,0E0,2.7456614E-1,0E0,0E0,0E0,0E0,0E0],"parents":[2147483647,0,0,1,1,3,3,4,4,5,5,7,7],"right_children":[2,4,-1,6,8,10,-1,12,-1,-1,-1,-1,-1],"split_conditions":[9.816703E0,2.2738688E0,5.5391084E-2,-1.6411011E0,9.980139E-1,9.980139E-1,-1.6739154E-3,4.913354E0,-0E0,1.0306003E-2,-0E0,1.6007403E-2,-0E0],"split_indices":[8,8,0,2,0,0,0,6,0,0,0,0,0],"split_type":[0,0,0,0,0,0,0,0,0,0,0,0,0],"sum_hessian":[2.1E2,2.09E2,1E0,1.95E2,1.4E1,2E0,1.93E2,8E0,6E0,1E0,1E0,5E0,3E0],"tree_param":{"num_deleted":"0","num_feature":"10","num_nodes":"13","size_leaf_vector":"1"}},{"base_weights":[7.475788E-3,-2.1154412E-4,5.4006305E-2,-2.6543343E-2,1.216818E-1,7.857117E-2,-1.5782667E-3,1.8631439E-1,-0E0,1.0048352E-2,-0E0,1.0973699E-2,-0E0],"categories":[],"categories_nodes":[],"categories_segments":[],"categories_sizes":[],"default_left":[0,0,0,0,0,0,0,0,0,0,0,0,0],"id":5,"left_children":[1,3,-1,5,7,9,-1,11,-1,-1,-1,-1,-1],"loss_changes":[2.3212824E0,6.457399E-1,0E0,7.452427E-2,3.4960014E-1,5.6081794E-2,0E0,1.9188792E-1,0E0,0E0,0E0,0E0,0E0],"parents":[2147483647,0,0,1,1,3,3,4,4,5,5,7,7],"right_children":[2,4,-1,6,8,10,-1,12,-1,-1,-1,-1,-1],"split_conditions":[7.49487E0,1.591484E0,5.4006305E-2,-1.6411011E0,9.980139E-1,9.980139E-1,-1.5782667E-3,4.913354E0,-0E0,1.0048352E-2,-0E0,1.0973699E-2,-0E0],"split_indices":[9,9,0,2,0,0,0,6,0,0,0,0,0],"split_type":[0,0,0,0,0,0,0,0,0,0,0,0,0],"sum_hessian":[2.15E2,2.14E2,1E0,1.8E2,3.4E1,3E0,1.77E2,2.4E1,1E1,1E0,2E0,2.1E1,3E0],"tree_param":{"num_deleted":"0","num_feature":"10","num_nodes":"13","size_leaf_vector":"1"}},{"base_weights":[1.019618E-2,-2.6256718E-2,4.3784574E-1,1.1602035E-1,-1.5575573E-3,6.391277E-1,-0E0,9.797144E-3,-0E0,3.3178124E-1,6.419533E-2,2.1528471E-2,-0E0],"categories":[],"categories_nodes":[],"categories_segments":[],"categories_sizes":[],"default_left":[0,0,0,0,0,0,0,0,0,0,0,0,0],"id":6,"left_children":[1,3,5,7,-1,9,-1,-1,-1,11,-1,-1,-1],"loss_changes":[3.3662822E0,9.07034E-2,1.6427588E0,3.640506E-2,0E0,1.1442256E0,0E0,0E0,0E0,3.823322E-1,0E0,0E0,0E0],"parents":[2147483647,0,0,1,1,2,2,3,3,5,5,9,9],"right_children":[2,4,6,8,-1,10,-1,-1,-1,12,-1,-1,-1],"split_conditions":[2.2738688E0,-1.6411011E0,9.980139E-1,9.980139E-1,-1.5575573E-3,4.788147E0,-0E0,9.797144E-3,-0E0,4.913354E0,6.419533E-2,2.1528471E-2,-0E0],"split_indices":[8,2,0,0,0,8,0,0,0,6,0,0,0],"split_type":[0,0,0,0,0,0,0,0,0,0,0,0,0],"sum_hessian":[2.01E2,1.85E2,1.6E1,2E0,1.83E2,1.1E1,5E0,1E0,1E0,9E0,2E0,7E0,2E0],"tree_param":{"num_deleted":"0","num_feature":"10","num_nodes":"13","size_leaf_vector":"1"}},{"base_weights":[1.0648909E-2,-2.4664598E-2,4.2372832E-1,1.12754636E-1,-1.4757416E-3,6.191279E-1,-0E0,9.552215E-3,-0E0,1.1081136E-1,5.1282134E-2,1.90735E-2,-0E0],"categories":[],"categories_nodes":[],"categories_segments":[],"categories_sizes":[],"default_left":[0,0,0,0,0,0,0,0,0,0,0,0,0],"id":7,"left_children":[1,3,5,7,-1,9,-1,-1,-1,11,-1,-1,-1],"loss_changes":[3.1420267E0,8.5013434E-2,1.5475564E0,3.4855027E-2,0E0,1.7977781E0,0E0,0E0,0E0,3.50604E-1,0E0,0E0,0E0],"parents":[2147483647,0,0,1,1,2,2,3,3,5,5,9,9],"right_children":[2,4,6,8,-1,10,-1,-1,-1,12,-1,-1,-1],"split_conditions":[2.2738688E0,-1.6411011E0,9.980139E-1,9.980139E-1,-1.4757416E-3,-3.9611727E-1,-0E0,9.552215E-3,-0E0,-9.980139E-1,5.1282134E-2,1.90735E-2,-0E0],"split_indices":[8,2,0,0,0,1,0,0,0,0,0,0,0],"split_type":[0,0,0,0,0,0,0,0,0,0,0,0,0],"sum_hessian":[2E2,1.84E2,1.6E1,2E0,1.82E2,1.1E1,5E0,1E0,1E0,6E0,5E0,2E0,4E0],"tree_param":{"num_deleted":"0","num_feature":"10","num_nodes":"13","size_leaf_vector":"1"}},{"base_weights":[9.367912E-3,-5.610305E-3,7.06623E-1,-2.3224432E-2,1.7984556E-1,6.0346074E-2,-0E0,1.0957057E-1,-1.399037E-3,2.6971573E-1,-0E0,9.313411E-3,-0E0,1.9386642E-2,-0E0],"categories":[],"categories_nodes":[],"categories_segments":[],"categories_sizes":[],"default_left":[0,0,0,0,0,0,0,0,0,0,0,0,0,0,0],"id":8,"left_children":[1,3,5,7,9,-1,-1,11,-1,13,-1,-1,-1,-1,-1],"loss_changes":[2.4849732E0,5.7919484E-1,1.8733978E0,7.9751134E-2,3.150461E-1,0E0,0E0,3.337456E-2,0E0,4.024815E-1,0E0,0E0,0E0,0E0,0E0],"parents":[2147483647,0,0,1,1,2,2,3,3,4,4,7,7,9,9],"right_children":[2,4,6,8,10,-1,-1,12,-1,14,-1,-1,-1,-1,-1],"split_conditions":[4.788147E0,2.2738688E0,9.980139E-1,-1.6411011E0,4.913354E0,6.0346074E-2,-0E0,9.980139E-1,-1.399037E-3,9.980139E-1,-0E0,9.313411E-3,-0E0,1.9386642E-2,-0E0],"split_indices":[8,8,0,2,6,0,0,0,0,0,0,0,0,0,0],"split_type":[0,0,0,0,0,0,0,0,0,0,0,0,0,0,0],"sum_hessian":[2.03E2,1.99E2,4E0,1.85E2,1.4E1,2E0,2E0,2E0,1.83E2,1E1,4E0,1E0,1E0,7E0,3E0],"tree_param":{"num_deleted":"0","num_feature":"10","num_nodes":"15","size_leaf_vector":"1"}},{"base_weights":[-5.9992373E-3,-2.2285968E-2,1.727949E-1,1.06466085E-1,-1.338125E-3,2.904938E-1,-0E0,9.080574E-3,-0E0,2.1713767E-2,-0E0],"categories":[],"categories_nodes":[],"categories_segments":[],"categories_sizes":[],"default_left":[0,0,0,0,0,0,0,0,0,0,0],"id":9,"left_children":[1,3,5,7,-1,9,-1,-1,-1,-1,-1],"loss_changes":[5.3719854E-1,7.538816E-2,3.9599538E-1,3.196038E-2,0E0,4.7629905E-1,0E0,0E0,0E0,0E0,0E0],"parents":[2147483647,0,0,1,1,2,2,3,3,5,5],"right_children":[2,4,6,8,-1,10,-1,-1,-1,-1,-1],"split_conditions":[2.2738688E0,-1.6411011E0,4.913354E0,9.980139E-1,-1.338125E-3,9.980139E-1,-0E0,9.080574E-3,-0E0,2.1713767E-2,-0E0],"split_indices":[8,2,6,0,0,0,0,0,0,0,0],"split_type":[0,0,0,0,0,0,0,0,0,0,0],"sum_hessian":[2.08E2,1.94E2,1.4E1,2E0,1.92E2,9E0,5E0,1E0,1E0,6E0,3E0],"tree_param":{"num_deleted":"0","num_feature":"10","num_nodes":"11","size_leaf_vector":"1"}},{"base_weights":[3.987037E-4,-6.2836497E-3,4.826056E-2,-2.1045616E-2,1.366077E-1,-0E0,-1.256978E-3,2.3566453E-1,-0E0,-0E0,5.988956E-4,1.7588498E-2,-0E0],"categories":[],"categories_nodes":[],"categories_segments":[],"categories_sizes":[],"default_left":[0,0,0,0,0,0,0,0,0,0,0,0,0],"id":10,"left_children":[1,3,-1,5,7,9,-1,11,-1,-1,-1,-1,-1],"loss_changes":[1.8716806E0,3.9649642E-1,0E0,2.4797775E-2,2.9366717E-1,1.4347038E-3,0E0,3.7902135E-1,0E0,0E0,0E0,0E0,0E0],"parents":[2147483647,0,0,1,1,3,3,4,4,5,5,7,7],"right_children":[2,4,-1,6,8,10,-1,12,-1,-1,-1,-1,-1],"split_conditions":[9.816703E0,2.2738688E0,4.826056E-2,-1.2246625E0,9.980139E-1,4.9900696E-1,-1.256978E-3,4.913354E0,-0E0,-0E0,5.988956E-4,1.7588498E-2,-0E0],"split_indices":[8,8,0,1,0,0,0,6,0,0,0,0,0],"split_type":[0,0,0,0,0,0,0,0,0,0,0,0,0],"sum_hessian":[2.14E2,2.13E2,1E0,1.97E2,1.6E1,2E1,1.77E2,1E1,6E0,1.1E1,9E0,7E0,3E0],"tree_param":{"num_deleted":"0","num_feature":"10","num_nodes":"13","size_leaf_vector":"1"}},{"base_weights":[3.726668E-3,-1.1002739E-2,8.4217125E-1,-1.9387664E-2,7.6117605E-2,5.6875166E-2,-0E0,-0E0,-1.1810926E-3,3.2568002E-1,-1.34368E-3,-0E0,5.719452E-4,2.090281E-2,-0E0],"categories":[],"categories_nodes":[],"categories_segments":[],"categories_sizes":[],"default_left":[0,0,0,0,0,0,0,0,0,0,0,0,0,0,0],"id":11,"left_children":[1,3,5,7,9,-1,-1,11,-1,13,-1,-1,-1,-1,-1],"loss_changes":[2.8577595E0,1.14827305E-1,1.0447311E0,2.2166356E-2,4.665882E-1,0E0,0E0,1.3084854E-3,0E0,1.6874659E-1,0E0,0E0,0E0,0E0,0E0],"parents":[2147483647,0,0,1,1,2,2,3,3,4,4,7,7,9,9],"right_children":[2,4,6,8,10,-1,-1,12,-1,14,-1,-1,-1,-1,-1],"split_conditions":[4.788147E0,2.2738688E0,9.980139E-1,-1.2246625E0,-4.9900696E-1,5.6875166E-2,-0E0,4.9900696E-1,-1.1810926E-3,4.913354E0,-1.34368E-3,-0E0,5.719452E-4,2.090281E-2,-0E0],"split_indices":[8,8,0,1,0,0,0,0,0,6,0,0,0,0,0],"split_type":[0,0,0,0,0,0,0,0,0,0,0,0,0,0,0],"sum_hessian":[1.96E2,1.93E2,3E0,1.82E2,1.1E1,2E0,1E0,2E1,1.62E2,4E0,7E0,1.1E1,9E0,3E0,1E0],"tree_param":{"num_deleted":"0","num_feature":"10","num_nodes":"15","size_leaf_vector":"1"}},{"base_weights":[-0E0,-7.421346E-3,4.5632165E-2,-1.8637814E-2,9.2884965E-2,-0E0,-1.1388699E-3,1.7507637E-1,-0E0,-0E0,1.3886675E-3,1.4080497E-2,-0E0],"categories":[],"categories_nodes":[],"categories_segments":[],"categories_sizes":[],"default_left":[0,0,0,0,0,0,0,0,0,0,0,0,0],"id":12,"left_children":[1,3,-1,5,7,9,-1,11,-1,-1,-1,-1,-1],"loss_changes":[1.6769611E0,1.9187428E-1,0E0,2.3758642E-2,1.6847543E-1,5.3995126E-3,0E0,2.4861193E-1,0E0,0E0,0E0,0E0,0E0],"parents":[2147483647,0,0,1,1,3,3,4,4,5,5,7,7],"right_children":[2,4,-1,6,8,10,-1,12,-1,-1,-1,-1,-1],"split_conditions":[9.816703E0,2.2738688E0,4.5632165E-2,-1.2246625E0,9.980139E-1,4.9900696E-1,-1.1388699E-3,4.913354E0,-0E0,-0E0,1.3886675E-3,1.4080497E-2,-0E0],"split_indices":[8,8,0,1,0,0,0,6,0,0,0,0,0],"split_type":[0,0,0,0,0,0,0,0,0,0,0,0,0],"sum_hessian":[2.02E2,2.01E2,1E0,1.86E2,1.5E1,1.6E1,1.7E2,9E0,6E0,1E1,6E0,6E0,3E0],"tree_param":{"num_deleted":"0","num_feature":"10","num_nodes":"13","size_leaf_vector":"1"}},{"base_weights":[-2.8213104E-3,-1.7489545E-2,1.4298591E-1,1.01732895E-1,-1.1065706E-3,2.4551158E-1,-0E0,8.789572E-3,-0E0,3.696311E-1,-0E0,-0E0,2.877364E-2],"categories":[],"categories_nodes":[],"categories_segments":[],"categories_sizes":[],"default_left":[0,0,0,0,0,0,0,0,0,0,0,0,0],"id":13,"left_children":[1,3,5,7,-1,9,-1,-1,-1,11,-1,-1,-1],"loss_changes":[3.6108327E-1,6.372562E-2,2.9608482E-1,3.075652E-2,0E0,3.5363084E-1,0E0,0E0,0E0,3.6828548E-1,0E0,0E0,0E0],"parents":[2147483647,0,0,1,1,2,2,3,3,5,5,9,9],"right_children":[2,4,6,8,-1,10,-1,-1,-1,12,-1,-1,-1],"split_conditions":[2.2738688E0,-1.6411011E0,4.913354E0,9.980139E-1,-1.1065706E-3,9.980139E-1,-0E0,8.789572E-3,-0E0,-3.9611727E-1,-0E0,-0E0,2.877364E-2],"split_indices":[8,2,6,0,0,0,0,0,0,1,0,0,0],"split_type":[0,0,0,0,0,0,0,0,0,0,0,0,0],"sum_hessian":[1.96E2,1.82E2,1.4E1,2E0,1.8E2,9E0,5E0,1E0,1E0,6E0,3E0,3E0,3E0],"tree_param":{"num_deleted":"0","num_feature":"10","num_nodes":"13","size_leaf_vector":"1"}},{"base_weights":[8.351818E-3,-4.994658E-3,6.245247E-1,-1.617894E-2,1.1350795E-1,5.3504553E-2,-0E0,9.880304E-2,-1.0391601E-3,1.8361756E-1,-0E0,8.569834E-3,-0E0,1.3065997E-2,-0E0],"categories":[],"categories_nodes":[],"categories_segments":[],"categories_sizes":[],"default_left":[0,0,0,0,0,0,0,0,0,0,0,0,0,0,0],"id":14,"left_children":[1,3,5,7,9,-1,-1,11,-1,13,-1,-1,-1,-1,-1],"loss_changes":[1.941184E0,2.1029304E-1,1.4851284E0,5.939561E-2,1.3594599E-1,0E0,0E0,2.9467516E-2,0E0,1.7457807E-1,0E0,0E0,0E0,0E0,0E0],"parents":[2147483647,0,0,1,1,2,2,3,3,4,4,7,7,9,9],"right_children":[2,4,6,8,10,-1,-1,12,-1,14,-1,-1,-1,-1,-1],"split_conditions":[4.788147E0,2.2738688E0,9.980139E-1,-1.6411011E0,9.980139E-1,5.3504553E-2,-0E0,9.980139E-1,-1.0391601E-3,4.913354E0,-0E0,8.569834E-3,-0E0,1.3065997E-2,-0E0],"split_indices":[8,8,0,2,0,0,0,0,0,6,0,0,0,0,0],"split_type":[0,0,0,0,0,0,0,0,0,0,0,0,0,0,0],"sum_hessian":[1.97E2,1.93E2,4E0,1.81E2,1.2E1,2E0,2E0,2E0,1.79E2,8E0,4E0,1E0,1E0,6E0,2E0],"tree_param":{"num_deleted":"0","num_feature":"10","num_nodes":"15","size_leaf_vector":"1"}},{"base_weights":[-0E0,-1.4013254E-2,7.130314E-2,-0E0,-9.044325E-4,9.5647044E-2,-0E0,-0E0,1.3559759E-2,1.1164598E-1,-0E0,2.5132278E-3,-0E0,-0E0,5.9215534E-3],"categories":[],"categories_nodes":[],"categories_segments":[],"categories_sizes":[],"default_left":[0,0,0,0,0,0,0,0,0,0,0,0,0,0,0],"id":15,"left_children":[1,3,5,7,-1,9,-1,-1,11,13,-1,-1,-1,-1,-1],"loss_changes":[1.9118772E-1,1.6482003E-2,7.110068E-2,1.6548035E-3,0E0,5.7982028E-2,0E0,0E0,1.0977824E-2,2.1879256E-2,0E0,0E0,0E0,0E0,0E0],"parents":[2147483647,0,0,1,1,2,2,3,3,5,5,8,8,9,9],"right_children":[2,4,6,8,-1,10,-1,-1,12,14,-1,-1,-1,-1,-1],"split_conditions":[1.591484E0,-1.2246625E0,9.980139E-1,4.9900696E-1,-9.044325E-4,4.913354E0,-0E0,-0E0,9.980139E-1,-1.2246625E0,-0E0,2.5132278E-3,-0E0,-0E0,5.9215534E-3],"split_indices":[9,1,0,0,0,6,0,0,0,1,0,0,0,0,0],"split_type":[0,0,0,0,0,0,0,0,0,0,0,0,0,0,0],"sum_hessian":[2E2,1.7E2,3E1,1.8E1,1.52E2,2.4E1,6E0,1E1,8E0,2.2E1,2E0,4E0,4E0,1E0,2.1E1],"tree_param":{"num_deleted":"0","num_feature":"10","num_nodes":"15","size_leaf_vector":"1"}},{"base_weights":[6.106204E-3,-3.1507935E-4,4.315375E-2,-1.2912818E-2,5.7697672E-2,9.510869E-2,-8.959964E-4,9.2484154E-2,-0E0,8.292757E-3,-0E0,6.7532146E-3,-0E0],"categories":[],"categories_nodes":[],"categories_segments":[],"categories_sizes":[],"default_left":[0,0,0,0,0,0,0,0,0,0,0,0,0],"id":16,"left_children":[1,3,-1,5,7,9,-1,11,-1,-1,-1,-1,-1],"loss_changes":[1.4826943E0,1.1721021E-1,0E0,5.181355E-2,8.11828E-2,2.7878866E-2,0E0,1.0256907E-1,0E0,0E0,0E0,0E0,0E0],"parents":[2147483647,0,0,1,1,3,3,4,4,5,5,7,7],"right_children":[2,4,-1,6,8,10,-1,12,-1,-1,-1,-1,-1],"split_conditions":[7.49487E0,1.591484E0,4.315375E-2,-1.6411011E0,0E0,1.5767406E0,-8.959964E-4,1.5767406E0,-0E0,8.292757E-3,-0E0,6.7532146E-3,-0E0],"split_indices":[9,9,0,2,2,3,0,3,0,0,0,0,0],"split_type":[0,0,0,0,0,0,0,0,0,0,0,0,0],"sum_hessian":[1.9E2,1.89E2,1E0,1.63E2,2.6E1,2E0,1.61E2,1.9E1,7E0,1E0,1E0,1.4E1,5E0],"tree_param":{"num_deleted":"0","num_feature":"10","num_nodes":"13","size_leaf_vector":"1"}},{"base_weights":[1.3887419E-2,-1.4624913E-2,4.5264658E-1,9.234445E-2,-9.539758E-4,6.016708E-1,-0E0,8.085439E-3,-0E0,1.1583044E-1,4.1146297E-2,1.4457285E-2,-0E0],"categories":[],"categories_nodes":[],"categories_segments":[],"categories_sizes":[],"default_left":[0,0,0,0,0,0,0,0,0,0,0,0,0],"id":17,"left_children":[1,3,5,7,-1,9,-1,-1,-1,11,-1,-1,-1],"loss_changes":[2.66509E0,5.233003E-2,9.565213E-1,2.6716964E-2,0E0,5.102482E-1,0E0,0E0,0E0,1.8373227E-1,0E0,0E0,0E0],"parents":[2147483647,0,0,1,1,2,2,3,3,5,5,9,9],"right_children":[2,4,6,8,-1,10,-1,-1,-1,12,-1,-1,-1],"split_conditions":[2.2738688E0,-1.6411011E0,9.980139E-1,9.980139E-1,-9.539758E-4,-7.722829E-1,-0E0,8.085439E-3,-0E0,-9.980139E-1,4.1146297E-2,1.4457285E-2,-0E0],"split_indices":[8,2,0,0,0,2,0,0,0,0,0,0,0],"split_type":[0,0,0,0,0,0,0,0,0,0,0,0,0],"sum_hessian":[1.94E2,1.82E2,1.2E1,2E0,1.8E2,9E0,3E0,1E0,1E0,4E0,5E0,2E0,2E0],"tree_param":{"num_deleted":"0","num_feature":"10","num_nodes":"13","size_leaf_vector":"1"}},{"base_weights":[4.319956E-3,-1.3962751E-3,4.104625E-2,-1.1232466E-2,3.327161E-2,8.964928E-2,-8.014454E-4,7.355864E-2,-0E0,7.883302E-3,-0E0,1.3975376E-2,-0E0],"categories":[],"categories_nodes":[],"categories_segments":[],"categories_sizes":[],"default_left":[0,0,0,0,0,0,0,0,0,0,0,0,0],"id":18,"left_children":[1,3,-1,5,7,9,-1,11,-1,-1,-1,-1,-1],"loss_changes":[1.3444912E0,5.7213143E-2,0E0,4.543364E-2,5.545384E-2,2.560617E-2,0E0,1.423885E-1,0E0,0E0,0E0,0E0,0E0],"parents":[2147483647,0,0,1,1,3,3,4,4,5,5,7,7],"right_children":[2,4,-1,6,8,10,-1,12,-1,-1,-1,-1,-1],"split_conditions":[7.49487E0,1.591484E0,4.104625E-2,-1.6411011E0,-3.8614145E-1,9.980139E-1,-8.014454E-4,-9.980139E-1,-0E0,7.883302E-3,-0E0,1.3975376E-2,-0E0],"split_indices":[9,9,0,2,2,0,0,0,0,0,0,0,0],"split_type":[0,0,0,0,0,0,0,0,0,0,0,0,0],"sum_hessian":[1.99E2,1.98E2,1E0,1.66E2,3.2E1,2E0,1.64E2,1.6E1,1.6E1,1E0,1E0,2E0,1.4E1],"tree_param":{"num_deleted":"0","num_feature":"10","num_nodes":"13","size_leaf_vector":"1"}},{"base_weights":[7.5063333E-3,-4.142261E-3,5.672894E-1,-1.3281702E-2,1.0698112E-1,4.8734944E-2,-0E0,8.7021515E-2,-8.758131E-4,2.6388854E-1,-0E0,7.6862187E-3,-0E0,1.7125258E-2,-0E0,-2.2368865E-4,-0E0],"categories":[],"categories_nodes":[],"categories_segments":[],"categories_sizes":[],"default_left":[0,0,0,0,0,0,0,0,0,0,0,0,0,0,0,0,0],"id":19,"left_children":[1,3,5,7,9,-1,-1,11,-1,13,15,-1,-1,-1,-1,-1,-1],"loss_changes":[1.601102E0,1.5566109E-1,1.2410268E0,4.6622764E-2,2.2229128E-1,0E0,0E0,2.4544137E-2,0E0,1.2105328E-1,8.005858E-5,0E0,0E0,0E0,0E0,0E0,0E0],"parents":[2147483647,0,0,1,1,2,2,3,3,4,4,7,7,9,9,10,10],"right_children":[2,4,6,8,10,-1,-1,12,-1,14,16,-1,-1,-1,-1,-1,-1],"split_conditions":[4.788147E0,2.2738688E0,9.980139E-1,-1.6411011E0,-4.9900696E-1,4.8734944E-2,-0E0,9.980139E-1,-8.758131E-4,4.913354E0,-3.9611727E-1,7.6862187E-3,-0E0,1.7125258E-2,-0E0,-2.2368865E-4,-0E0],"split_indices":[8,8,0,2,0,0,0,0,0,6,1,0,0,0,0,0,0],"split_type":[0,0,0,0,0,0,0,0,0,0,0,0,0,0,0,0,0],"sum_hessian":[2.01E2,1.97E2,4E0,1.87E2,1E1,2E0,2E0,2E0,1.85E2,4E0,6E0,1E0,1E0,3E0,1E0,3E0,3E0],"tree_param":{"num_deleted":"0","num_feature":"10","num_nodes":"17","size_leaf_vector":"1"}},{"base_weights":[1.0482345E-2,-5.028935E-4,5.477954E-1,-1.1972421E-2,1.1701885E-1,4.7110442E-2,-0E0,8.445945E-2,-8.0870837E-4,1.9661723E-1,-0E0,7.4940636E-3,-0E0,1.2818192E-2,-0E0],"categories":[],"categories_nodes":[],"categories_segments":[],"categories_sizes":[],"default_left":[0,0,0,0,0,0,0,0,0,0,0,0,0,0,0],"id":20,"left_children":[1,3,5,7,9,-1,-1,11,-1,13,-1,-1,-1,-1,-1],"loss_changes":[1.4780343E0,2.1846154E-1,1.1628735E0,4.299251E-2,1.9487563E-1,0E0,0E0,2.35286E-2,0E0,1.3919598E-1,0E0,0E0,0E0,0E0,0E0],"parents":[2147483647,0,0,1,1,2,2,3,3,4,4,7,7,9,9],"right_children":[2,4,6,8,10,-1,-1,12,-1,14,-1,-1,-1,-1,-1],"split_conditions":[4.788147E0,2.2738688E0,9.980139E-1,-1.6411011E0,4.913354E0,4.7110442E-2,-0E0,9.980139E-1,-8.0870837E-4,9.980139E-1,-0E0,7.4940636E-3,-0E0,1.2818192E-2,-0E0],"split_indices":[8,8,0,2,6,0,0,0,0,0,0,0,0,0,0],"split_type":[0,0,0,0,0,0,0,0,0,0,0,0,0,0,0],"sum_hessian":[2.03E2,1.99E2,4E0,1.86E2,1.3E1,2E0,2E0,2E0,1.84E2,9E0,4E0,1E0,1E0,7E0,2E0],"tree_param":{"num_deleted":"0","num_feature":"10","num_nodes":"15","size_leaf_vector":"1"}},{"base_weights":[-2.1380258E-3,-1.1215654E-2,7.9661176E-2,8.196144E-2,-7.7539607E-4,1.8973902E-1,-0E0,7.306713E-3,-0E0,1.3492233E-2,-0E0],"categories":[],"categories_nodes":[],"categories_segments":[],"categories_sizes":[],"default_left":[0,0,0,0,0,0,0,0,0,0,0],"id":21,"left_children":[1,3,5,7,-1,9,-1,-1,-1,-1,-1],"loss_changes":[1.1072399E-1,4.0433586E-2,1.9916454E-1,2.2557411E-2,0E0,1.4888966E-1,0E0,0E0,0E0,0E0,0E0],"parents":[2147483647,0,0,1,1,2,2,3,3,5,5],"right_children":[2,4,6,8,-1,10,-1,-1,-1,-1,-1],"split_conditions":[2.2738688E0,-1.6411011E0,4.9900696E-1,9.980139E-1,-7.7539607E-4,4.913354E0,-0E0,7.306713E-3,-0E0,1.3492233E-2,-0E0],"split_indices":[8,2,0,0,0,6,0,0,0,0,0],"split_type":[0,0,0,0,0,0,0,0,0,0,0],"sum_hessian":[1.93E2,1.8E2,1.3E1,2E0,1.78E2,7E0,6E0,1E0,1E0,5E0,2E0],"tree_param":{"num_deleted":"0","num_feature":"10","num_nodes":"11","size_leaf_vector":"1"}},{"base_weights":[1.1189973E-2,-1.1206586E-2,3.0769974E-1,-0E0,-7.356911E-4,4.6773595E-1,-0E0,-0E0,1.0656053E-2,3.0297605E-2,-0E0,2.0985543E-3,-0E0,2.7962567E-3,-0E0],"categories":[],"categories_nodes":[],"categories_segments":[],"categories_sizes":[],"default_left":[0,0,0,0,0,0,0,0,0,0,0,0,0,0,0],"id":22,"left_children":[1,3,5,7,-1,9,-1,-1,11,-1,13,-1,-1,-1,-1],"loss_changes":[1.5130585E0,1.3592266E-2,8.9167976E-1,1.0219632E-3,0E0,5.308776E-1,0E0,0E0,7.7858954E-3,0E0,6.2552406E-3,0E0,0E0,0E0,0E0],"parents":[2147483647,0,0,1,1,2,2,3,3,5,5,8,8,10,10],"right_children":[2,4,6,8,-1,10,-1,-1,12,-1,14,-1,-1,-1,-1],"split_conditions":[2.2738688E0,-1.2246625E0,9.980139E-1,4.9900696E-1,-7.356911E-4,1.7648666E0,-0E0,-0E0,9.980139E-1,3.0297605E-2,-9.980139E-1,2.0985543E-3,-0E0,2.7962567E-3,-0E0],"split_indices":[8,1,0,0,0,5,0,0,0,0,0,0,0,0,0],"split_type":[0,0,0,0,0,0,0,0,0,0,0,0,0,0,0],"sum_hessian":[2.04E2,1.89E2,1.5E1,1.7E1,1.72E2,1E1,5E0,9E0,8E0,7E0,3E0,4E0,4E0,1E0,2E0],"tree_param":{"num_deleted":"0","num_feature":"10","num_nodes":"15","size_leaf_vector":"1"}},{"base_weights":[8.360991E-3,-2.3077638E-3,4.4530176E-2,-1.0055216E-2,7.9531506E-2,7.882635E-2,-7.029168E-4,1.6202083E-1,-0E0,7.0715817E-3,-0E0,-0E0,1.089581E-2],"categories":[],"categories_nodes":[],"categories_segments":[],"categories_sizes":[],"default_left":[0,0,0,0,0,0,0,0,0,0,0,0,0],"id":23,"left_children":[1,3,-1,5,7,9,-1,11,-1,-1,-1,-1,-1],"loss_changes":[2.3663387E0,9.413883E-2,0E0,3.6682628E-2,1.3410288E-1,2.136503E-2,0E0,2.7431324E-2,0E0,0E0,0E0,0E0,0E0],"parents":[2147483647,0,0,1,1,3,3,4,4,5,5,7,7],"right_children":[2,4,-1,6,8,10,-1,12,-1,-1,-1,-1,-1],"split_conditions":[4.788147E0,2.2738688E0,4.4530176E-2,-1.6411011E0,4.9900696E-1,9.980139E-1,-7.029168E-4,-1.1584244E0,-0E0,7.0715817E-3,-0E0,-0E0,1.089581E-2],"split_indices":[8,8,0,2,0,0,0,2,0,0,0,0,0],"split_type":[0,0,0,0,0,0,0,0,0,0,0,0,0],"sum_hessian":[2.03E2,2.01E2,2E0,1.9E2,1.1E1,2E0,1.88E2,7E0,4E0,1E0,1E0,3E0,4E0],"tree_param":{"num_deleted":"0","num_feature":"10","num_nodes":"13","size_leaf_vector":"1"}},{"base_weights":[8.610055E-3,-5.6445587E-4,4.812081E-1,-4.737263E-4,8.53204E-2,4.3045837E-2,-0E0,1.593885E-1,-0E0,1.0514765E-2,-0E0],"categories":[],"categories_nodes":[],"categories_segments":[],"categories_sizes":[],"default_left":[0,0,0,0,0,0,0,0,0,0,0],"id":24,"left_children":[1,3,5,-1,7,-1,-1,9,-1,-1,-1],"loss_changes":[1.1424514E0,1.18994415E-1,1.0657268E0,0E0,1.5213296E-1,0E0,0E0,9.974596E-2,0E0,0E0,0E0],"parents":[2147483647,0,0,1,1,2,2,4,4,7,7],"right_children":[2,4,6,-1,8,-1,-1,10,-1,-1,-1],"split_conditions":[4.788147E0,2.2738688E0,9.980139E-1,-4.737263E-4,4.913354E0,4.3045837E-2,-0E0,9.980139E-1,-0E0,1.0514765E-2,-0E0],"split_indices":[8,8,0,0,6,0,0,0,0,0,0],"split_type":[0,0,0,0,0,0,0,0,0,0,0],"sum_hessian":[2.07E2,2.03E2,4E0,1.9E2,1.3E1,2E0,2E0,9E0,4E0,7E0,2E0],"tree_param":{"num_deleted":"0","num_feature":"10","num_nodes":"11","size_leaf_vector":"1"}},{"base_weights":[1.00270035E-2,-0E0,3.0856494E-2,-9.046218E-3,1.3326485E-1,7.678497E-2,-6.54594E-4,2.4146138E-1,-0E0,6.9066347E-3,-0E0,-0E0,2.1064466E-2],"categories":[],"categories_nodes":[],"categories_segments":[],"categories_sizes":[],"default_left":[0,0,0,0,0,0,0,0,0,0,0,0,0],"id":25,"left_children":[1,3,-1,5,7,9,-1,11,-1,-1,-1,-1,-1],"loss_changes":[1.1222386E0,2.6393625E-1,0E0,3.4093328E-2,2.7609906E-1,2.047349E-2,0E0,1.8520635E-1,0E0,0E0,0E0,0E0,0E0],"parents":[2147483647,0,0,1,1,3,3,4,4,5,5,7,7],"right_children":[2,4,-1,6,8,10,-1,12,-1,-1,-1,-1,-1],"split_conditions":[1.7376366E0,2.2738688E0,3.0856494E-2,-1.6411011E0,9.980139E-1,9.980139E-1,-6.54594E-4,0E0,-0E0,6.9066347E-3,-0E0,-0E0,2.1064466E-2],"split_indices":[2,8,0,2,0,0,0,0,0,0,0,0,0],"split_type":[0,0,0,0,0,0,0,0,0,0,0,0,0],"sum_hessian":[2.01E2,1.99E2,2E0,1.86E2,1.3E1,2E0,1.84E2,8E0,5E0,1E0,1E0,5E0,3E0],"tree_param":{"num_deleted":"0","num_feature":"10","num_nodes":"13","size_leaf_vector":"1"}},{"base_weights":[7.850373E-3,-1.1476907E-3,4.5360556E-1,-8.330544E-3,6.622123E-2,4.0745627E-2,-0E0,7.4482754E-2,-6.221132E-4,1.0306561E-2,-0E0,6.733969E-3,-0E0,-1.7454885E-3,-0E0],"categories":[],"categories_nodes":[],"categories_segments":[],"categories_sizes":[],"default_left":[0,0,0,0,0,0,0,0,0,0,0,0,0,0,0],"id":26,"left_children":[1,3,5,7,9,-1,-1,11,-1,-1,13,-1,-1,-1,-1],"loss_changes":[1.0169035E0,6.4999215E-2,9.634572E-1,3.1878397E-2,1.5982741E-1,0E0,0E0,1.9634029E-2,0E0,0E0,6.09346E-3,0E0,0E0,0E0,0E0],"parents":[2147483647,0,0,1,1,2,2,3,3,4,4,7,7,10,10],"right_children":[2,4,6,8,10,-1,-1,12,-1,-1,14,-1,-1,-1,-1],"split_conditions":[4.788147E0,2.2738688E0,9.980139E-1,-1.6411011E0,-4.9900696E-1,4.0745627E-2,-0E0,9.980139E-1,-6.221132E-4,1.0306561E-2,4.3242803E-1,6.733969E-3,-0E0,-1.7454885E-3,-0E0],"split_indices":[8,8,0,2,0,0,0,0,0,0,1,0,0,0,0],"split_type":[0,0,0,0,0,0,0,0,0,0,0,0,0,0,0],"sum_hessian":[1.96E2,1.92E2,4E0,1.81E2,1.1E1,2E0,2E0,2E0,1.79E2,4E0,7E0,1E0,1E0,4E0,3E0],"tree_param":{"num_deleted":"0","num_feature":"10","num_nodes":"15","size_leaf_vector":"1"}},{"base_weights":[4.714297E-3,-0E0,3.2887064E-2,-8.266191E-3,1.071054E-1,-5.530029E-4,-0E0,1.865111E-1,-0E0,-0E0,-2.3649198E-4,1.2949652E-2,-0E0],"categories":[],"categories_nodes":[],"categories_segments":[],"categories_sizes":[],"default_left":[0,0,0,0,0,0,0,0,0,0,0,0,0],"id":27,"left_children":[1,3,-1,5,7,-1,9,11,-1,-1,-1,-1,-1],"loss_changes":[8.606244E-1,1.5105145E-1,0E0,5.5237114E-4,1.7541875E-1,0E0,1.29754E-3,1.5646419E-1,0E0,0E0,0E0,0E0,0E0],"parents":[2147483647,0,0,1,1,3,3,4,4,6,6,7,7],"right_children":[2,4,-1,6,8,-1,10,12,-1,-1,-1,-1,-1],"split_conditions":[9.816703E0,2.2738688E0,3.2887064E-2,4.9900696E-1,4.913354E0,-5.530029E-4,9.980139E-1,9.980139E-1,-0E0,-0E0,-2.3649198E-4,1.2949652E-2,-0E0],"split_indices":[8,8,0,0,6,0,0,0,0,0,0,0,0],"split_type":[0,0,0,0,0,0,0,0,0,0,0,0,0],"sum_hessian":[2.07E2,2.06E2,1E0,1.95E2,1.1E1,1.13E2,8.2E1,8E0,3E0,2.5E1,5.7E1,6E0,2E0],"tree_param":{"num_deleted":"0","num_feature":"10","num_nodes":"13","size_leaf_vector":"1"}},{"base_weights":[-0E0,-7.98648E-3,8.822171E-2,7.2316915E-2,-5.984881E-4,1.6174833E-1,-0E0,6.565619E-3,-0E0,-0E0,2.3728377E-1,1.587347E-2,-0E0],"categories":[],"categories_nodes":[],"categories_segments":[],"categories_sizes":[],"default_left":[0,0,0,0,0,0,0,0,0,0,0,0,0],"id":28,"left_children":[1,3,5,7,-1,9,-1,-1,-1,-1,11,-1,-1],"loss_changes":[1.2860985E-1,3.0188043E-2,1.7104176E-1,1.8796667E-2,0E0,2.1894443E-1,0E0,0E0,0E0,0E0,1.9877553E-1,0E0,0E0],"parents":[2147483647,0,0,1,1,2,2,3,3,5,5,10,10],"right_children":[2,4,6,8,-1,10,-1,-1,-1,-1,12,-1,-1],"split_conditions":[2.2738688E0,-1.6411011E0,4.913354E0,9.980139E-1,-5.984881E-4,-8.1038994E-1,-0E0,6.565619E-3,-0E0,-0E0,9.980139E-1,1.587347E-2,-0E0],"split_indices":[8,2,6,0,0,1,0,0,0,0,0,0,0],"split_type":[0,0,0,0,0,0,0,0,0,0,0,0,0],"sum_hessian":[1.99E2,1.85E2,1.4E1,2E0,1.83E2,1E1,4E0,1E0,1E0,2E0,8E0,6E0,2E0],"tree_param":{"num_deleted":"0","num_feature":"10","num_nodes":"13","size_leaf_vector":"1"}},{"base_weights":[3.4719607E-4,-5.307707E-3,2.7948571E-2,4.246833E-2,-8.653056E-3,6.4014792E-3,-0E0,-5.4568006E-4,-0E0,1.4941829E-3,-0E0],"categories":[],"categories_nodes":[],"categories_segments":[],"categories_sizes":[],"default_left":[0,0,0,0,0,0,0,0,0,0,0],"id":29,"left_children":[1,3,-1,5,7,-1,-1,-1,9,-1,-1],"loss_changes":[9.431816E-1,1.6703963E-2,0E0,2.5568914E-2,7.6381387E-3,0E0,0E0,0E0,8.037296E-3,0E0,0E0],"parents":[2147483647,0,0,1,1,3,3,4,4,8,8],"right_children":[2,4,-1,6,8,-1,-1,-1,10,-1,-1],"split_conditions":[1.7376366E0,-1.6411011E0,2.7948571E-2,1.5767406E0,2.2738688E0,6.4014792E-3,-0E0,-5.4568006E-4,4.913354E0,1.4941829E-3,-0E0],"split_indices":[2,2,0,3,8,0,0,0,6,0,0],"split_type":[0,0,0,0,0,0,0,0,0,0,0],"sum_hessian":[2.09E2,2.07E2,2E0,3E0,2.04E2,1E0,2E0,1.92E2,1.2E1,8E0,4E0],"tree_param":{"num_deleted":"0","num_feature":"10","num_nodes":"11","size_leaf_vector":"1"}},{"base_weights":[9.038469E-3,-0E0,4.1877788E-1,-5.802688E-3,5.752705E-2,3.7868224E-2,-0E0,6.7994565E-2,-4.8565055E-4,8.684953E-3,-0E0,6.241442E-3,-0E0,-2.1449055E-3,7.7482784E-4],"categories":[],"categories_nodes":[],"categories_segments":[],"categories_sizes":[],"default_left":[0,0,0,0,0,0,0,0,0,0,0,0,0,0,0],"id":30,"left_children":[1,3,5,7,9,-1,-1,11,-1,-1,13,-1,-1,-1,-1],"loss_changes":[8.603724E-1,5.256023E-2,8.439281E-1,2.490531E-2,1.04525745E-1,0E0,0E0,1.7294697E-2,0E0,0E0,9.041995E-3,0E0,0E0,0E0,0E0],"parents":[2147483647,0,0,1,1,2,2,3,3,4,4,7,7,10,10],"right_children":[2,4,6,8,10,-1,-1,12,-1,-1,14,-1,-1,-1,-1],"split_conditions":[4.788147E0,2.2738688E0,9.980139E-1,-1.6411011E0,-4.9900696E-1,3.7868224E-2,-0E0,9.980139E-1,-4.8565055E-4,8.684953E-3,-7.722829E-1,6.241442E-3,-0E0,-2.1449055E-3,7.7482784E-4],"split_indices":[8,8,0,2,0,0,0,0,0,0,2,0,0,0,0],"split_type":[0,0,0,0,0,0,0,0,0,0,0,0,0,0,0],"sum_hessian":[2.01E2,1.97E2,4E0,1.84E2,1.3E1,2E0,2E0,2E0,1.82E2,4E0,9E0,1E0,1E0,3E0,6E0],"tree_param":{"num_deleted":"0","num_feature":"10","num_nodes":"15","size_leaf_vector":"1"}},{"base_weights":[7.907011E-3,-0E0,5.270005E-1,-6.436294E-3,5.5173192E-2,3.6605947E-2,-0E0,6.591409E-2,-5.088186E-4,1.667511E-1,-0E0,6.0854065E-3,-0E0,1.1670282E-2,-0E0,-2.0644718E-3,7.416209E-4],"categories":[],"categories_nodes":[],"categories_segments":[],"categories_sizes":[],"default_left":[0,0,0,0,0,0,0,0,0,0,0,0,0,0,0,0,0],"id":31,"left_children":[1,3,5,7,9,-1,-1,11,-1,13,15,-1,-1,-1,-1,-1,-1],"loss_changes":[1.0979137E0,5.057091E-2,4.970764E-1,2.4756353E-2,9.641251E-2,0E0,0E0,1.6591735E-2,0E0,7.888311E-2,8.359274E-3,0E0,0E0,0E0,0E0,0E0,0E0],"parents":[2147483647,0,0,1,1,2,2,3,3,4,4,7,7,9,9,10,10],"right_children":[2,4,6,8,10,-1,-1,12,-1,14,16,-1,-1,-1,-1,-1,-1],"split_conditions":[4.788147E0,2.2738688E0,9.980139E-1,-1.6411011E0,-4.9900696E-1,3.6605947E-2,-0E0,9.980139E-1,-5.088186E-4,4.913354E0,-3.9611727E-1,6.0854065E-3,-0E0,1.1670282E-2,-0E0,-2.0644718E-3,7.416209E-4],"split_indices":[8,8,0,2,0,0,0,0,0,6,1,0,0,0,0,0,0],"split_type":[0,0,0,0,0,0,0,0,0,0,0,0,0,0,0,0,0],"sum_hessian":[2.07E2,2.04E2,3E0,1.91E2,1.3E1,2E0,1E0,2E0,1.89E2,4E0,9E0,1E0,1E0,3E0,1E0,3E0,6E0],"tree_param":{"num_deleted":"0","num_feature":"10","num_nodes":"17","size_leaf_vector":"1"}},{"base_weights":[-0E0,-6.244803E-3,7.9668246E-2,-0E0,-4.6174304E-4,-0E0,1.4223818E-1,-0E0,5.3255716E-3,2.0942935E-1,-0E0,1.6970475E-3,-0E0,1.4125839E-2,-0E0],"categories":[],"categories_nodes":[],"categories_segments":[],"categories_sizes":[],"default_left":[0,0,0,0,0,0,0,0,0,0,0,0,0,0,0],"id":32,"left_children":[1,3,5,7,-1,-1,9,-1,11,13,-1,-1,-1,-1,-1],"loss_changes":[9.622896E-2,7.2127935E-3,1.336903E-1,2.8361712E-4,0E0,0E0,1.721972E-1,0E0,5.4763234E-3,1.6396412E-1,0E0,0E0,0E0,0E0,0E0],"parents":[2147483647,0,0,1,1,2,2,3,3,6,6,8,8,9,9],"right_children":[2,4,6,8,-1,-1,10,-1,12,14,-1,-1,-1,-1,-1],"split_conditions":[2.2738688E0,-1.2246625E0,-8.1038994E-1,4.9900696E-1,-4.6174304E-4,-0E0,4.913354E0,-0E0,9.980139E-1,9.980139E-1,-0E0,1.6970475E-3,-0E0,1.4125839E-2,-0E0],"split_indices":[8,1,1,0,0,0,6,0,0,0,0,0,0,0,0],"split_type":[0,0,0,0,0,0,0,0,0,0,0,0,0,0,0],"sum_hessian":[2.01E2,1.88E2,1.3E1,1.8E1,1.7E2,3E0,1E1,9E0,9E0,8E0,2E0,4E0,5E0,6E0,2E0],"tree_param":{"num_deleted":"0","num_feature":"10","num_nodes":"15","size_leaf_vector":"1"}},{"base_weights":[3.2175416E-3,-1.5039384E-4,2.9504314E-2,-5.5152257E-3,3.340787E-2,6.331995E-2,-4.6521812E-4,8.97451E-3,-0E0,5.8908463E-3,-0E0,-3.322665E-3,4.1189487E-3],"categories":[],"categories_nodes":[],"categories_segments":[],"categories_sizes":[],"default_left":[0,0,0,0,0,0,0,0,0,0,0,0,0],"id":33,"left_children":[1,3,-1,5,7,9,-1,-1,11,-1,-1,-1,-1],"loss_changes":[6.943169E-1,2.2424852E-2,0E0,2.2355802E-2,7.990892E-2,1.5733406E-2,0E0,0E0,7.6046094E-2,0E0,0E0,0E0,0E0],"parents":[2147483647,0,0,1,1,3,3,4,4,5,5,8,8],"right_children":[2,4,-1,6,8,10,-1,-1,12,-1,-1,-1,-1],"split_conditions":[9.816703E0,2.2738688E0,2.9504314E-2,-1.6411011E0,-9.980139E-1,9.980139E-1,-4.6521812E-4,8.97451E-3,1.8155375E-2,5.8908463E-3,-0E0,-3.322665E-3,4.1189487E-3],"split_indices":[8,8,0,2,0,0,0,0,1,0,0,0,0],"split_type":[0,0,0,0,0,0,0,0,0,0,0,0,0],"sum_hessian":[2.01E2,2E2,1E0,1.86E2,1.4E1,2E0,1.84E2,2E0,1.2E1,1E0,1E0,7E0,5E0],"tree_param":{"num_deleted":"0","num_feature":"10","num_nodes":"13","size_leaf_vector":"1"}},{"base_weights":[-5.0382805E-4,-4.2954804E-3,6.5152645E-2,3.77723E-2,-7.6488927E-3,1.080423E-2,-0E0,5.7435753E-3,-0E0,-1.1403516E-2,-0E0,-0E0,-7.78375E-4,-1.10420806E-4,2.034744E-3],"categories":[],"categories_nodes":[],"categories_segments":[],"categories_sizes":[],"default_left":[0,0,0,0,0,0,0,0,0,0,0,0,0,0,0],"id":34,"left_children":[1,3,5,7,9,-1,-1,-1,-1,11,13,-1,-1,-1,-1],"loss_changes":[2.0636369E-2,1.3582407E-2,7.640564E-2,2.0683937E-2,6.6215238E-3,0E0,0E0,0E0,0E0,1.1118371E-2,8.548606E-3,0E0,0E0,0E0,0E0],"parents":[2147483647,0,0,1,1,2,2,3,3,4,4,9,9,10,10],"right_children":[2,4,6,8,10,-1,-1,-1,-1,12,14,-1,-1,-1,-1],"split_conditions":[4.788147E0,-1.6411011E0,9.980139E-1,9.980139E-1,7.722829E-1,1.080423E-2,-0E0,5.7435753E-3,-0E0,-9.980139E-1,2.2738688E0,-0E0,-7.78375E-4,-1.10420806E-4,2.034744E-3],"split_indices":[8,2,0,0,2,0,0,0,0,0,8,0,0,0,0],"split_type":[0,0,0,0,0,0,0,0,0,0,0,0,0,0,0],"sum_hessian":[2.03E2,2E2,3E0,3E0,1.97E2,1E0,2E0,1E0,2E0,1.39E2,5.8E1,1.9E1,1.2E2,5.4E1,4E0],"tree_param":{"num_deleted":"0","num_feature":"10","num_nodes":"15","size_leaf_vector":"1"}},{"base_weights":[8.092198E-3,-0E0,2.8496603E-2,-2.1843624E-3,2.8330566E-2,5.9441797E-2,-3.124009E-4,4.572516E-2,-0E0,5.5999844E-3,-0E0,3.5955661E-3,-0E0],"categories":[],"categories_nodes":[],"categories_segments":[],"categories_sizes":[],"default_left":[0,0,0,0,0,0,0,0,0,0,0,0,0],"id":35,"left_children":[1,3,-1,5,7,9,-1,11,-1,-1,-1,-1,-1],"loss_changes":[6.3654834E-1,2.4889775E-2,0E0,1.6347175E-2,3.2372706E-2,1.4487879E-2,0E0,4.6973415E-2,0E0,0E0,0E0,0E0,0E0],"parents":[2147483647,0,0,1,1,3,3,4,4,5,5,7,7],"right_children":[2,4,-1,6,8,10,-1,12,-1,-1,-1,-1,-1],"split_conditions":[7.49487E0,1.591484E0,2.8496603E-2,-1.6411011E0,4.913354E0,9.980139E-1,-3.124009E-4,9.980139E-1,-0E0,5.5999844E-3,-0E0,3.5955661E-3,-0E0],"split_indices":[9,9,0,2,6,0,0,0,0,0,0,0,0],"split_type":[0,0,0,0,0,0,0,0,0,0,0,0,0],"sum_hessian":[1.99E2,1.98E2,1E0,1.69E2,2.9E1,2E0,1.67E2,2.6E1,3E0,1E0,1E0,1.9E1,7E0],"tree_param":{"num_deleted":"0","num_feature":"10","num_nodes":"13","size_leaf_vector":"1"}},{"base_weights":[4.7517074E-3,-0E0,3.4770375E-1,5.7575136E-2,-1.2324419E-3,-0E0,2.7784187E-2,5.459985E-3,-0E0,-5.829838E-3,-0E0,-0E0,-6.213362E-4,4.4179658E-4,-2.094315E-4],"categories":[],"categories_nodes":[],"categories_segments":[],"categories_sizes":[],"default_left":[0,0,0,0,0,0,0,0,0,0,0,0,0,0,0],"id":36,"left_children":[1,3,5,7,9,-1,-1,-1,-1,11,13,-1,-1,-1,-1],"loss_changes":[3.580876E-1,1.0248472E-2,2.5487512E-1,1.3904461E-2,2.6530877E-3,0E0,0E0,0E0,0E0,6.1541153E-3,5.467789E-3,0E0,0E0,0E0,0E0],"parents":[2147483647,0,0,1,1,2,2,3,3,4,4,9,9,10,10],"right_children":[2,4,6,8,10,-1,-1,-1,-1,12,14,-1,-1,-1,-1],"split_conditions":[1.7376366E0,-1.6411011E0,-9.980139E-1,9.980139E-1,0E0,-0E0,2.7784187E-2,5.459985E-3,-0E0,-9.980139E-1,9.980139E-1,-0E0,-6.213362E-4,4.4179658E-4,-2.094315E-4],"split_indices":[2,2,0,0,0,0,0,0,0,0,0,0,0,0,0],"split_type":[0,0,0,0,0,0,0,0,0,0,0,0,0,0,0],"sum_hessian":[2.03E2,2.01E2,2E0,2E0,1.99E2,1E0,1E0,1E0,1E0,8.6E1,1.13E2,2.8E1,5.8E1,5.6E1,5.7E1],"tree_param":{"num_deleted":"0","num_feature":"10","num_nodes":"15","size_leaf_vector":"1"}},{"base_weights":[-0E0,-4.777523E-3,3.7750404E-2,5.575515E-2,-4.227948E-4,9.92575E-2,-0E0,5.323486E-3,-0E0,-0E0,1.4861955E-2,3.3405423E-4,-2.6284617E-3],"categories":[],"categories_nodes":[],"categories_segments":[],"categories_sizes":[],"default_left":[0,0,0,0,0,0,0,0,0,0,0,0,0],"id":37,"left_children":[1,3,5,7,-1,9,-1,-1,-1,11,-1,-1,-1],"loss_changes":[1.9921424E-2,1.8236909E-2,5.3288333E-2,1.3345692E-2,0E0,1.9608885E-1,0E0,0E0,0E0,1.114337E-2,0E0,0E0,0E0],"parents":[2147483647,0,0,1,1,2,2,3,3,5,5,9,9],"right_children":[2,4,6,8,-1,10,-1,-1,-1,12,-1,-1,-1],"split_conditions":[2.2738688E0,-1.6411011E0,9.980139E-1,9.980139E-1,-4.227948E-4,0E0,-0E0,5.323486E-3,-0E0,-9.980139E-1,1.4861955E-2,3.3405423E-4,-2.6284617E-3],"split_indices":[8,2,0,0,0,0,0,0,0,0,0,0,0],"split_type":[0,0,0,0,0,0,0,0,0,0,0,0,0],"sum_hessian":[1.95E2,1.85E2,1E1,2E0,1.83E2,6E0,4E0,1E0,1E0,4E0,2E0,1E0,3E0],"tree_param":{"num_deleted":"0","num_feature":"10","num_nodes":"13","size_leaf_vector":"1"}},{"base_weights":[4.485845E-3,-2.875875E-3,3.3144623E-2,-0E0,-5.2234055E-3,-0E0,3.3160916E-3,-3.6649307E-4,-0E0,1.395097E-3,-0E0,2.0128854E-3,-0E0],"categories":[],"categories_nodes":[],"categories_segments":[],"categories_sizes":[],"default_left":[0,0,0,0,0,0,0,0,0,0,0,0,0],"id":38,"left_children":[1,3,-1,5,7,-1,9,-1,11,-1,-1,-1,-1],"loss_changes":[1.3158567E0,3.3305637E-3,0E0,9.896817E-5,4.3017818E-3,0E0,3.793623E-3,0E0,1.1344782E-2,0E0,0E0,0E0,0E0],"parents":[2147483647,0,0,1,1,3,3,4,4,6,6,8,8],"right_children":[2,4,-1,6,8,-1,10,-1,12,-1,-1,-1,-1],"split_conditions":[4.788147E0,-1.2246625E0,3.3144623E-2,4.9900696E-1,2.2738688E0,-0E0,9.980139E-1,-3.6649307E-4,4.913354E0,1.395097E-3,-0E0,2.0128854E-3,-0E0],"split_indices":[8,1,0,0,8,0,0,0,6,0,0,0,0],"split_type":[0,0,0,0,0,0,0,0,0,0,0,0,0],"sum_hessian":[2.02E2,2E2,2E0,1.8E1,1.82E2,1E1,8E0,1.72E2,1E1,4E0,4E0,6E0,4E0],"tree_param":{"num_deleted":"0","num_feature":"10","num_nodes":"13","size_leaf_vector":"1"}},{"base_weights":[-2.1870362E-3,7.593356E-3,-6.948808E-3,-0E0,8.477276E-3,-0E0,-3.1386655E-2,-2.1002446E-5,-0E0,-2.1852346E-3,-0E0],"categories":[],"categories_nodes":[],"categories_segments":[],"categories_sizes":[],"default_left":[0,0,0,0,0,0,0,0,0,0,0],"id":39,"left_children":[1,3,5,-1,-1,7,9,-1,-1,-1,-1],"loss_changes":[8.3928825E-3,8.468025E-2,1.2961815E-2,0E0,0E0,1.3762406E-5,3.23534E-4,0E0,0E0,0E0,0E0],"parents":[2147483647,0,0,1,1,2,2,5,5,6,6],"right_children":[2,4,6,-1,-1,8,10,-1,-1,-1,-1],"split_conditions":[-9.980139E-1,2.2738688E0,1.591484E0,-0E0,8.477276E-3,1.2494897E0,4.9900696E-1,-2.1002446E-5,-0E0,-2.1852346E-3,-0E0],"split_indices":[0,8,9,0,0,4,0,0,0,0,0],"split_type":[0,0,0,0,0,0,0,0,0,0,0],"sum_hessian":[1.85E2,2.6E1,1.59E2,2.4E1,2E0,1.39E2,2E1,7.7E1,6.2E1,1E1,1E1],"tree_param":{"num_deleted":"0","num_feature":"10","num_nodes":"11","size_leaf_vector":"1"}},{"base_weights":[9.0363476E-4,-3.3923334E-3,2.254015E-2,5.3515624E-2,-6.797086E-3,5.155522E-3,-0E0,-5.4538937E-4,-0E0,-1.5010277E-4,-0E0],"categories":[],"categories_nodes":[],"categories_segments":[],"categories_sizes":[],"default_left":[0,0,0,0,0,0,0,0,0,0,0],"id":40,"left_children":[1,3,-1,5,7,-1,-1,-1,9,-1,-1],"loss_changes":[6.1178523E-1,1.5368472E-2,0E0,1.2671757E-2,2.1288265E-3,0E0,0E0,0E0,8.741966E-4,0E0,0E0],"parents":[2147483647,0,0,1,1,3,3,4,4,8,8],"right_children":[2,4,-1,6,8,-1,-1,-1,10,-1,-1],"split_conditions":[1.7376366E0,-1.6411011E0,2.254015E-2,1.5767406E0,-9.653536E-2,5.155522E-3,-0E0,-5.4538937E-4,2.2738688E0,-1.5010277E-4,-0E0],"split_indices":[2,2,0,3,2,0,0,0,8,0,0],"split_type":[0,0,0,0,0,0,0,0,0,0,0],"sum_hessian":[1.99E2,1.97E2,2E0,2E0,1.95E2,1E0,1E0,9.3E1,1.02E2,9.6E1,6E0],"tree_param":{"num_deleted":"0","num_feature":"10","num_nodes":"11","size_leaf_vector":"1"}},{"base_weights":[-0E0,-2.8843265E-3,2.5817806E-2,3.0602876E-2,-6.039649E-3,5.0266325E-3,-0E0,2.2565513E-3,-1.0764512E-2,-0E0,8.21288E-3,-1.9454682E-4,-1.4687922E-3],"categories":[],"categories_nodes":[],"categories_segments":[],"categories_sizes":[],"default_left":[0,0,0,0,0,0,0,0,0,0,0,0,0],"id":41,"left_children":[1,3,-1,5,7,-1,-1,9,11,-1,-1,-1,-1],"loss_changes":[5.3493613E-1,9.35279E-3,0E0,1.6467484E-2,1.2117954E-2,0E0,0E0,8.076347E-2,4.488094E-3,0E0,0E0,0E0,0E0],"parents":[2147483647,0,0,1,1,3,3,4,4,7,7,8,8],"right_children":[2,4,-1,6,8,-1,-1,10,12,-1,-1,-1,-1],"split_conditions":[9.816703E0,-1.6411011E0,2.5817806E-2,9.980139E-1,-9.980139E-1,5.0266325E-3,-0E0,2.2738688E0,1.591484E0,-0E0,8.21288E-3,-1.9454682E-4,-1.4687922E-3],"split_indices":[8,2,0,0,0,0,0,8,9,0,0,0,0],"split_type":[0,0,0,0,0,0,0,0,0,0,0,0,0],"sum_hessian":[2.03E2,2.02E2,1E0,3E0,1.99E2,1E0,2E0,3.4E1,1.65E2,3.2E1,2E0,1.41E2,2.4E1],"tree_param":{"num_deleted":"0","num_feature":"10","num_nodes":"13","size_leaf_vector":"1"}},{"base_weights":[7.0886984E-3,-0E0,4.401956E-1,-3.5296485E-3,3.2316703E-2,3.130383E-2,-0E0,5.0121557E-2,-3.4858295E-4,8.41965E-2,-0E0,4.900967E-3,-0E0,7.4472087E-3,-0E0],"categories":[],"categories_nodes":[],"categories_segments":[],"categories_sizes":[],"default_left":[0,0,0,0,0,0,0,0,0,0,0,0,0,0,0],"id":42,"left_children":[1,3,5,7,9,-1,-1,11,-1,13,-1,-1,-1,-1,-1],"loss_changes":[7.6468694E-1,1.4936906E-2,4.00827E-1,1.4415407E-2,5.126902E-2,0E0,0E0,1.1679066E-2,0E0,6.9304734E-2,0E0,0E0,0E0,0E0,0E0],"parents":[2147483647,0,0,1,1,2,2,3,3,4,4,7,7,9,9],"right_children":[2,4,6,8,10,-1,-1,12,-1,14,-1,-1,-1,-1,-1],"split_conditions":[4.788147E0,2.2738688E0,1.5767406E0,-1.6411011E0,4.913354E0,3.130383E-2,-0E0,1.5767406E0,-3.4858295E-4,1.5767406E0,-0E0,4.900967E-3,-0E0,7.4472087E-3,-0E0],"split_indices":[8,8,3,2,6,0,0,3,0,3,0,0,0,0,0],"split_type":[0,0,0,0,0,0,0,0,0,0,0,0,0,0,0],"sum_hessian":[2.06E2,2.03E2,3E0,1.92E2,1.1E1,2E0,1E0,2E0,1.9E2,8E0,3E0,1E0,1E0,5E0,3E0],"tree_param":{"num_deleted":"0","num_feature":"10","num_nodes":"15","size_leaf_vector":"1"}},{"base_weights":[6.892877E-3,-0E0,4.249172E-1,4.8487894E-2,-2.6369547E-3,3.0260367E-2,-0E0,4.778442E-3,-0E0,7.4467515E-3,-7.3297783E-3,-0E0,7.6908777E-3,-8.0742704E-4,-0E0],"categories":[],"categories_nodes":[],"categories_segments":[],"categories_sizes":[],"default_left":[0,0,0,0,0,0,0,0,0,0,0,0,0,0,0],"id":43,"left_children":[1,3,5,7,9,-1,-1,-1,-1,11,13,-1,-1,-1,-1],"loss_changes":[7.129537E-1,8.374399E-3,3.7660927E-1,1.1213576E-2,8.987098E-3,0E0,0E0,0E0,0E0,6.948226E-2,1.33549E-2,0E0,0E0,0E0,0E0],"parents":[2147483647,0,0,1,1,2,2,3,3,4,4,9,9,10,10],"right_children":[2,4,6,8,10,-1,-1,-1,-1,12,14,-1,-1,-1,-1],"split_conditions":[4.788147E0,-1.6411011E0,9.980139E-1,9.980139E-1,-9.980139E-1,3.0260367E-2,-0E0,4.778442E-3,-0E0,2.2738688E0,9.653536E-2,-0E0,7.6908777E-3,-8.0742704E-4,-0E0],"split_indices":[8,2,0,0,0,0,0,0,0,8,2,0,0,0,0],"split_type":[0,0,0,0,0,0,0,0,0,0,0,0,0,0,0],"sum_hessian":[1.94E2,1.91E2,3E0,2E0,1.89E2,2E0,1E0,1E0,1E0,2.6E1,1.63E2,2.4E1,2E0,8.4E1,7.9E1],"tree_param":{"num_deleted":"0","num_feature":"10","num_nodes":"15","size_leaf_vector":"1"}},{"base_weights":[9.047235E-3,-2.5407402E-3,1.8237819E-1,4.6895098E-2,-3.0641668E-4,3.1041625E-1,-0E0,4.658982E-3,-0E0,-0E0,2.6380992E-2,7.4345144E-3,-0E0],"categories":[],"categories_nodes":[],"categories_segments":[],"categories_sizes":[],"default_left":[0,0,0,0,0,0,0,0,0,0,0,0,0],"id":44,"left_children":[1,3,5,7,-1,9,-1,-1,-1,11,-1,-1,-1],"loss_changes":[4.840589E-1,1.218274E-2,4.6465555E-1,1.0767441E-2,0E0,4.2833102E-1,0E0,0E0,0E0,6.63264E-2,0E0,0E0,0E0],"parents":[2147483647,0,0,1,1,2,2,3,3,5,5,9,9],"right_children":[2,4,6,8,-1,10,-1,-1,-1,12,-1,-1,-1],"split_conditions":[2.2738688E0,-1.6411011E0,9.980139E-1,9.980139E-1,-3.0641668E-4,-3.9611727E-1,-0E0,4.658982E-3,-0E0,-9.980139E-1,2.6380992E-2,7.4345144E-3,-0E0],"split_indices":[8,2,0,0,0,1,0,0,0,0,0,0,0],"split_type":[0,0,0,0,0,0,0,0,0,0,0,0,0],"sum_hessian":[1.95E2,1.81E2,1.4E1,2E0,1.79E2,9E0,5E0,1E0,1E0,5E0,4E0,2E0,3E0],"tree_param":{"num_deleted":"0","num_feature":"10","num_nodes":"13","size_leaf_vector":"1"}},{"base_weights":[-0E0,-2.3180041E-3,3.7878465E-2,4.53421E-2,-2.9586154E-4,1.012542E-1,-0E0,4.542507E-3,-0E0,-0E0,1.7026024E-1,-0E0,-2.3030608E-3,1.355883E-2,-0E0],"categories":[],"categories_nodes":[],"categories_segments":[],"categories_sizes":[],"default_left":[0,0,0,0,0,0,0,0,0,0,0,0,0,0,0],"id":45,"left_children":[1,3,5,7,-1,9,-1,-1,-1,11,13,-1,-1,-1,-1],"loss_changes":[2.1054061E-2,1.14329755E-2,8.243725E-2,1.033978E-2,0E0,1.003957E-1,0E0,0E0,0E0,6.3649076E-3,1.6476393E-1,0E0,0E0,0E0,0E0],"parents":[2147483647,0,0,1,1,2,2,3,3,5,5,9,9,10,10],"right_children":[2,4,6,8,-1,10,-1,-1,-1,12,14,-1,-1,-1,-1],"split_conditions":[2.2738688E0,-1.6411011E0,4.913354E0,9.980139E-1,-2.9586154E-4,-7.722829E-1,-0E0,4.542507E-3,-0E0,-9.980139E-1,9.980139E-1,-0E0,-2.3030608E-3,1.355883E-2,-0E0],"split_indices":[8,2,6,0,0,2,0,0,0,0,0,0,0,0,0],"split_type":[0,0,0,0,0,0,0,0,0,0,0,0,0,0,0],"sum_hessian":[1.92E2,1.79E2,1.3E1,2E0,1.77E2,9E0,4E0,1E0,1E0,3E0,6E0,1E0,2E0,4E0,2E0],"tree_param":{"num_deleted":"0","num_feature":"10","num_nodes":"15","size_leaf_vector":"1"}},{"base_weights":[6.2482585E-3,-0E0,2.9107594E-1,-2.250066E-3,2.0179924E-2,2.8146341E-2,-0E0,4.382792E-2,-2.798675E-4,5.723908E-3,-0E0,4.428944E-3,-0E0,-2.0531786E-3,-0E0],"categories":[],"categories_nodes":[],"categories_segments":[],"categories_sizes":[],"default_left":[0,0,0,0,0,0,0,0,0,0,0,0,0,0,0],"id":46,"left_children":[1,3,5,7,9,-1,-1,11,-1,-1,13,-1,-1,-1,-1],"loss_changes":[4.1546658E-1,6.6732676E-3,5.270337E-1,1.0743365E-2,5.982503E-2,0E0,0E0,9.929774E-3,0E0,0E0,6.7448663E-3,0E0,0E0,0E0,0E0],"parents":[2147483647,0,0,1,1,2,2,3,3,4,4,7,7,10,10],"right_children":[2,4,6,8,10,-1,-1,12,-1,-1,14,-1,-1,-1,-1],"split_conditions":[4.788147E0,2.2738688E0,9.980139E-1,-1.6411011E0,-4.9900696E-1,2.8146341E-2,-0E0,9.980139E-1,-2.798675E-4,5.723908E-3,-3.9611727E-1,4.428944E-3,-0E0,-2.0531786E-3,-0E0],"split_indices":[8,8,0,2,0,0,0,0,0,0,1,0,0,0,0],"split_type":[0,0,0,0,0,0,0,0,0,0,0,0,0,0,0],"sum_hessian":[2.08E2,2.04E2,4E0,1.91E2,1.3E1,2E0,2E0,2E0,1.89E2,4E0,9E0,1E0,1E0,3E0,6E0],"tree_param":{"num_deleted":"0","num_feature":"10","num_nodes":"15","size_leaf_vector":"1"}},{"base_weights":[2.8381564E-3,-0E0,2.2270072E-2,2.4607819E-2,-2.1257093E-3,4.318221E-3,-0E0,-1.5110348E-2,-0E0,-0E0,-1.8727955E-3,-2.0481672E-4,5.1792646E-3],"categories":[],"categories_nodes":[],"categories_segments":[],"categories_sizes":[],"default_left":[0,0,0,0,0,0,0,0,0,0,0,0,0],"id":47,"left_children":[1,3,-1,5,7,-1,-1,9,11,-1,-1,-1,-1],"loss_changes":[3.951458E-1,3.3123512E-3,0E0,1.2495446E-2,1.0982605E-2,0E0,0E0,6.3655106E-3,9.8884836E-2,0E0,0E0,0E0,0E0],"parents":[2147483647,0,0,1,1,3,3,4,4,7,7,8,8],"right_children":[2,4,-1,6,8,-1,-1,10,12,-1,-1,-1,-1],"split_conditions":[9.816703E0,-1.6411011E0,2.2270072E-2,1.5767406E0,-7.722829E-1,4.318221E-3,-0E0,1.591484E0,2.2738688E0,-0E0,-1.8727955E-3,-2.0481672E-4,5.1792646E-3],"split_indices":[8,2,0,3,2,0,0,9,8,0,0,0,0],"split_type":[0,0,0,0,0,0,0,0,0,0,0,0,0],"sum_hessian":[2E2,1.99E2,1E0,3E0,1.96E2,1E0,2E0,5.1E1,1.45E2,3.9E1,1.2E1,1.37E2,8E0],"tree_param":{"num_deleted":"0","num_feature":"10","num_nodes":"13","size_leaf_vector":"1"}},{"base_weights":[-0E0,-1.8552857E-3,3.0786576E-2,4.0912222E-2,-2.5849108E-4,1.09673955E-1,-0E0,4.2102668E-3,-0E0,-0E0,9.656078E-3],"categories":[],"categories_nodes":[],"categories_segments":[],"categories_sizes":[],"default_left":[0,0,0,0,0,0,0,0,0,0,0],"id":48,"left_children":[1,3,5,7,-1,9,-1,-1,-1,-1,-1],"loss_changes":[1.1083384E-2,9.415404E-3,6.1744317E-2,9.159645E-3,0E0,1.1430941E-1,0E0,0E0,0E0,0E0,0E0],"parents":[2147483647,0,0,1,1,2,2,3,3,5,5],"right_children":[2,4,6,8,-1,10,-1,-1,-1,-1,-1],"split_conditions":[2.2738688E0,-1.6411011E0,1.5767406E0,1.5767406E0,-2.5849108E-4,-1.1584244E0,-0E0,4.2102668E-3,-0E0,-0E0,9.656078E-3],"split_indices":[8,2,3,3,0,2,0,0,0,0,0],"split_type":[0,0,0,0,0,0,0,0,0,0,0],"sum_hessian":[2E2,1.9E2,1E1,2E0,1.88E2,5E0,5E0,1E0,1E0,1E0,4E0],"tree_param":{"num_deleted":"0","num_feature":"10","num_nodes":"11","size_leaf_vector":"1"}},{"base_weights":[6.2470064E-3,-0E0,1.7783595E-2,2.0939226E-3,-1.3315923E-3,-0E0,2.5274979E-2,4.105009E-3,-1.2365326E-4,2.4885011E-3,-0E0],"categories":[],"categories_nodes":[],"categories_segments":[],"categories_sizes":[],"default_left":[0,0,0,0,0,0,0,0,0,0,0],"id":49,"left_children":[1,3,-1,5,-1,7,9,-1,-1,-1,-1],"loss_changes":[3.7139028E-1,5.8416887E-3,0E0,1.637136E-2,0E0,1.4538957E-2,2.981579E-2,0E0,0E0,0E0,0E0],"parents":[2147483647,0,0,1,1,3,3,5,5,6,6],"right_children":[2,4,-1,6,-1,8,10,-1,-1,-1,-1],"split_conditions":[1.7376366E0,4.913354E0,1.7783595E-2,1.591484E0,-1.3315923E-3,-1.6411011E0,9.980139E-1,4.105009E-3,-1.2365326E-4,2.4885011E-3,-0E0],"split_indices":[2,6,0,9,0,2,0,0,0,0,0],"split_type":[0,0,0,0,0,0,0,0,0,0,0],"sum_hessian":[2.07E2,2.05E2,2E0,1.99E2,6E0,1.73E2,2.6E1,1E0,1.72E2,1.8E1,8E0],"tree_param":{"num_deleted":"0","num_feature":"10","num_nodes":"11","size_leaf_vector":"1"}},{"base_weights":[1.1903666E-3,-5.263138E-4,2.1027327E-2,-0E0,-3.1947298E-3,1.2003556E-3,-0E0,-2.0196268E-4,-0E0,-0E0,4.2816793E-4],"categories":[],"categories_nodes":[],"categories_segments":[],"categories_sizes":[],"default_left":[0,0,0,0,0,0,0,0,0,0,0],"id":50,"left_children":[1,3,-1,5,7,9,-1,-1,-1,-1,-1],"loss_changes":[3.534916E-1,1.5169226E-3,0E0,4.7548165E-5,8.2661887E-4,5.391007E-4,0E0,0E0,0E0,0E0,0E0],"parents":[2147483647,0,0,1,1,3,3,4,4,5,5],"right_children":[2,4,-1,6,8,10,-1,-1,-1,-1,-1],"split_conditions":[9.816703E0,-8.1038994E-1,2.1027327E-2,9.980139E-1,2.2738688E0,4.9900696E-1,-0E0,-2.0196268E-4,-0E0,-0E0,4.2816793E-4],"split_indices":[8,1,0,0,8,0,0,0,0,0,0],"split_type":[0,0,0,0,0,0,0,0,0,0,0],"sum_hessian":[1.98E2,1.97E2,1E0,4.4E1,1.53E2,3.2E1,1.2E1,1.46E2,7E0,2.5E1,7E0],"tree_param":{"num_deleted":"0","num_feature":"10","num_nodes":"11","size_leaf_vector":"1"}},{"base_weights":[5.9535364E-3,-0E0,2.6039982E-1,-1.5225419E-3,1.6439412E-2,2.5740445E-2,-0E0,-0E0,-1.9671807E-4,6.8144435E-3,-0E0,-2.5337038E-3,4.1582962E-4],"categories":[],"categories_nodes":[],"categories_segments":[],"categories_sizes":[],"default_left":[0,0,0,0,0,0,0,0,0,0,0,0,0],"id":51,"left_children":[1,3,5,7,9,-1,-1,-1,-1,-1,11,-1,-1],"loss_changes":[3.3173874E-1,3.9537507E-3,4.560442E-1,2.2064978E-3,5.2210655E-2,0E0,0E0,0E0,0E0,0E0,1.3323468E-2,0E0,0E0],"parents":[2147483647,0,0,1,1,2,2,3,3,4,4,10,10],"right_children":[2,4,6,8,10,-1,-1,-1,-1,-1,12,-1,-1],"split_conditions":[4.788147E0,2.2738688E0,9.980139E-1,-1.2246625E0,-9.980139E-1,2.5740445E-2,-0E0,-0E0,-1.9671807E-4,6.8144435E-3,-3.9611727E-1,-2.5337038E-3,4.1582962E-4],"split_indices":[8,8,0,1,0,0,0,0,0,0,1,0,0],"split_type":[0,0,0,0,0,0,0,0,0,0,0,0,0],"sum_hessian":[2.05E2,2.01E2,4E0,1.89E2,1.2E1,2E0,2E0,1.9E1,1.7E2,2E0,1E1,4E0,6E0],"tree_param":{"num_deleted":"0","num_feature":"10","num_nodes":"13","size_leaf_vector":"1"}},{"base_weights":[7.428244E-3,-0E0,3.4328625E-1,-1.1187106E-3,2.518103E-2,2.4882432E-2,-0E0,3.84416E-2,-2.2194689E-4,6.5872963E-3,-0E0,3.9916798E-3,-0E0,-2.7560894E-3,2.0573388E-3],"categories":[],"categories_nodes":[],"categories_segments":[],"categories_sizes":[],"default_left":[0,0,0,0,0,0,0,0,0,0,0,0,0,0,0],"id":52,"left_children":[1,3,5,7,9,-1,-1,11,-1,-1,13,-1,-1,-1,-1],"loss_changes":[4.6012533E-1,9.112464E-3,2.7158073E-1,7.86296E-3,4.319378E-2,0E0,0E0,8.313537E-3,0E0,0E0,3.0081868E-2,0E0,0E0,0E0,0E0],"parents":[2147483647,0,0,1,1,2,2,3,3,4,4,7,7,10,10],"right_children":[2,4,6,8,10,-1,-1,12,-1,-1,14,-1,-1,-1,-1],"split_conditions":[4.788147E0,2.2738688E0,9.980139E-1,-1.6411011E0,-9.980139E-1,2.4882432E-2,-0E0,9.980139E-1,-2.2194689E-4,6.5872963E-3,-7.722829E-1,3.9916798E-3,-0E0,-2.7560894E-3,2.0573388E-3],"split_indices":[8,8,0,2,0,0,0,0,0,0,2,0,0,0,0],"split_type":[0,0,0,0,0,0,0,0,0,0,0,0,0,0,0],"sum_hessian":[2.03E2,2E2,3E0,1.87E2,1.3E1,2E0,1E0,2E0,1.85E2,2E0,1.1E1,1E0,1E0,5E0,6E0],"tree_param":{"num_deleted":"0","num_feature":"10","num_nodes":"15","size_leaf_vector":"1"}},{"base_weights":[4.1303984E-3,-0E0,1.9236073E-2,3.7111044E-2,-2.7764676E-4,3.8918883E-3,-0E0,-2.1219703E-4,1.4796313E-2,3.480288E-3,-4.371863E-4],"categories":[],"categories_nodes":[],"categories_segments":[],"categories_sizes":[],"default_left":[0,0,0,0,0,0,0,0,0,0,0],"id":53,"left_children":[1,3,-1,5,7,-1,-1,-1,9,-1,-1],"loss_changes":[2.9260916E-1,4.146875E-3,0E0,7.9857465E-3,6.564796E-3,0E0,0E0,0E0,5.0392877E-2,0E0,0E0],"parents":[2147483647,0,0,1,1,3,3,4,4,8,8],"right_children":[2,4,-1,6,8,-1,-1,-1,10,-1,-1],"split_conditions":[9.816703E0,-1.6411011E0,1.9236073E-2,9.980139E-1,2.2738688E0,3.8918883E-3,-0E0,-2.1219703E-4,4.913354E0,3.480288E-3,-4.371863E-4],"split_indices":[8,2,0,0,8,0,0,0,6,0,0],"split_type":[0,0,0,0,0,0,0,0,0,0,0],"sum_hessian":[1.99E2,1.98E2,1E0,2E0,1.96E2,1E0,1E0,1.82E2,1.4E1,1E1,4E0],"tree_param":{"num_deleted":"0","num_feature":"10","num_nodes":"11","size_leaf_vector":"1"}},{"base_weights":[-0E0,-3.6043639E-3,1.8755171E-2,8.1404333E-4,-7.3381024E-3,-0E0,6.25171E-3,-0E0,-6.5886915E-2,-5.1125793E-5,-0E0,-0E0,-4.410369E-3],"categories":[],"categories_nodes":[],"categories_segments":[],"categories_sizes":[],"default_left":[0,0,0,0,0,0,0,0,0,0,0,0,0],"id":54,"left_children":[1,3,-1,5,7,-1,-1,9,11,-1,-1,-1,-1],"loss_changes":[2.840554E-1,6.633428E-3,0E0,4.687878E-2,4.71723E-2,0E0,0E0,8.677971E-5,2.1371301E-2,0E0,0E0,0E0,0E0],"parents":[2147483647,0,0,1,1,3,3,4,4,7,7,8,8],"right_children":[2,4,-1,6,8,-1,-1,10,12,-1,-1,-1,-1],"split_conditions":[9.816703E0,-9.980139E-1,1.8755171E-2,2.2738688E0,2.2738688E0,-0E0,6.25171E-3,4.9900696E-1,-4.9900696E-1,-5.1125793E-5,-0E0,-0E0,-4.410369E-3],"split_indices":[8,0,0,8,8,0,0,0,0,0,0,0,0],"split_type":[0,0,0,0,0,0,0,0,0,0,0,0,0],"sum_hessian":[2.04E2,2.03E2,1E0,3.2E1,1.71E2,3E1,2E0,1.59E2,1.2E1,8.2E1,7.7E1,3E0,9E0],"tree_param":{"num_deleted":"0","num_feature":"10","num_nodes":"13","size_leaf_vector":"1"}},{"base_weights":[1.631436E-3,-1.7682775E-3,2.3389398E-1,2.1103194E-2,-4.8397235E-3,2.343533E-2,-0E0,3.7945898E-3,-0E0,-1.1000147E-2,-0E0,-4.8131427E-5,-2.86777E-3,-5.4899185E-5,3.4617737E-4],"categories":[],"categories_nodes":[],"categories_segments":[],"categories_sizes":[],"default_left":[0,0,0,0,0,0,0,0,0,0,0,0,0,0,0],"id":55,"left_children":[1,3,5,7,9,-1,-1,-1,-1,11,13,-1,-1,-1,-1],"loss_changes":[2.7361205E-1,5.668853E-3,3.855257E-1,9.73775E-3,4.941052E-3,0E0,0E0,0E0,0E0,7.0785293E-3,4.6695548E-4,0E0,0E0,0E0,0E0],"parents":[2147483647,0,0,1,1,2,2,3,3,4,4,9,9,10,10],"right_children":[2,4,6,8,10,-1,-1,-1,-1,12,14,-1,-1,-1,-1],"split_conditions":[4.788147E0,-1.6411011E0,9.980139E-1,9.980139E-1,-2.896061E-1,2.343533E-2,-0E0,3.7945898E-3,-0E0,2.2738688E0,2.2738688E0,-4.8131427E-5,-2.86777E-3,-5.4899185E-5,3.4617737E-4],"split_indices":[8,2,0,0,2,0,0,0,0,8,8,0,0,0,0],"split_type":[0,0,0,0,0,0,0,0,0,0,0,0,0,0,0],"sum_hessian":[1.98E2,1.94E2,4E0,3E0,1.91E2,2E0,2E0,1E0,2E0,7.7E1,1.14E2,7.3E1,4E0,1.08E2,6E0],"tree_param":{"num_deleted":"0","num_feature":"10","num_nodes":"15","size_leaf_vector":"1"}},{"base_weights":[-0E0,3.454888E-2,-1.991826E-3,3.699726E-3,-0E0,-8.241732E-3,-0E0,-0E0,-1.4927313E-2,-4.6612084E-5,5.6876294E-2,-0E0,-3.6688955E-3,5.60935E-3,-0E0],"categories":[],"categories_nodes":[],"categories_segments":[],"categories_sizes":[],"default_left":[0,0,0,0,0,0,0,0,0,0,0,0,0,0,0],"id":56,"left_children":[1,3,5,-1,-1,7,9,-1,11,-1,13,-1,-1,-1,-1],"loss_changes":[4.287067E-3,7.3695024E-3,4.252416E-3,0E0,0E0,8.856522E-3,1.9497253E-2,0E0,1.8490773E-2,0E0,3.0934213E-2,0E0,0E0,0E0,0E0],"parents":[2147483647,0,0,1,1,2,2,5,5,6,6,8,8,10,10],"right_children":[2,4,6,-1,-1,8,10,-1,12,-1,14,-1,-1,-1,-1],"split_conditions":[-1.6411011E0,9.980139E-1,-2.896061E-1,3.699726E-3,-0E0,-9.980139E-1,2.2738688E0,-0E0,2.2738688E0,-4.6612084E-5,9.980139E-1,-0E0,-3.6688955E-3,5.60935E-3,-0E0],"split_indices":[2,0,2,0,0,0,8,0,8,0,0,0,0,0,0],"split_type":[0,0,0,0,0,0,0,0,0,0,0,0,0,0,0],"sum_hessian":[1.79E2,2E0,1.77E2,1E0,1E0,7.2E1,1.05E2,1.1E1,6.1E1,1E2,5E0,5.6E1,5E0,3E0,2E0],"tree_param":{"num_deleted":"0","num_feature":"10","num_nodes":"15","size_leaf_vector":"1"}},{"base_weights":[5.119906E-3,-0E0,1.7560173E-2,1.9229626E-2,-0E0,3.6072328E-3,-0E0,-9.9938385E-5,3.2302237E-3,2.2103132E-3,-0E0],"categories":[],"categories_nodes":[],"categories_segments":[],"categories_sizes":[],"default_left":[0,0,0,0,0,0,0,0,0,0,0],"id":57,"left_children":[1,3,-1,5,7,-1,-1,-1,9,-1,-1],"loss_changes":[2.4126153E-1,1.479114E-3,0E0,8.930589E-3,1.0468086E-3,0E0,0E0,0E0,1.1349523E-2,0E0,0E0],"parents":[2147483647,0,0,1,1,3,3,4,4,8,8],"right_children":[2,4,-1,6,8,-1,-1,-1,10,-1,-1],"split_conditions":[7.49487E0,-1.6411011E0,1.7560173E-2,9.980139E-1,1.591484E0,3.6072328E-3,-0E0,-9.9938385E-5,-9.980139E-1,2.2103132E-3,-0E0],"split_indices":[9,2,0,0,9,0,0,0,0,0,0],"split_type":[0,0,0,0,0,0,0,0,0,0,0],"sum_hessian":[2.06E2,2.05E2,1E0,3E0,2.02E2,1E0,2E0,1.67E2,3.5E1,5E0,3E1],"tree_param":{"num_deleted":"0","num_feature":"10","num_nodes":"11","size_leaf_vector":"1"}},{"base_weights":[7.830017E-3,-6.699342E-4,1.4150745E-1,3.2113235E-2,-2.0329205E-4,5.313583E-4,1.6167669E-2,3.5170526E-3,-0E0,3.2864265E-2,-0E0,3.3664186E-3,-0E0],"categories":[],"categories_nodes":[],"categories_segments":[],"categories_sizes":[],"default_left":[0,0,0,0,0,0,0,0,0,0,0,0,0],"id":58,"left_children":[1,3,5,7,-1,9,-1,-1,-1,11,-1,-1,-1],"loss_changes":[2.886739E-1,5.923358E-3,2.2242472E-1,6.801948E-3,0E0,8.637374E-3,0E0,0E0,0E0,1.8558178E-2,0E0,0E0,0E0],"parents":[2147483647,0,0,1,1,2,2,3,3,5,5,9,9],"right_children":[2,4,6,8,-1,10,-1,-1,-1,12,-1,-1,-1],"split_conditions":[2.2738688E0,-1.6411011E0,1.8155375E-2,1.5767406E0,-2.0329205E-4,4.913354E0,1.6167669E-2,3.5170526E-3,-0E0,1.5767406E0,-0E0,3.3664186E-3,-0E0],"split_indices":[8,2,1,3,0,6,0,0,0,3,0,0,0],"split_type":[0,0,0,0,0,0,0,0,0,0,0,0,0],"sum_hessian":[1.91E2,1.77E2,1.4E1,2E0,1.75E2,1E1,4E0,1E0,1E0,7E0,3E0,5E0,2E0],"tree_param":{"num_deleted":"0","num_feature":"10","num_nodes":"13","size_leaf_vector":"1"}},{"base_weights":[-0E0,-0E0,-1.2805564E-3,3.8045533E-2,-0E0,3.4291253E-3,-0E0,3.89967E-3,-1.5084521E-3,1.7683884E-3,-0E0,-5.812011E-4,-0E0],"categories":[],"categories_nodes":[],"categories_segments":[],"categories_sizes":[],"default_left":[0,0,0,0,0,0,0,0,0,0,0,0,0],"id":59,"left_children":[1,3,-1,5,7,-1,-1,9,11,-1,-1,-1,-1],"loss_changes":[4.5915097E-3,4.342388E-3,0E0,5.064732E-3,8.734603E-4,0E0,0E0,1.0771275E-2,5.0178925E-3,0E0,0E0,0E0,0E0],"parents":[2147483647,0,0,1,1,3,3,4,4,7,7,8,8],"right_children":[2,4,-1,6,8,-1,-1,10,12,-1,-1,-1,-1],"split_conditions":[4.913354E0,-1.6411011E0,-1.2805564E-3,9.980139E-1,-9.980139E-1,3.4291253E-3,-0E0,-7.722829E-1,-7.722829E-1,1.7683884E-3,-0E0,-5.812011E-4,-0E0],"split_indices":[6,2,0,0,0,0,0,2,2,0,0,0,0],"split_type":[0,0,0,0,0,0,0,0,0,0,0,0,0],"sum_hessian":[2.08E2,2.02E2,6E0,2E0,2E2,1E0,1E0,3.1E1,1.69E2,8E0,2.3E1,3.9E1,1.3E2],"tree_param":{"num_deleted":"0","num_feature":"10","num_nodes":"13","size_leaf_vector":"1"}},{"base_weights":[6.583686E-4,-1.0122898E-3,5.899885E-2,3.0224685E-2,-2.082471E-4,1.2014418E-1,-0E0,3.3433975E-3,-0E0,-0E0,1.0349523E-2,5.8940738E-3,-2.339437E-3],"categories":[],"categories_nodes":[],"categories_segments":[],"categories_sizes":[],"default_left":[0,0,0,0,0,0,0,0,0,0,0,0,0],"id":60,"left_children":[1,3,5,7,-1,9,-1,-1,-1,11,-1,-1,-1],"loss_changes":[4.8838805E-2,5.807083E-3,9.561415E-2,6.2020505E-3,0E0,6.987901E-2,0E0,0E0,0E0,5.044487E-2,0E0,0E0,0E0],"parents":[2147483647,0,0,1,1,2,2,3,3,5,5,9,9],"right_children":[2,4,6,8,-1,10,-1,-1,-1,12,-1,-1,-1],"split_conditions":[2.2738688E0,-1.6411011E0,9.980139E-1,9.980139E-1,-2.082471E-4,-3.9611727E-1,-0E0,3.3433975E-3,-0E0,-9.980139E-1,1.0349523E-2,5.8940738E-3,-2.339437E-3],"split_indices":[8,2,0,0,0,1,0,0,0,0,0,0,0],"split_type":[0,0,0,0,0,0,0,0,0,0,0,0,0],"sum_hessian":[2.02E2,1.89E2,1.3E1,2E0,1.87E2,9E0,4E0,1E0,1E0,5E0,4E0,2E0,3E0],"tree_param":{"num_deleted":"0","num_feature":"10","num_nodes":"13","size_leaf_vector":"1"}},{"base_weights":[6.725416E-4,5.163556E-3,-9.2470196E-5,-0E0,3.4300715E-2,4.7688996E-3,-3.789439E-3,-0E0,1.16871625E-1,-0E0,2.6742702E-3,-7.6377013E-4,-0E0,3.2598122E-3,-0E0,-0E0,8.357379E-3],"categories":[],"categories_nodes":[],"categories_segments":[],"categories_sizes":[],"default_left":[0,0,0,0,0,0,0,0,0,0,0,0,0,0,0,0,0],"id":61,"left_children":[1,3,-1,5,7,9,11,13,15,-1,-1,-1,-1,-1,-1,-1,-1],"loss_changes":[4.011127E-3,2.9050395E-2,0E0,1.966276E-3,2.1692816E-2,1.3643913E-2,3.826688E-3,8.501101E-3,2.9179033E-2,0E0,0E0,0E0,0E0,0E0,0E0,0E0,0E0],"parents":[2147483647,0,0,1,1,3,3,4,4,5,5,6,6,7,7,8,8],"right_children":[2,4,-1,6,8,10,12,14,16,-1,-1,-1,-1,-1,-1,-1,-1],"split_conditions":[9.980139E-1,4.9900696E-1,-9.2470196E-5,-9.980139E-1,1.591484E0,1.591484E0,-7.722829E-1,-1.6411011E0,-3.9611727E-1,-0E0,2.6742702E-3,-7.6377013E-4,-0E0,3.2598122E-3,-0E0,-0E0,8.357379E-3],"split_indices":[0,0,0,0,9,9,2,2,1,0,0,0,0,0,0,0,0],"split_type":[0,0,0,0,0,0,0,0,0,0,0,0,0,0,0,0,0],"sum_hessian":[2.06E2,1.45E2,6.1E1,1.18E2,2.7E1,2.8E1,9E1,2.4E1,3E0,2.4E1,4E0,2.1E1,6.9E1,1E0,2.3E1,1E0,2E0],"tree_param":{"num_deleted":"0","num_feature":"10","num_nodes":"17","size_leaf_vector":"1"}},{"base_weights":[-0E0,-9.457917E-5,2.2534981E-2,2.8054427E-2,-1.6980027E-4,6.140026E-2,-0E0,3.1783164E-3,-0E0,-0E0,5.4293517E-3,5.6084623E-3,-2.5122685E-3],"categories":[],"categories_nodes":[],"categories_segments":[],"categories_sizes":[],"default_left":[0,0,0,0,0,0,0,0,0,0,0,0,0],"id":62,"left_children":[1,3,5,7,-1,9,-1,-1,-1,11,-1,-1,-1],"loss_changes":[8.126807E-3,4.400866E-3,3.7114702E-2,5.7202037E-3,0E0,2.5506962E-2,0E0,0E0,0E0,5.03688E-2,0E0,0E0,0E0],"parents":[2147483647,0,0,1,1,2,2,3,3,5,5,9,9],"right_children":[2,4,6,8,-1,10,-1,-1,-1,12,-1,-1,-1],"split_conditions":[2.2738688E0,-1.6411011E0,9.980139E-1,9.980139E-1,-1.6980027E-4,-3.9611727E-1,-0E0,3.1783164E-3,-0E0,-9.980139E-1,5.4293517E-3,5.6084623E-3,-2.5122685E-3],"split_indices":[8,2,0,0,0,1,0,0,0,0,0,0,0],"split_type":[0,0,0,0,0,0,0,0,0,0,0,0,0],"sum_hessian":[1.93E2,1.78E2,1.5E1,2E0,1.76E2,1.1E1,4E0,1E0,1E0,6E0,5E0,2E0,4E0],"tree_param":{"num_deleted":"0","num_feature":"10","num_nodes":"13","size_leaf_vector":"1"}},{"base_weights":[5.047478E-3,-0E0,2.1074662E-1,2.6994994E-2,-7.047783E-4,2.1359663E-2,-0E0,3.098859E-3,-0E0,-1.1675847E-4,-0E0,1.991812E-3,-3.1341688E-4],"categories":[],"categories_nodes":[],"categories_segments":[],"categories_sizes":[],"default_left":[0,0,0,0,0,0,0,0,0,0,0,0,0],"id":63,"left_children":[1,3,5,7,9,-1,-1,-1,-1,-1,11,-1,-1],"loss_changes":[2.1702623E-1,2.281558E-3,3.254115E-1,5.4961517E-3,8.916271E-4,0E0,0E0,0E0,0E0,0E0,1.2891868E-2,0E0,0E0],"parents":[2147483647,0,0,1,1,2,2,3,3,4,4,10,10],"right_children":[2,4,6,8,10,-1,-1,-1,-1,-1,12,-1,-1],"split_conditions":[4.788147E0,-1.6411011E0,1.5767406E0,1.5767406E0,2.2738688E0,2.1359663E-2,-0E0,3.098859E-3,-0E0,-1.1675847E-4,4.913354E0,1.991812E-3,-3.1341688E-4],"split_indices":[8,2,3,3,8,0,0,0,0,0,6,0,0],"split_type":[0,0,0,0,0,0,0,0,0,0,0,0,0],"sum_hessian":[1.97E2,1.93E2,4E0,2E0,1.91E2,2E0,2E0,1E0,1E0,1.8E2,1.1E1,7E0,4E0],"tree_param":{"num_deleted":"0","num_feature":"10","num_nodes":"13","size_leaf_vector":"1"}},{"base_weights":[7.051099E-3,-0E0,2.8223723E-1,-5.706806E-5,2.5508486E-2,2.0647673E-2,-0E0,2.5962045E-2,-1.5822983E-4,5.355121E-3,-0E0,3.0213878E-3,-0E0,-1.9691468E-3,1.5142438E-3],"categories":[],"categories_nodes":[],"categories_segments":[],"categories_sizes":[],"default_left":[0,0,0,0,0,0,0,0,0,0,0,0,0,0,0],"id":64,"left_children":[1,3,5,7,9,-1,-1,11,-1,-1,13,-1,-1,-1,-1],"loss_changes":[3.0858842E-1,7.808806E-3,1.9296023E-1,3.8842E-3,2.660459E-2,0E0,0E0,5.2809436E-3,0E0,0E0,1.325812E-2,0E0,0E0,0E0,0E0],"parents":[2147483647,0,0,1,1,2,2,3,3,4,4,7,7,10,10],"right_children":[2,4,6,8,10,-1,-1,12,-1,-1,14,-1,-1,-1,-1],"split_conditions":[4.788147E0,2.2738688E0,9.980139E-1,-1.6411011E0,-9.980139E-1,2.0647673E-2,-0E0,9.980139E-1,-1.5822983E-4,5.355121E-3,-3.9611727E-1,3.0213878E-3,-0E0,-1.9691468E-3,1.5142438E-3],"split_indices":[8,8,0,2,0,0,0,0,0,0,1,0,0,0,0],"split_type":[0,0,0,0,0,0,0,0,0,0,0,0,0,0,0],"sum_hessian":[2.01E2,1.98E2,3E0,1.87E2,1.1E1,2E0,1E0,2E0,1.85E2,2E0,9E0,1E0,1E0,4E0,5E0],"tree_param":{"num_deleted":"0","num_feature":"10","num_nodes":"15","size_leaf_vector":"1"}},{"base_weights":[4.9763937E-3,-0E0,2.6990747E-1,1.3474481E-2,-7.126237E-4,1.9959418E-2,-0E0,2.9458522E-3,-0E0,-0E0,-4.5540226E-3,-0E0,3.9475E-3,-4.2511986E-4,-0E0],"categories":[],"categories_nodes":[],"categories_segments":[],"categories_sizes":[],"default_left":[0,0,0,0,0,0,0,0,0,0,0,0,0,0,0],"id":65,"left_children":[1,3,5,7,9,-1,-1,-1,-1,11,13,-1,-1,-1,-1],"loss_changes":[2.8644726E-1,8.2476606E-4,1.8665388E-1,6.21619E-3,2.763479E-3,0E0,0E0,0E0,0E0,3.1165514E-2,2.4152263E-3,0E0,0E0,0E0,0E0],"parents":[2147483647,0,0,1,1,2,2,3,3,4,4,9,9,10,10],"right_children":[2,4,6,8,10,-1,-1,-1,-1,12,14,-1,-1,-1,-1],"split_conditions":[4.788147E0,-1.6411011E0,9.980139E-1,9.980139E-1,-4.9900696E-1,1.9959418E-2,-0E0,2.9458522E-3,-0E0,2.2738688E0,9.653536E-2,-0E0,3.9475E-3,-4.2511986E-4,-0E0],"split_indices":[8,2,0,0,0,0,0,0,0,8,2,0,0,0,0],"split_type":[0,0,0,0,0,0,0,0,0,0,0,0,0,0,0],"sum_hessian":[1.99E2,1.96E2,3E0,3E0,1.93E2,2E0,1E0,1E0,2E0,5.6E1,1.37E2,5.2E1,4E0,7.2E1,6.5E1],"tree_param":{"num_deleted":"0","num_feature":"10","num_nodes":"15","size_leaf_vector":"1"}},{"base_weights":[2.902677E-3,-0E0,1.48053495E-2,5.565883E-3,-1.2745266E-3,1.0565875E-2,-0E0,-0E0,-2.6784881E-3,6.881015E-4,-0E0,-1.8506643E-4,-0E0],"categories":[],"categories_nodes":[],"categories_segments":[],"categories_sizes":[],"default_left":[0,0,0,0,0,0,0,0,0,0,0,0,0],"id":66,"left_children":[1,3,-1,5,7,9,-1,-1,11,-1,-1,-1,-1],"loss_changes":[1.736399E-1,1.4468575E-3,0E0,1.8370145E-3,7.562712E-4,1.9100117E-3,0E0,0E0,7.961532E-4,0E0,0E0,0E0,0E0],"parents":[2147483647,0,0,1,1,3,3,4,4,5,5,8,8],"right_children":[2,4,-1,6,8,10,-1,-1,12,-1,-1,-1,-1],"split_conditions":[9.816703E0,-8.1038994E-1,1.48053495E-2,9.980139E-1,-9.980139E-1,4.913354E0,-0E0,-0E0,1.675246E0,6.881015E-4,-0E0,-1.8506643E-4,-0E0],"split_indices":[8,1,0,0,0,6,0,0,1,0,0,0,0],"split_type":[0,0,0,0,0,0,0,0,0,0,0,0,0],"sum_hessian":[2.03E2,2.02E2,1E0,3.7E1,1.65E2,2.6E1,1.1E1,2.3E1,1.42E2,2.5E1,1E0,1.32E2,1E1],"tree_param":{"num_deleted":"0","num_feature":"10","num_nodes":"13","size_leaf_vector":"1"}},{"base_weights":[2.6549955E-3,-0E0,1.4435217E-2,1.2566002E-2,-3.8467295E-4,2.8550045E-3,-0E0,-1.5081647E-4,8.72196E-5,5.0335657E-3,-0E0],"categories":[],"categories_nodes":[],"categories_segments":[],"categories_sizes":[],"default_left":[0,0,0,0,0,0,0,0,0,0,0],"id":67,"left_children":[1,3,-1,5,7,-1,-1,-1,9,-1,-1],"loss_changes":[1.6524126E-1,6.616562E-4,0E0,5.889222E-3,1.7169154E-3,0E0,0E0,0E0,3.0404046E-2,0E0,0E0],"parents":[2147483647,0,0,1,1,3,3,4,4,8,8],"right_children":[2,4,-1,6,8,-1,-1,-1,10,-1,-1],"split_conditions":[9.816703E0,-1.6411011E0,1.4435217E-2,9.980139E-1,2.2738688E0,2.8550045E-3,-0E0,-1.5081647E-4,-9.980139E-1,5.0335657E-3,-0E0],"split_indices":[8,2,0,0,8,0,0,0,0,0,0],"split_type":[0,0,0,0,0,0,0,0,0,0,0],"sum_hessian":[2.06E2,2.05E2,1E0,3E0,2.02E2,1E0,2E0,1.91E2,1.1E1,2E0,9E0],"tree_param":{"num_deleted":"0","num_feature":"10","num_nodes":"11","size_leaf_vector":"1"}},{"base_weights":[-0E0,-8.900496E-4,1.4074338E-2,1.1852251E-2,-3.5997992E-3,2.7836293E-3,-0E0,-6.2796343E-3,-0E0,-4.0755546E-4,-0E0],"categories":[],"categories_nodes":[],"categories_segments":[],"categories_sizes":[],"default_left":[0,0,0,0,0,0,0,0,0,0,0],"id":68,"left_children":[1,3,-1,5,7,-1,-1,9,-1,-1,-1],"loss_changes":[1.5863279E-1,3.0292992E-3,0E0,5.6369705E-3,3.402786E-3,0E0,0E0,8.7644905E-4,0E0,0E0,0E0],"parents":[2147483647,0,0,1,1,3,3,4,4,7,7],"right_children":[2,4,-1,6,8,-1,-1,10,-1,-1,-1],"split_conditions":[9.816703E0,-1.6411011E0,1.4074338E-2,9.980139E-1,1.7648666E0,2.7836293E-3,-0E0,9.653536E-1,-0E0,-4.0755546E-4,-0E0],"split_indices":[8,2,0,0,5,0,0,2,0,0,0],"split_type":[0,0,0,0,0,0,0,0,0,0,0],"sum_hessian":[2.06E2,2.05E2,1E0,3E0,2.02E2,1E0,2E0,1.52E2,5E1,1.03E2,4.9E1],"tree_param":{"num_deleted":"0","num_feature":"10","num_nodes":"11","size_leaf_vector":"1"}},{"base_weights":[4.006665E-3,-0E0,1.7765251E-1,-0E0,-6.486633E-4,1.8582067E-2,-0E0,-0E0,2.9452855E-2,2.714038E-3,-1.319046E-4,5.3925104E-3,-0E0],"categories":[],"categories_nodes":[],"categories_segments":[],"categories_sizes":[],"default_left":[0,0,0,0,0,0,0,0,0,0,0,0,0],"id":69,"left_children":[1,3,5,7,-1,-1,-1,9,11,-1,-1,-1,-1],"loss_changes":[1.5467167E-1,1.0098338E-3,2.5654975E-1,9.5421765E-3,0E0,0E0,0E0,7.1107196E-3,3.6984496E-2,0E0,0E0,0E0,0E0],"parents":[2147483647,0,0,1,1,2,2,3,3,7,7,8,8],"right_children":[2,4,6,8,-1,-1,-1,10,12,-1,-1,-1,-1],"split_conditions":[4.788147E0,4.913354E0,9.980139E-1,2.2738688E0,-6.486633E-4,1.8582067E-2,-0E0,-1.6411011E0,-4.9900696E-1,2.714038E-3,-1.319046E-4,5.3925104E-3,-0E0],"split_indices":[8,6,0,8,0,0,0,2,0,0,0,0,0],"split_type":[0,0,0,0,0,0,0,0,0,0,0,0,0],"sum_hessian":[1.94E2,1.9E2,4E0,1.85E2,5E0,2E0,2E0,1.75E2,1E1,1E0,1.74E2,3E0,7E0],"tree_param":{"num_deleted":"0","num_feature":"10","num_nodes":"13","size_leaf_vector":"1"}},{"base_weights":[4.6936553E-3,-0E0,1.7021966E-1,8.2913315E-4,-6.216356E-4,1.7962663E-2,-0E0,-0E0,5.4253526E-2,2.646187E-3,-1.20606055E-4,5.525392E-3,-0E0],"categories":[],"categories_nodes":[],"categories_segments":[],"categories_sizes":[],"default_left":[0,0,0,0,0,0,0,0,0,0,0,0,0],"id":70,"left_children":[1,3,5,7,-1,-1,-1,9,11,-1,-1,-1,-1],"loss_changes":[1.4048962E-1,1.0580516E-3,2.42315E-1,2.6360389E-2,0E0,0E0,0E0,6.654962E-3,4.6780884E-2,0E0,0E0,0E0,0E0],"parents":[2147483647,0,0,1,1,2,2,3,3,7,7,8,8],"right_children":[2,4,6,8,-1,-1,-1,10,12,-1,-1,-1,-1],"split_conditions":[4.788147E0,4.913354E0,9.980139E-1,2.2738688E0,-6.216356E-4,1.7962663E-2,-0E0,-1.6411011E0,9.980139E-1,2.646187E-3,-1.20606055E-4,5.525392E-3,-0E0],"split_indices":[8,6,0,8,0,0,0,2,0,0,0,0,0],"split_type":[0,0,0,0,0,0,0,0,0,0,0,0,0],"sum_hessian":[1.98E2,1.94E2,4E0,1.89E2,5E0,2E0,2E0,1.81E2,8E0,1E0,1.8E2,5E0,3E0],"tree_param":{"num_deleted":"0","num_feature":"10","num_nodes":"13","size_leaf_vector":"1"}},{"base_weights":[5.8985082E-3,-0E0,1.7363906E-2,9.503446E-3,-2.6566847E-3,1.1944227E-2,-0E0,-0E0,-3.01547E-3,-0E0,3.1193977E-3,-1.5155323E-4,-0E0],"categories":[],"categories_nodes":[],"categories_segments":[],"categories_sizes":[],"default_left":[0,0,0,0,0,0,0,0,0,0,0,0,0],"id":71,"left_children":[1,3,-1,5,7,9,-1,-1,11,-1,-1,-1,-1],"loss_changes":[3.5498697E-1,5.7056956E-3,0E0,2.4368223E-3,9.096996E-5,8.435798E-3,0E0,0E0,2.2221357E-6,0E0,0E0,0E0,0E0],"parents":[2147483647,0,0,1,1,3,3,4,4,5,5,8,8],"right_children":[2,4,-1,6,8,10,-1,-1,12,-1,-1,-1,-1],"split_conditions":[4.788147E0,-7.722829E-1,1.7363906E-2,4.913354E0,-3.8614145E-1,2.2738688E0,-0E0,-0E0,1.05295315E1,-0E0,3.1193977E-3,-1.5155323E-4,-0E0],"split_indices":[8,2,0,6,2,8,0,0,7,0,0,0,0],"split_type":[0,0,0,0,0,0,0,0,0,0,0,0,0],"sum_hessian":[1.95E2,1.93E2,2E0,5.1E1,1.42E2,4.9E1,2E0,2.2E1,1.2E2,4.6E1,3E0,1.19E2,1E0],"tree_param":{"num_deleted":"0","num_feature":"10","num_nodes":"13","size_leaf_vector":"1"}},{"base_weights":[3.0270638E-3,-0E0,1.2374759E-2,1.334062E-3,-1.1377884E-3,-0E0,4.8592035E-2,2.5800334E-3,-1.2413599E-4,-0E0,2.7324278E-3],"categories":[],"categories_nodes":[],"categories_segments":[],"categories_sizes":[],"default_left":[0,0,0,0,0,0,0,0,0,0,0],"id":72,"left_children":[1,3,-1,5,-1,7,9,-1,-1,-1,-1],"loss_changes":[1.2061096E-1,3.4646739E-3,0E0,3.0337693E-2,0E0,6.48407E-3,5.142154E-3,0E0,0E0,0E0,0E0],"parents":[2147483647,0,0,1,1,3,3,5,5,6,6],"right_children":[2,4,-1,6,-1,8,10,-1,-1,-1,-1],"split_conditions":[9.816703E0,4.913354E0,1.2374759E-2,2.2738688E0,-1.1377884E-3,-1.6411011E0,-1.2246625E0,2.5800334E-3,-1.2413599E-4,-0E0,2.7324278E-3],"split_indices":[8,6,0,8,0,2,1,0,0,0,0],"split_type":[0,0,0,0,0,0,0,0,0,0,0],"sum_hessian":[2.06E2,2.05E2,1E0,2E2,5E0,1.88E2,1.2E1,1E0,1.87E2,1E0,1.1E1],"tree_param":{"num_deleted":"0","num_feature":"10","num_nodes":"11","size_leaf_vector":"1"}},{"base_weights":[-0E0,2.0019999E-2,-7.6883785E-5,2.515532E-3,-0E0,-2.165217E-3,-0E0,-0E0,-3.7707477E-3,-0E0,2.3459196E-4,-4.12807E-4,-0E0],"categories":[],"categories_nodes":[],"categories_segments":[],"categories_sizes":[],"default_left":[0,0,0,0,0,0,0,0,0,0,0,0,0],"id":73,"left_children":[1,3,5,-1,-1,7,9,-1,11,-1,-1,-1,-1],"loss_changes":[1.2035774E-3,3.85992E-3,9.130156E-4,0E0,0E0,1.4745224E-3,4.402671E-5,0E0,3.3370485E-3,0E0,0E0,0E0,0E0],"parents":[2147483647,0,0,1,1,2,2,5,5,6,6,8,8],"right_children":[2,4,6,-1,-1,8,10,-1,12,-1,-1,-1,-1],"split_conditions":[-1.6411011E0,9.980139E-1,3.5592794E0,2.515532E-3,-0E0,-9.980139E-1,0E0,-0E0,9.653536E-2,-0E0,2.3459196E-4,-4.12807E-4,-0E0],"split_indices":[2,0,9,0,0,0,0,0,2,0,0,0,0],"split_type":[0,0,0,0,0,0,0,0,0,0,0,0,0],"sum_hessian":[2E2,2E0,1.98E2,1E0,1E0,1.94E2,4E0,2.7E1,1.67E2,3E0,1E0,8.3E1,8.4E1],"tree_param":{"num_deleted":"0","num_feature":"10","num_nodes":"13","size_leaf_vector":"1"}},{"base_weights":[3.345971E-3,-0E0,1.652941E-2,8.364578E-3,-1.8524465E-3,2.4526448E-3,-0E0,-0E0,-3.2779549E-3,-3.28405E-4,-0E0],"categories":[],"categories_nodes":[],"categories_segments":[],"categories_sizes":[],"default_left":[0,0,0,0,0,0,0,0,0,0,0],"id":74,"left_children":[1,3,-1,5,7,-1,-1,-1,9,-1,-1],"loss_changes":[3.2563773E-1,9.455868E-4,0E0,4.532508E-3,7.848514E-4,0E0,0E0,0E0,1.3535223E-3,0E0,0E0],"parents":[2147483647,0,0,1,1,3,3,4,4,8,8],"right_children":[2,4,-1,6,8,-1,-1,-1,10,-1,-1],"split_conditions":[4.788147E0,-1.6411011E0,1.652941E-2,9.980139E-1,-4.9900696E-1,2.4526448E-3,-0E0,-0E0,9.653536E-2,-3.28405E-4,-0E0],"split_indices":[8,2,0,0,0,0,0,0,2,0,0],"split_type":[0,0,0,0,0,0,0,0,0,0,0],"sum_hessian":[1.98E2,1.96E2,2E0,3E0,1.93E2,1E0,2E0,5.9E1,1.34E2,6.4E1,7E1],"tree_param":{"num_deleted":"0","num_feature":"10","num_nodes":"11","size_leaf_vector":"1"}},{"base_weights":[2.6881353E-3,-0E0,1.1652154E-2,1.5066103E-3,-1.4731294E-3,-0E0,4.3928962E-2,2.3913279E-3,-9.407882E-5,5.042137E-3,-0E0],"categories":[],"categories_nodes":[],"categories_segments":[],"categories_sizes":[],"default_left":[0,0,0,0,0,0,0,0,0,0,0],"id":75,"left_children":[1,3,-1,5,-1,7,9,-1,-1,-1,-1],"loss_changes":[1.07093446E-1,6.539363E-3,0E0,2.4623744E-2,0E0,5.2509625E-3,6.643652E-2,0E0,0E0,0E0,0E0],"parents":[2147483647,0,0,1,1,3,3,5,5,6,6],"right_children":[2,4,-1,6,-1,8,10,-1,-1,-1,-1],"split_conditions":[9.816703E0,4.913354E0,1.1652154E-2,2.2738688E0,-1.4731294E-3,-1.6411011E0,9.980139E-1,2.3913279E-3,-9.407882E-5,5.042137E-3,-0E0],"split_indices":[8,6,0,8,0,2,0,0,0,0,0],"split_type":[0,0,0,0,0,0,0,0,0,0,0],"sum_hessian":[2.1E2,2.09E2,1E0,2.03E2,6E0,1.91E2,1.2E1,1E0,1.9E2,8E0,4E0],"tree_param":{"num_deleted":"0","num_feature":"10","num_nodes":"11","size_leaf_vector":"1"}},{"base_weights":[4.2915423E-3,-0E0,1.1360848E-2,3.15087E-3,-1.4099953E-3,-0E0,8.04214E-2,2.3315444E-3,-9.331758E-5,7.4816095E-3,-0E0],"categories":[],"categories_nodes":[],"categories_segments":[],"categories_sizes":[],"default_left":[0,0,0,0,0,0,0,0,0,0,0],"id":76,"left_children":[1,3,-1,5,-1,7,9,-1,-1,-1,-1],"loss_changes":[9.946112E-2,7.542311E-3,0E0,6.916796E-2,0E0,5.003734E-3,1.0797468E-1,0E0,0E0,0E0,0E0],"parents":[2147483647,0,0,1,1,3,3,5,5,6,6],"right_children":[2,4,-1,6,-1,8,10,-1,-1,-1,-1],"split_conditions":[9.816703E0,4.913354E0,1.1360848E-2,2.2738688E0,-1.4099953E-3,-1.6411011E0,9.980139E-1,2.3315444E-3,-9.331758E-5,7.4816095E-3,-0E0],"split_indices":[8,6,0,8,0,2,0,0,0,0,0],"split_type":[0,0,0,0,0,0,0,0,0,0,0],"sum_hessian":[2.05E2,2.04E2,1E0,1.98E2,6E0,1.88E2,1E1,1E0,1.87E2,7E0,3E0],"tree_param":{"num_deleted":"0","num_feature":"10","num_nodes":"11","size_leaf_vector":"1"}},{"base_weights":[4.240695E-3,-0E0,1.9593579E-1,4.7987895E-4,-0E0,1.5386148E-2,-0E0,-0E0,3.3690277E-2,-0E0,-4.179538E-5,-0E0,3.1040802E-3],"categories":[],"categories_nodes":[],"categories_segments":[],"categories_sizes":[],"default_left":[0,0,0,0,0,0,0,0,0,0,0,0,0],"id":77,"left_children":[1,3,5,7,-1,-1,-1,9,11,-1,-1,-1,-1],"loss_changes":[1.4975081E-1,4.7208177E-5,1.3051695E-1,1.0168106E-2,0E0,0E0,0E0,1.2717098E-4,5.201189E-3,0E0,0E0,0E0,0E0],"parents":[2147483647,0,0,1,1,2,2,3,3,7,7,8,8],"right_children":[2,4,6,8,-1,-1,-1,10,12,-1,-1,-1,-1],"split_conditions":[4.788147E0,4.913354E0,1.5767406E0,2.2738688E0,-0E0,1.5386148E-2,-0E0,-1.2246625E0,-3.9611727E-1,-0E0,-4.179538E-5,-0E0,3.1040802E-3],"split_indices":[8,6,3,8,0,0,0,1,1,0,0,0,0],"split_type":[0,0,0,0,0,0,0,0,0,0,0,0,0],"sum_hessian":[2.11E2,2.08E2,3E0,2.04E2,4E0,2E0,1E0,1.96E2,8E0,1.5E1,1.81E2,5E0,3E0],"tree_param":{"num_deleted":"0","num_feature":"10","num_nodes":"13","size_leaf_vector":"1"}},{"base_weights":[1.6581176E-3,9.147767E-3,-0E0,1.6584055E-2,-0E0,-1.5408732E-5,-0E0,1.959348E-2,-0E0,-0E0,3.0568382E-3],"categories":[],"categories_nodes":[],"categories_segments":[],"categories_sizes":[],"default_left":[0,0,0,0,0,0,0,0,0,0,0],"id":78,"left_children":[1,3,5,7,-1,-1,-1,9,-1,-1,-1],"loss_changes":[5.661816E-3,8.659226E-3,6.932928E-6,5.111361E-3,0E0,0E0,0E0,1.3676306E-2,0E0,0E0,0E0],"parents":[2147483647,0,0,1,1,2,2,3,3,7,7],"right_children":[2,4,6,8,-1,-1,-1,10,-1,-1,-1],"split_conditions":[-3.8614145E-1,9.980139E-1,4.9900696E-1,4.913354E0,-0E0,-1.5408732E-5,-0E0,1.591484E0,-0E0,-0E0,3.0568382E-3],"split_indices":[2,0,0,6,0,0,0,9,0,0,0],"split_type":[0,0,0,0,0,0,0,0,0,0,0],"sum_hessian":[1.92E2,7.3E1,1.19E2,5.3E1,2E1,7.2E1,4.7E1,5.1E1,2E0,4.3E1,8E0],"tree_param":{"num_deleted":"0","num_feature":"10","num_nodes":"11","size_leaf_vector":"1"}},{"base_weights":[4.3023485E-3,-0E0,1.8378809E-1,7.291468E-3,-0E0,1.4822589E-2,-0E0,2.2732557E-3,-0E0,-0E0,-2.00059E-3,-0E0,3.794228E-3,-5.6000723E-4,-0E0],"categories":[],"categories_nodes":[],"categories_segments":[],"categories_sizes":[],"default_left":[0,0,0,0,0,0,0,0,0,0,0,0,0,0,0],"id":79,"left_children":[1,3,5,7,9,-1,-1,-1,-1,11,13,-1,-1,-1,-1],"loss_changes":[1.3133617E-1,2.1266201E-4,1.285387E-1,3.9214906E-3,6.763989E-4,0E0,0E0,0E0,0E0,1.7275399E-2,5.344877E-3,0E0,0E0,0E0,0E0],"parents":[2147483647,0,0,1,1,2,2,3,3,4,4,9,9,10,10],"right_children":[2,4,6,8,10,-1,-1,-1,-1,12,14,-1,-1,-1,-1],"split_conditions":[4.788147E0,-1.6411011E0,9.980139E-1,9.980139E-1,-9.980139E-1,1.4822589E-2,-0E0,2.2732557E-3,-0E0,2.2738688E0,-7.722829E-1,-0E0,3.794228E-3,-5.6000723E-4,-0E0],"split_indices":[8,2,0,0,0,0,0,0,0,8,2,0,0,0,0],"split_type":[0,0,0,0,0,0,0,0,0,0,0,0,0,0,0],"sum_hessian":[2.03E2,2E2,3E0,3E0,1.97E2,2E0,1E0,1E0,2E0,2.9E1,1.68E2,2.7E1,2E0,4.7E1,1.21E2],"tree_param":{"num_deleted":"0","num_feature":"10","num_nodes":"15","size_leaf_vector":"1"}},{"base_weights":[-0E0,-1.4790548E-4,1.0321999E-2,-0E0,-1.3415668E-3,2.152359E-2,-0E0,2.216424E-3,-0E0,-5.944646E-5,-0E0],"categories":[],"categories_nodes":[],"categories_segments":[],"categories_sizes":[],"default_left":[0,0,0,0,0,0,0,0,0,0,0],"id":80,"left_children":[1,3,-1,5,-1,7,9,-1,-1,-1,-1],"loss_changes":[8.523932E-2,5.0350465E-3,0E0,1.3897949E-3,0E0,2.5402335E-3,2.6150723E-4,0E0,0E0,0E0,0E0],"parents":[2147483647,0,0,1,1,3,3,5,5,6,6],"right_children":[2,4,-1,6,-1,8,10,-1,-1,-1,-1],"split_conditions":[9.816703E0,4.913354E0,1.0321999E-2,-1.6411011E0,-1.3415668E-3,9.980139E-1,2.2738688E0,2.216424E-3,-0E0,-5.944646E-5,-0E0],"split_indices":[8,6,0,2,0,0,8,0,0,0,0],"split_type":[0,0,0,0,0,0,0,0,0,0,0],"sum_hessian":[2.01E2,2E2,1E0,1.94E2,6E0,2E0,1.92E2,1E0,1E0,1.84E2,8E0],"tree_param":{"num_deleted":"0","num_feature":"10","num_nodes":"11","size_leaf_vector":"1"}},{"base_weights":[-0E0,-0E0,-1.284071E-3,3.8517052E-3,-0E0,9.273532E-3,-0E0,-0E0,1.2369606E-3],"categories":[],"categories_nodes":[],"categories_segments":[],"categories_sizes":[],"default_left":[0,0,0,0,0,0,0,0,0],"id":81,"left_children":[1,3,-1,5,-1,7,-1,-1,-1],"loss_changes":[4.616747E-3,1.3797139E-3,0E0,4.3821787E-3,0E0,1.13749085E-2,0E0,0E0,0E0],"parents":[2147483647,0,0,1,1,3,3,5,5],"right_children":[2,4,-1,6,-1,8,-1,-1,-1],"split_conditions":[4.913354E0,0E0,-1.284071E-3,9.980139E-1,-0E0,0E0,-0E0,-0E0,1.2369606E-3],"split_indices":[6,2,0,0,0,0,0,0,0],"split_type":[0,0,0,0,0,0,0,0,0],"sum_hessian":[2E2,1.94E2,6E0,9.2E1,1.02E2,6.6E1,2.6E1,3.9E1,2.7E1],"tree_param":{"num_deleted":"0","num_feature":"10","num_nodes":"9","size_leaf_vector":"1"}},{"base_weights":[3.4461436E-3,-0E0,1.738081E-1,8.080015E-3,-1.3661416E-3,1.4157255E-2,-0E0,6.9690746E-4,-0E0,-0E0,-2.5971201E-3,-0E0,-7.0920977E-4],"categories":[],"categories_nodes":[],"categories_segments":[],"categories_sizes":[],"default_left":[0,0,0,0,0,0,0,0,0,0,0,0,0],"id":82,"left_children":[1,3,5,7,9,-1,-1,-1,-1,-1,11,-1,-1],"loss_changes":[1.1846184E-1,2.145304E-3,1.1967644E-1,2.057414E-3,4.7189058E-4,0E0,0E0,0E0,0E0,0E0,2.0275107E-3,0E0,0E0],"parents":[2147483647,0,0,1,1,2,2,3,3,4,4,10,10],"right_children":[2,4,6,8,10,-1,-1,-1,-1,-1,12,-1,-1],"split_conditions":[4.788147E0,-1.1584244E0,9.980139E-1,9.980139E-1,-4.9900696E-1,1.4157255E-2,-0E0,6.9690746E-4,-0E0,-0E0,1.591484E0,-0E0,-7.0920977E-4],"split_indices":[8,2,0,0,0,0,0,0,0,0,9,0,0],"split_type":[0,0,0,0,0,0,0,0,0,0,0,0,0],"sum_hessian":[1.99E2,1.96E2,3E0,2.7E1,1.69E2,2E0,1E0,1.9E1,8E0,5.3E1,1.16E2,1.03E2,1.3E1],"tree_param":{"num_deleted":"0","num_feature":"10","num_nodes":"13","size_leaf_vector":"1"}},{"base_weights":[-0E0,-0E0,9.548722E-2,-0E0,-9.242586E-4,-0E0,9.7421175E-3,2.0140147E-2,-0E0,2.112666E-3,-0E0,6.9278954E-5,-8.0963124E-5],"categories":[],"categories_nodes":[],"categories_segments":[],"categories_sizes":[],"default_left":[0,0,0,0,0,0,0,0,0,0,0,0,0],"id":83,"left_children":[1,3,5,7,-1,-1,-1,9,11,-1,-1,-1,-1],"loss_changes":[2.735343E-2,2.0502096E-3,4.8573643E-2,1.2168764E-3,0E0,0E0,0E0,2.3538088E-3,5.1312265E-4,0E0,0E0,0E0,0E0],"parents":[2147483647,0,0,1,1,2,2,3,3,7,7,8,8],"right_children":[2,4,6,8,-1,-1,-1,10,12,-1,-1,-1,-1],"split_conditions":[1.7376366E0,4.913354E0,-9.980139E-1,-1.6411011E0,-9.242586E-4,-0E0,9.7421175E-3,9.980139E-1,-9.980139E-1,2.112666E-3,-0E0,6.9278954E-5,-8.0963124E-5],"split_indices":[2,6,0,2,0,0,0,0,0,0,0,0,0],"split_type":[0,0,0,0,0,0,0,0,0,0,0,0,0],"sum_hessian":[2.11E2,2.09E2,2E0,2.04E2,5E0,1E0,1E0,2E0,2.02E2,1E0,1E0,3E1,1.72E2],"tree_param":{"num_deleted":"0","num_feature":"10","num_nodes":"13","size_leaf_vector":"1"}},{"base_weights":[5.9945794E-4,-0E0,2.3388987E-2,1.608858E-2,-6.0535043E-5,8.579681E-2,-0E0,2.0598501E-3,-0E0,1.0559484E-1,-0E0,-0E0,6.891291E-3],"categories":[],"categories_nodes":[],"categories_segments":[],"categories_sizes":[],"default_left":[0,0,0,0,0,0,0,0,0,0,0,0,0],"id":84,"left_children":[1,3,5,7,-1,9,-1,-1,-1,11,-1,-1,-1],"loss_changes":[7.0382743E-3,1.0550285E-3,5.1777154E-2,2.6178588E-3,0E0,1.9163165E-2,0E0,0E0,0E0,1.6927868E-2,0E0,0E0,0E0],"parents":[2147483647,0,0,1,1,2,2,3,3,5,5,9,9],"right_children":[2,4,6,8,-1,10,-1,-1,-1,12,-1,-1,-1],"split_conditions":[2.2738688E0,-1.6411011E0,9.980139E-1,9.980139E-1,-6.0535043E-5,4.913354E0,-0E0,2.0598501E-3,-0E0,-8.1038994E-1,-0E0,-0E0,6.891291E-3],"split_indices":[8,2,0,0,0,6,0,0,0,1,0,0,0],"split_type":[0,0,0,0,0,0,0,0,0,0,0,0,0],"sum_hessian":[2.03E2,1.91E2,1.2E1,2E0,1.89E2,7E0,5E0,1E0,1E0,6E0,1E0,2E0,4E0],"tree_param":{"num_deleted":"0","num_feature":"10","num_nodes":"13","size_leaf_vector":"1"}},{"base_weights":[2.8620958E-3,-0E0,9.498566E-3,1.8404667E-3,-1.1842746E-3,-0E0,5.7765547E-2,2.0083548E-3,-6.920868E-5,4.986415E-3,-0E0],"categories":[],"categories_nodes":[],"categories_segments":[],"categories_sizes":[],"default_left":[0,0,0,0,0,0,0,0,0,0,0],"id":85,"left_children":[1,3,-1,5,-1,7,9,-1,-1,-1,-1],"loss_changes":[7.0564464E-2,4.570608E-3,0E0,2.9388133E-2,0E0,3.5735753E-3,3.9588414E-2,0E0,0E0,0E0,0E0],"parents":[2147483647,0,0,1,1,3,3,5,5,6,6],"right_children":[2,4,-1,6,-1,8,10,-1,-1,-1,-1],"split_conditions":[9.816703E0,4.913354E0,9.498566E-3,2.2738688E0,-1.1842746E-3,-1.6411011E0,9.980139E-1,2.0083548E-3,-6.920868E-5,4.986415E-3,-0E0],"split_indices":[8,6,0,8,0,2,0,0,0,0,0],"split_type":[0,0,0,0,0,0,0,0,0,0,0],"sum_hessian":[1.96E2,1.95E2,1E0,1.89E2,6E0,1.81E2,8E0,1E0,1.8E2,6E0,2E0],"tree_param":{"num_deleted":"0","num_feature":"10","num_nodes":"11","size_leaf_vector":"1"}},{"base_weights":[-0E0,-7.95889E-4,9.2611015E-3,-0E0,-9.887674E-3,5.3239064E-3,-0E0,-0E0,-2.2237267E-2,1.9581453E-3,-0E0,-1.582191E-3,-0E0],"categories":[],"categories_nodes":[],"categories_segments":[],"categories_sizes":[],"default_left":[0,0,0,0,0,0,0,0,0,0,0,0,0],"id":86,"left_children":[1,3,-1,5,7,9,-1,-1,11,-1,-1,-1,-1],"loss_changes":[6.874806E-2,2.8970933E-3,0E0,1.1337592E-4,8.837157E-3,2.9540902E-3,0E0,0E0,9.16005E-3,0E0,0E0,0E0,0E0],"parents":[2147483647,0,0,1,1,3,3,4,4,5,5,8,8],"right_children":[2,4,-1,6,8,10,-1,-1,12,-1,-1,-1,-1],"split_conditions":[9.816703E0,1.591484E0,9.2611015E-3,-1.6411011E0,-4.9900696E-1,9.980139E-1,-0E0,-0E0,4.788147E0,1.9581453E-3,-0E0,-1.582191E-3,-0E0],"split_indices":[8,9,0,2,0,0,0,0,8,0,0,0,0],"split_type":[0,0,0,0,0,0,0,0,0,0,0,0,0],"sum_hessian":[2.11E2,2.1E2,1E0,1.8E2,3E1,3E0,1.77E2,7E0,2.3E1,1E0,2E0,2E1,3E0],"tree_param":{"num_deleted":"0","num_feature":"10","num_nodes":"13","size_leaf_vector":"1"}},{"base_weights":[9.916114E-6,-5.93277E-4,1.5667507E-1,4.8343735E-3,-3.110752E-3,1.3013705E-2,-0E0,1.909192E-3,-0E0,-5.074746E-3,-0E0,-0E0,-7.7044935E-4],"categories":[],"categories_nodes":[],"categories_segments":[],"categories_sizes":[],"default_left":[0,0,0,0,0,0,0,0,0,0,0,0,0],"id":87,"left_children":[1,3,5,7,9,-1,-1,-1,-1,11,-1,-1,-1],"loss_changes":[9.826221E-2,2.0226624E-3,1.050395E-1,2.8225263E-3,6.494706E-4,0E0,0E0,0E0,0E0,3.5207942E-3,0E0,0E0,0E0],"parents":[2147483647,0,0,1,1,2,2,3,3,4,4,9,9],"right_children":[2,4,6,8,10,-1,-1,-1,-1,12,-1,-1,-1],"split_conditions":[4.788147E0,-1.6411011E0,9.980139E-1,9.980139E-1,9.653536E-2,1.3013705E-2,-0E0,1.909192E-3,-0E0,1.591484E0,-0E0,-0E0,-7.7044935E-4],"split_indices":[8,2,0,0,2,0,0,0,0,9,0,0,0],"split_type":[0,0,0,0,0,0,0,0,0,0,0,0,0],"sum_hessian":[2.12E2,2.09E2,3E0,3E0,2.06E2,2E0,1E0,1E0,2E0,1.02E2,1.04E2,7.7E1,2.5E1],"tree_param":{"num_deleted":"0","num_feature":"10","num_nodes":"13","size_leaf_vector":"1"}},{"base_weights":[4.659053E-3,-0E0,7.2747446E-3,3.4154397E-3,-0E0,-0E0,4.3650202E-2,1.861462E-3,-1.1215073E-5,-0E0,6.453228E-3],"categories":[],"categories_nodes":[],"categories_segments":[],"categories_sizes":[],"default_left":[0,0,0,0,0,0,0,0,0,0,0],"id":88,"left_children":[1,3,-1,5,-1,7,9,-1,-1,-1,-1],"loss_changes":[5.918665E-2,1.6447973E-3,0E0,1.7408604E-2,0E0,2.7786233E-3,4.757724E-2,0E0,0E0,0E0,0E0],"parents":[2147483647,0,0,1,1,3,3,5,5,6,6],"right_children":[2,4,-1,6,-1,8,10,-1,-1,-1,-1],"split_conditions":[1.7376366E0,9.980139E-1,7.2747446E-3,2.2738688E0,-0E0,-1.6411011E0,0E0,1.861462E-3,-1.1215073E-5,-0E0,6.453228E-3],"split_indices":[2,0,0,8,0,2,0,0,0,0,0],"split_type":[0,0,0,0,0,0,0,0,0,0,0],"sum_hessian":[1.98E2,1.96E2,2E0,1.4E2,5.6E1,1.31E2,9E0,1E0,1.3E2,6E0,3E0],"tree_param":{"num_deleted":"0","num_feature":"10","num_nodes":"11","size_leaf_vector":"1"}},{"base_weights":[9.973507E-4,-0E0,1.5159386E-1,3.8917111E-3,-2.0824403E-3,1.2351117E-2,-0E0,1.8149257E-3,-0E0,-0E0,-3.205499E-3,-5.540945E-4,-0E0],"categories":[],"categories_nodes":[],"categories_segments":[],"categories_sizes":[],"default_left":[0,0,0,0,0,0,0,0,0,0,0,0,0],"id":89,"left_children":[1,3,5,7,9,-1,-1,-1,-1,-1,11,-1,-1],"loss_changes":[9.1717884E-2,9.278931E-4,9.113733E-2,2.5745826E-3,9.0002693E-4,0E0,0E0,0E0,0E0,0E0,3.636226E-3,0E0,0E0],"parents":[2147483647,0,0,1,1,2,2,3,3,4,4,10,10],"right_children":[2,4,6,8,10,-1,-1,-1,-1,-1,12,-1,-1],"split_conditions":[4.788147E0,-1.6411011E0,9.980139E-1,9.980139E-1,-9.980139E-1,1.2351117E-2,-0E0,1.8149257E-3,-0E0,-0E0,-7.722829E-1,-5.540945E-4,-0E0],"split_indices":[8,2,0,0,0,0,0,0,0,0,2,0,0],"split_type":[0,0,0,0,0,0,0,0,0,0,0,0,0],"sum_hessian":[2.05E2,2.02E2,3E0,3E0,1.99E2,2E0,1E0,1E0,2E0,2.8E1,1.71E2,4.3E1,1.28E2],"tree_param":{"num_deleted":"0","num_feature":"10","num_nodes":"13","size_leaf_vector":"1"}},{"base_weights":[6.658051E-4,-0E0,6.8264045E-3,-0E0,-1.1325863E-3,1.7695517E-3,-0E0,-3.0056208E-5,-0E0],"categories":[],"categories_nodes":[],"categories_segments":[],"categories_sizes":[],"default_left":[0,0,0,0,0,0,0,0,0],"id":90,"left_children":[1,3,-1,5,-1,-1,7,-1,-1],"loss_changes":[5.5834208E-2,3.5917044E-3,0E0,2.5050505E-3,0E0,0E0,6.3236286E-5,0E0,0E0],"parents":[2147483647,0,0,1,1,3,3,6,6],"right_children":[2,4,-1,6,-1,-1,8,-1,-1],"split_conditions":[1.7376366E0,4.913354E0,6.8264045E-3,-1.6411011E0,-1.1325863E-3,1.7695517E-3,2.2738688E0,-3.0056208E-5,-0E0],"split_indices":[2,6,0,2,0,0,8,0,0],"split_type":[0,0,0,0,0,0,0,0,0],"sum_hessian":[1.92E2,1.9E2,2E0,1.84E2,6E0,1E0,1.83E2,1.74E2,9E0],"tree_param":{"num_deleted":"0","num_feature":"10","num_nodes":"9","size_leaf_vector":"1"}},{"base_weights":[2.8642431E-5,-0E0,8.042932E-3,2.8363434E-3,-1.6444634E-3,1.7253131E-3,-0E0,-0E0,-4.5470935E-3,-0E0,2.0433045E-3,-0E0,-1.0776775E-3],"categories":[],"categories_nodes":[],"categories_segments":[],"categories_sizes":[],"default_left":[0,0,0,0,0,0,0,0,0,0,0,0,0],"id":91,"left_children":[1,3,-1,5,7,-1,-1,9,11,-1,-1,-1,-1],"loss_changes":[5.175083E-2,5.7032704E-4,0E0,2.3491848E-3,2.9974582E-3,0E0,0E0,6.680148E-3,9.471947E-3,0E0,0E0,0E0,0E0],"parents":[2147483647,0,0,1,1,3,3,4,4,7,7,8,8],"right_children":[2,4,-1,6,8,-1,-1,10,12,-1,-1,-1,-1],"split_conditions":[7.49487E0,-1.6411011E0,8.042932E-3,9.980139E-1,-9.980139E-1,1.7253131E-3,-0E0,1.591484E0,1.591484E0,-0E0,2.0433045E-3,-0E0,-1.0776775E-3],"split_indices":[9,2,0,0,0,0,0,9,9,0,0,0,0],"split_type":[0,0,0,0,0,0,0,0,0,0,0,0,0],"sum_hessian":[2.02E2,2.01E2,1E0,3E0,1.98E2,1E0,2E0,2.8E1,1.7E2,2.5E1,3E0,1.43E2,2.7E1],"tree_param":{"num_deleted":"0","num_feature":"10","num_nodes":"13","size_leaf_vector":"1"}},{"base_weights":[1.3162978E-3,-0E0,6.794298E-2,7.428278E-4,-1.0455584E-3,-0E0,6.482772E-3,6.0245534E-3,-0E0,5.821422E-4,-0E0],"categories":[],"categories_nodes":[],"categories_segments":[],"categories_sizes":[],"default_left":[0,0,0,0,0,0,0,0,0,0,0],"id":92,"left_children":[1,3,5,7,-1,-1,-1,9,-1,-1,-1],"loss_changes":[1.8106336E-2,3.1701932E-3,3.1966604E-2,3.3387933E-3,0E0,0E0,0E0,5.4986356E-3,0E0,0E0,0E0],"parents":[2147483647,0,0,1,1,2,2,3,3,7,7],"right_children":[2,4,6,8,-1,-1,-1,10,-1,-1,-1],"split_conditions":[1.7376366E0,4.913354E0,-9.980139E-1,0E0,-1.0455584E-3,-0E0,6.482772E-3,9.980139E-1,-0E0,5.821422E-4,-0E0],"split_indices":[2,6,0,2,0,0,0,0,0,0,0],"split_type":[0,0,0,0,0,0,0,0,0,0,0],"sum_hessian":[2.06E2,2.03E2,3E0,1.97E2,6E0,1E0,2E0,9.4E1,1.03E2,6.5E1,2.9E1],"tree_param":{"num_deleted":"0","num_feature":"10","num_nodes":"11","size_leaf_vector":"1"}},{"base_weights":[2.0334237E-4,-0E0,7.6797903E-3,2.5208793E-3,-1.5450651E-3,1.6676277E-3,-0E0,-1.0772288E-4,-0E0],"categories":[],"categories_nodes":[],"categories_segments":[],"categories_sizes":[],"default_left":[0,0,0,0,0,0,0,0,0],"id":93,"left_children":[1,3,-1,5,7,-1,-1,-1,-1],"loss_changes":[4.7175694E-2,4.5750727E-4,0E0,2.1993665E-3,3.9413248E-4,0E0,0E0,0E0,0E0],"parents":[2147483647,0,0,1,1,3,3,4,4],"right_children":[2,4,-1,6,8,-1,-1,-1,-1],"split_conditions":[9.816703E0,-1.6411011E0,7.6797903E-3,1.5767406E0,4.788147E0,1.6676277E-3,-0E0,-1.0772288E-4,-0E0],"split_indices":[8,2,0,3,8,0,0,0,0],"split_type":[0,0,0,0,0,0,0,0,0],"sum_hessian":[1.84E2,1.83E2,1E0,3E0,1.8E2,1E0,2E0,1.77E2,3E0],"tree_param":{"num_deleted":"0","num_feature":"10","num_nodes":"9","size_leaf_vector":"1"}},{"base_weights":[-0E0,-2.661118E-3,7.4877976E-3,-0E0,-2.1041812E-2,2.1039746E-3,-0E0,-3.367553E-2,-0E0,1.6259373E-3,-0E0,-2.2783333E-3,-0E0],"categories":[],"categories_nodes":[],"categories_segments":[],"categories_sizes":[],"default_left":[0,0,0,0,0,0,0,0,0,0,0,0,0],"id":94,"left_children":[1,3,-1,5,7,9,-1,11,-1,-1,-1,-1,-1],"loss_changes":[4.631249E-2,1.2709454E-2,0E0,1.7706836E-5,1.418278E-2,2.0972306E-3,0E0,9.022737E-3,0E0,0E0,0E0,0E0,0E0],"parents":[2147483647,0,0,1,1,3,3,4,4,5,5,7,7],"right_children":[2,4,-1,6,8,10,-1,12,-1,-1,-1,-1,-1],"split_conditions":[7.49487E0,1.591484E0,7.4877976E-3,-1.6411011E0,4.3242803E-1,9.980139E-1,-0E0,3.5592794E0,-0E0,1.6259373E-3,-0E0,-2.2783333E-3,-0E0],"split_indices":[9,9,0,2,1,0,0,9,0,0,0,0,0],"split_type":[0,0,0,0,0,0,0,0,0,0,0,0,0],"sum_hessian":[2.06E2,2.05E2,1E0,1.74E2,3.1E1,3E0,1.71E2,2.4E1,7E0,1E0,2E0,1.7E1,7E0],"tree_param":{"num_deleted":"0","num_feature":"10","num_nodes":"13","size_leaf_vector":"1"}},{"base_weights":[2.1456908E-3,-0E0,1.3722628E-1,1.6975007E-3,-6.815017E-4,1.1339015E-2,-0E0,1.5852898E-3,-0E0,-1.196558E-3,-0E0,-8.866464E-5,-0E0,2.6986425E-4,-0E0],"categories":[],"categories_nodes":[],"categories_segments":[],"categories_sizes":[],"default_left":[0,0,0,0,0,0,0,0,0,0,0,0,0,0,0],"id":95,"left_children":[1,3,5,7,9,-1,-1,-1,-1,11,13,-1,-1,-1,-1],"loss_changes":[7.441261E-2,1.00699384E-4,7.8963704E-2,1.9989891E-3,1.6711009E-4,0E0,0E0,0E0,0E0,1.4307658E-4,2.9130682E-4,0E0,0E0,0E0,0E0],"parents":[2147483647,0,0,1,1,2,2,3,3,4,4,9,9,10,10],"right_children":[2,4,6,8,10,-1,-1,-1,-1,12,14,-1,-1,-1,-1],"split_conditions":[4.788147E0,-1.6411011E0,1.5767406E0,1.5767406E0,2.2738688E0,1.1339015E-2,-0E0,1.5852898E-3,-0E0,1.5767406E0,4.913354E0,-8.866464E-5,-0E0,2.6986425E-4,-0E0],"split_indices":[8,2,3,3,8,0,0,0,0,3,6,0,0,0,0],"split_type":[0,0,0,0,0,0,0,0,0,0,0,0,0,0,0],"sum_hessian":[1.97E2,1.94E2,3E0,3E0,1.91E2,2E0,1E0,1E0,2E0,1.78E2,1.3E1,1.26E2,5.2E1,9E0,4E0],"tree_param":{"num_deleted":"0","num_feature":"10","num_nodes":"15","size_leaf_vector":"1"}},{"base_weights":[3.1208924E-3,-0E0,7.0171296E-3,2.9445742E-3,-8.708524E-4,1.0396005E-2,-0E0,-7.9799145E-5,-0E0,-0E0,1.5337288E-3],"categories":[],"categories_nodes":[],"categories_segments":[],"categories_sizes":[],"default_left":[0,0,0,0,0,0,0,0,0,0,0],"id":96,"left_children":[1,3,-1,5,7,9,-1,-1,-1,-1,-1],"loss_changes":[3.7375912E-2,1.2884205E-3,0E0,4.272039E-3,7.118002E-5,4.838302E-3,0E0,0E0,0E0,0E0,0E0],"parents":[2147483647,0,0,1,1,3,3,4,4,5,5],"right_children":[2,4,-1,6,8,10,-1,-1,-1,-1,-1],"split_conditions":[7.49487E0,9.980139E-1,7.0171296E-3,-3.8614145E-1,1.7648666E0,4.9900696E-1,-0E0,-7.9799145E-5,-0E0,-0E0,1.5337288E-3],"split_indices":[9,0,0,2,5,0,0,0,0,0,0],"split_type":[0,0,0,0,0,0,0,0,0,0,0],"sum_hessian":[2.06E2,2.05E2,1E0,1.42E2,6.3E1,5E1,9.2E1,4.6E1,1.7E1,4E1,1E1],"tree_param":{"num_deleted":"0","num_feature":"10","num_nodes":"11","size_leaf_vector":"1"}},{"base_weights":[-0E0,-1.232263E-3,6.8417015E-3,-0E0,-1.1726971E-2,-1.8535461E-3,-0E0,2.5234154E-5,-3.0198227E-5],"categories":[],"categories_nodes":[],"categories_segments":[],"categories_sizes":[],"default_left":[0,0,0,0,0,0,0,0,0],"id":97,"left_children":[1,3,-1,-1,5,-1,7,-1,-1],"loss_changes":[3.7773576E-2,3.9367056E-3,0E0,0E0,9.479355E-3,0E0,6.2984877E-6,0E0,0E0],"parents":[2147483647,0,0,1,1,4,4,6,6],"right_children":[2,4,-1,-1,6,-1,8,-1,-1],"split_conditions":[9.816703E0,1.591484E0,6.8417015E-3,-0E0,0E0,-1.8535461E-3,4.913354E0,2.5234154E-5,-3.0198227E-5],"split_indices":[8,9,0,0,0,0,6,0,0],"split_type":[0,0,0,0,0,0,0,0,0],"sum_hessian":[2.15E2,2.14E2,1E0,1.84E2,3E1,9E0,2.1E1,1.8E1,3E0],"tree_param":{"num_deleted":"0","num_feature":"10","num_nodes":"9","size_leaf_vector":"1"}},{"base_weights":[-0E0,1.1392492E-3,-9.200132E-4,-0E0,1.9809486E-2,1.5073151E-3,-5.441157E-4,6.566472E-2,-0E0,-3.680299E-5,-0E0,-0E0,5.4612197E-3],"categories":[],"categories_nodes":[],"categories_segments":[],"categories_sizes":[],"default_left":[0,0,0,0,0,0,0,0,0,0,0,0,0],"id":98,"left_children":[1,3,-1,5,7,-1,9,11,-1,-1,-1,-1,-1],"loss_changes":[2.62048E-3,4.850912E-3,0E0,1.87089E-3,3.3705294E-2,0E0,1.551542E-5,2.0843137E-2,0E0,0E0,0E0,0E0,0E0],"parents":[2147483647,0,0,1,1,3,3,4,4,6,6,7,7],"right_children":[2,4,-1,6,8,-1,10,12,-1,-1,-1,-1,-1],"split_conditions":[4.913354E0,2.2738688E0,-9.200132E-4,-1.6411011E0,9.980139E-1,1.5073151E-3,9.980139E-1,-7.722829E-1,-0E0,-3.680299E-5,-0E0,-0E0,5.4612197E-3],"split_indices":[6,8,0,2,0,0,0,2,0,0,0,0,0],"split_type":[0,0,0,0,0,0,0,0,0,0,0,0,0],"sum_hessian":[1.98E2,1.92E2,6E0,1.8E2,1.2E1,1E0,1.79E2,8E0,4E0,1.26E2,5.3E1,4E0,4E0],"tree_param":{"num_deleted":"0","num_feature":"10","num_nodes":"13","size_leaf_vector":"1"}},{"base_weights":[2.0238783E-3,-0E0,1.2117854E-1,8.1082014E-4,-4.4148008E-4,1.06283985E-2,-0E0,1.4696316E-3,-0E0,-0E0,-1.1246979E-3,-1.15451454E-4,-0E0],"categories":[],"categories_nodes":[],"categories_segments":[],"categories_sizes":[],"default_left":[0,0,0,0,0,0,0,0,0,0,0,0,0],"id":99,"left_children":[1,3,5,7,9,-1,-1,-1,-1,-1,11,-1,-1],"loss_changes":[5.7921834E-2,4.0246316E-5,7.6818466E-2,1.7252237E-3,1.723643E-4,0E0,0E0,0E0,0E0,0E0,2.5920122E-4,0E0,0E0],"parents":[2147483647,0,0,1,1,2,2,3,3,4,4,10,10],"right_children":[2,4,6,8,10,-1,-1,-1,-1,-1,12,-1,-1],"split_conditions":[4.788147E0,-1.6411011E0,9.980139E-1,9.980139E-1,-9.980139E-1,1.06283985E-2,-0E0,1.4696316E-3,-0E0,-0E0,9.653536E-2,-1.15451454E-4,-0E0],"split_indices":[8,2,0,0,0,0,0,0,0,0,2,0,0],"split_type":[0,0,0,0,0,0,0,0,0,0,0,0,0],"sum_hessian":[1.98E2,1.95E2,3E0,3E0,1.92E2,2E0,1E0,1E0,2E0,2.7E1,1.65E2,8.7E1,7.8E1],"tree_param":{"num_deleted":"0","num_feature":"10","num_nodes":"13","size_leaf_vector":"1"}},{"base_weights":[3.5887756E-3,-0E0,5.3692865E-3,2.4154643E-3,-5.882226E-4,5.6696767E-3,-0E0,-0E0,1.3447609E-3],"categories":[],"categories_nodes":[],"categories_segments":[],"categories_sizes":[],"default_left":[0,0,0,0,0,0,0,0,0],"id":100,"left_children":[1,3,-1,5,-1,7,-1,-1,-1],"loss_changes":[3.2019224E-2,1.9564661E-3,0E0,3.470716E-3,0E0,9.1469325E-3,0E0,0E0,0E0],