{"learner":{"attributes":{"scikit_learn":"{\"_estimator_type\": \"regressor\"}"},"feature_names":[],"feature_types":[],"gradient_booster":{"model":{"cats":{"enc":[],"feature_segments":[],"sorted_idx":[]},"gbtree_model_param":{"num_parallel_tree":"1","num_trees":"200"},"iteration_indptr":[0,1,2,3,4,5,6,7,8,9,10,11,12,13,14,15,16,17,18,19,20,21,22,23,24,25,26,27,28,29,30,31,32,33,34,35,36,37,38,39,40,41,42,43,44,45,46,47,48,49,50,51,52,53,54,55,56,57,58,59,60,61,62,63,64,65,66,67,68,69,70,71,72,73,74,75,76,77,78,79,80,81,82,83,84,85,86,87,88,89,90,91,92,93,94,95,96,97,98,99,100,101,102,103,104,105,106,107,108,109,110,111,112,113,114,115,116,117,118,119,120,121,122,123,124,125,126,127,128,129,130,131,132,133,134,135,136,137,138,139,140,141,142,143,144,145,146,147,148,149,150,151,152,153,154,155,156,157,158,159,160,161,162,163,164,165,166,167,168,169,170,171,172,173,174,175,176,177,178,179,180,181,182,183,184,185,186,187,188,189,190,191,192,193,194,195,196,197,198,199,200],"tree_info":[0,0,0,0,0,0,0,0,0,0,0,0,0,0,0,0,0,0,0,0,0,0,0,0,0,0,0,0,0,0,0,0,0,0,0,0,0,0,0,0,0,0,0,0,0,0,0,0,0,0,0,0,0,0,0,0,0,0,0,0,0,0,0,0,0,0,0,0,0,0,0,0,0,0,0,0,0,0,0,0,0,0,0,0,0,0,0,0,0,0,0,0,0,0,0,0,0,0,0,0,0,0,0,0,0,0,0,0,0,0,0,0,0,0,0,0,0,0,0,0,0,0,0,0,0,0,0,0,0,0,0,0,0,0,0,0,0,0,0,0,0,0,0,0,0,0,0,0,0,0,0,0,0,0,0,0,0,0,0,0,0,0,0,0,0,0,0,0,0,0,0,0,0,0,0,0,0,0,0,0,0,0,0,0,0,0,0,0,0,0,0,0,0,0,0,0,0,0,0,0],"trees":[{"base_weights":[1.6780727E-3,1.326923E0,-2.386798E-2,8.952992E-2,-0E0,-3.0439564E-3,4.047619E-1,4.4082838E-1,-0E0,2.41453E-2,-0E0],"categories":[],"categories_nodes":[],"categories_segments":[],"categories_sizes":[],"default_left":[0,0,0,0,0,0,0,0,0,0,0],"id":0,"left_children":[1,3,5,-1,-1,-1,7,9,-1,-1,-1],"loss_changes":[7.1494613E0,2.5758266E0,2.8351476E0,0E0,0E0,0E0,2.3263478E-1,2.7209234E-1,0E0,0E0,0E0],"parents":[2147483647,0,0,1,1,2,2,6,6,7,7],"right_children":[2,4,6,-1,-1,-1,8,10,-1,-1,-1],"split_conditions":[-1.6199702E0,9.973467E-1,1.3553171E0,8.952992E-2,-0E0,-3.0439564E-3,1.4992373E0,2.6631963E0,-0E0,2.41453E-2,-0E0],"split_indices":[2,0,8,0,0,0,0,7,0,0,0],"split_type":[0,0,0,0,0,0,0,0,0,0,0],"sum_hessian":[1.9E2,3E0,1.87E2,2E0,1E0,1.74E2,1.3E1,1.2E1,1E0,1.1E1,1E0],"tree_param":{"num_deleted":"0","num_feature":"10","num_nodes":"11","size_leaf_vector":"1"}},{"base_weights":[1.5231954E-2,5.815768E-1,-3.5518046E-2,8.7451404E-1,-0E0,-2.8775998E-3,2.705769E-1,2.7919611E-2,1.4920228E0,2.1217948E-2,-0E0,-0E0,1.0293803E-2,9.01624E-2,-0E0],"categories":[],"categories_nodes":[],"categories_segments":[],"categories_sizes":[],"default_left":[0,0,0,0,0,0,0,0,0,0,0,0,0,0,0],"id":1,"left_children":[1,3,5,7,-1,-1,9,11,13,-1,-1,-1,-1,-1,-1],"loss_changes":[5.5822144E0,3.0008163E0,1.048877E0,4.948947E0,0E0,0E0,5.2844507E-1,8.009287E-2,2.901722E0,0E0,0E0,0E0,0E0,0E0,0E0],"parents":[2147483647,0,0,1,1,2,2,3,3,6,6,7,7,8,8],"right_children":[2,4,6,8,-1,-1,10,12,14,-1,-1,-1,-1,-1,-1],"split_conditions":[-1.4128265E0,9.973467E-1,1.3553171E0,-6.434495E-3,-0E0,-2.8775998E-3,2.6631963E0,1.3553171E0,2.6631963E0,2.1217948E-2,-0E0,-0E0,1.0293803E-2,9.01624E-2,-0E0],"split_indices":[2,0,8,0,0,0,6,8,7,0,0,0,0,0,0],"split_type":[0,0,0,0,0,0,0,0,0,0,0,0,0,0,0],"sum_hessian":[1.83E2,1.5E1,1.68E2,1E1,5E0,1.59E2,9E0,5E0,5E0,6E0,3E0,4E0,1E0,4E0,1E0],"tree_param":{"num_deleted":"0","num_feature":"10","num_nodes":"15","size_leaf_vector":"1"}},{"base_weights":[6.0487296E-3,6.81797E-1,-3.927882E-2,9.3009204E-1,-0E0,-2.732411E-3,1.395979E-1,-0E0,1.2186326E0,2.135114E-2,-0E0,8.65559E-2,-0E0,-8.5016043E-4,9.763354E-3],"categories":[],"categories_nodes":[],"categories_segments":[],"categories_sizes":[],"default_left":[0,0,0,0,0,0,0,0,0,0,0,0,0,0,0],"id":2,"left_children":[1,3,5,7,-1,-1,9,-1,11,-1,13,-1,-1,-1,-1],"loss_changes":[5.8308125E0,2.2074738E0,4.2702422E-1,2.609819E0,0E0,0E0,3.3268207E-1,0E0,4.5883865E0,0E0,7.8571334E-2,0E0,0E0,0E0,0E0],"parents":[2147483647,0,0,1,1,2,2,3,3,6,6,8,8,10,10],"right_children":[2,4,6,8,-1,-1,10,-1,12,-1,14,-1,-1,-1,-1],"split_conditions":[-1.2508087E0,9.973467E-1,1.3553171E0,-6.434495E-3,-0E0,-2.732411E-3,-1.0102156E0,-0E0,2.6631963E0,2.135114E-2,9.9030334E-1,8.65559E-2,-0E0,-8.5016043E-4,9.763354E-3],"split_indices":[1,0,8,0,0,0,0,0,7,0,1,0,0,0,0],"split_type":[0,0,0,0,0,0,0,0,0,0,0,0,0,0,0],"sum_hessian":[1.78E2,1.1E1,1.67E2,8E0,3E0,1.57E2,1E1,2E0,6E0,2E0,8E0,4E0,2E0,7E0,1E0],"tree_param":{"num_deleted":"0","num_feature":"10","num_nodes":"15","size_leaf_vector":"1"}},{"base_weights":[1.2705153E-2,1.1937989E0,-1.0074848E-2,8.065497E-2,-0E0,-2.6197145E-3,3.6003962E-1,6.1814696E-1,1.7475624E-1,2.9851762E-3,4.9501132E-2,1.4563455E-2,-0E0],"categories":[],"categories_nodes":[],"categories_segments":[],"categories_sizes":[],"default_left":[0,0,0,0,0,0,0,0,0,0,0,0,0],"id":3,"left_children":[1,3,5,-1,-1,-1,7,9,11,-1,-1,-1,-1],"loss_changes":[5.6889944E0,2.1056457E0,2.7783663E0,0E0,0E0,0E0,3.563373E-1,6.6205835E-1,3.6652252E-1,0E0,0E0,0E0,0E0],"parents":[2147483647,0,0,1,1,2,2,6,6,7,7,8,8],"right_children":[2,4,6,-1,-1,-1,8,10,12,-1,-1,-1,-1],"split_conditions":[-1.6199702E0,9.973467E-1,1.3553171E0,8.065497E-2,-0E0,-2.6197145E-3,-1.2508087E0,-1.5163983E0,2.6631963E0,2.9851762E-3,4.9501132E-2,1.4563455E-2,-0E0],"split_indices":[2,0,8,0,0,0,1,2,6,0,0,0,0],"split_type":[0,0,0,0,0,0,0,0,0,0,0,0,0],"sum_hessian":[1.88E2,3E0,1.85E2,2E0,1E0,1.68E2,1.7E1,5E0,1.2E1,3E0,2E0,8E0,4E0],"tree_param":{"num_deleted":"0","num_feature":"10","num_nodes":"13","size_leaf_vector":"1"}},{"base_weights":[1.106671E-2,1.1534715E0,-1.007674E-2,7.7966474E-2,-0E0,-2.4971862E-3,4.0282324E-1,7.4049014E-1,1.8689343E-1,4.711923E-2,-0E0,1.3916192E-2,-0E0],"categories":[],"categories_nodes":[],"categories_segments":[],"categories_sizes":[],"default_left":[0,0,0,0,0,0,0,0,0,0,0,0,0],"id":4,"left_children":[1,3,5,-1,-1,-1,7,9,11,-1,-1,-1,-1],"loss_changes":[5.317579E0,1.9725399E0,3.0206666E0,0E0,0E0,0E0,5.6451297E-1,8.107269E-1,2.7802742E-1,0E0,0E0,0E0,0E0],"parents":[2147483647,0,0,1,1,2,2,6,6,7,7,8,8],"right_children":[2,4,6,-1,-1,-1,8,10,12,-1,-1,-1,-1],"split_conditions":[-1.6199702E0,9.973467E-1,1.3553171E0,7.7966474E-2,-0E0,-2.4971862E-3,-1.2508087E0,2.6631963E0,2.6631963E0,4.711923E-2,-0E0,1.3916192E-2,-0E0],"split_indices":[2,0,8,0,0,0,1,7,6,0,0,0,0],"split_type":[0,0,0,0,0,0,0,0,0,0,0,0,0],"sum_hessian":[1.95E2,3E0,1.92E2,2E0,1E0,1.77E2,1.5E1,4E0,1.1E1,3E0,1E0,8E0,3E0],"tree_param":{"num_deleted":"0","num_feature":"10","num_nodes":"13","size_leaf_vector":"1"}},{"base_weights":[9.74981E-3,8.787701E-1,-9.917798E-3,7.536759E-2,-0E0,-4.170417E-2,1.5069027E-1,8.783847E-3,-2.354202E-3,1.9277509E-1,-0E0,-0E0,1.1570575E-2],"categories":[],"categories_nodes":[],"categories_segments":[],"categories_sizes":[],"default_left":[0,0,0,0,0,0,0,0,0,0,0,0,0],"id":5,"left_children":[1,3,5,-1,-1,7,9,-1,-1,11,-1,-1,-1],"loss_changes":[3.8614516E0,2.9551451E0,9.5240045E-1,0E0,0E0,1.3927856E-1,2.4782908E-1,0E0,0E0,2.4907225E-1,0E0,0E0,0E0],"parents":[2147483647,0,0,1,1,2,2,5,5,6,6,9,9],"right_children":[2,4,6,-1,-1,8,10,-1,-1,12,-1,-1,-1],"split_conditions":[-1.6199702E0,9.973467E-1,8.305395E-1,7.536759E-2,-0E0,-1.5163983E0,1.4992373E0,8.783847E-3,-2.354202E-3,-1.5163983E0,-0E0,-0E0,1.1570575E-2],"split_indices":[2,0,9,0,0,2,0,0,0,2,0,0,0],"split_type":[0,0,0,0,0,0,0,0,0,0,0,0,0],"sum_hessian":[1.99E2,4E0,1.95E2,2E0,2E0,1.66E2,2.9E1,1E0,1.65E2,2.4E1,5E0,3E0,2.1E1],"tree_param":{"num_deleted":"0","num_feature":"10","num_nodes":"13","size_leaf_vector":"1"}},{"base_weights":[4.3938216E-3,4.8646793E-1,-3.781425E-2,-0E0,7.328976E-1,-2.280661E-3,6.4291425E-2,-0E0,6.464133E-2,6.3075535E-2,-0E0,1.9304426E-2,-1.1994515E-3,8.5642515E-3,-0E0],"categories":[],"categories_nodes":[],"categories_segments":[],"categories_sizes":[],"default_left":[0,0,0,0,0,0,0,0,0,0,0,0,0,0,0],"id":6,"left_children":[1,3,5,7,9,-1,11,-1,13,-1,-1,-1,-1,-1,-1],"loss_changes":[4.027342E0,1.5849714E0,1.29764E-1,1.2535504E-2,4.1770678E0,0E0,4.175788E-1,0E0,4.614162E-2,0E0,0E0,0E0,0E0,0E0,0E0],"parents":[2147483647,0,0,1,1,2,2,3,3,4,4,6,6,8,8],"right_children":[2,4,6,8,10,-1,12,-1,14,-1,-1,-1,-1,-1,-1],"split_conditions":[-1.4128265E0,-6.434495E-3,1.3553171E0,1.3553171E0,9.973467E-1,-2.280661E-3,-1.0102156E0,-0E0,-5.083251E-1,6.3075535E-2,-0E0,1.9304426E-2,-1.1994515E-3,8.5642515E-3,-0E0],"split_indices":[2,0,8,8,0,0,0,0,0,0,0,0,0,0,0],"split_type":[0,0,0,0,0,0,0,0,0,0,0,0,0,0,0],"sum_hessian":[1.85E2,1.5E1,1.7E2,6E0,9E0,1.63E2,7E0,4E0,2E0,5E0,4E0,2E0,5E0,1E0,1E0],"tree_param":{"num_deleted":"0","num_feature":"10","num_nodes":"15","size_leaf_vector":"1"}},{"base_weights":[9.450195E-3,7.075282E-2,-1.0583508E-2,-2.206359E-3,4.0073824E-1,-0E0,4.4652027E-1,4.3792248E-2,1.1153542E-2],"categories":[],"categories_nodes":[],"categories_segments":[],"categories_sizes":[],"default_left":[0,0,0,0,0,0,0,0,0],"id":7,"left_children":[1,-1,3,-1,5,-1,7,-1,-1],"loss_changes":[6.0111985E0,0E0,2.4056652E0,0E0,3.0487943E-1,0E0,4.063549E-1,0E0,0E0],"parents":[2147483647,0,0,2,2,4,4,6,6],"right_children":[2,-1,4,-1,6,-1,8,-1,-1],"split_conditions":[-1.6199702E0,7.075282E-2,1.3553171E0,-2.206359E-3,-1.5163983E0,-0E0,-1.2508087E0,4.3792248E-2,1.1153542E-2],"split_indices":[2,0,8,0,2,0,1,0,0],"split_type":[0,0,0,0,0,0,0,0,0],"sum_hessian":[1.87E2,2E0,1.85E2,1.73E2,1.2E1,1E0,1.1E1,2E0,9E0],"tree_param":{"num_deleted":"0","num_feature":"10","num_nodes":"9","size_leaf_vector":"1"}},{"base_weights":[-3.613606E-4,7.667905E-1,-2.3669953E-2,6.839439E-2,-0E0,-2.0636523E-3,1.4642352E-1,-0E0,1.9039708E-1,3.9799456E-3,2.549938E-2],"categories":[],"categories_nodes":[],"categories_segments":[],"categories_sizes":[],"default_left":[0,0,0,0,0,0,0,0,0,0,0],"id":8,"left_children":[1,3,5,-1,-1,-1,7,-1,9,-1,-1],"loss_changes":[3.0440235E0,2.6735127E0,5.103839E-1,0E0,0E0,0E0,1.4966595E-1,0E0,1.2494293E-1,0E0,0E0],"parents":[2147483647,0,0,1,1,2,2,6,6,8,8],"right_children":[2,4,6,-1,-1,-1,8,-1,10,-1,-1],"split_conditions":[-1.6199702E0,9.973467E-1,1.3553171E0,6.839439E-2,-0E0,-2.0636523E-3,-1.5163983E0,-0E0,1.4279219E0,3.9799456E-3,2.549938E-2],"split_indices":[2,0,8,0,0,0,2,0,4,0,0],"split_type":[0,0,0,0,0,0,0,0,0,0,0],"sum_hessian":[1.89E2,4E0,1.85E2,2E0,2E0,1.71E2,1.4E1,2E0,1.2E1,1.1E1,1E0],"tree_param":{"num_deleted":"0","num_feature":"10","num_nodes":"11","size_leaf_vector":"1"}},{"base_weights":[7.4240505E-3,6.611459E-2,-1.0369903E-2,-2.001303E-3,3.1286195E-1,4.7093078E-1,5.318538E-2,2.7972087E-2,-0E0,1.8156497E-2,-1.3658897E-3],"categories":[],"categories_nodes":[],"categories_segments":[],"categories_sizes":[],"default_left":[0,0,0,0,0,0,0,0,0,0,0],"id":9,"left_children":[1,-1,3,-1,5,7,9,-1,-1,-1,-1],"loss_changes":[5.255425E0,0E0,1.7357526E0,0E0,3.2859695E-1,4.166193E-1,3.7743813E-1,0E0,0E0,0E0,0E0],"parents":[2147483647,0,0,2,2,4,4,5,5,6,6],"right_children":[2,-1,4,-1,6,8,10,-1,-1,-1,-1],"split_conditions":[-1.6199702E0,6.611459E-2,1.3553171E0,-2.001303E-3,-3.5436386E-1,7.7304063E0,-1.0102156E0,2.7972087E-2,-0E0,1.8156497E-2,-1.3658897E-3],"split_indices":[2,0,8,0,1,9,0,0,0,0,0],"split_type":[0,0,0,0,0,0,0,0,0,0,0],"sum_hessian":[1.95E2,2E0,1.93E2,1.79E2,1.4E1,7E0,7E0,6E0,1E0,2E0,5E0],"tree_param":{"num_deleted":"0","num_feature":"10","num_nodes":"11","size_leaf_vector":"1"}},{"base_weights":[4.1085985E-3,4.060628E-1,-2.7802026E-2,5.831905E-1,-1.2807548E-5,-1.8543064E-3,6.824133E-2,2.523791E-4,9.2811024E-1,1.6194738E-1,-0E0,2.6425167E-3,-0E0,6.767654E-2,-0E0,1.0217262E-2,-0E0],"categories":[],"categories_nodes":[],"categories_segments":[],"categories_sizes":[],"default_left":[0,0,0,0,0,0,0,0,0,0,0,0,0,0,0,0,0],"id":10,"left_children":[1,3,5,7,-1,-1,9,11,13,15,-1,-1,-1,-1,-1,-1,-1],"loss_changes":[2.7785685E0,1.4431419E0,1.5280506E-1,1.9483871E0,0E0,0E0,1.5393308E-1,1.1172249E-2,3.1305056E0,8.24832E-2,0E0,0E0,0E0,0E0,0E0,0E0,0E0],"parents":[2147483647,0,0,1,1,2,2,3,3,6,6,7,7,8,8,9,9],"right_children":[2,4,6,8,-1,-1,10,12,14,16,-1,-1,-1,-1,-1,-1,-1],"split_conditions":[-1.2508087E0,9.973467E-1,1.3553171E0,-6.434495E-3,-1.2807548E-5,-1.8543064E-3,2.6631963E0,8.305395E-1,2.6631963E0,1.4992373E0,-0E0,2.6425167E-3,-0E0,6.767654E-2,-0E0,1.0217262E-2,-0E0],"split_indices":[1,0,8,0,0,0,6,9,7,0,0,0,0,0,0,0,0],"split_type":[0,0,0,0,0,0,0,0,0,0,0,0,0,0,0,0,0],"sum_hessian":[2E2,1.5E1,1.85E2,1.1E1,4E0,1.74E2,1.1E1,5E0,6E0,7E0,4E0,3E0,2E0,4E0,2E0,6E0,1E0],"tree_param":{"num_deleted":"0","num_feature":"10","num_nodes":"17","size_leaf_vector":"1"}},{"base_weights":[3.9694915E-3,3.8866043E-1,-2.9715179E-2,5.59983E-1,-1.2295395E-5,-3.4757227E-2,6.069818E-2,-0E0,8.894379E-1,-0E0,-1.9860556E-3,-0E0,7.948379E-3,2.404197E-3,-0E0,6.496947E-2,-0E0,-6.0425675E-4,6.6580283E-3],"categories":[],"categories_nodes":[],"categories_segments":[],"categories_sizes":[],"default_left":[0,0,0,0,0,0,0,0,0,0,0,0,0,0,0,0,0,0,0],"id":11,"left_children":[1,3,5,7,-1,9,11,13,15,17,-1,-1,-1,-1,-1,-1,-1,-1,-1],"loss_changes":[2.56237E0,1.3460612E0,6.572518E-2,1.7747273E0,0E0,2.944544E-2,3.580431E-2,9.248259E-3,2.904365E0,3.8384482E-2,0E0,0E0,0E0,0E0,0E0,0E0,0E0,0E0,0E0],"parents":[2147483647,0,0,1,1,2,2,3,3,5,5,6,6,7,7,8,8,9,9],"right_children":[2,4,6,8,-1,10,12,14,16,18,-1,-1,-1,-1,-1,-1,-1,-1,-1],"split_conditions":[-1.2508087E0,9.973467E-1,1.8867482E0,-6.434495E-3,-1.2295395E-5,-1.0102156E0,9.973467E-1,-5.083251E-1,2.6631963E0,1.3553171E0,-1.9860556E-3,-0E0,7.948379E-3,2.404197E-3,-0E0,6.496947E-2,-0E0,-6.0425675E-4,6.6580283E-3],"split_indices":[1,0,1,0,0,0,0,0,7,8,0,0,0,0,0,0,0,0,0],"split_type":[0,0,0,0,0,0,0,0,0,0,0,0,0,0,0,0,0,0,0],"sum_hessian":[1.82E2,1.5E1,1.67E2,1.1E1,4E0,1.64E2,3E0,5E0,6E0,2E1,1.44E2,2E0,1E0,3E0,2E0,4E0,2E0,1.9E1,1E0],"tree_param":{"num_deleted":"0","num_feature":"10","num_nodes":"19","size_leaf_vector":"1"}},{"base_weights":[5.605927E-3,3.368867E-1,-1.8071426E-2,4.6981353E-1,-0E0,-1.6644171E-3,1.6637062E-1,-0E0,9.4901514E-1,2.69841E-1,-0E0,-0E0,2.5390154E-3,6.129014E-2,-0E0,1.6368425E-2,-0E0],"categories":[],"categories_nodes":[],"categories_segments":[],"categories_sizes":[],"default_left":[0,0,0,0,0,0,0,0,0,0,0,0,0,0,0,0,0],"id":12,"left_children":[1,3,5,7,-1,-1,9,11,13,15,-1,-1,-1,-1,-1,-1,-1],"loss_changes":[1.6401398E0,8.390752E-1,4.3015888E-1,2.0751762E0,0E0,0E0,2.7804223E-1,7.7359187E-3,1.5072212E0,1.6767764E-1,0E0,0E0,0E0,0E0,0E0,0E0,0E0],"parents":[2147483647,0,0,1,1,2,2,3,3,6,6,7,7,8,8,9,9],"right_children":[2,4,6,8,-1,-1,10,12,14,16,-1,-1,-1,-1,-1,-1,-1],"split_conditions":[-1.2508087E0,9.973467E-1,1.3553171E0,-6.434495E-3,-0E0,-1.6644171E-3,2.6631963E0,1.3553171E0,2.6631963E0,1.4992373E0,-0E0,-0E0,2.5390154E-3,6.129014E-2,-0E0,1.6368425E-2,-0E0],"split_indices":[1,0,8,0,0,0,6,8,7,0,0,0,0,0,0,0,0],"split_type":[0,0,0,0,0,0,0,0,0,0,0,0,0,0,0,0,0],"sum_hessian":[1.87E2,1.3E1,1.74E2,1E1,3E0,1.64E2,1E1,6E0,4E0,7E0,3E0,4E0,2E0,3E0,1E0,6E0,1E0],"tree_param":{"num_deleted":"0","num_feature":"10","num_nodes":"17","size_leaf_vector":"1"}},{"base_weights":[7.574545E-3,8.114571E-1,-7.4702324E-3,5.7446223E-2,-0E0,-1.6517224E-3,2.8697765E-1,4.131533E-1,-0E0,2.3691025E-2,-0E0],"categories":[],"categories_nodes":[],"categories_segments":[],"categories_sizes":[],"default_left":[0,0,0,0,0,0,0,0,0,0,0],"id":13,"left_children":[1,3,5,-1,-1,-1,7,9,-1,-1,-1],"loss_changes":[2.6333945E0,1.3262315E0,1.2449552E0,0E0,0E0,0E0,6.3632596E-1,3.1359637E-1,0E0,0E0,0E0],"parents":[2147483647,0,0,1,1,2,2,6,6,7,7],"right_children":[2,4,6,-1,-1,-1,8,10,-1,-1,-1],"split_conditions":[-1.6199702E0,9.973467E-1,1.3553171E0,5.7446223E-2,-0E0,-1.6517224E-3,2.6631963E0,1.4992373E0,-0E0,2.3691025E-2,-0E0],"split_indices":[2,0,8,0,0,0,6,0,0,0,0],"split_type":[0,0,0,0,0,0,0,0,0,0,0],"sum_hessian":[1.83E2,3E0,1.8E2,2E0,1E0,1.68E2,1.2E1,9E0,3E0,8E0,1E0],"tree_param":{"num_deleted":"0","num_feature":"10","num_nodes":"11","size_leaf_vector":"1"}},{"base_weights":[5.5033974E-3,3.4601155E-1,-2.3982517E-2,5.6128633E-1,-1.1497058E-3,-1.5035969E-3,4.894156E-2,8.1472266E-1,-0E0,1.3233319E-1,-0E0,2.0557067E-3,5.8533248E-2,9.640205E-3,-0E0],"categories":[],"categories_nodes":[],"categories_segments":[],"categories_sizes":[],"default_left":[0,0,0,0,0,0,0,0,0,0,0,0,0,0,0],"id":14,"left_children":[1,3,5,7,-1,-1,9,11,-1,13,-1,-1,-1,-1,-1],"loss_changes":[2.0066683E0,1.5530541E0,6.663994E-2,1.8447185E0,0E0,0E0,7.0793435E-2,1.5488596E0,0E0,6.113328E-2,0E0,0E0,0E0,0E0,0E0],"parents":[2147483647,0,0,1,1,2,2,3,3,6,6,7,7,9,9],"right_children":[2,4,6,8,-1,-1,10,12,-1,14,-1,-1,-1,-1,-1],"split_conditions":[-1.4128265E0,9.973467E-1,1.3553171E0,2.6631963E0,-1.1497058E-3,-1.5035969E-3,-6.434495E-3,-6.434495E-3,-0E0,3.7179645E-2,-0E0,2.0557067E-3,5.8533248E-2,9.640205E-3,-0E0],"split_indices":[2,0,8,7,0,0,0,0,0,2,0,0,0,0,0],"split_type":[0,0,0,0,0,0,0,0,0,0,0,0,0,0,0],"sum_hessian":[1.82E2,1.5E1,1.67E2,1E1,5E0,1.61E2,6E0,7E0,3E0,4E0,2E0,3E0,4E0,3E0,1E0],"tree_param":{"num_deleted":"0","num_feature":"10","num_nodes":"15","size_leaf_vector":"1"}},{"base_weights":[7.775037E-3,-3.2781423E-3,4.285736E-2,1.6798423E-1,-2.000875E-2,2.7563563E-1,-0E0,-1.3742734E-3,9.830796E-3,-0E0,2.957405E-2,-0E0,4.613827E-3],"categories":[],"categories_nodes":[],"categories_segments":[],"categories_sizes":[],"default_left":[0,0,0,0,0,0,0,0,0,0,0,0,0],"id":15,"left_children":[1,3,-1,5,7,9,-1,-1,11,-1,-1,-1,-1],"loss_changes":[2.1947377E0,4.623236E-1,0E0,3.6468825E-1,4.769416E-2,6.39649E-1,0E0,0E0,5.7478532E-2,0E0,0E0,0E0,0E0],"parents":[2147483647,0,0,1,1,3,3,4,4,5,5,8,8],"right_children":[2,4,-1,6,8,10,-1,-1,12,-1,-1,-1,-1],"split_conditions":[5.4958687E0,-1.2508087E0,4.285736E-2,4.954561E-1,8.305395E-1,-6.434495E-3,-0E0,-1.3742734E-3,5.4208094E-1,-0E0,2.957405E-2,-0E0,4.613827E-3],"split_indices":[6,1,0,0,9,0,0,0,1,0,0,0,0],"split_type":[0,0,0,0,0,0,0,0,0,0,0,0,0],"sum_hessian":[1.87E2,1.85E2,2E0,1.3E1,1.72E2,9E0,4E0,1.51E2,2.1E1,6E0,3E0,1.5E1,6E0],"tree_param":{"num_deleted":"0","num_feature":"10","num_nodes":"13","size_leaf_vector":"1"}},{"base_weights":[8.420853E-3,3.945881E-1,-2.1547211E-2,5.2888334E-1,-0E0,-1.3156217E-3,5.0639775E-2,6.6439134E-1,-0E0,-0E0,6.632838E-3,3.832977E-2,-0E0],"categories":[],"categories_nodes":[],"categories_segments":[],"categories_sizes":[],"default_left":[0,0,0,0,0,0,0,0,0,0,0,0,0],"id":16,"left_children":[1,3,5,7,-1,-1,9,11,-1,-1,-1,-1,-1],"loss_changes":[2.243388E0,8.9709616E-1,4.558266E-2,8.958492E-1,0E0,0E0,2.4938084E-2,7.2860503E-1,0E0,0E0,0E0,0E0,0E0],"parents":[2147483647,0,0,1,1,2,2,3,3,6,6,7,7],"right_children":[2,4,6,8,-1,-1,10,12,-1,-1,-1,-1,-1],"split_conditions":[-1.2508087E0,1.5787772E0,1.8867482E0,2.6631963E0,-0E0,-1.3156217E-3,1.5787772E0,7.7304063E0,-0E0,-0E0,6.632838E-3,3.832977E-2,-0E0],"split_indices":[1,3,1,7,0,0,3,9,0,0,0,0,0],"split_type":[0,0,0,0,0,0,0,0,0,0,0,0,0],"sum_hessian":[1.76E2,1.3E1,1.63E2,1E1,3E0,1.6E2,3E0,8E0,2E0,2E0,1E0,7E0,1E0],"tree_param":{"num_deleted":"0","num_feature":"10","num_nodes":"13","size_leaf_vector":"1"}},{"base_weights":[2.5151148E-3,5.2465516E-1,-9.423954E-3,5.1095393E-2,-0E0,-1.4121527E-3,1.6237184E-1,3.264098E-2,3.859715E-1,1.54597415E-2,-1.7946397E-4,-0E0,2.9254774E-2],"categories":[],"categories_nodes":[],"categories_segments":[],"categories_sizes":[],"default_left":[0,0,0,0,0,0,0,0,0,0,0,0,0],"id":17,"left_children":[1,3,5,-1,-1,-1,7,9,11,-1,-1,-1,-1],"loss_changes":[1.3908898E0,1.7565717E0,5.097699E-1,0E0,0E0,0E0,2.1321195E-1,2.74148E-1,4.311142E-1,0E0,0E0,0E0,0E0],"parents":[2147483647,0,0,1,1,2,2,6,6,7,7,8,8],"right_children":[2,4,6,-1,-1,-1,8,10,12,-1,-1,-1,-1],"split_conditions":[-1.6199702E0,9.973467E-1,1.3553171E0,5.1095393E-2,-0E0,-1.4121527E-3,1.4279219E0,-1.0102156E0,-1.5163983E0,1.54597415E-2,-1.7946397E-4,-0E0,2.9254774E-2],"split_indices":[2,0,8,0,0,0,4,0,2,0,0,0,0],"split_type":[0,0,0,0,0,0,0,0,0,0,0,0,0],"sum_hessian":[1.8E2,4E0,1.76E2,2E0,2E0,1.62E2,1.4E1,1.1E1,3E0,2E0,9E0,1E0,2E0],"tree_param":{"num_deleted":"0","num_feature":"10","num_nodes":"13","size_leaf_vector":"1"}},{"base_weights":[3.5938479E-3,6.909344E-1,-8.717388E-3,4.9392216E-2,-0E0,1.5297334E-1,-2.1838086E-2,2.1593402E-1,-0E0,1.1546595E-2,-1.5183691E-3,-0E0,2.0641815E-2,-8.214576E-5,8.099766E-3],"categories":[],"categories_nodes":[],"categories_segments":[],"categories_sizes":[],"default_left":[0,0,0,0,0,0,0,0,0,0,0,0,0,0,0],"id":18,"left_children":[1,3,5,-1,-1,7,9,11,-1,13,-1,-1,-1,-1,-1],"loss_changes":[1.9210658E0,1.0179477E0,3.2600662E-1,0E0,0E0,1.6223827E-1,5.9022397E-2,2.6208767E-1,0E0,1.2806663E-1,0E0,0E0,0E0,0E0,0E0],"parents":[2147483647,0,0,1,1,2,2,5,5,6,6,7,7,9,9],"right_children":[2,4,6,-1,-1,8,10,12,-1,14,-1,-1,-1,-1,-1],"split_conditions":[-1.6199702E0,9.973467E-1,-1.2508087E0,4.9392216E-2,-0E0,2.6631963E0,-1.0102156E0,-6.434495E-3,-0E0,8.305395E-1,-1.5183691E-3,-0E0,2.0641815E-2,-8.214576E-5,8.099766E-3],"split_indices":[2,0,1,0,0,7,0,0,0,9,0,0,0,0,0],"split_type":[0,0,0,0,0,0,0,0,0,0,0,0,0,0,0],"sum_hessian":[1.85E2,3E0,1.82E2,2E0,1E0,1E1,1.72E2,8E0,2E0,2.3E1,1.49E2,5E0,3E0,1.9E1,4E0],"tree_param":{"num_deleted":"0","num_feature":"10","num_nodes":"15","size_leaf_vector":"1"}},{"base_weights":[1.3566266E-2,3.0965337E-1,-9.033007E-3,4.2944348E-1,-1.06515734E-4,-1.1703562E-3,2.0313482E-1,-0E0,4.092133E-2,2.9364875E-1,-0E0,-0E0,1.3521791E-3,1.8201914E-2,-0E0],"categories":[],"categories_nodes":[],"categories_segments":[],"categories_sizes":[],"default_left":[0,0,0,0,0,0,0,0,0,0,0,0,0,0,0],"id":19,"left_children":[1,3,5,7,-1,-1,9,11,-1,13,-1,-1,-1,-1,-1],"loss_changes":[1.417773E0,7.748004E-1,4.485928E-1,1.8058724E0,0E0,0E0,2.3223329E-1,2.1940658E-3,0E0,1.9153607E-1,0E0,0E0,0E0,0E0,0E0],"parents":[2147483647,0,0,1,1,2,2,3,3,6,6,7,7,9,9],"right_children":[2,4,6,8,-1,-1,10,12,-1,14,-1,-1,-1,-1,-1],"split_conditions":[-1.2508087E0,9.973467E-1,1.3553171E0,-6.434495E-3,-1.06515734E-4,-1.1703562E-3,2.6631963E0,1.3553171E0,4.092133E-2,1.4992373E0,-0E0,-0E0,1.3521791E-3,1.8201914E-2,-0E0],"split_indices":[1,0,8,0,0,0,6,8,0,0,0,0,0,0,0],"split_type":[0,0,0,0,0,0,0,0,0,0,0,0,0,0,0],"sum_hessian":[1.88E2,1.4E1,1.74E2,1.1E1,3E0,1.66E2,8E0,6E0,5E0,6E0,2E0,4E0,2E0,5E0,1E0],"tree_param":{"num_deleted":"0","num_feature":"10","num_nodes":"15","size_leaf_vector":"1"}},{"base_weights":[5.4368745E-3,4.681342E-1,-4.395144E-3,4.6381764E-2,-0E0,-1.2650703E-3,2.0089592E-1,2.9318327E-1,-0E0,1.8068569E-2,-0E0,6.457269E-3,-1.264672E-4],"categories":[],"categories_nodes":[],"categories_segments":[],"categories_sizes":[],"default_left":[0,0,0,0,0,0,0,0,0,0,0,0,0],"id":20,"left_children":[1,3,5,-1,-1,-1,7,9,11,-1,-1,-1,-1],"loss_changes":[1.0937351E0,1.4857731E0,7.1128136E-1,0E0,0E0,0E0,1.6822028E-1,2.7110642E-1,5.0067585E-2,0E0,0E0,0E0,0E0],"parents":[2147483647,0,0,1,1,2,2,6,6,7,7,8,8],"right_children":[2,4,6,-1,-1,-1,8,10,12,-1,-1,-1,-1],"split_conditions":[-1.6199702E0,9.973467E-1,1.3553171E0,4.6381764E-2,-0E0,-1.2650703E-3,2.6631963E0,2.6631963E0,-1.2508087E0,1.8068569E-2,-0E0,6.457269E-3,-1.264672E-4],"split_indices":[2,0,8,0,0,0,6,7,1,0,0,0,0],"split_type":[0,0,0,0,0,0,0,0,0,0,0,0,0],"sum_hessian":[1.88E2,4E0,1.84E2,2E0,2E0,1.7E2,1.4E1,8E0,6E0,7E0,1E0,2E0,4E0],"tree_param":{"num_deleted":"0","num_feature":"10","num_nodes":"13","size_leaf_vector":"1"}},{"base_weights":[1.378213E-2,3.0715415E-1,-7.900448E-3,4.3700862E-1,-8.670809E-5,-1.0560075E-3,1.5176085E-1,-0E0,7.478242E-1,2.6444197E-1,-0E0,1.0112692E-3,-0E0,4.739267E-2,-0E0,1.6648756E-2,-0E0],"categories":[],"categories_nodes":[],"categories_segments":[],"categories_sizes":[],"default_left":[0,0,0,0,0,0,0,0,0,0,0,0,0,0,0,0,0],"id":21,"left_children":[1,3,5,7,-1,-1,9,11,13,15,-1,-1,-1,-1,-1,-1,-1],"loss_changes":[1.2970445E0,7.799424E-1,2.9036745E-1,1.2547042E0,0E0,0E0,2.5919336E-1,1.6362644E-3,1.1366842E0,1.7572773E-1,0E0,0E0,0E0,0E0,0E0,0E0,0E0],"parents":[2147483647,0,0,1,1,2,2,3,3,6,6,7,7,8,8,9,9],"right_children":[2,4,6,8,-1,-1,10,12,14,16,-1,-1,-1,-1,-1,-1,-1],"split_conditions":[-1.2508087E0,9.973467E-1,1.3553171E0,-6.434495E-3,-8.670809E-5,-1.0560075E-3,2.6631963E0,8.305395E-1,2.6631963E0,1.4992373E0,-0E0,1.0112692E-3,-0E0,4.739267E-2,-0E0,1.6648756E-2,-0E0],"split_indices":[1,0,8,0,0,0,6,9,7,0,0,0,0,0,0,0,0],"split_type":[0,0,0,0,0,0,0,0,0,0,0,0,0,0,0,0,0],"sum_hessian":[1.79E2,1.3E1,1.66E2,1E1,3E0,1.57E2,9E0,5E0,5E0,6E0,3E0,3E0,2E0,4E0,1E0,5E0,1E0],"tree_param":{"num_deleted":"0","num_feature":"10","num_nodes":"17","size_leaf_vector":"1"}},{"base_weights":[1.998044E-3,1.7821832E-1,-7.962299E-3,2.8235146E-1,-8.345647E-5,-1.0111092E-3,1.5247798E-1,-0E0,5.266428E-1,3.3948678E-1,-1.2140855E-4,4.4518963E-2,-0E0,2.1836776E-2,-0E0],"categories":[],"categories_nodes":[],"categories_segments":[],"categories_sizes":[],"default_left":[0,0,0,0,0,0,0,0,0,0,0,0,0,0,0],"id":22,"left_children":[1,3,5,7,-1,-1,9,-1,11,13,-1,-1,-1,-1,-1],"loss_changes":[4.235482E-1,3.8433164E-1,2.9101184E-1,8.668924E-1,0E0,0E0,4.5904174E-1,0E0,1.506985E0,2.62182E-1,0E0,0E0,0E0,0E0,0E0],"parents":[2147483647,0,0,1,1,2,2,3,3,6,6,8,8,9,9],"right_children":[2,4,6,8,-1,-1,10,-1,12,14,-1,-1,-1,-1,-1],"split_conditions":[-1.2508087E0,9.973467E-1,1.3553171E0,-6.434495E-3,-8.345647E-5,-1.0111092E-3,2.6631963E0,-0E0,2.6631963E0,1.4992373E0,-1.2140855E-4,4.4518963E-2,-0E0,2.1836776E-2,-0E0],"split_indices":[1,0,8,0,0,0,6,0,7,0,0,0,0,0,0],"split_type":[0,0,0,0,0,0,0,0,0,0,0,0,0,0,0],"sum_hessian":[1.91E2,1.2E1,1.79E2,9E0,3E0,1.7E2,9E0,4E0,5E0,5E0,4E0,3E0,2E0,4E0,1E0],"tree_param":{"num_deleted":"0","num_feature":"10","num_nodes":"15","size_leaf_vector":"1"}},{"base_weights":[2.666053E-3,4.1288492E-1,-5.642826E-3,4.1771982E-2,-0E0,-1.0895496E-3,1.3705263E-1,-0E0,1.6301093E-1,2.2302398E-3,2.2755025E-2],"categories":[],"categories_nodes":[],"categories_segments":[],"categories_sizes":[],"default_left":[0,0,0,0,0,0,0,0,0,0,0],"id":23,"left_children":[1,3,5,-1,-1,-1,7,-1,9,-1,-1],"loss_changes":[8.5696656E-1,1.2415082E0,3.7625417E-1,0E0,0E0,0E0,9.8053664E-2,0E0,2.486256E-1,0E0,0E0],"parents":[2147483647,0,0,1,1,2,2,6,6,8,8],"right_children":[2,4,6,-1,-1,-1,8,-1,10,-1,-1],"split_conditions":[-1.6199702E0,9.973467E-1,1.3553171E0,4.1771982E-2,-0E0,-1.0895496E-3,-1.5163983E0,-0E0,1.4279219E0,2.2302398E-3,2.2755025E-2],"split_indices":[2,0,8,0,0,0,2,0,4,0,0],"split_type":[0,0,0,0,0,0,0,0,0,0,0],"sum_hessian":[1.9E2,4E0,1.86E2,2E0,2E0,1.71E2,1.5E1,1E0,1.4E1,1.2E1,2E0],"tree_param":{"num_deleted":"0","num_feature":"10","num_nodes":"11","size_leaf_vector":"1"}},{"base_weights":[1.0113338E-2,-0E0,4.2372167E-1,-1.166731E-2,1.5402895E-1,3.126085E-2,-0E0,-8.412798E-4,-0E0,2.555724E-1,-8.620844E-6,3.023293E-4,-4.6782504E-4,1.7847808E-2,-0E0],"categories":[],"categories_nodes":[],"categories_segments":[],"categories_sizes":[],"default_left":[0,0,0,0,0,0,0,0,0,0,0,0,0,0,0],"id":24,"left_children":[1,3,5,7,9,-1,-1,-1,11,13,-1,-1,-1,-1,-1],"loss_changes":[6.984202E-1,3.7983197E-1,4.5452863E-1,1.0013882E-2,3.6261606E-1,0E0,0E0,0E0,3.3951222E-3,4.2826957E-1,0E0,0E0,0E0,0E0,0E0],"parents":[2147483647,0,0,1,1,2,2,3,3,4,4,8,8,9,9],"right_children":[2,4,6,8,10,-1,-1,-1,12,14,-1,-1,-1,-1,-1],"split_conditions":[5.4958687E0,1.3553171E0,9.973467E-1,1.4279219E0,2.6631963E0,3.126085E-2,-0E0,-8.412798E-4,4.954561E-1,4.2804728E0,-8.620844E-6,3.023293E-4,-4.6782504E-4,1.7847808E-2,-0E0],"split_indices":[6,8,0,4,6,0,0,0,0,9,0,0,0,0,0],"split_type":[0,0,0,0,0,0,0,0,0,0,0,0,0,0,0],"sum_hessian":[1.92E2,1.89E2,3E0,1.75E2,1.4E1,2E0,1E0,1.19E2,5.6E1,1E1,4E0,3.2E1,2.4E1,8E0,2E0],"tree_param":{"num_deleted":"0","num_feature":"10","num_nodes":"15","size_leaf_vector":"1"}},{"base_weights":[6.3596223E-4,3.8629392E-1,-7.087961E-3,3.985353E-2,-0E0,-1.594061E-2,2.7247962E-1,-1.966683E-2,1.9900905E-2,2.1178048E-2,-0E0,-0E0,-1.1018956E-3,-0E0,4.1386113E-3],"categories":[],"categories_nodes":[],"categories_segments":[],"categories_sizes":[],"default_left":[0,0,0,0,0,0,0,0,0,0,0,0,0,0,0],"id":25,"left_children":[1,3,5,-1,-1,7,9,11,13,-1,-1,-1,-1,-1,-1],"loss_changes":[7.5533277E-1,1.1598496E0,3.339331E-1,0E0,0E0,2.458106E-2,2.4123102E-1,4.9741715E-3,1.1722253E-2,0E0,0E0,0E0,0E0,0E0,0E0],"parents":[2147483647,0,0,1,1,2,2,5,5,6,6,7,7,8,8],"right_children":[2,4,6,-1,-1,8,10,12,14,-1,-1,-1,-1,-1,-1],"split_conditions":[-1.6199702E0,9.973467E-1,2.9410384E0,3.985353E-2,-0E0,1.8867482E0,9.973467E-1,-1.0102156E0,9.973467E-1,2.1178048E-2,-0E0,-0E0,-1.1018956E-3,-0E0,4.1386113E-3],"split_indices":[2,0,8,0,0,1,0,0,0,0,0,0,0,0,0],"split_type":[0,0,0,0,0,0,0,0,0,0,0,0,0,0,0],"sum_hessian":[1.88E2,4E0,1.84E2,2E0,2E0,1.81E2,3E0,1.77E2,4E0,2E0,1E0,2.6E1,1.51E2,3E0,1E0],"tree_param":{"num_deleted":"0","num_feature":"10","num_nodes":"15","size_leaf_vector":"1"}},{"base_weights":[-5.854631E-4,5.172822E-1,-1.4868158E-2,3.852508E-2,-0E0,-1.889871E-2,6.2567346E-2,-2.2754807E-2,1.9073175E-2,9.211659E-3,-0E0,-0E0,-1.2849246E-3,-0E0,4.035145E-3],"categories":[],"categories_nodes":[],"categories_segments":[],"categories_sizes":[],"default_left":[0,0,0,0,0,0,0,0,0,0,0,0,0,0,0],"id":26,"left_children":[1,3,5,-1,-1,7,9,11,13,-1,-1,-1,-1,-1,-1],"loss_changes":[1.110052E0,7.106943E-1,3.552753E-2,0E0,0E0,2.8338164E-2,5.613972E-2,7.6471046E-3,1.1206986E-2,0E0,0E0,0E0,0E0,0E0,0E0],"parents":[2147483647,0,0,1,1,2,2,5,5,6,6,7,7,8,8],"right_children":[2,4,6,-1,-1,8,10,12,14,-1,-1,-1,-1,-1,-1],"split_conditions":[-1.6199702E0,9.973467E-1,4.526759E0,3.852508E-2,-0E0,1.8867482E0,9.973467E-1,-1.0102156E0,9.973467E-1,9.211659E-3,-0E0,-0E0,-1.2849246E-3,-0E0,4.035145E-3],"split_indices":[2,0,8,0,0,1,0,0,0,0,0,0,0,0,0],"split_type":[0,0,0,0,0,0,0,0,0,0,0,0,0,0,0],"sum_hessian":[1.82E2,3E0,1.79E2,2E0,1E0,1.77E2,2E0,1.73E2,4E0,1E0,1E0,2.6E1,1.47E2,3E0,1E0],"tree_param":{"num_deleted":"0","num_feature":"10","num_nodes":"15","size_leaf_vector":"1"}},{"base_weights":[1.1367829E-3,-4.2045065E-3,3.8089916E-1,-9.550661E-3,2.8354067E-2,2.8406015E-2,-0E0,-7.041374E-4,-0E0,8.6659E-2,-7.036507E-4,-4.854146E-4,3.4349805E-4,8.036716E-3,-0E0],"categories":[],"categories_nodes":[],"categories_segments":[],"categories_sizes":[],"default_left":[0,0,0,0,0,0,0,0,0,0,0,0,0,0,0],"id":27,"left_children":[1,3,5,7,9,-1,-1,-1,11,13,-1,-1,-1,-1,-1],"loss_changes":[5.834625E-1,2.4115164E-2,3.8794535E-1,7.1659107E-3,7.2144456E-2,0E0,0E0,0E0,4.243702E-3,1.2407655E-1,0E0,0E0,0E0,0E0,0E0],"parents":[2147483647,0,0,1,1,2,2,3,3,4,4,8,8,9,9],"right_children":[2,4,6,8,10,-1,-1,-1,12,14,-1,-1,-1,-1,-1],"split_conditions":[5.4958687E0,1.3553171E0,9.973467E-1,1.4279219E0,1.9805174E0,2.8406015E-2,-0E0,-7.041374E-4,-6.434495E-3,2.6631963E0,-7.036507E-4,-4.854146E-4,3.4349805E-4,8.036716E-3,-0E0],"split_indices":[6,8,0,4,9,0,0,0,0,6,0,0,0,0,0],"split_type":[0,0,0,0,0,0,0,0,0,0,0,0,0,0,0],"sum_hessian":[1.93E2,1.9E2,3E0,1.77E2,1.3E1,2E0,1E0,1.17E2,6E1,1E1,3E0,2.7E1,3.3E1,7E0,3E0],"tree_param":{"num_deleted":"0","num_feature":"10","num_nodes":"15","size_leaf_vector":"1"}},{"base_weights":[-0E0,3.475852E-1,-9.821226E-3,3.676175E-2,-0E0,-8.34336E-4,4.278036E-2,1.5976723E-1,-8.889419E-3,2.1328969E-2,-1.0993353E-3,2.246879E-3,-5.4341755E-3],"categories":[],"categories_nodes":[],"categories_segments":[],"categories_sizes":[],"default_left":[0,0,0,0,0,0,0,0,0,0,0,0,0],"id":28,"left_children":[1,3,5,-1,-1,-1,7,9,11,-1,-1,-1,-1],"loss_changes":[6.2172896E-1,1.0176339E0,5.3754903E-2,0E0,0E0,0E0,1.5544005E-1,5.511344E-1,7.435826E-2,0E0,0E0,0E0,0E0],"parents":[2147483647,0,0,1,1,2,2,6,6,7,7,8,8],"right_children":[2,4,6,-1,-1,-1,8,10,12,-1,-1,-1,-1],"split_conditions":[-1.6199702E0,9.973467E-1,1.3553171E0,3.676175E-2,-0E0,-8.34336E-4,-3.5436386E-1,4.2804728E0,-1.0102156E0,2.1328969E-2,-1.0993353E-3,2.246879E-3,-5.4341755E-3],"split_indices":[2,0,8,0,0,0,1,9,0,0,0,0,0],"split_type":[0,0,0,0,0,0,0,0,0,0,0,0,0],"sum_hessian":[1.86E2,4E0,1.82E2,2E0,2E0,1.7E2,1.2E1,6E0,6E0,3E0,3E0,1E0,5E0],"tree_param":{"num_deleted":"0","num_feature":"10","num_nodes":"13","size_leaf_vector":"1"}},{"base_weights":[-0E0,3.328805E-1,-7.702931E-3,3.553636E-2,-0E0,-8.272153E-4,6.38055E-2,1.5342097E-1,-2.3054814E-3,1.0520132E-2,-0E0],"categories":[],"categories_nodes":[],"categories_segments":[],"categories_sizes":[],"default_left":[0,0,0,0,0,0,0,0,0,0,0],"id":29,"left_children":[1,3,5,-1,-1,-1,7,9,-1,-1,-1],"loss_changes":[5.6538016E-1,9.6135193E-1,9.818151E-2,0E0,0E0,0E0,2.084813E-1,1.395055E-1,0E0,0E0,0E0],"parents":[2147483647,0,0,1,1,2,2,6,6,7,7],"right_children":[2,4,6,-1,-1,-1,8,10,-1,-1,-1],"split_conditions":[-1.6199702E0,1.5787772E0,1.3553171E0,3.553636E-2,-0E0,-8.272153E-4,4.2804728E0,2.6631963E0,-2.3054814E-3,1.0520132E-2,-0E0],"split_indices":[2,3,8,0,0,0,9,6,0,0,0],"split_type":[0,0,0,0,0,0,0,0,0,0,0],"sum_hessian":[1.94E2,4E0,1.9E2,2E0,2E0,1.76E2,1.4E1,1E1,4E0,8E0,2E0],"tree_param":{"num_deleted":"0","num_feature":"10","num_nodes":"11","size_leaf_vector":"1"}},{"base_weights":[6.8385876E-3,3.1866595E-1,-0E0,3.435181E-2,-0E0,-8.005024E-4,1.4146243E-1,2.5218587E-2,3.1540397E-1,1.0819832E-2,-0E0,2.278558E-2,-0E0],"categories":[],"categories_nodes":[],"categories_segments":[],"categories_sizes":[],"default_left":[0,0,0,0,0,0,0,0,0,0,0,0,0],"id":30,"left_children":[1,3,5,-1,-1,-1,7,9,11,-1,-1,-1,-1],"loss_changes":[4.9890107E-1,9.0831625E-1,3.8351592E-1,0E0,0E0,0E0,1.6546845E-1,1.322148E-1,3.3329388E-1,0E0,0E0,0E0,0E0],"parents":[2147483647,0,0,1,1,2,2,6,6,7,7,8,8],"right_children":[2,4,6,-1,-1,-1,8,10,12,-1,-1,-1,-1],"split_conditions":[-1.6199702E0,9.973467E-1,1.3553171E0,3.435181E-2,-0E0,-8.005024E-4,1.4279219E0,-1.0102156E0,2.6631963E0,1.0819832E-2,-0E0,2.278558E-2,-0E0],"split_indices":[2,0,8,0,0,0,4,0,7,0,0,0,0],"split_type":[0,0,0,0,0,0,0,0,0,0,0,0,0],"sum_hessian":[1.88E2,4E0,1.84E2,2E0,2E0,1.68E2,1.6E1,1.2E1,4E0,2E0,1E1,3E0,1E0],"tree_param":{"num_deleted":"0","num_feature":"10","num_nodes":"13","size_leaf_vector":"1"}},{"base_weights":[-0E0,3.049252E-1,-9.344068E-3,3.320675E-2,-0E0,-1.640812E-2,1.5954582E-1,-1.9939682E-2,1.7541332E-2,1.864471E-2,-0E0,-6.006731E-4,-2.3679642E-3,-0E0,3.6062002E-3],"categories":[],"categories_nodes":[],"categories_segments":[],"categories_sizes":[],"default_left":[0,0,0,0,0,0,0,0,0,0,0,0,0,0,0],"id":31,"left_children":[1,3,5,-1,-1,7,9,11,13,-1,-1,-1,-1,-1,-1],"loss_changes":[4.8174807E-1,8.5832894E-1,1.61307E-1,0E0,0E0,2.4209026E-2,2.898758E-1,9.951428E-3,8.865252E-3,0E0,0E0,0E0,0E0,0E0,0E0],"parents":[2147483647,0,0,1,1,2,2,5,5,6,6,7,7,8,8],"right_children":[2,4,6,-1,-1,8,10,12,14,-1,-1,-1,-1,-1,-1],"split_conditions":[-1.6199702E0,9.973467E-1,2.9410384E0,3.320675E-2,-0E0,1.8867482E0,9.973467E-1,8.305395E-1,9.973467E-1,1.864471E-2,-0E0,-6.006731E-4,-2.3679642E-3,-0E0,3.6062002E-3],"split_indices":[2,0,8,0,0,1,0,9,0,0,0,0,0,0,0],"split_type":[0,0,0,0,0,0,0,0,0,0,0,0,0,0,0],"sum_hessian":[1.96E2,4E0,1.92E2,2E0,2E0,1.88E2,4E0,1.84E2,4E0,2E0,2E0,1.58E2,2.6E1,3E0,1E0],"tree_param":{"num_deleted":"0","num_feature":"10","num_nodes":"15","size_leaf_vector":"1"}},{"base_weights":[3.7856936E-3,1.8852957E-1,-9.364271E-3,3.0981132E-1,-7.9981016E-4,1.1748641E-2,-1.5829388E-2,4.2136565E-1,-0E0,-0E0,1.0538104E-2,-0E0,-1.9984659E-2,-0E0,3.5073847E-2,-0E0,-2.892496E-4,-4.8238607E-4,-5.4524243E-3],"categories":[],"categories_nodes":[],"categories_segments":[],"categories_sizes":[],"default_left":[0,0,0,0,0,0,0,0,0,0,0,0,0,0,0,0,0,0,0],"id":32,"left_children":[1,3,5,7,-1,9,11,13,-1,-1,-1,15,17,-1,-1,-1,-1,-1,-1],"loss_changes":[5.4564124E-1,5.2394205E-1,2.5840405E-2,5.4212725E-1,0E0,1.3008723E-1,4.8983693E-3,8.6240864E-1,0E0,0E0,0E0,1.0039841E-3,3.8109075E-2,0E0,0E0,0E0,0E0,0E0,0E0],"parents":[2147483647,0,0,1,1,2,2,3,3,5,5,6,6,7,7,11,11,12,12],"right_children":[2,4,6,8,-1,10,12,14,-1,-1,-1,16,18,-1,-1,-1,-1,-1,-1],"split_conditions":[-1.2508087E0,9.973467E-1,-1.0102156E0,2.6631963E0,-7.9981016E-4,1.3553171E0,-3.5436386E-1,-6.434495E-3,-0E0,-0E0,1.0538104E-2,-6.434495E-3,1.3553171E0,-0E0,3.5073847E-2,-0E0,-2.892496E-4,-4.8238607E-4,-5.4524243E-3],"split_indices":[1,0,0,7,0,8,1,0,0,0,0,0,8,0,0,0,0,0,0],"split_type":[0,0,0,0,0,0,0,0,0,0,0,0,0,0,0,0,0,0,0],"sum_hessian":[1.86E2,1.4E1,1.72E2,1E1,4E0,2.2E1,1.5E2,8E0,2E0,2E1,2E0,4.4E1,1.06E2,4E0,4E0,1.5E1,2.9E1,1.01E2,5E0],"tree_param":{"num_deleted":"0","num_feature":"10","num_nodes":"19","size_leaf_vector":"1"}},{"base_weights":[9.226957E-3,2.779329E-1,-0E0,3.0930731E-2,-0E0,-7.057002E-4,1.8607107E-1,2.772114E-1,-0E0,1.8546829E-2,-0E0,-7.7158865E-4,1.3446525E-3],"categories":[],"categories_nodes":[],"categories_segments":[],"categories_sizes":[],"default_left":[0,0,0,0,0,0,0,0,0,0,0,0,0],"id":33,"left_children":[1,3,5,-1,-1,-1,7,9,11,-1,-1,-1,-1],"loss_changes":[3.7005752E-1,7.618186E-1,5.535999E-1,0E0,0E0,0E0,2.4912494E-1,3.3229005E-1,3.1222668E-3,0E0,0E0,0E0,0E0],"parents":[2147483647,0,0,1,1,2,2,6,6,7,7,8,8],"right_children":[2,4,6,-1,-1,-1,8,10,12,-1,-1,-1,-1],"split_conditions":[-1.6199702E0,9.973467E-1,1.3553171E0,3.0930731E-2,-0E0,-7.057002E-4,4.2804728E0,2.6631963E0,5.4958687E0,1.8546829E-2,-0E0,-7.7158865E-4,1.3446525E-3],"split_indices":[2,0,8,0,0,0,9,6,6,0,0,0,0],"split_type":[0,0,0,0,0,0,0,0,0,0,0,0,0],"sum_hessian":[1.89E2,4E0,1.85E2,2E0,2E0,1.71E2,1.4E1,9E0,5E0,7E0,2E0,3E0,2E0],"tree_param":{"num_deleted":"0","num_feature":"10","num_nodes":"13","size_leaf_vector":"1"}},{"base_weights":[-0E0,3.8810155E-1,-7.212618E-3,2.9899705E-2,-0E0,-6.368373E-4,3.737896E-2,9.568606E-3,-0E0,-1.8155951E-3,3.1886862E-3],"categories":[],"categories_nodes":[],"categories_segments":[],"categories_sizes":[],"default_left":[0,0,0,0,0,0,0,0,0,0,0],"id":34,"left_children":[1,3,5,-1,-1,-1,7,-1,9,-1,-1],"loss_changes":[6.1227137E-1,4.7029948E-1,3.446494E-2,0E0,0E0,0E0,9.450081E-2,0E0,1.868261E-2,0E0,0E0],"parents":[2147483647,0,0,1,1,2,2,6,6,8,8],"right_children":[2,4,6,-1,-1,-1,8,-1,10,-1,-1],"split_conditions":[-1.6199702E0,9.973467E-1,1.3553171E0,2.9899705E-2,-0E0,-6.368373E-4,-1.0102156E0,9.568606E-3,9.9030334E-1,-1.8155951E-3,3.1886862E-3],"split_indices":[2,0,8,0,0,0,0,0,1,0,0],"split_type":[0,0,0,0,0,0,0,0,0,0,0],"sum_hessian":[1.9E2,3E0,1.87E2,2E0,1E0,1.77E2,1E1,2E0,8E0,7E0,1E0],"tree_param":{"num_deleted":"0","num_feature":"10","num_nodes":"11","size_leaf_vector":"1"}},{"base_weights":[5.491212E-3,2.1080363E-1,-8.345214E-3,-0E0,3.513801E-1,-1.1956362E-2,1.4658438E-2,2.5746688E-2,-0E0,-0E0,-1.4639182E-2,-0E0,3.1089694E-3,-0E0,-9.4675965E-4],"categories":[],"categories_nodes":[],"categories_segments":[],"categories_sizes":[],"default_left":[0,0,0,0,0,0,0,0,0,0,0,0,0,0,0],"id":35,"left_children":[1,3,5,-1,7,9,11,-1,-1,-1,13,-1,-1,-1,-1],"loss_changes":[6.285345E-1,3.656094E-1,1.31121995E-2,0E0,6.0319704E-1,6.8436395E-3,6.658203E-3,0E0,0E0,0E0,6.786842E-3,0E0,0E0,0E0,0E0],"parents":[2147483647,0,0,1,1,2,2,4,4,5,5,6,6,10,10],"right_children":[2,4,6,-1,8,10,12,-1,-1,-1,14,-1,-1,-1,-1],"split_conditions":[-1.2508087E0,-6.434495E-3,1.8867482E0,-0E0,9.973467E-1,-1.0102156E0,9.973467E-1,2.5746688E-2,-0E0,-0E0,-3.5436386E-1,-0E0,3.1089694E-3,-0E0,-9.4675965E-4],"split_indices":[1,0,1,0,0,0,0,0,0,0,1,0,0,0,0],"split_type":[0,0,0,0,0,0,0,0,0,0,0,0,0,0,0],"sum_hessian":[1.84E2,1.3E1,1.71E2,6E0,7E0,1.67E2,4E0,5E0,2E0,2.4E1,1.43E2,3E0,1E0,3.9E1,1.04E2],"tree_param":{"num_deleted":"0","num_feature":"10","num_nodes":"15","size_leaf_vector":"1"}},{"base_weights":[7.779209E-3,3.6452156E-1,-0E0,2.8044824E-2,-0E0,6.27336E-2,-3.851621E-3,1.453725E-1,-0E0,6.5495907E-3,-8.725983E-3,-0E0,8.984792E-3,-0E0,1.1613326E-3,-6.4076035E-4,1.0900677E-3],"categories":[],"categories_nodes":[],"categories_segments":[],"categories_sizes":[],"default_left":[0,0,0,0,0,0,0,0,0,0,0,0,0,0,0,0,0],"id":36,"left_children":[1,3,5,-1,-1,7,9,11,-1,13,15,-1,-1,-1,-1,-1,-1],"loss_changes":[5.200663E-1,4.1231072E-1,4.5901507E-2,0E0,0E0,1.2577474E-1,1.006842E-2,5.6968853E-2,0E0,7.062629E-3,1.4885775E-2,0E0,0E0,0E0,0E0,0E0,0E0],"parents":[2147483647,0,0,1,1,2,2,5,5,6,6,7,7,9,9,10,10],"right_children":[2,4,6,-1,-1,8,10,12,-1,14,16,-1,-1,-1,-1,-1,-1],"split_conditions":[-1.6199702E0,9.973467E-1,-1.2508087E0,2.8044824E-2,-0E0,2.6631963E0,-1.0102156E0,-1.0102156E0,-0E0,9.385854E-2,1.8867482E0,-0E0,8.984792E-3,-0E0,1.1613326E-3,-6.4076035E-4,1.0900677E-3],"split_indices":[2,0,1,0,0,7,0,0,0,1,1,0,0,0,0,0,0],"split_type":[0,0,0,0,0,0,0,0,0,0,0,0,0,0,0,0,0],"sum_hessian":[1.88E2,3E0,1.85E2,2E0,1E0,1E1,1.75E2,7E0,3E0,2.3E1,1.52E2,1E0,6E0,9E0,1.4E1,1.49E2,3E0],"tree_param":{"num_deleted":"0","num_feature":"10","num_nodes":"17","size_leaf_vector":"1"}},{"base_weights":[6.8490785E-3,3.5049915E-1,-0E0,2.7109995E-2,-0E0,-6.166529E-4,1.3787054E-1,-0E0,1.981806E-1,1.14465635E-2,-0E0],"categories":[],"categories_nodes":[],"categories_segments":[],"categories_sizes":[],"default_left":[0,0,0,0,0,0,0,0,0,0,0],"id":37,"left_children":[1,3,5,-1,-1,-1,7,-1,9,-1,-1],"loss_changes":[4.827672E-1,3.9054367E-1,2.9166952E-1,0E0,0E0,0E0,2.051906E-1,0E0,1.05198115E-1,0E0,0E0],"parents":[2147483647,0,0,1,1,2,2,6,6,8,8],"right_children":[2,4,6,-1,-1,-1,8,-1,10,-1,-1],"split_conditions":[-1.6199702E0,9.973467E-1,1.3553171E0,2.7109995E-2,-0E0,-6.166529E-4,-1.5163983E0,-0E0,1.4992373E0,1.14465635E-2,-0E0],"split_indices":[2,0,8,0,0,0,2,0,0,0,0],"split_type":[0,0,0,0,0,0,0,0,0,0,0],"sum_hessian":[1.83E2,3E0,1.8E2,2E0,1E0,1.67E2,1.3E1,2E0,1.1E1,1E1,1E0],"tree_param":{"num_deleted":"0","num_feature":"10","num_nodes":"11","size_leaf_vector":"1"}},{"base_weights":[8.126621E-3,1.7020977E-1,-1.9145685E-3,2.6467663E-1,-3.5632664E-4,-4.3291991E-4,5.5188537E-2,-0E0,4.5139843E-1,1.1550826E-1,-0E0,2.9750085E-2,-0E0,7.601019E-3,-0E0],"categories":[],"categories_nodes":[],"categories_segments":[],"categories_sizes":[],"default_left":[0,0,0,0,0,0,0,0,0,0,0,0,0,0,0],"id":38,"left_children":[1,3,5,7,-1,-1,9,-1,11,13,-1,-1,-1,-1,-1],"loss_changes":[3.936999E-1,3.651949E-1,4.5374345E-2,4.519723E-1,0E0,0E0,7.323374E-2,0E0,5.4757214E-1,5.5034123E-2,0E0,0E0,0E0,0E0,0E0],"parents":[2147483647,0,0,1,1,2,2,3,3,6,6,8,8,9,9],"right_children":[2,4,6,8,-1,-1,10,-1,12,14,-1,-1,-1,-1,-1],"split_conditions":[-1.2508087E0,9.973467E-1,1.3553171E0,-6.434495E-3,-3.5632664E-4,-4.3291991E-4,2.6631963E0,-0E0,2.6631963E0,1.4992373E0,-0E0,2.9750085E-2,-0E0,7.601019E-3,-0E0],"split_indices":[1,0,8,0,0,0,6,0,7,0,0,0,0,0,0],"split_type":[0,0,0,0,0,0,0,0,0,0,0,0,0,0,0],"sum_hessian":[1.89E2,1.3E1,1.76E2,1E1,3E0,1.66E2,1E1,5E0,5E0,7E0,3E0,4E0,1E0,6E0,1E0],"tree_param":{"num_deleted":"0","num_feature":"10","num_nodes":"15","size_leaf_vector":"1"}},{"base_weights":[6.2559673E-4,-6.694466E-4,1.4479096E-1,-8.440975E-3,7.06592E-3,1.920966E-2,-0E0,-0E0,-6.0131145E-4,-0E0,6.470971E-2,-0E0,1.19185446E-4,-7.4941556E-5,1.6515043E-4,1.2858803E-2,-0E0],"categories":[],"categories_nodes":[],"categories_segments":[],"categories_sizes":[],"default_left":[0,0,0,0,0,0,0,0,0,0,0,0,0,0,0,0,0],"id":39,"left_children":[1,3,5,7,9,-1,-1,11,-1,13,15,-1,-1,-1,-1,-1,-1],"loss_changes":[1.0483026E-1,1.1026942E-2,3.3799118E-1,6.4894026E-3,1.8240662E-2,0E0,0E0,1.1364136E-5,0E0,3.5714556E-4,1.7748185E-1,0E0,0E0,0E0,0E0,0E0,0E0],"parents":[2147483647,0,0,1,1,2,2,3,3,4,4,7,7,9,9,10,10],"right_children":[2,4,6,8,10,-1,-1,12,-1,14,16,-1,-1,-1,-1,-1,-1],"split_conditions":[5.4958687E0,1.4279219E0,9.973467E-1,-1.0102156E0,1.3553171E0,1.920966E-2,-0E0,1.3553171E0,-6.0131145E-4,-6.434495E-3,4.2804728E0,-0E0,1.19185446E-4,-7.4941556E-5,1.6515043E-4,1.2858803E-2,-0E0],"split_indices":[6,4,0,0,8,0,0,8,0,0,9,0,0,0,0,0,0],"split_type":[0,0,0,0,0,0,0,0,0,0,0,0,0,0,0,0,0],"sum_hessian":[1.74E2,1.7E2,4E0,1.17E2,5.3E1,2E0,2E0,1.5E1,1.02E2,4.9E1,4E0,1.4E1,1E0,2.2E1,2.7E1,2E0,2E0],"tree_param":{"num_deleted":"0","num_feature":"10","num_nodes":"17","size_leaf_vector":"1"}},{"base_weights":[7.27145E-3,3.140998E-1,-0E0,2.4891747E-2,-0E0,-5.5108534E-4,1.2630686E-1,1.5250185E-1,-0E0,1.7611165E-2,1.5776448E-3],"categories":[],"categories_nodes":[],"categories_segments":[],"categories_sizes":[],"default_left":[0,0,0,0,0,0,0,0,0,0,0],"id":40,"left_children":[1,3,5,-1,-1,-1,7,9,-1,-1,-1],"loss_changes":[3.8458866E-1,3.4888417E-1,2.76149E-1,0E0,0E0,0E0,9.359747E-2,1.593397E-1,0E0,0E0,0E0],"parents":[2147483647,0,0,1,1,2,2,6,6,7,7],"right_children":[2,4,6,-1,-1,-1,8,10,-1,-1,-1],"split_conditions":[-1.6199702E0,1.5787772E0,1.3553171E0,2.4891747E-2,-0E0,-5.5108534E-4,2.6631963E0,-1.2508087E0,-0E0,1.7611165E-2,1.5776448E-3],"split_indices":[2,3,8,0,0,0,7,1,0,0,0],"split_type":[0,0,0,0,0,0,0,0,0,0,0],"sum_hessian":[1.89E2,3E0,1.86E2,2E0,1E0,1.71E2,1.5E1,1.4E1,1E0,3E0,1.1E1],"tree_param":{"num_deleted":"0","num_feature":"10","num_nodes":"11","size_leaf_vector":"1"}},{"base_weights":[-0E0,1.9307917E-1,-2.8620104E-3,2.406202E-2,-0E0,-4.5268174E-4,3.5405524E-2,1.2060995E-1,-2.9562656E-3,1.0291441E-2,-0E0],"categories":[],"categories_nodes":[],"categories_segments":[],"categories_sizes":[],"default_left":[0,0,0,0,0,0,0,0,0,0,0],"id":41,"left_children":[1,3,5,-1,-1,-1,7,9,-1,-1,-1],"loss_changes":[1.8792957E-1,5.083792E-1,3.145205E-2,0E0,0E0,0E0,1.586901E-1,1.7890967E-1,0E0,0E0,0E0],"parents":[2147483647,0,0,1,1,2,2,6,6,7,7],"right_children":[2,4,6,-1,-1,-1,8,10,-1,-1,-1],"split_conditions":[-1.6199702E0,9.973467E-1,1.3553171E0,2.406202E-2,-0E0,-4.5268174E-4,4.2804728E0,2.6631963E0,-2.9562656E-3,1.0291441E-2,-0E0],"split_indices":[2,0,8,0,0,0,9,6,0,0,0],"split_type":[0,0,0,0,0,0,0,0,0,0,0],"sum_hessian":[1.9E2,4E0,1.86E2,2E0,2E0,1.72E2,1.4E1,1E1,4E0,7E0,3E0],"tree_param":{"num_deleted":"0","num_feature":"10","num_nodes":"11","size_leaf_vector":"1"}},{"base_weights":[2.507861E-3,1.5637597E-1,-6.799226E-3,2.4806555E-1,-4.932166E-4,-5.039465E-4,8.694303E-3,2.9247373E-1,-0E0,-0E0,2.2461086E-3,1.6466793E-2,-0E0],"categories":[],"categories_nodes":[],"categories_segments":[],"categories_sizes":[],"default_left":[0,0,0,0,0,0,0,0,0,0,0,0,0],"id":42,"left_children":[1,3,5,7,-1,-1,9,11,-1,-1,-1,-1,-1],"loss_changes":[3.493758E-1,3.3494267E-1,9.824867E-3,1.7850727E-1,0E0,0E0,3.6580488E-3,1.2074989E-1,0E0,0E0,0E0,0E0,0E0],"parents":[2147483647,0,0,1,1,2,2,3,3,6,6,7,7],"right_children":[2,4,6,8,-1,-1,10,12,-1,-1,-1,-1,-1],"split_conditions":[-1.2508087E0,1.5787772E0,1.8867482E0,7.7304063E0,-4.932166E-4,-5.039465E-4,1.5787772E0,2.6631963E0,-0E0,-0E0,2.2461086E-3,1.6466793E-2,-0E0],"split_indices":[1,3,1,9,0,0,3,7,0,0,0,0,0],"split_type":[0,0,0,0,0,0,0,0,0,0,0,0,0],"sum_hessian":[1.9E2,1.3E1,1.77E2,1E1,3E0,1.73E2,4E0,9E0,1E0,3E0,1E0,8E0,1E0],"tree_param":{"num_deleted":"0","num_feature":"10","num_nodes":"13","size_leaf_vector":"1"}},{"base_weights":[8.454812E-3,2.8151283E-1,-0E0,2.2711063E-2,-0E0,-4.757354E-4,1.5259317E-1,1.7677534E-1,-0E0,1.3366789E-2,1.234953E-4],"categories":[],"categories_nodes":[],"categories_segments":[],"categories_sizes":[],"default_left":[0,0,0,0,0,0,0,0,0,0,0],"id":43,"left_children":[1,3,5,-1,-1,-1,7,9,-1,-1,-1],"loss_changes":[3.0405927E-1,3.01953E-1,3.177287E-1,0E0,0E0,0E0,7.22934E-2,5.3858995E-2,0E0,0E0,0E0],"parents":[2147483647,0,0,1,1,2,2,6,6,7,7],"right_children":[2,4,6,-1,-1,-1,8,10,-1,-1,-1],"split_conditions":[-1.6199702E0,9.973467E-1,1.3553171E0,2.2711063E-2,-0E0,-4.757354E-4,1.4992373E0,-3.5436386E-1,-0E0,1.3366789E-2,1.234953E-4],"split_indices":[2,0,8,0,0,0,0,1,0,0,0],"split_type":[0,0,0,0,0,0,0,0,0,0,0],"sum_hessian":[1.8E2,3E0,1.77E2,2E0,1E0,1.65E2,1.2E1,1.1E1,1E0,5E0,6E0],"tree_param":{"num_deleted":"0","num_feature":"10","num_nodes":"11","size_leaf_vector":"1"}},{"base_weights":[9.918389E-3,1.5251431E-1,-0E0,2.8670567E-1,-9.76649E-4,-2.9014447E-4,7.410046E-2,3.5717243E-1,-0E0,-0E0,6.7342925E-3,-0E0,2.5260774E-2],"categories":[],"categories_nodes":[],"categories_segments":[],"categories_sizes":[],"default_left":[0,0,0,0,0,0,0,0,0,0,0,0,0],"id":44,"left_children":[1,3,5,7,-1,-1,9,11,-1,-1,-1,-1,-1],"loss_changes":[2.8458223E-1,4.3932092E-1,6.0296547E-2,2.8077596E-1,0E0,0E0,9.021342E-2,2.556361E-1,0E0,0E0,0E0,0E0,0E0],"parents":[2147483647,0,0,1,1,2,2,3,3,6,6,7,7],"right_children":[2,4,6,8,-1,-1,10,12,-1,-1,-1,-1,-1],"split_conditions":[-1.2508087E0,9.973467E-1,1.3553171E0,2.6631963E0,-9.76649E-4,-2.9014447E-4,-8.0258626E-1,-6.434495E-3,-0E0,-0E0,6.7342925E-3,-0E0,2.5260774E-2],"split_indices":[1,0,8,7,0,0,1,0,0,0,0,0,0],"split_type":[0,0,0,0,0,0,0,0,0,0,0,0,0],"sum_hessian":[1.8E2,1.2E1,1.68E2,8E0,4E0,1.59E2,9E0,7E0,1E0,2E0,7E0,3E0,4E0],"tree_param":{"num_deleted":"0","num_feature":"10","num_nodes":"13","size_leaf_vector":"1"}},{"base_weights":[5.5894917E-3,2.577711E-1,-0E0,2.1112006E-2,-0E0,-4.410444E-4,1.015464E-1,1.4651097E-1,-0E0,9.250729E-3,-0E0],"categories":[],"categories_nodes":[],"categories_segments":[],"categories_sizes":[],"default_left":[0,0,0,0,0,0,0,0,0,0,0],"id":45,"left_children":[1,3,5,-1,-1,-1,7,9,-1,-1,-1],"loss_changes":[2.6016015E-1,2.690763E-1,1.5712392E-1,0E0,0E0,0E0,1.1322221E-1,1.1894873E-1,0E0,0E0,0E0],"parents":[2147483647,0,0,1,1,2,2,6,6,7,7],"right_children":[2,4,6,-1,-1,-1,8,10,-1,-1,-1],"split_conditions":[-1.6199702E0,9.973467E-1,1.3553171E0,2.1112006E-2,-0E0,-4.410444E-4,9.973467E-1,2.6631963E0,-0E0,9.250729E-3,-0E0],"split_indices":[2,0,8,0,0,0,0,7,0,0,0],"split_type":[0,0,0,0,0,0,0,0,0,0,0],"sum_hessian":[1.79E2,3E0,1.76E2,2E0,1E0,1.63E2,1.3E1,1.1E1,2E0,1E1,1E0],"tree_param":{"num_deleted":"0","num_feature":"10","num_nodes":"11","size_leaf_vector":"1"}},{"base_weights":[7.6233624E-3,1.19626775E-1,-0E0,2.0080961E-1,-4.2663692E-4,-2.4384202E-4,6.429741E-2,3.359053E-1,-0E0,-0E0,9.129823E-3,-0E0,2.364309E-2,1.2322962E-3,-3.1930008E-3],"categories":[],"categories_nodes":[],"categories_segments":[],"categories_sizes":[],"default_left":[0,0,0,0,0,0,0,0,0,0,0,0,0,0,0],"id":46,"left_children":[1,3,5,7,-1,-1,9,11,-1,13,-1,-1,-1,-1,-1],"loss_changes":[1.8907346E-1,2.4351287E-1,4.5432344E-2,4.5908946E-1,0E0,0E0,1.2536578E-1,2.1533221E-1,0E0,2.160535E-2,0E0,0E0,0E0,0E0,0E0],"parents":[2147483647,0,0,1,1,2,2,3,3,6,6,7,7,9,9],"right_children":[2,4,6,8,-1,-1,10,12,-1,14,-1,-1,-1,-1,-1],"split_conditions":[-1.2508087E0,9.973467E-1,1.3553171E0,2.6631963E0,-4.2663692E-4,-2.4384202E-4,9.385854E-2,-6.434495E-3,-0E0,-6.434495E-3,9.129823E-3,-0E0,2.364309E-2,1.2322962E-3,-3.1930008E-3],"split_indices":[1,0,8,7,0,0,1,0,0,0,0,0,0,0,0],"split_type":[0,0,0,0,0,0,0,0,0,0,0,0,0,0,0],"sum_hessian":[1.93E2,1.3E1,1.8E2,1E1,3E0,1.71E2,9E0,7E0,3E0,5E0,4E0,3E0,4E0,1E0,4E0],"tree_param":{"num_deleted":"0","num_feature":"10","num_nodes":"15","size_leaf_vector":"1"}},{"base_weights":[5.5614337E-3,2.3447177E-1,-0E0,1.9620173E-2,-0E0,-3.8924496E-4,8.944345E-2,1.3373558E-1,-0E0,1.0458442E-2,-0E0,-1.0043544E-3,1.5109837E-3],"categories":[],"categories_nodes":[],"categories_segments":[],"categories_sizes":[],"default_left":[0,0,0,0,0,0,0,0,0,0,0,0,0],"id":47,"left_children":[1,3,5,-1,-1,-1,7,9,11,-1,-1,-1,-1],"loss_changes":[2.140933E-1,2.4203333E-1,1.383049E-1,0E0,0E0,0E0,6.873517E-2,1.9702722E-1,3.8439133E-3,0E0,0E0,0E0,0E0],"parents":[2147483647,0,0,1,1,2,2,6,6,7,7,8,8],"right_children":[2,4,6,-1,-1,-1,8,10,12,-1,-1,-1,-1],"split_conditions":[-1.6199702E0,1.5787772E0,1.3553171E0,1.9620173E-2,-0E0,-3.8924496E-4,2.6631963E0,4.2804728E0,5.4958687E0,1.0458442E-2,-0E0,-1.0043544E-3,1.5109837E-3],"split_indices":[2,3,8,0,0,0,6,9,6,0,0,0,0],"split_type":[0,0,0,0,0,0,0,0,0,0,0,0,0],"sum_hessian":[1.87E2,3E0,1.84E2,2E0,1E0,1.69E2,1.5E1,1E1,5E0,8E0,2E0,4E0,1E0],"tree_param":{"num_deleted":"0","num_feature":"10","num_nodes":"13","size_leaf_vector":"1"}},{"base_weights":[-0E0,1.3268751E-1,-5.3753173E-3,1.8966166E-2,-0E0,-2.695786E-3,-8.4908016E-4,-2.638817E-4,1.50583E-2,1.26602E-3,-0E0],"categories":[],"categories_nodes":[],"categories_segments":[],"categories_sizes":[],"default_left":[0,0,0,0,0,0,0,0,0,0,0],"id":48,"left_children":[1,3,5,-1,-1,-1,7,-1,9,-1,-1],"loss_changes":[9.32597E-2,3.4362864E-1,1.2338496E-2,0E0,0E0,0E0,7.5877565E-3,0E0,2.5955697E-3,0E0,0E0],"parents":[2147483647,0,0,1,1,2,2,6,6,8,8],"right_children":[2,4,6,-1,-1,-1,8,-1,10,-1,-1],"split_conditions":[-1.6199702E0,1.5787772E0,-1.5163983E0,1.8966166E-2,-0E0,-2.695786E-3,1.3553171E0,-2.638817E-4,2.6631963E0,1.26602E-3,-0E0],"split_indices":[2,3,2,0,0,0,8,0,6,0,0],"split_type":[0,0,0,0,0,0,0,0,0,0,0],"sum_hessian":[1.84E2,4E0,1.8E2,2E0,2E0,5E0,1.75E2,1.62E2,1.3E1,8E0,5E0],"tree_param":{"num_deleted":"0","num_feature":"10","num_nodes":"11","size_leaf_vector":"1"}},{"base_weights":[-0E0,2.1620709E-1,-2.3030413E-3,1.833396E-2,-0E0,-2.6089211E-3,-0E0,-1.8109659E-4,1.9367626E-2,1.9181449E-3,-0E0],"categories":[],"categories_nodes":[],"categories_segments":[],"categories_sizes":[],"default_left":[0,0,0,0,0,0,0,0,0,0,0],"id":49,"left_children":[1,3,5,-1,-1,-1,7,-1,9,-1,-1],"loss_changes":[1.879898E-1,2.1637884E-1,1.8050358E-2,0E0,0E0,0E0,1.1838551E-2,0E0,2.409665E-2,0E0,0E0],"parents":[2147483647,0,0,1,1,2,2,6,6,8,8],"right_children":[2,4,6,-1,-1,-1,8,-1,10,-1,-1],"split_conditions":[-1.6199702E0,9.973467E-1,-1.5163983E0,1.833396E-2,-0E0,-2.6089211E-3,8.305395E-1,-1.8109659E-4,2.6631963E0,1.9181449E-3,-0E0],"split_indices":[2,0,2,0,0,0,9,0,6,0,0],"split_type":[0,0,0,0,0,0,0,0,0,0,0],"sum_hessian":[1.92E2,3E0,1.89E2,2E0,1E0,6E0,1.83E2,1.58E2,2.5E1,2.2E1,3E0],"tree_param":{"num_deleted":"0","num_feature":"10","num_nodes":"11","size_leaf_vector":"1"}},{"base_weights":[-0E0,3.6124077E-2,-6.08607E-3,9.648058E-2,-7.9781766E-4,-9.355916E-3,3.6900316E-3,1.8047453E-1,-0E0,-1.2258363E-4,-2.7207548E-2,-0E0,1.4492006E-3,-0E0,2.0278728E-2,-0E0,-2.3717755E-3],"categories":[],"categories_nodes":[],"categories_segments":[],"categories_sizes":[],"default_left":[0,0,0,0,0,0,0,0,0,0,0,0,0,0,0,0,0],"id":50,"left_children":[1,3,5,7,-1,9,11,13,-1,-1,15,-1,-1,-1,-1,-1,-1],"loss_changes":[2.7176023E-2,9.209588E-2,8.301744E-3,1.8143749E-1,0E0,5.563521E-3,1.6120641E-3,3.6482328E-1,0E0,0E0,3.2506414E-2,0E0,0E0,0E0,0E0,0E0,0E0],"parents":[2147483647,0,0,1,1,2,2,3,3,5,5,6,6,7,7,10,10],"right_children":[2,4,6,8,-1,10,12,14,-1,-1,16,-1,-1,-1,-1,-1,-1],"split_conditions":[-1.2508087E0,9.973467E-1,1.8867482E0,2.6631963E0,-7.9781766E-4,8.305395E-1,9.973467E-1,-6.434495E-3,-0E0,-1.2258363E-4,-1.0102156E0,-0E0,1.4492006E-3,-0E0,2.0278728E-2,-0E0,-2.3717755E-3],"split_indices":[1,0,1,7,0,9,0,0,0,0,0,0,0,0,0,0,0],"split_type":[0,0,0,0,0,0,0,0,0,0,0,0,0,0,0,0,0],"sum_hessian":[1.84E2,1.5E1,1.69E2,1.1E1,4E0,1.65E2,4E0,8E0,3E0,1.4E2,2.5E1,3E0,1E0,5E0,3E0,3E0,2.2E1],"tree_param":{"num_deleted":"0","num_feature":"10","num_nodes":"17","size_leaf_vector":"1"}},{"base_weights":[8.1588153E-4,8.698294E-2,-3.6160839E-3,-0E0,1.4892285E-1,5.2717566E-3,-8.079805E-3,1.1647557E-2,-0E0,-0E0,6.897181E-3,-1.14045724E-4,-4.7630347E-2,-0E0,-5.295118E-3],"categories":[],"categories_nodes":[],"categories_segments":[],"categories_sizes":[],"default_left":[0,0,0,0,0,0,0,0,0,0,0,0,0,0,0],"id":51,"left_children":[1,3,5,-1,7,9,11,-1,-1,-1,-1,-1,13,-1,-1],"loss_changes":[1.1570263E-1,8.611166E-2,8.548059E-3,0E0,1.8026145E-1,5.6446113E-2,1.0943563E-2,0E0,0E0,0E0,0E0,0E0,4.6873998E-2,0E0,0E0],"parents":[2147483647,0,0,1,1,2,2,4,4,5,5,6,6,12,12],"right_children":[2,4,6,-1,8,10,12,-1,-1,-1,-1,-1,14,-1,-1],"split_conditions":[-1.2508087E0,-6.434495E-3,-1.0102156E0,-0E0,9.973467E-1,1.3553171E0,1.3553171E0,1.1647557E-2,-0E0,-0E0,6.897181E-3,-1.14045724E-4,-3.5436386E-1,-0E0,-5.295118E-3],"split_indices":[1,0,0,0,0,8,8,0,0,0,0,0,1,0,0],"split_type":[0,0,0,0,0,0,0,0,0,0,0,0,0,0,0],"sum_hessian":[1.92E2,1.4E1,1.78E2,6E0,8E0,2.2E1,1.56E2,6E0,2E0,2E1,2E0,1.48E2,8E0,3E0,5E0],"tree_param":{"num_deleted":"0","num_feature":"10","num_nodes":"15","size_leaf_vector":"1"}},{"base_weights":[2.4412874E-4,1.0531613E-1,-0E0,1.6658625E-2,-0E0,-2.7683575E-4,3.0318419E-2,1.5962729E-1,-0E0,1.157161E-2,-0E0,-2.0258704E-3,1.5453488E-3],"categories":[],"categories_nodes":[],"categories_segments":[],"categories_sizes":[],"default_left":[0,0,0,0,0,0,0,0,0,0,0,0,0],"id":52,"left_children":[1,3,5,-1,-1,-1,7,9,11,-1,-1,-1,-1],"loss_changes":[5.544629E-2,2.7755427E-1,1.896883E-2,0E0,0E0,0E0,1.1361625E-1,8.683911E-2,1.8327085E-2,0E0,0E0,0E0,0E0],"parents":[2147483647,0,0,1,1,2,2,6,6,7,7,8,8],"right_children":[2,4,6,-1,-1,-1,8,10,12,-1,-1,-1,-1],"split_conditions":[-1.6199702E0,9.973467E-1,1.3553171E0,1.6658625E-2,-0E0,-2.7683575E-4,-5.083251E-1,2.6631963E0,8.657546E-1,1.157161E-2,-0E0,-2.0258704E-3,1.5453488E-3],"split_indices":[2,0,8,0,0,0,0,6,2,0,0,0,0],"split_type":[0,0,0,0,0,0,0,0,0,0,0,0,0],"sum_hessian":[1.86E2,4E0,1.82E2,2E0,2E0,1.68E2,1.4E1,4E0,1E1,3E0,1E0,9E0,1E0],"tree_param":{"num_deleted":"0","num_feature":"10","num_nodes":"13","size_leaf_vector":"1"}},{"base_weights":[-0E0,1.610334E-2,-7.183997E-3,-3.3574272E-3,-1.1675322E-3,-4.2553334E-3,2.666787E-3,-0E0,-3.45976E-4,-0E0,1.506716E-3],"categories":[],"categories_nodes":[],"categories_segments":[],"categories_sizes":[],"default_left":[0,0,0,0,0,0,0,0,0,0,0],"id":53,"left_children":[1,-1,3,-1,5,7,9,-1,-1,-1,-1],"loss_changes":[3.2057402E-1,0E0,3.1424537E-2,0E0,2.8657143E-3,2.398064E-3,1.7734839E-3,0E0,0E0,0E0,0E0],"parents":[2147483647,0,0,2,2,4,4,5,5,6,6],"right_children":[2,-1,4,-1,6,8,10,-1,-1,-1,-1],"split_conditions":[-1.6199702E0,1.610334E-2,-1.4128265E0,-3.3574272E-3,1.6943295E0,-4.806797E-1,9.973467E-1,-0E0,-3.45976E-4,-0E0,1.506716E-3],"split_indices":[2,0,2,0,2,2,0,0,0,0,0],"split_type":[0,0,0,0,0,0,0,0,0,0,0],"sum_hessian":[1.83E2,2E0,1.81E2,8E0,1.73E2,1.68E2,5E0,5.5E1,1.13E2,4E0,1E0],"tree_param":{"num_deleted":"0","num_feature":"10","num_nodes":"11","size_leaf_vector":"1"}},{"base_weights":[4.7774927E-4,8.968244E-3,-1.3034938E-2,-0E0,9.4371885E-2,-0E0,-3.3422576E-3,-0E0,4.283059E-3,2.1375969E-1,-0E0,-1.7117156E-4,-0E0,1.4894999E-2,-0E0,-4.640308E-3,8.0963376E-4],"categories":[],"categories_nodes":[],"categories_segments":[],"categories_sizes":[],"default_left":[0,0,0,0,0,0,0,0,0,0,0,0,0,0,0,0,0],"id":54,"left_children":[1,3,5,7,9,-1,-1,11,-1,13,15,-1,-1,-1,-1,-1,-1],"loss_changes":[1.9882143E-2,7.7800415E-2,1.3675982E-2,1.4675673E-2,1.850987E-1,0E0,0E0,6.9147296E-4,0E0,1.695627E-1,3.497634E-2,0E0,0E0,0E0,0E0,0E0,0E0],"parents":[2147483647,0,0,1,1,2,2,3,3,4,4,7,7,9,9,10,10],"right_children":[2,4,6,8,10,-1,-1,12,-1,14,16,-1,-1,-1,-1,-1,-1],"split_conditions":[1.6124516E0,1.3553171E0,1.3553171E0,2.6631963E0,4.954561E-1,-0E0,-3.3422576E-3,-6.434495E-3,4.283059E-3,2.6631963E0,1.9805174E0,-1.7117156E-4,-0E0,1.4894999E-2,-0E0,-4.640308E-3,8.0963376E-4],"split_indices":[5,8,8,6,0,0,0,0,0,6,9,0,0,0,0,0,0],"split_type":[0,0,0,0,0,0,0,0,0,0,0,0,0,0,0,0,0],"sum_hessian":[1.89E2,1.39E2,5E1,1.3E2,9E0,4.6E1,4E0,1.29E2,1E0,5E0,4E0,5.8E1,7.1E1,4E0,1E0,3E0,1E0],"tree_param":{"num_deleted":"0","num_feature":"10","num_nodes":"17","size_leaf_vector":"1"}},{"base_weights":[3.227122E-3,1.08028024E-1,-1.805662E-3,1.7274792E-1,-0E0,-4.966267E-3,4.7517894E-3,-0E0,1.9382928E-2,-0E0,-8.647353E-3,-0E0,1.5526041E-3,-0E0,5.979896E-4,-8.253424E-5,-2.840475E-3],"categories":[],"categories_nodes":[],"categories_segments":[],"categories_sizes":[],"default_left":[0,0,0,0,0,0,0,0,0,0,0,0,0,0,0,0,0],"id":55,"left_children":[1,3,5,7,-1,9,11,-1,-1,13,15,-1,-1,-1,-1,-1,-1],"loss_changes":[1.5035525E-1,1.7654961E-1,3.695625E-3,4.2313546E-1,0E0,4.7549107E-3,1.8155662E-3,0E0,0E0,2.8607322E-4,1.0776106E-2,0E0,0E0,0E0,0E0,0E0,0E0],"parents":[2147483647,0,0,1,1,2,2,3,3,5,5,6,6,9,9,10,10],"right_children":[2,4,6,8,-1,10,12,-1,-1,14,16,-1,-1,-1,-1,-1,-1],"split_conditions":[-1.2508087E0,9.973467E-1,1.8867482E0,-6.434495E-3,-0E0,-3.5436386E-1,9.973467E-1,-0E0,1.9382928E-2,1.3553171E0,1.3553171E0,-0E0,1.5526041E-3,-0E0,5.979896E-4,-8.253424E-5,-2.840475E-3],"split_indices":[1,0,1,0,0,1,0,0,0,8,8,0,0,0,0,0,0],"split_type":[0,0,0,0,0,0,0,0,0,0,0,0,0,0,0,0,0],"sum_hessian":[1.83E2,1.2E1,1.71E2,1E1,2E0,1.67E2,4E0,6E0,4E0,4.9E1,1.18E2,3E0,1E0,4.8E1,1E0,1.13E2,5E0],"tree_param":{"num_deleted":"0","num_feature":"10","num_nodes":"17","size_leaf_vector":"1"}},{"base_weights":[-0E0,1.6126764E-1,-1.9662348E-3,1.48490835E-2,-0E0,-0E0,-1.9571322E-3,-2.6468522E-4,6.997941E-2,1.0928708E-2,-0E0],"categories":[],"categories_nodes":[],"categories_segments":[],"categories_sizes":[],"default_left":[0,0,0,0,0,0,0,0,0,0,0],"id":56,"left_children":[1,3,5,-1,-1,7,-1,-1,9,-1,-1],"loss_changes":[1.0465531E-1,1.6056529E-1,8.566572E-3,0E0,0E0,5.3118624E-2,0E0,0E0,1.4212748E-1,0E0,0E0],"parents":[2147483647,0,0,1,1,2,2,5,5,8,8],"right_children":[2,4,6,-1,-1,8,-1,-1,10,-1,-1],"split_conditions":[-1.6199702E0,9.973467E-1,2.6631963E0,1.48490835E-2,-0E0,1.3553171E0,-1.9571322E-3,-2.6468522E-4,-5.083251E-1,1.0928708E-2,-0E0],"split_indices":[2,0,6,0,0,8,0,0,0,0,0],"split_type":[0,0,0,0,0,0,0,0,0,0,0],"sum_hessian":[1.64E2,3E0,1.61E2,2E0,1E0,1.56E2,5E0,1.47E2,9E0,3E0,6E0],"tree_param":{"num_deleted":"0","num_feature":"10","num_nodes":"11","size_leaf_vector":"1"}},{"base_weights":[-0E0,7.307675E-2,-4.266227E-4,1.435411E-2,-0E0,-0E0,-3.032794E-3,-0E0,1.1260505E-2,-0E0,-1.1629991E-4,1.8881254E-3,-0E0],"categories":[],"categories_nodes":[],"categories_segments":[],"categories_sizes":[],"default_left":[0,0,0,0,0,0,0,0,0,0,0,0,0],"id":57,"left_children":[1,3,5,-1,-1,7,-1,9,11,-1,-1,-1,-1],"loss_changes":[2.6735093E-2,2.2054751E-1,2.204078E-2,0E0,0E0,2.9163763E-3,0E0,8.5482217E-4,7.0656734E-3,0E0,0E0,0E0,0E0],"parents":[2147483647,0,0,1,1,2,2,5,5,7,7,8,8],"right_children":[2,4,6,-1,-1,8,-1,10,12,-1,-1,-1,-1],"split_conditions":[-1.6199702E0,9.973467E-1,4.2804728E0,1.435411E-2,-0E0,8.305395E-1,-3.032794E-3,-1.5163983E0,-3.5436386E-1,-0E0,-1.1629991E-4,1.8881254E-3,-0E0],"split_indices":[2,0,9,0,0,9,0,2,1,0,0,0,0],"split_type":[0,0,0,0,0,0,0,0,0,0,0,0,0],"sum_hessian":[1.9E2,4E0,1.86E2,2E0,2E0,1.81E2,5E0,1.59E2,2.2E1,2E0,1.57E2,6E0,1.6E1],"tree_param":{"num_deleted":"0","num_feature":"10","num_nodes":"13","size_leaf_vector":"1"}},{"base_weights":[1.59357E-3,6.408805E-2,-1.0671014E-3,1.415287E-1,-9.5494895E-4,-4.3442296E-3,4.6698526E-3,1.0552204E-2,-0E0,-0E0,-2.813886E-4,-0E0,1.5137881E-3,-8.32475E-5,1.8011784E-4],"categories":[],"categories_nodes":[],"categories_segments":[],"categories_sizes":[],"default_left":[0,0,0,0,0,0,0,0,0,0,0,0,0,0,0],"id":58,"left_children":[1,3,5,7,-1,9,11,-1,-1,13,-1,-1,-1,-1,-1],"loss_changes":[6.1342493E-2,1.6054878E-1,2.9595967E-3,1.8052228E-1,0E0,5.0879805E-4,1.7242059E-3,0E0,0E0,1.7198973E-4,0E0,0E0,0E0,0E0,0E0],"parents":[2147483647,0,0,1,1,2,2,3,3,5,5,6,6,9,9],"right_children":[2,4,6,8,-1,10,12,-1,-1,14,-1,-1,-1,-1,-1],"split_conditions":[-1.2508087E0,1.5787772E0,1.8867482E0,2.6631963E0,-9.5494895E-4,-3.5436386E-1,1.5787772E0,1.0552204E-2,-0E0,-5.842516E-1,-2.813886E-4,-0E0,1.5137881E-3,-8.32475E-5,1.8011784E-4],"split_indices":[1,3,1,7,0,1,3,0,0,2,0,0,0,0,0],"split_type":[0,0,0,0,0,0,0,0,0,0,0,0,0,0,0],"sum_hessian":[1.78E2,1.4E1,1.64E2,1E1,4E0,1.6E2,4E0,8E0,2E0,4.9E1,1.11E2,3E0,1E0,4.7E1,2E0],"tree_param":{"num_deleted":"0","num_feature":"10","num_nodes":"15","size_leaf_vector":"1"}},{"base_weights":[2.4340416E-3,1.0578486E-1,-1.5802499E-3,2.0135915E-1,-5.351751E-4,1.293281E-3,-5.2029234E-3,2.9026365E-1,-0E0,-0E0,1.0899225E-2,-1.0360924E-2,-0E0,-0E0,1.7632473E-2,1.360947E-3,-0E0,-0E0,-8.578174E-4,-0E0,2.1835543E-4],"categories":[],"categories_nodes":[],"categories_segments":[],"categories_sizes":[],"default_left":[0,0,0,0,0,0,0,0,0,0,0,0,0,0,0,0,0,0,0,0,0],"id":59,"left_children":[1,3,5,7,-1,9,11,13,-1,-1,15,17,19,-1,-1,-1,-1,-1,-1,-1,-1],"loss_changes":[1.3358602E-1,2.3108257E-1,3.8873747E-3,2.2486135E-1,0E0,1.9743233E-3,7.826213E-3,3.203726E-2,0E0,0E0,5.389224E-3,8.767749E-3,9.535819E-5,0E0,0E0,0E0,0E0,0E0,0E0,0E0,0E0],"parents":[2147483647,0,0,1,1,2,2,3,3,5,5,6,6,7,7,10,10,11,11,12,12],"right_children":[2,4,6,8,-1,10,12,14,-1,-1,16,18,20,-1,-1,-1,-1,-1,-1,-1,-1],"split_conditions":[-1.2508087E0,9.973467E-1,-1.0102156E0,2.6631963E0,-5.351751E-4,9.385854E-2,8.657546E-1,-6.434495E-3,-0E0,-0E0,9.9030334E-1,-3.5436386E-1,1.8867482E0,-0E0,1.7632473E-2,1.360947E-3,-0E0,-0E0,-8.578174E-4,-0E0,2.1835543E-4],"split_indices":[1,0,0,7,0,1,2,0,0,0,1,1,1,0,0,0,0,0,0,0,0],"split_type":[0,0,0,0,0,0,0,0,0,0,0,0,0,0,0,0,0,0,0,0,0],"sum_hessian":[1.95E2,1.1E1,1.84E2,8E0,3E0,2.6E1,1.58E2,6E0,2E0,1E1,1.6E1,1.12E2,4.6E1,2E0,4E0,9E0,7E0,4.2E1,7E1,4.2E1,4E0],"tree_param":{"num_deleted":"0","num_feature":"10","num_nodes":"21","size_leaf_vector":"1"}},{"base_weights":[2.7626122E-3,-0E0,9.654441E-3,1.8764988E-3,-2.859038E-3,5.401693E-2,-0E0,-1.0727617E-3,-0E0,4.6045664E-3,-0E0,7.1421186E-5,-1.8646718E-4,-0E0,1.4704854E-3],"categories":[],"categories_nodes":[],"categories_segments":[],"categories_sizes":[],"default_left":[0,0,0,0,0,0,0,0,0,0,0,0,0,0,0],"id":60,"left_children":[1,3,-1,5,7,9,11,-1,13,-1,-1,-1,-1,-1,-1],"loss_changes":[1.1038452E-1,1.0727036E-3,0E0,2.2972897E-2,1.21861845E-2,3.602306E-2,1.0683343E-3,0E0,1.7298617E-3,0E0,0E0,0E0,0E0,0E0,0E0],"parents":[2147483647,0,0,1,1,3,3,4,4,5,5,6,6,8,8],"right_children":[2,4,-1,6,8,10,12,-1,14,-1,-1,-1,-1,-1,-1],"split_conditions":[5.4958687E0,4.954561E-1,9.654441E-3,-1.2508087E0,-4.806797E-1,2.6631963E0,-1.0102156E0,-1.0727617E-3,1.3553171E0,4.6045664E-3,-0E0,7.1421186E-5,-1.8646718E-4,-0E0,1.4704854E-3],"split_indices":[6,0,0,1,2,6,0,0,8,0,0,0,0,0,0],"split_type":[0,0,0,0,0,0,0,0,0,0,0,0,0,0,0],"sum_hessian":[1.91E2,1.89E2,2E0,1.04E2,8.5E1,7E0,9.7E1,2.7E1,5.8E1,6E0,1E0,2.5E1,7.2E1,5.7E1,1E0],"tree_param":{"num_deleted":"0","num_feature":"10","num_nodes":"15","size_leaf_vector":"1"}},{"base_weights":[-0E0,1.2964955E-1,-1.9039147E-3,1.2698496E-2,-0E0,-1.9582182E-3,-0E0,5.047997E-2,-2.093744E-3,-0E0,6.7048254E-3,2.1810232E-5,-2.8815327E-4],"categories":[],"categories_nodes":[],"categories_segments":[],"categories_sizes":[],"default_left":[0,0,0,0,0,0,0,0,0,0,0,0,0],"id":61,"left_children":[1,3,5,-1,-1,-1,7,9,11,-1,-1,-1,-1],"loss_changes":[6.792838E-2,1.2626612E-1,8.510729E-3,0E0,0E0,0E0,1.3538983E-2,4.120448E-2,4.3554856E-3,0E0,0E0,0E0,0E0],"parents":[2147483647,0,0,1,1,2,2,6,6,7,7,8,8],"right_children":[2,4,6,-1,-1,-1,8,10,12,-1,-1,-1,-1],"split_conditions":[-1.6199702E0,9.973467E-1,-1.5163983E0,1.2698496E-2,-0E0,-1.9582182E-3,-1.2508087E0,-6.434495E-3,-1.0102156E0,-0E0,6.7048254E-3,2.1810232E-5,-2.8815327E-4],"split_indices":[2,0,2,0,0,0,1,0,0,0,0,0,0],"split_type":[0,0,0,0,0,0,0,0,0,0,0,0,0],"sum_hessian":[1.93E2,3E0,1.9E2,2E0,1E0,5E0,1.85E2,4E0,1.81E2,2E0,2E0,2.7E1,1.54E2],"tree_param":{"num_deleted":"0","num_feature":"10","num_nodes":"13","size_leaf_vector":"1"}},{"base_weights":[2.3301954E-4,9.3681835E-2,-3.99815E-3,1.5517652E-1,-0E0,-0E0,-1.0728633E-2,2.21619E-1,-0E0,5.7170895E-4,-1.2245256E-4,-0E0,-3.1100307E-3,-0E0,1.6253928E-2,-0E0,4.038366E-3],"categories":[],"categories_nodes":[],"categories_segments":[],"categories_sizes":[],"default_left":[0,0,0,0,0,0,0,0,0,0,0,0,0,0,0,0,0],"id":62,"left_children":[1,3,5,7,-1,9,11,13,-1,15,-1,-1,-1,-1,-1,-1,-1],"loss_changes":[1.16783395E-1,1.2670583E-1,3.0536798E-3,1.5212229E-1,0E0,4.3084804E-4,1.35894045E-2,1.354605E-1,0E0,2.6076442E-2,0E0,0E0,0E0,0E0,0E0,0E0,0E0],"parents":[2147483647,0,0,1,1,2,2,3,3,5,5,6,6,7,7,9,9],"right_children":[2,4,6,8,-1,10,12,14,-1,16,-1,-1,-1,-1,-1,-1,-1],"split_conditions":[-1.2508087E0,9.973467E-1,1.6124516E0,2.6631963E0,-0E0,-6.434495E-3,1.3553171E0,-6.434495E-3,-0E0,1.3553171E0,-1.2245256E-4,-0E0,-3.1100307E-3,-0E0,1.6253928E-2,-0E0,4.038366E-3],"split_indices":[1,0,5,7,0,0,8,0,0,8,0,0,0,0,0,0,0],"split_type":[0,0,0,0,0,0,0,0,0,0,0,0,0,0,0,0,0],"sum_hessian":[1.8E2,1.2E1,1.68E2,9E0,3E0,1.19E2,4.9E1,7E0,2E0,5.1E1,6.8E1,4.5E1,4E0,3E0,4E0,4.8E1,3E0],"tree_param":{"num_deleted":"0","num_feature":"10","num_nodes":"17","size_leaf_vector":"1"}},{"base_weights":[-0E0,6.957326E-2,-3.4185862E-3,1.0521934E-1,-0E0,-0E0,-2.3930611E-4,7.4190944E-3,-0E0,-0E0,7.5473817E-4,-0E0,4.4224114E-4],"categories":[],"categories_nodes":[],"categories_segments":[],"categories_sizes":[],"default_left":[0,0,0,0,0,0,0,0,0,0,0,0,0],"id":63,"left_children":[1,3,5,7,-1,9,-1,-1,-1,-1,11,-1,-1],"loss_changes":[6.9811314E-2,6.508718E-2,8.869136E-4,8.7318525E-2,0E0,2.2785189E-6,0E0,0E0,0E0,0E0,1.5418325E-4,0E0,0E0],"parents":[2147483647,0,0,1,1,2,2,3,3,5,5,10,10],"right_children":[2,4,6,8,-1,10,-1,-1,-1,-1,12,-1,-1],"split_conditions":[-1.2508087E0,1.5787772E0,-3.5436386E-1,2.6631963E0,-0E0,-5.842516E-1,-2.3930611E-4,7.4190944E-3,-0E0,-0E0,1.3553171E0,-0E0,4.4224114E-4],"split_indices":[1,3,1,7,0,2,0,0,0,0,8,0,0],"split_type":[0,0,0,0,0,0,0,0,0,0,0,0,0],"sum_hessian":[1.87E2,1.3E1,1.74E2,1.1E1,2E0,4.7E1,1.27E2,9E0,2E0,4.4E1,3E0,2E0,1E0],"tree_param":{"num_deleted":"0","num_feature":"10","num_nodes":"13","size_leaf_vector":"1"}},{"base_weights":[1.955783E-3,4.6208378E-2,-0E0,1.1683453E-1,-9.2054106E-4,1.8809761E-3,-2.511873E-3,-0E0,1.7028321E-1,-0E0,5.7843477E-3,-6.2024374E-3,5.0168773E-3,9.967591E-3,-0E0,-0E0,-3.1926227E-3,-0E0,1.52466E-3],"categories":[],"categories_nodes":[],"categories_segments":[],"categories_sizes":[],"default_left":[0,0,0,0,0,0,0,0,0,0,0,0,0,0,0,0,0,0,0],"id":64,"left_children":[1,3,5,7,-1,9,11,-1,13,-1,-1,15,17,-1,-1,-1,-1,-1,-1],"loss_changes":[3.1305272E-2,1.19819954E-1,1.0356442E-3,1.10814005E-1,0E0,4.0054888E-2,4.7639124E-3,0E0,1.7220646E-2,0E0,0E0,2.7038906E-2,1.7338252E-3,0E0,0E0,0E0,0E0,0E0,0E0],"parents":[2147483647,0,0,1,1,2,2,3,3,5,5,6,6,8,8,11,11,12,12],"right_children":[2,4,6,8,-1,10,12,-1,14,-1,-1,16,18,-1,-1,-1,-1,-1,-1],"split_conditions":[-1.2508087E0,9.973467E-1,-1.0102156E0,-1.0102156E0,-9.2054106E-4,1.3553171E0,1.8867482E0,-0E0,4.2804728E0,-0E0,5.7843477E-3,1.3553171E0,9.973467E-1,9.967591E-3,-0E0,-0E0,-3.1926227E-3,-0E0,1.52466E-3],"split_indices":[1,0,0,0,0,8,1,0,9,0,0,8,0,0,0,0,0,0,0],"split_type":[0,0,0,0,0,0,0,0,0,0,0,0,0,0,0,0,0,0,0],"sum_hessian":[1.88E2,1.4E1,1.74E2,1E1,4E0,2.6E1,1.48E2,2E0,8E0,2.4E1,2E0,1.44E2,4E0,6E0,2E0,1.37E2,7E0,3E0,1E0],"tree_param":{"num_deleted":"0","num_feature":"10","num_nodes":"19","size_leaf_vector":"1"}},{"base_weights":[3.260237E-3,-0E0,5.512411E-2,1.1153861E-2,-2.4641925E-4,-0E0,1.0594673E-1,1.6768415E-1,-0E0,1.0412701E-2,-0E0],"categories":[],"categories_nodes":[],"categories_segments":[],"categories_sizes":[],"default_left":[0,0,0,0,0,0,0,0,0,0,0],"id":65,"left_children":[1,3,5,-1,-1,-1,7,9,-1,-1,-1],"loss_changes":[4.0574957E-2,1.5341946E-1,9.2155166E-2,0E0,0E0,0E0,9.024729E-2,7.864438E-2,0E0,0E0,0E0],"parents":[2147483647,0,0,1,1,2,2,6,6,7,7],"right_children":[2,4,6,-1,-1,-1,8,10,-1,-1,-1],"split_conditions":[1.3553171E0,-1.6199702E0,-1.6199702E0,1.1153861E-2,-2.4641925E-4,-0E0,2.6631963E0,1.4992373E0,-0E0,1.0412701E-2,-0E0],"split_indices":[8,2,2,0,0,0,6,0,0,0,0],"split_type":[0,0,0,0,0,0,0,0,0,0,0],"sum_hessian":[1.84E2,1.71E2,1.3E1,2E0,1.69E2,2E0,1.1E1,7E0,4E0,6E0,1E0],"tree_param":{"num_deleted":"0","num_feature":"10","num_nodes":"11","size_leaf_vector":"1"}},{"base_weights":[1.1679188E-3,-0E0,7.868111E-3,-0E0,-7.268397E-4,-1.1085114E-3,4.2856194E-2,-1.8824247E-4,-0E0,4.6404325E-3,-0E0],"categories":[],"categories_nodes":[],"categories_segments":[],"categories_sizes":[],"default_left":[0,0,0,0,0,0,0,0,0,0,0],"id":66,"left_children":[1,3,-1,5,-1,7,9,-1,-1,-1,-1],"loss_changes":[7.402944E-2,1.0565917E-3,0E0,2.2252422E-2,0E0,8.079526E-4,5.548116E-2,0E0,0E0,0E0,0E0],"parents":[2147483647,0,0,1,1,3,3,5,5,6,6],"right_children":[2,4,-1,6,-1,8,10,-1,-1,-1,-1],"split_conditions":[5.4958687E0,1.9805174E0,7.868111E-3,1.3553171E0,-7.268397E-4,-6.434495E-3,2.6631963E0,-1.8824247E-4,-0E0,4.6404325E-3,-0E0],"split_indices":[6,9,0,8,0,0,6,0,0,0,0],"split_type":[0,0,0,0,0,0,0,0,0,0,0],"sum_hessian":[1.89E2,1.87E2,2E0,1.83E2,4E0,1.72E2,1.1E1,7.1E1,1.01E2,8E0,3E0],"tree_param":{"num_deleted":"0","num_feature":"10","num_nodes":"11","size_leaf_vector":"1"}},{"base_weights":[-0E0,2.5384799E-2,-2.6110061E-3,1.0650929E-2,-2.021956E-4,-0E0,-7.129106E-3,-1.6506301E-4,6.404511E-3,-1.3929923E-2,-0E0,-0E0,-2.5099262E-3,-0E0,1.110217E-3],"categories":[],"categories_nodes":[],"categories_segments":[],"categories_sizes":[],"default_left":[0,0,0,0,0,0,0,0,0,0,0,0,0,0,0],"id":67,"left_children":[1,3,5,-1,-1,7,9,-1,-1,11,13,-1,-1,-1,-1],"loss_changes":[4.503602E-3,1.3295785E-1,5.6304233E-3,0E0,0E0,8.256954E-2,1.2298148E-2,0E0,0E0,3.874727E-2,9.860654E-4,0E0,0E0,0E0,0E0],"parents":[2147483647,0,0,1,1,2,2,5,5,6,6,9,9,10,10],"right_children":[2,4,6,-1,-1,8,10,-1,-1,12,14,-1,-1,-1,-1],"split_conditions":[-1.6199702E0,9.973467E-1,-5.083251E-1,1.0650929E-2,-2.021956E-4,1.3553171E0,8.657546E-1,-1.6506301E-4,6.404511E-3,8.305395E-1,1.3553171E0,-0E0,-2.5099262E-3,-0E0,1.110217E-3],"split_indices":[2,0,0,0,0,8,2,0,0,9,8,0,0,0,0],"split_type":[0,0,0,0,0,0,0,0,0,0,0,0,0,0,0],"sum_hessian":[1.91E2,4E0,1.87E2,2E0,2E0,5.2E1,1.35E2,4.8E1,4E0,9.8E1,3.7E1,7.6E1,2.2E1,3.6E1,1E0],"tree_param":{"num_deleted":"0","num_feature":"10","num_nodes":"15","size_leaf_vector":"1"}},{"base_weights":[-0E0,5.400771E-3,-9.670028E-3,1.02959005E-2,-0E0,-2.8434875E-3,-0E0,-2.6621643E-4,6.0597625E-2,4.611769E-3,-0E0],"categories":[],"categories_nodes":[],"categories_segments":[],"categories_sizes":[],"default_left":[0,0,0,0,0,0,0,0,0,0,0],"id":68,"left_children":[1,3,5,-1,7,-1,-1,-1,9,-1,-1],"loss_changes":[9.07474E-3,1.2318144E-1,1.758967E-2,0E0,5.125215E-2,0E0,0E0,0E0,5.4351453E-2,0E0,0E0],"parents":[2147483647,0,0,1,1,2,2,4,4,8,8],"right_children":[2,4,6,-1,8,-1,-1,-1,10,-1,-1],"split_conditions":[9.973467E-1,-1.6199702E0,-1.4128265E0,1.02959005E-2,1.3553171E0,-2.8434875E-3,-0E0,-2.6621643E-4,2.6631963E0,4.611769E-3,-0E0],"split_indices":[0,2,2,0,8,0,0,0,7,0,0],"split_type":[0,0,0,0,0,0,0,0,0,0,0],"sum_hessian":[1.9E2,1.37E2,5.3E1,2E0,1.35E2,6E0,4.7E1,1.23E2,1.2E1,1.1E1,1E0],"tree_param":{"num_deleted":"0","num_feature":"10","num_nodes":"11","size_leaf_vector":"1"}},{"base_weights":[2.4480536E-3,8.3776906E-2,-0E0,9.952704E-3,-0E0,-1.7449252E-4,4.9692225E-2,1.21392034E-1,-0E0,9.358821E-3,-0E0,-1.8577498E-3,-0E0],"categories":[],"categories_nodes":[],"categories_segments":[],"categories_sizes":[],"default_left":[0,0,0,0,0,0,0,0,0,0,0,0,0],"id":69,"left_children":[1,3,5,-1,-1,-1,7,9,11,-1,-1,-1,-1],"loss_changes":[2.6977567E-2,9.0793304E-2,3.660434E-2,0E0,0E0,0E0,9.80538E-2,1.1262083E-1,5.521975E-3,0E0,0E0,0E0,0E0],"parents":[2147483647,0,0,1,1,2,2,6,6,7,7,8,8],"right_children":[2,4,6,-1,-1,-1,8,10,12,-1,-1,-1,-1],"split_conditions":[-1.6199702E0,9.973467E-1,1.3553171E0,9.952704E-3,-0E0,-1.7449252E-4,4.2804728E0,2.6631963E0,5.4958687E0,9.358821E-3,-0E0,-1.8577498E-3,-0E0],"split_indices":[2,0,8,0,0,0,9,6,6,0,0,0,0],"split_type":[0,0,0,0,0,0,0,0,0,0,0,0,0],"sum_hessian":[1.82E2,3E0,1.79E2,2E0,1E0,1.66E2,1.3E1,8E0,5E0,6E0,2E0,3E0,2E0],"tree_param":{"num_deleted":"0","num_feature":"10","num_nodes":"13","size_leaf_vector":"1"}},{"base_weights":[-0E0,-2.703379E-3,4.032366E-2,-5.5268398E-3,-0E0,7.0558214E-3,-0E0,-3.3912194E-4,-3.5595346E-2,-0E0,8.4849E-4,2.3225844E-3,-1.9564359E-4,-0E0,-3.6540895E-3],"categories":[],"categories_nodes":[],"categories_segments":[],"categories_sizes":[],"default_left":[0,0,0,0,0,0,0,0,0,0,0,0,0,0,0],"id":70,"left_children":[1,3,5,7,9,-1,-1,11,13,-1,-1,-1,-1,-1,-1],"loss_changes":[7.848709E-3,4.0924614E-3,5.3237543E-2,9.786369E-3,5.759482E-4,0E0,0E0,6.837867E-3,3.8205143E-2,0E0,0E0,0E0,0E0,0E0,0E0],"parents":[2147483647,0,0,1,1,2,2,3,3,4,4,7,7,8,8],"right_children":[2,4,6,8,10,-1,-1,12,14,-1,-1,-1,-1,-1,-1],"split_conditions":[5.4958687E0,1.6943295E0,9.973467E-1,1.3553171E0,9.973467E-1,7.0558214E-3,-0E0,-1.6199702E0,-5.083251E-1,-0E0,8.4849E-4,2.3225844E-3,-1.9564359E-4,-0E0,-3.6540895E-3],"split_indices":[6,2,0,8,0,0,0,2,0,0,0,0,0,0,0],"split_type":[0,0,0,0,0,0,0,0,0,0,0,0,0,0,0],"sum_hessian":[1.86E2,1.83E2,3E0,1.77E2,6E0,2E0,1E0,1.66E2,1.1E1,5E0,1E0,1E0,1.65E2,2E0,9E0],"tree_param":{"num_deleted":"0","num_feature":"10","num_nodes":"15","size_leaf_vector":"1"}},{"base_weights":[-0E0,7.6455906E-2,-2.4302565E-3,9.464637E-3,-0E0,-5.355502E-3,1.0244369E-3,-0E0,-2.5512654E-2,4.9508037E-3,-0E0,-6.019043E-5,-0E0,-2.4963415E-3,1.1752718E-4],"categories":[],"categories_nodes":[],"categories_segments":[],"categories_sizes":[],"default_left":[0,0,0,0,0,0,0,0,0,0,0,0,0,0,0],"id":71,"left_children":[1,3,5,-1,-1,7,9,11,13,-1,-1,-1,-1,-1,-1],"loss_changes":[2.444513E-2,8.411322E-2,3.990068E-3,0E0,0E0,1.2526253E-2,2.94073E-2,2.1592413E-4,4.227243E-2,0E0,0E0,0E0,0E0,0E0,0E0],"parents":[2147483647,0,0,1,1,2,2,5,5,6,6,7,7,8,8],"right_children":[2,4,6,-1,-1,8,10,12,14,-1,-1,-1,-1,-1,-1],"split_conditions":[-1.6199702E0,1.3553171E0,2.9410384E0,9.464637E-3,-0E0,8.305395E-1,-1.2508087E0,1.3553171E0,9.9030334E-1,4.9508037E-3,-0E0,-6.019043E-5,-0E0,-2.4963415E-3,1.1752718E-4],"split_indices":[2,8,8,0,0,9,1,8,1,0,0,0,0,0,0],"split_type":[0,0,0,0,0,0,0,0,0,0,0,0,0,0,0],"sum_hessian":[1.82E2,3E0,1.79E2,2E0,1E0,1.75E2,4E0,1.49E2,2.6E1,2E0,2E0,1.48E2,1E0,2.3E1,3E0],"tree_param":{"num_deleted":"0","num_feature":"10","num_nodes":"15","size_leaf_vector":"1"}},{"base_weights":[-0E0,7.1723536E-2,-1.3241568E-3,9.149146E-3,-0E0,-4.1138586E-3,7.271888E-3,-0E0,-1.7979966E-2,-0E0,8.2433823E-4,-5.052129E-5,-0E0,-1.3913842E-3,-0E0],"categories":[],"categories_nodes":[],"categories_segments":[],"categories_sizes":[],"default_left":[0,0,0,0,0,0,0,0,0,0,0,0,0,0,0],"id":72,"left_children":[1,3,5,-1,-1,7,9,11,13,-1,-1,-1,-1,-1,-1],"loss_changes":[2.0910205E-2,7.987119E-2,3.0071775E-3,0E0,0E0,6.516695E-3,3.849857E-4,1.6131169E-4,1.19842645E-2,0E0,0E0,0E0,0E0,0E0,0E0],"parents":[2147483647,0,0,1,1,2,2,5,5,6,6,7,7,8,8],"right_children":[2,4,6,-1,-1,8,10,12,14,-1,-1,-1,-1,-1,-1],"split_conditions":[-1.6199702E0,1.3553171E0,1.8867482E0,9.149146E-3,-0E0,8.305395E-1,1.3553171E0,1.3553171E0,5.4958687E0,-0E0,8.2433823E-4,-5.052129E-5,-0E0,-1.3913842E-3,-0E0],"split_indices":[2,8,1,0,0,9,8,8,6,0,0,0,0,0,0],"split_type":[0,0,0,0,0,0,0,0,0,0,0,0,0,0,0],"sum_hessian":[1.92E2,3E0,1.89E2,2E0,1E0,1.87E2,2E0,1.58E2,2.9E1,1E0,1E0,1.57E2,1E0,2.7E1,2E0],"tree_param":{"num_deleted":"0","num_feature":"10","num_nodes":"15","size_leaf_vector":"1"}},{"base_weights":[-0E0,7.257974E-2,-0E0,8.844177E-3,-0E0,-0E0,-1.1692875E-3,2.2746134E-3,-0E0,5.413172E-4,-0E0,-2.591343E-4,-0E0],"categories":[],"categories_nodes":[],"categories_segments":[],"categories_sizes":[],"default_left":[0,0,0,0,0,0,0,0,0,0,0,0,0],"id":73,"left_children":[1,3,5,-1,-1,7,-1,9,11,-1,-1,-1,-1],"loss_changes":[2.1071278E-2,7.279208E-2,3.8282522E-3,0E0,0E0,2.7421492E-4,0E0,3.7109158E-3,1.9070765E-3,0E0,0E0,0E0,0E0],"parents":[2147483647,0,0,1,1,2,2,5,5,7,7,8,8],"right_children":[2,4,6,-1,-1,8,-1,10,12,-1,-1,-1,-1],"split_conditions":[-1.6199702E0,9.973467E-1,4.2804728E0,8.844177E-3,-0E0,-3.5436386E-1,-1.1692875E-3,4.954561E-1,4.954561E-1,5.413172E-4,-0E0,-2.591343E-4,-0E0],"split_indices":[2,0,9,0,0,1,0,0,0,0,0,0,0],"split_type":[0,0,0,0,0,0,0,0,0,0,0,0,0],"sum_hessian":[1.87E2,3E0,1.84E2,2E0,1E0,1.78E2,6E0,5.2E1,1.26E2,3.3E1,1.9E1,7E1,5.6E1],"tree_param":{"num_deleted":"0","num_feature":"10","num_nodes":"13","size_leaf_vector":"1"}},{"base_weights":[-0E0,6.272693E-2,-3.9943866E-3,8.549373E-3,-0E0,-8.007199E-3,-0E0,-0E0,-2.6900992E-2,-0E0,8.037299E-4,-0E0,-1.9322828E-3],"categories":[],"categories_nodes":[],"categories_segments":[],"categories_sizes":[],"default_left":[0,0,0,0,0,0,0,0,0,0,0,0,0],"id":74,"left_children":[1,3,5,-1,-1,7,9,-1,11,-1,-1,-1,-1],"loss_changes":[1.8642504E-2,7.197145E-2,5.7517225E-3,0E0,0E0,1.2330683E-2,5.1678537E-4,0E0,1.7844414E-2,0E0,0E0,0E0,0E0],"parents":[2147483647,0,0,1,1,2,2,5,5,6,6,8,8],"right_children":[2,4,6,-1,-1,8,10,-1,12,-1,-1,-1,-1],"split_conditions":[-1.6199702E0,9.973467E-1,9.6932644E-1,8.549373E-3,-0E0,8.305395E-1,1.3553171E0,-0E0,-1.0102156E0,-0E0,8.037299E-4,-0E0,-1.9322828E-3],"split_indices":[2,0,2,0,0,9,8,0,0,0,0,0,0],"split_type":[0,0,0,0,0,0,0,0,0,0,0,0,0],"sum_hessian":[1.84E2,3E0,1.81E2,2E0,1E0,1.34E2,4.7E1,1.06E2,2.8E1,4.6E1,1E0,3E0,2.5E1],"tree_param":{"num_deleted":"0","num_feature":"10","num_nodes":"13","size_leaf_vector":"1"}},{"base_weights":[-0E0,-1.0686984E-3,1.4507596E-3,-0E0,-7.611949E-3,-0E0,7.8363717E-4,8.264391E-3,-2.00078E-3,-2.5134755E-3,-0E0,-4.0424973E-4,4.883844E-3],"categories":[],"categories_nodes":[],"categories_segments":[],"categories_sizes":[],"default_left":[0,0,0,0,0,0,0,0,0,0,0,0,0],"id":75,"left_children":[1,3,5,7,9,-1,-1,-1,11,-1,-1,-1,-1],"loss_changes":[2.2866773E-4,3.0845366E-3,4.8074624E-4,8.24926E-2,1.4386484E-2,0E0,0E0,0E0,3.6652997E-2,0E0,0E0,0E0,0E0],"parents":[2147483647,0,0,1,1,2,2,3,3,4,4,8,8],"right_children":[2,4,6,8,10,-1,-1,-1,12,-1,-1,-1,-1],"split_conditions":[1.6943295E0,9.973467E-1,9.973467E-1,-1.6199702E0,-1.4128265E0,-0E0,7.8363717E-4,8.264391E-3,2.9410384E0,-2.5134755E-3,-0E0,-4.0424973E-4,4.883844E-3],"split_indices":[2,0,0,2,2,0,0,0,8,0,0,0,0],"split_type":[0,0,0,0,0,0,0,0,0,0,0,0,0],"sum_hessian":[1.94E2,1.9E2,4E0,1.34E2,5.6E1,3E0,1E0,2E0,1.32E2,6E0,5E1,1.3E2,2E0],"tree_param":{"num_deleted":"0","num_feature":"10","num_nodes":"13","size_leaf_vector":"1"}},{"base_weights":[1.4117351E-5,6.0379166E-2,-0E0,7.988914E-3,-0E0,-1.8304886E-3,2.5416184E-2,-1.0361868E-2,-0E0,4.7210474E-3,-0E0,-0E0,-2.9332764E-3,-0E0,3.5787907E-3],"categories":[],"categories_nodes":[],"categories_segments":[],"categories_sizes":[],"default_left":[0,0,0,0,0,0,0,0,0,0,0,0,0,0,0],"id":76,"left_children":[1,3,5,-1,-1,7,9,11,13,-1,-1,-1,-1,-1,-1],"loss_changes":[1.4582536E-2,6.2004723E-2,3.2071576E-3,0E0,0E0,8.073604E-3,2.4162017E-2,1.883632E-2,2.0492386E-2,0E0,0E0,0E0,0E0,0E0,0E0],"parents":[2147483647,0,0,1,1,2,2,5,5,6,6,7,7,8,8],"right_children":[2,4,6,-1,-1,8,10,12,14,-1,-1,-1,-1,-1,-1],"split_conditions":[-1.6199702E0,9.973467E-1,2.9410384E0,7.988914E-3,-0E0,3.7179645E-2,9.973467E-1,1.3553171E0,1.3553171E0,4.7210474E-3,-0E0,-0E0,-2.9332764E-3,-0E0,3.5787907E-3],"split_indices":[2,0,8,0,0,2,0,8,8,0,0,0,0,0,0],"split_type":[0,0,0,0,0,0,0,0,0,0,0,0,0,0,0],"sum_hessian":[1.91E2,3E0,1.88E2,2E0,1E0,1.85E2,3E0,8E1,1.05E2,2E0,1E0,7.3E1,7E0,1.02E2,3E0],"tree_param":{"num_deleted":"0","num_feature":"10","num_nodes":"15","size_leaf_vector":"1"}},{"base_weights":[-0E0,1.6847398E-2,-1.3887619E-3,7.365565E-2,-5.750117E-4,-4.2195404E-3,1.3434668E-3,1.6796553E-1,-4.1890127E-4,-0E0,-1.7350417E-3,-0E0,6.745771E-4,1.1051609E-2,-0E0],"categories":[],"categories_nodes":[],"categories_segments":[],"categories_sizes":[],"default_left":[0,0,0,0,0,0,0,0,0,0,0,0,0,0,0],"id":77,"left_children":[1,3,5,7,-1,9,11,13,-1,-1,-1,-1,-1,-1,-1],"loss_changes":[4.6104672E-3,5.6080457E-2,2.8590888E-3,1.6630341E-1,0E0,7.6325173E-3,3.5682376E-4,1.16287276E-1,0E0,0E0,0E0,0E0,0E0,0E0,0E0],"parents":[2147483647,0,0,1,1,2,2,3,3,5,5,6,6,7,7],"right_children":[2,4,6,8,-1,10,12,14,-1,-1,-1,-1,-1,-1,-1],"split_conditions":[-1.2508087E0,1.5787772E0,1.8867482E0,2.6631963E0,-5.750117E-4,1.3553171E0,1.5787772E0,7.7304063E0,-4.1890127E-4,-0E0,-1.7350417E-3,-0E0,6.745771E-4,1.1051609E-2,-0E0],"split_indices":[1,3,1,7,0,8,3,9,0,0,0,0,0,0,0],"split_type":[0,0,0,0,0,0,0,0,0,0,0,0,0,0,0],"sum_hessian":[1.96E2,1.4E1,1.82E2,1E1,4E0,1.79E2,3E0,7E0,3E0,1.71E2,8E0,2E0,1E0,6E0,1E0],"tree_param":{"num_deleted":"0","num_feature":"10","num_nodes":"15","size_leaf_vector":"1"}},{"base_weights":[1.6940214E-3,4.896056E-3,-3.5851353E-4,3.207481E-2,-0E0,1.0042485E-1,-5.5201136E-4,-0E0,1.0560677E-2,-0E0,1.1929711E-2,4.6093753E-3,-0E0],"categories":[],"categories_nodes":[],"categories_segments":[],"categories_sizes":[],"default_left":[0,0,0,0,0,0,0,0,0,0,0,0,0],"id":78,"left_children":[1,3,-1,5,7,9,-1,-1,11,-1,-1,-1,-1],"loss_changes":[4.0354608E-3,1.0208121E-2,0E0,8.705782E-2,2.230558E-3,1.8378451E-1,0E0,0E0,2.326505E-2,0E0,0E0,0E0,0E0],"parents":[2147483647,0,0,1,1,3,3,4,4,5,5,8,8],"right_children":[2,4,-1,6,8,10,-1,-1,12,-1,-1,-1,-1],"split_conditions":[2.6631963E0,-1.2508087E0,-3.5851353E-4,9.973467E-1,8.305395E-1,-6.434495E-3,-5.5201136E-4,-0E0,-1.0102156E0,-0E0,1.1929711E-2,4.6093753E-3,-0E0],"split_indices":[7,1,0,0,9,0,0,0,0,0,0,0,0],"split_type":[0,0,0,0,0,0,0,0,0,0,0,0,0],"sum_hessian":[1.8E2,1.74E2,6E0,1.3E1,1.61E2,9E0,4E0,1.42E2,1.9E1,5E0,4E0,2E0,1.7E1],"tree_param":{"num_deleted":"0","num_feature":"10","num_nodes":"13","size_leaf_vector":"1"}},{"base_weights":[-0E0,-2.5874435E-3,1.3655744E-3,-1.1638537E-3,-0E0,8.6215865E-3,-0E0,1.7016103E-3,-1.2589211E-3,9.428643E-2,-0E0,-2.4990307E-3,-0E0,-0E0,4.4557303E-3,-0E0,-3.6109536E-4,5.6493985E-3,-0E0,-0E0,6.5771345E-4],"categories":[],"categories_nodes":[],"categories_segments":[],"categories_sizes":[],"default_left":[0,0,0,0,0,0,0,0,0,0,0,0,0,0,0,0,0,0,0,0,0],"id":79,"left_children":[1,3,5,-1,7,9,11,13,15,17,-1,-1,19,-1,-1,-1,-1,-1,-1,-1,-1],"loss_changes":[7.49276E-4,3.7922934E-3,4.029918E-3,0E0,1.5032045E-4,5.7992604E-2,1.4988369E-2,2.3754748E-2,1.2779476E-4,1.6018897E-3,0E0,0E0,3.4606954E-4,0E0,0E0,0E0,0E0,0E0,0E0,0E0,0E0],"parents":[2147483647,0,0,1,1,2,2,4,4,5,5,6,6,7,7,8,8,9,9,12,12],"right_children":[2,4,6,-1,8,10,12,14,16,18,-1,-1,20,-1,-1,-1,-1,-1,-1,-1,-1],"split_conditions":[-6.434495E-3,-1.3092546E0,9.973467E-1,-1.1638537E-3,-1.0102156E0,-1.2508087E0,-1.4128265E0,1.3553171E0,8.305395E-1,4.2804728E0,-0E0,-2.4990307E-3,1.8867482E0,-0E0,4.4557303E-3,-0E0,-3.6109536E-4,5.6493985E-3,-0E0,-0E0,6.5771345E-4],"split_indices":[0,2,0,0,0,1,2,8,9,9,0,0,1,0,0,0,0,0,0,0,0],"split_type":[0,0,0,0,0,0,0,0,0,0,0,0,0,0,0,0,0,0,0,0,0],"sum_hessian":[1.9E2,8E1,1.1E2,7E0,7.3E1,5.6E1,5.4E1,2.3E1,5E1,6E0,5E1,5E0,4.9E1,2.1E1,2E0,4.7E1,3E0,4E0,2E0,4.8E1,1E0],"tree_param":{"num_deleted":"0","num_feature":"10","num_nodes":"21","size_leaf_vector":"1"}},{"base_weights":[-2.1587156E-3,-0E0,-3.861604E-2,-1.403549E-3,1.208329E-4,-2.7561309E-3,-0E0,-0E0,-6.3582254E-3,1.10215675E-2,-0E0,-0E0,2.0731687E-4,-0E0,-7.178477E-4,5.573221E-3,-0E0,-4.0659052E-4,-0E0],"categories":[],"categories_nodes":[],"categories_segments":[],"categories_sizes":[],"default_left":[0,0,0,0,0,0,0,0,0,0,0,0,0,0,0,0,0,0,0],"id":80,"left_children":[1,3,5,7,9,-1,-1,11,13,15,17,-1,-1,-1,-1,-1,-1,-1,-1],"loss_changes":[1.1053499E-2,1.5517455E-4,3.262926E-3,2.0294033E-3,3.2783048E-3,0E0,0E0,3.438423E-5,5.237337E-3,3.399313E-2,1.7854112E-3,0E0,0E0,0E0,0E0,0E0,0E0,0E0,0E0],"parents":[2147483647,0,0,1,1,2,2,3,3,4,4,7,7,8,8,9,9,10,10],"right_children":[2,4,6,8,10,-1,-1,12,14,16,18,-1,-1,-1,-1,-1,-1,-1,-1],"split_conditions":[4.2804728E0,-6.434495E-3,-1.4128265E0,-4.806797E-1,4.954561E-1,-2.7561309E-3,-0E0,1.3553171E0,-1.0102156E0,-1.4128265E0,-4.806797E-1,-0E0,2.0731687E-4,-0E0,-7.178477E-4,5.573221E-3,-0E0,-4.0659052E-4,-0E0],"split_indices":[9,0,2,2,0,0,0,8,0,2,2,0,0,0,0,0,0,0,0],"split_type":[0,0,0,0,0,0,0,0,0,0,0,0,0,0,0,0,0,0,0],"sum_hessian":[1.87E2,1.8E2,7E0,7.7E1,1.03E2,4E0,3E0,2.4E1,5.3E1,2.6E1,7.7E1,2.3E1,1E0,1.8E1,3.5E1,2E0,2.4E1,2.6E1,5.1E1],"tree_param":{"num_deleted":"0","num_feature":"10","num_nodes":"19","size_leaf_vector":"1"}},{"base_weights":[-0E0,-0E0,-6.7777047E-3,6.682146E-3,-0E0,-2.338804E-3,-0E0,-5.3306087E-3,3.6565226E-3,-0E0,-6.811827E-4],"categories":[],"categories_nodes":[],"categories_segments":[],"categories_sizes":[],"default_left":[0,0,0,0,0,0,0,0,0,0,0],"id":81,"left_children":[1,3,5,-1,7,-1,-1,9,-1,-1,-1],"loss_changes":[2.342801E-3,5.3581282E-2,1.0785207E-2,0E0,1.9851848E-2,0E0,0E0,1.0855051E-2,0E0,0E0,0E0],"parents":[2147483647,0,0,1,1,2,2,4,4,7,7],"right_children":[2,4,6,-1,8,-1,-1,10,-1,-1,-1],"split_conditions":[9.973467E-1,-1.6199702E0,-1.4128265E0,6.682146E-3,2.9410384E0,-2.338804E-3,-0E0,-5.083251E-1,3.6565226E-3,-0E0,-6.811827E-4],"split_indices":[0,2,2,0,8,0,0,0,0,0,0],"split_type":[0,0,0,0,0,0,0,0,0,0,0],"sum_hessian":[1.87E2,1.37E2,5E1,2E0,1.35E2,5E0,4.5E1,1.33E2,2E0,5.5E1,7.8E1],"tree_param":{"num_deleted":"0","num_feature":"10","num_nodes":"11","size_leaf_vector":"1"}},{"base_weights":[-0E0,3.9029423E-2,-1.7204009E-3,6.459407E-3,-0E0,-0E0,-1.5239229E-3,-1.1504423E-4,2.557259E-2,8.459679E-3,-0E0],"categories":[],"categories_nodes":[],"categories_segments":[],"categories_sizes":[],"default_left":[0,0,0,0,0,0,0,0,0,0,0],"id":82,"left_children":[1,3,5,-1,-1,7,-1,-1,9,-1,-1],"loss_changes":[6.6289036E-3,4.397554E-2,5.0378977E-3,0E0,0E0,7.423683E-3,0E0,0E0,1.07966274E-1,0E0,0E0],"parents":[2147483647,0,0,1,1,2,2,5,5,8,8],"right_children":[2,4,6,-1,-1,8,-1,-1,10,-1,-1],"split_conditions":[-1.6199702E0,9.973467E-1,2.6631963E0,6.459407E-3,-0E0,1.3553171E0,-1.5239229E-3,-1.1504423E-4,-5.083251E-1,8.459679E-3,-0E0],"split_indices":[2,0,6,0,0,8,0,0,0,0,0],"split_type":[0,0,0,0,0,0,0,0,0,0,0],"sum_hessian":[1.83E2,3E0,1.8E2,2E0,1E0,1.75E2,5E0,1.66E2,9E0,3E0,6E0],"tree_param":{"num_deleted":"0","num_feature":"10","num_nodes":"11","size_leaf_vector":"1"}},{"base_weights":[5.327695E-4,3.4588824E-3,-3.034745E-4,4.3711975E-2,-0E0,1.22226775E-1,-3.1785303E-4,-0E0,9.719708E-3],"categories":[],"categories_nodes":[],"categories_segments":[],"categories_sizes":[],"default_left":[0,0,0,0,0,0,0,0,0],"id":83,"left_children":[1,3,-1,5,-1,7,-1,-1,-1],"loss_changes":[2.5601622E-3,2.2554478E-2,0E0,1.0981694E-1,0E0,1.3006914E-1,0E0,0E0,0E0],"parents":[2147483647,0,0,1,1,3,3,5,5],"right_children":[2,4,-1,6,-1,8,-1,-1,-1],"split_conditions":[2.6631963E0,-1.2508087E0,-3.034745E-4,9.973467E-1,-0E0,-1.0102156E0,-3.1785303E-4,-0E0,9.719708E-3],"split_indices":[7,1,0,0,0,0,0,0,0],"split_type":[0,0,0,0,0,0,0,0,0],"sum_hessian":[1.98E2,1.9E2,8E0,1.2E1,1.78E2,8E0,4E0,2E0,6E0],"tree_param":{"num_deleted":"0","num_feature":"10","num_nodes":"9","size_leaf_vector":"1"}},{"base_weights":[-1.2876913E-3,-6.836752E-3,-0E0,-1.3271241E-3,-0E0,2.244809E-3,-0E0,-0E0,-5.1604877E-3,5.7650577E-2,-0E0,-0E0,2.191633E-4,-0E0,-1.243146E-3,1.0493691E-2,-3.0513896E-4,-3.4905417E-4,-0E0],"categories":[],"categories_nodes":[],"categories_segments":[],"categories_sizes":[],"default_left":[0,0,0,0,0,0,0,0,0,0,0,0,0,0,0,0,0,0,0],"id":84,"left_children":[1,3,5,-1,7,9,-1,11,13,15,17,-1,-1,-1,-1,-1,-1,-1,-1],"loss_changes":[3.1437988E-3,7.681723E-4,5.6942593E-4,0E0,1.2516397E-3,2.9342877E-2,0E0,3.8426042E-5,2.4573486E-3,1.9050902E-1,1.5595367E-3,0E0,0E0,0E0,0E0,0E0,0E0,0E0,0E0],"parents":[2147483647,0,0,1,1,2,2,4,4,5,5,7,7,8,8,9,9,10,10],"right_children":[2,4,6,-1,8,10,-1,12,14,16,18,-1,-1,-1,-1,-1,-1,-1,-1],"split_conditions":[-6.434495E-3,-1.2508087E0,2.6631963E0,-1.3271241E-3,-3.5436386E-1,-1.2508087E0,-0E0,1.3553171E0,8.305395E-1,9.973467E-1,-4.806797E-1,-0E0,2.191633E-4,-0E0,-1.243146E-3,1.0493691E-2,-3.0513896E-4,-3.4905417E-4,-0E0],"split_indices":[0,1,7,0,1,1,0,8,9,0,2,0,0,0,0,0,0,0,0],"split_type":[0,0,0,0,0,0,0,0,0,0,0,0,0,0,0,0,0,0,0],"sum_hessian":[1.89E2,7.3E1,1.16E2,5E0,6.8E1,1.12E2,4E0,2.2E1,4.6E1,8E0,1.04E2,2.1E1,1E0,4.1E1,5E0,4E0,4E0,3.1E1,7.3E1],"tree_param":{"num_deleted":"0","num_feature":"10","num_nodes":"19","size_leaf_vector":"1"}},{"base_weights":[7.1654026E-3,-0E0,6.45706E-2,5.5703125E-3,-2.1466605E-5,1.7646898E-1,-6.886407E-3,1.410677E-2,-0E0,-5.6841323E-4,-0E0],"categories":[],"categories_nodes":[],"categories_segments":[],"categories_sizes":[],"default_left":[0,0,0,0,0,0,0,0,0,0,0],"id":85,"left_children":[1,3,5,-1,-1,7,9,-1,-1,-1,-1],"loss_changes":[5.741671E-2,3.7264287E-2,2.139413E-1,0E0,0E0,2.76931E-1,2.6680637E-4,0E0,0E0,0E0,0E0],"parents":[2147483647,0,0,1,1,2,2,5,5,6,6],"right_children":[2,4,6,-1,-1,8,10,-1,-1,-1,-1],"split_conditions":[1.3553171E0,-1.6199702E0,2.6631963E0,5.5703125E-3,-2.1466605E-5,4.2804728E0,1.9805174E0,1.410677E-2,-0E0,-5.6841323E-4,-0E0],"split_indices":[8,2,6,0,0,9,9,0,0,0,0],"split_type":[0,0,0,0,0,0,0,0,0,0,0],"sum_hessian":[1.8E2,1.65E2,1.5E1,2E0,1.63E2,8E0,7E0,6E0,2E0,4E0,3E0],"tree_param":{"num_deleted":"0","num_feature":"10","num_nodes":"11","size_leaf_vector":"1"}},{"base_weights":[-0E0,-0E0,-2.3448851E-3,-0E0,3.153254E-3,-0E0,-5.8129665E-2,5.384632E-3,-0E0,-1.0991818E-1,2.8859972E-4,-1.0007199E-2,-0E0],"categories":[],"categories_nodes":[],"categories_segments":[],"categories_sizes":[],"default_left":[0,0,0,0,0,0,0,0,0,0,0,0,0],"id":86,"left_children":[1,3,5,-1,-1,7,9,-1,-1,11,-1,-1,-1],"loss_changes":[7.862835E-4,2.3863224E-2,3.976241E-2,0E0,0E0,3.4793112E-2,9.242E-2,0E0,0E0,1.074436E-1,0E0,0E0,0E0],"parents":[2147483647,0,0,1,1,2,2,5,5,6,6,9,9],"right_children":[2,4,6,-1,-1,8,10,-1,-1,12,-1,-1,-1],"split_conditions":[-5.083251E-1,1.3553171E0,1.3553171E0,-0E0,3.153254E-3,-1.6199702E0,8.657546E-1,5.384632E-3,-0E0,2.9410384E0,2.8859972E-4,-1.0007199E-2,-0E0],"split_indices":[0,8,8,0,0,2,2,0,0,8,0,0,0],"split_type":[0,0,0,0,0,0,0,0,0,0,0,0,0],"sum_hessian":[1.96E2,5.4E1,1.42E2,4.9E1,5E0,1.31E2,1.1E1,2E0,1.29E2,1E1,1E0,5E0,5E0],"tree_param":{"num_deleted":"0","num_feature":"10","num_nodes":"13","size_leaf_vector":"1"}},{"base_weights":[-0E0,1.50825605E-2,-0E0,5.205143E-3,-0E0,-2.9335076E-3,1.4316936E-2,-1.1223378E-3,-0E0,5.797166E-2,-0E0,8.372894E-3,-0E0,-9.060152E-4,-0E0],"categories":[],"categories_nodes":[],"categories_segments":[],"categories_sizes":[],"default_left":[0,0,0,0,0,0,0,0,0,0,0,0,0,0,0],"id":87,"left_children":[1,3,5,-1,-1,7,9,-1,-1,11,13,-1,-1,-1,-1],"loss_changes":[9.099345E-4,3.1602275E-2,4.6580257E-3,0E0,0E0,2.4474487E-3,3.0532513E-2,0E0,0E0,7.856141E-2,1.3133816E-3,0E0,0E0,0E0,0E0],"parents":[2147483647,0,0,1,1,2,2,5,5,6,6,9,9,10,10],"right_children":[2,4,6,-1,-1,8,10,-1,-1,12,14,-1,-1,-1,-1],"split_conditions":[-1.6199702E0,9.973467E-1,1.3553171E0,5.205143E-3,-0E0,-1.2508087E0,4.2804728E0,-1.1223378E-3,-0E0,-3.5436386E-1,4.526759E0,8.372894E-3,-0E0,-9.060152E-4,-0E0],"split_indices":[2,0,8,0,0,1,9,0,0,1,8,0,0,0,0],"split_type":[0,0,0,0,0,0,0,0,0,0,0,0,0,0,0],"sum_hessian":[2E2,3E0,1.97E2,2E0,1E0,1.83E2,1.4E1,7E0,1.76E2,9E0,5E0,3E0,6E0,3E0,2E0],"tree_param":{"num_deleted":"0","num_feature":"10","num_nodes":"15","size_leaf_vector":"1"}},{"base_weights":[-2.262518E-3,5.0316374E-3,-6.6934153E-3,-3.7994874E-3,-0E0,-2.1660284E-3,-0E0,-0E0,-3.4794133E-4,-0E0,2.813846E-4],"categories":[],"categories_nodes":[],"categories_segments":[],"categories_sizes":[],"default_left":[0,0,0,0,0,0,0,0,0,0,0],"id":88,"left_children":[1,-1,3,-1,5,7,9,-1,-1,-1,-1],"loss_changes":[3.7592884E-2,0E0,6.1139368E-2,0E0,5.9584324E-4,3.8108563E-3,6.334183E-5,0E0,0E0,0E0,0E0],"parents":[2147483647,0,0,2,2,4,4,5,5,6,6],"right_children":[2,-1,4,-1,6,8,10,-1,-1,-1,-1],"split_conditions":[-1.6199702E0,5.0316374E-3,-1.4128265E0,-3.7994874E-3,9.973467E-1,-3.5436386E-1,1.8867482E0,-0E0,-3.4794133E-4,-0E0,2.813846E-4],"split_indices":[2,0,2,0,0,1,1,0,0,0,0],"split_type":[0,0,0,0,0,0,0,0,0,0,0],"sum_hessian":[1.83E2,2E0,1.81E2,1.1E1,1.7E2,1.26E2,4.4E1,3.6E1,9E1,4.3E1,1E0],"tree_param":{"num_deleted":"0","num_feature":"10","num_nodes":"11","size_leaf_vector":"1"}},{"base_weights":[1.8142193E-3,5.4259817E-3,-2.1696088E-3,-0E0,7.041701E-2,4.863918E-3,-5.3784952E-5,1.5603577E-1,-0E0,9.29778E-3,-0E0],"categories":[],"categories_nodes":[],"categories_segments":[],"categories_sizes":[],"default_left":[0,0,0,0,0,0,0,0,0,0,0],"id":89,"left_children":[1,3,-1,5,7,-1,-1,9,-1,-1,-1],"loss_changes":[1.243783E-2,5.8926262E-2,0E0,2.8590577E-2,1.5466323E-1,0E0,0E0,5.7511434E-2,0E0,0E0,0E0],"parents":[2147483647,0,0,1,1,3,3,4,4,7,7],"right_children":[2,4,-1,6,8,-1,-1,10,-1,-1,-1],"split_conditions":[4.526759E0,1.3553171E0,-2.1696088E-3,-1.6199702E0,2.6631963E0,4.863918E-3,-5.3784952E-5,1.4992373E0,-0E0,9.29778E-3,-0E0],"split_indices":[8,8,0,2,6,0,0,0,0,0,0],"split_type":[0,0,0,0,0,0,0,0,0,0,0],"sum_hessian":[1.9E2,1.87E2,3E0,1.75E2,1.2E1,2E0,1.73E2,8E0,4E0,7E0,1E0],"tree_param":{"num_deleted":"0","num_feature":"10","num_nodes":"11","size_leaf_vector":"1"}},{"base_weights":[-0E0,8.578651E-3,-0E0,4.7017853E-3,-0E0,-0E0,-1.2777315E-3,-2.5615378E-3,7.008419E-2,-6.4245774E-4,-0E0,4.463004E-3,-0E0],"categories":[],"categories_nodes":[],"categories_segments":[],"categories_sizes":[],"default_left":[0,0,0,0,0,0,0,0,0,0,0,0,0],"id":90,"left_children":[1,3,5,-1,-1,7,-1,9,11,-1,-1,-1,-1],"loss_changes":[2.94373E-4,2.623377E-2,3.9182343E-3,0E0,0E0,4.5301918E-2,0E0,5.552415E-4,1.953274E-2,0E0,0E0,0E0,0E0],"parents":[2147483647,0,0,1,1,2,2,5,5,7,7,8,8],"right_children":[2,4,6,-1,-1,8,-1,10,12,-1,-1,-1,-1],"split_conditions":[-1.6199702E0,1.3553171E0,2.6631963E0,4.7017853E-3,-0E0,1.3553171E0,-1.2777315E-3,-1.3092546E0,4.2804728E0,-6.4245774E-4,-0E0,4.463004E-3,-0E0],"split_indices":[2,8,6,0,0,8,0,2,9,0,0,0,0],"split_type":[0,0,0,0,0,0,0,0,0,0,0,0,0],"sum_hessian":[1.82E2,3E0,1.79E2,2E0,1E0,1.74E2,5E0,1.66E2,8E0,9E0,1.57E2,7E0,1E0],"tree_param":{"num_deleted":"0","num_feature":"10","num_nodes":"13","size_leaf_vector":"1"}},{"base_weights":[3.2835018E-5,2.9869138E-3,-1.748416E-4,3.6161333E-2,-0E0,1.21401586E-1,-3.727666E-4,-0E0,9.341097E-4,8.292792E-3,-0E0,-0E0,-1.0995054E-4,-0E0,1.2901243E-3],"categories":[],"categories_nodes":[],"categories_segments":[],"categories_sizes":[],"default_left":[0,0,0,0,0,0,0,0,0,0,0,0,0,0,0],"id":91,"left_children":[1,3,-1,5,7,9,-1,11,13,-1,-1,-1,-1,-1,-1],"loss_changes":[1.7157455E-3,1.4085807E-2,0E0,1.0249296E-1,4.886341E-5,7.465034E-2,0E0,3.3849536E-4,4.611515E-3,0E0,0E0,0E0,0E0,0E0,0E0],"parents":[2147483647,0,0,1,1,3,3,4,4,5,5,7,7,8,8],"right_children":[2,4,-1,6,8,10,-1,12,14,-1,-1,-1,-1,-1,-1],"split_conditions":[2.6631963E0,-1.2508087E0,-1.748416E-4,9.973467E-1,7.621827E-1,7.7304063E0,-3.727666E-4,-6.434495E-3,8.305395E-1,8.292792E-3,-0E0,-0E0,-1.0995054E-4,-0E0,1.2901243E-3],"split_indices":[7,1,0,0,2,9,0,0,9,0,0,0,0,0,0],"split_type":[0,0,0,0,0,0,0,0,0,0,0,0,0,0,0],"sum_hessian":[1.87E2,1.79E2,8E0,1.1E1,1.68E2,7E0,4E0,1.13E2,5.5E1,6E0,1E0,4.4E1,6.9E1,4.9E1,6E0],"tree_param":{"num_deleted":"0","num_feature":"10","num_nodes":"15","size_leaf_vector":"1"}},{"base_weights":[2.3409997E-3,4.2686346E-3,-0E0,1.2276189E-3,-1.6707084E-4,2.0736419E-3,-0E0,2.9284947E-4,-0E0],"categories":[],"categories_nodes":[],"categories_segments":[],"categories_sizes":[],"default_left":[0,0,0,0,0,0,0,0,0],"id":92,"left_children":[1,-1,3,5,-1,7,-1,-1,-1],"loss_changes":[2.0813273E-2,0E0,3.7476834E-4,4.0081583E-4,0E0,9.029002E-4,0E0,0E0,0E0],"parents":[2147483647,0,0,2,2,3,3,5,5],"right_children":[2,-1,4,6,-1,8,-1,-1,-1],"split_conditions":[-1.6199702E0,4.2686346E-3,2.6631963E0,1.4992373E0,-1.6707084E-4,-3.5436386E-1,-0E0,2.9284947E-4,-0E0],"split_indices":[2,0,7,0,0,1,0,0,0],"split_type":[0,0,0,0,0,0,0,0,0],"sum_hessian":[1.91E2,2E0,1.89E2,1.81E2,8E0,1.56E2,2.5E1,4.5E1,1.11E2],"tree_param":{"num_deleted":"0","num_feature":"10","num_nodes":"9","size_leaf_vector":"1"}},{"base_weights":[-0E0,2.3255846E-3,-2.0729878E-4,4.2657584E-2,-0E0,7.097378E-3,-1.7374357E-4],"categories":[],"categories_nodes":[],"categories_segments":[],"categories_sizes":[],"default_left":[0,0,0,0,0,0,0],"id":93,"left_children":[1,3,-1,5,-1,-1,-1],"loss_changes":[1.0244813E-3,1.3670389E-2,0E0,1.0637351E-1,0E0,0E0,0E0],"parents":[2147483647,0,0,1,1,3,3],"right_children":[2,4,-1,6,-1,-1,-1],"split_conditions":[2.6631963E0,-1.2508087E0,-2.0729878E-4,1.5787772E0,-0E0,7.097378E-3,-1.7374357E-4],"split_indices":[7,1,0,3,0,0,0],"split_type":[0,0,0,0,0,0,0],"sum_hessian":[1.7E2,1.63E2,7E0,7E0,1.56E2,5E0,2E0],"tree_param":{"num_deleted":"0","num_feature":"10","num_nodes":"7","size_leaf_vector":"1"}},{"base_weights":[-0E0,-0E0,-3.0111878E-3,1.7239274E-3,-0E0,-0E0,-2.0850813E-2,4.3316437E-3,-0E0,1.2876055E-3,-1.0418338E-3,-4.9294636E-2,-0E0,-0E0,5.106909E-4,3.8897635E-3,-0E0,-0E0,-1.4229634E-4,-0E0,-3.230431E-3],"categories":[],"categories_nodes":[],"categories_segments":[],"categories_sizes":[],"default_left":[0,0,0,0,0,0,0,0,0,0,0,0,0,0,0,0,0,0,0,0,0],"id":94,"left_children":[1,3,5,7,-1,9,11,13,-1,15,17,19,-1,-1,-1,-1,-1,-1,-1,-1,-1],"loss_changes":[1.2331462E-3,1.6642784E-4,8.331494E-3,5.840976E-4,0E0,1.6770168E-4,3.660462E-2,8.1430544E-4,0E0,1.8035281E-2,7.4816526E-5,1.6444836E-2,0E0,0E0,0E0,0E0,0E0,0E0,0E0,0E0,0E0],"parents":[2147483647,0,0,1,1,2,2,3,3,5,5,6,6,7,7,9,9,10,10,11,11],"right_children":[2,4,6,8,-1,10,12,14,-1,16,18,20,-1,-1,-1,-1,-1,-1,-1,-1,-1],"split_conditions":[-5.083251E-1,2.6631963E0,8.305395E-1,9.9030334E-1,-0E0,9.973467E-1,9.9030334E-1,9.385854E-2,-0E0,-1.6199702E0,1.4279219E0,-1.2508087E0,-0E0,-0E0,5.106909E-4,3.8897635E-3,-0E0,-0E0,-1.4229634E-4,-0E0,-3.230431E-3],"split_indices":[0,6,9,1,0,0,1,1,0,2,4,1,0,0,0,0,0,0,0,0,0],"split_type":[0,0,0,0,0,0,0,0,0,0,0,0,0,0,0,0,0,0,0,0,0],"sum_hessian":[1.91E2,5.6E1,1.35E2,5.5E1,1E0,1.14E2,2.1E1,3.9E1,1.6E1,7.2E1,4.2E1,1.8E1,3E0,2.5E1,1.4E1,2E0,7E1,2.8E1,1.4E1,4E0,1.4E1],"tree_param":{"num_deleted":"0","num_feature":"10","num_nodes":"21","size_leaf_vector":"1"}},{"base_weights":[-0E0,-0E0,9.985918E-3,3.7601036E-3,-2.5625825E-3,1.113317E-1,-2.3858291E-4,-1.2023557E-3,-0E0,-0E0,9.193625E-3],"categories":[],"categories_nodes":[],"categories_segments":[],"categories_sizes":[],"default_left":[0,0,0,0,0,0,0,0,0,0,0],"id":95,"left_children":[1,3,5,-1,7,9,-1,-1,-1,-1,-1],"loss_changes":[1.2963414E-3,1.8082414E-2,7.3254295E-2,0E0,2.9314847E-3,9.467701E-2,0E0,0E0,0E0,0E0,0E0],"parents":[2147483647,0,0,1,1,2,2,4,4,5,5],"right_children":[2,4,6,-1,8,10,-1,-1,-1,-1,-1],"split_conditions":[1.3553171E0,-1.6199702E0,2.6631963E0,3.7601036E-3,-1.2508087E0,-1.6199702E0,-2.3858291E-4,-1.2023557E-3,-0E0,-0E0,9.193625E-3],"split_indices":[8,2,6,0,1,2,0,0,0,0,0],"split_type":[0,0,0,0,0,0,0,0,0,0,0],"sum_hessian":[1.83E2,1.71E2,1.2E1,2E0,1.69E2,5E0,7E0,6E0,1.63E2,1E0,4E0],"tree_param":{"num_deleted":"0","num_feature":"10",