{"learner":{"attributes":{"scikit_learn":"{\"_estimator_type\": \"regressor\"}"},"feature_names":[],"feature_types":[],"gradient_booster":{"model":{"cats":{"enc":[],"feature_segments":[],"sorted_idx":[]},"gbtree_model_param":{"num_parallel_tree":"1","num_trees":"200"},"iteration_indptr":[0,1,2,3,4,5,6,7,8,9,10,11,12,13,14,15,16,17,18,19,20,21,22,23,24,25,26,27,28,29,30,31,32,33,34,35,36,37,38,39,40,41,42,43,44,45,46,47,48,49,50,51,52,53,54,55,56,57,58,59,60,61,62,63,64,65,66,67,68,69,70,71,72,73,74,75,76,77,78,79,80,81,82,83,84,85,86,87,88,89,90,91,92,93,94,95,96,97,98,99,100,101,102,103,104,105,106,107,108,109,110,111,112,113,114,115,116,117,118,119,120,121,122,123,124,125,126,127,128,129,130,131,132,133,134,135,136,137,138,139,140,141,142,143,144,145,146,147,148,149,150,151,152,153,154,155,156,157,158,159,160,161,162,163,164,165,166,167,168,169,170,171,172,173,174,175,176,177,178,179,180,181,182,183,184,185,186,187,188,189,190,191,192,193,194,195,196,197,198,199,200],"tree_info":[0,0,0,0,0,0,0,0,0,0,0,0,0,0,0,0,0,0,0,0,0,0,0,0,0,0,0,0,0,0,0,0,0,0,0,0,0,0,0,0,0,0,0,0,0,0,0,0,0,0,0,0,0,0,0,0,0,0,0,0,0,0,0,0,0,0,0,0,0,0,0,0,0,0,0,0,0,0,0,0,0,0,0,0,0,0,0,0,0,0,0,0,0,0,0,0,0,0,0,0,0,0,0,0,0,0,0,0,0,0,0,0,0,0,0,0,0,0,0,0,0,0,0,0,0,0,0,0,0,0,0,0,0,0,0,0,0,0,0,0,0,0,0,0,0,0,0,0,0,0,0,0,0,0,0,0,0,0,0,0,0,0,0,0,0,0,0,0,0,0,0,0,0,0,0,0,0,0,0,0,0,0,0,0,0,0,0,0,0,0,0,0,0,0,0,0,0,0,0,0],"trees":[{"base_weights":[2.2384988E-3,-3.57293E-2,1.0282052E0,-7.515879E-2,2.3809522E-1,7.200854E-2,1.068376E-1,8.547003E-3,-4.203649E-3,4.8397434E-1,-2.7472537E-4,-0E0,1.025641E-2,1.025641E-2,-0E0,4.1410256E-2,-0E0],"categories":[],"categories_nodes":[],"categories_segments":[],"categories_sizes":[],"default_left":[0,0,0,0,0,0,0,0,0,0,0,0,0,0,0,0,0],"id":0,"left_children":[1,3,5,7,9,-1,11,13,-1,15,-1,-1,-1,-1,-1,-1,-1],"loss_changes":[5.4411407E0,1.2536316E0,9.7049046E-1,1.198141E-1,1.08041E0,0E0,4.9912333E-2,8.371684E-2,0E0,1.555769E0,0E0,0E0,0E0,0E0,0E0,0E0,0E0],"parents":[2147483647,0,0,1,1,2,2,3,3,4,4,6,6,7,7,9,9],"right_children":[2,4,6,8,10,-1,12,14,-1,16,-1,-1,-1,-1,-1,-1,-1],"split_conditions":[3.5392454E0,9.592347E-1,5.00293E0,-1.5196964E0,9.63903E-3,7.200854E-2,5.108686E-1,-4.9159053E-1,-4.203649E-3,2.3839467E0,-2.7472537E-4,-0E0,1.025641E-2,1.025641E-2,-0E0,4.1410256E-2,-0E0],"split_indices":[8,8,6,2,0,0,0,0,0,6,0,0,0,0,0,0,0],"split_type":[0,0,0,0,0,0,0,0,0,0,0,0,0,0,0,0,0],"sum_hessian":[1.25E2,1.21E2,4E0,1.08E2,1.3E1,2E0,2E0,5E0,1.03E2,7E0,6E0,1E0,1E0,1E0,4E0,4E0,3E0],"tree_param":{"num_deleted":"0","num_feature":"10","num_nodes":"17","size_leaf_vector":"1"}},{"base_weights":[4.557546E-3,-3.3465978E-2,6.34562E-2,-7.087707E-2,1.9980343E-1,6.8376013E-3,-3.987126E-3,4.5291668E-1,-7.8926294E-4,1E-2,-0E0,3.2035258E-2,-0E0],"categories":[],"categories_nodes":[],"categories_segments":[],"categories_sizes":[],"default_left":[0,0,0,0,0,0,0,0,0,0,0,0,0],"id":1,"left_children":[1,3,-1,5,7,9,-1,11,-1,-1,-1,-1,-1],"loss_changes":[6.5745435E0,9.969217E-1,0E0,1.1002916E-1,1.0442405E0,7.971948E-2,0E0,8.2195055E-1,0E0,0E0,0E0,0E0,0E0],"parents":[2147483647,0,0,1,1,3,3,4,4,5,5,7,7],"right_children":[2,4,-1,6,8,10,-1,12,-1,-1,-1,-1,-1],"split_conditions":[3.5392454E0,9.592347E-1,6.34562E-2,-1.5196964E0,9.63903E-3,-4.9159053E-1,-3.987126E-3,2.3839467E0,-7.8926294E-4,1E-2,-0E0,3.2035258E-2,-0E0],"split_indices":[8,8,0,2,0,0,0,7,0,0,0,0,0],"split_type":[0,0,0,0,0,0,0,0,0,0,0,0,0],"sum_hessian":[1.22E2,1.19E2,3E0,1.05E2,1.4E1,5E0,1E2,7E0,7E0,1E0,4E0,5E0,2E0],"tree_param":{"num_deleted":"0","num_feature":"10","num_nodes":"13","size_leaf_vector":"1"}},{"base_weights":[9.620082E-3,-6.57103E-2,4.2001098E-1,5.26282E-2,-3.7683044E-3,5.155235E-1,-0E0,9.75E-3,-0E0,7.184617E-1,-0E0,-0E0,3.9958794E-2,-0E0,8.413595E-3],"categories":[],"categories_nodes":[],"categories_segments":[],"categories_sizes":[],"default_left":[0,0,0,0,0,0,0,0,0,0,0,0,0,0,0],"id":2,"left_children":[1,3,5,7,-1,9,-1,-1,-1,11,13,-1,-1,-1,-1],"loss_changes":[3.7599635E0,1.2617245E-1,9.004557E-1,6.497108E-2,0E0,1.4258285E0,0E0,0E0,0E0,7.0876074E-1,5.6630865E-2,0E0,0E0,0E0,0E0],"parents":[2147483647,0,0,1,1,2,2,3,3,5,5,9,9,10,10],"right_children":[2,4,6,8,-1,10,-1,-1,-1,12,14,-1,-1,-1,-1],"split_conditions":[9.592347E-1,-1.5196964E0,2.3839467E0,-4.9159053E-1,-3.7683044E-3,5.108686E-1,-0E0,9.75E-3,-0E0,-1.5196964E0,6.119256E0,-0E0,3.9958794E-2,-0E0,8.413595E-3],"split_indices":[8,2,7,0,0,0,0,0,0,2,8,0,0,0,0],"split_type":[0,0,0,0,0,0,0,0,0,0,0,0,0,0,0],"sum_hessian":[1.14E2,9.6E1,1.8E1,3E0,9.3E1,1.5E1,3E0,1E0,2E0,1E1,5E0,1E0,9E0,4E0,1E0],"tree_param":{"num_deleted":"0","num_feature":"10","num_nodes":"15","size_leaf_vector":"1"}},{"base_weights":[1.588721E-2,-6.4023584E-2,4.9980244E-1,2.220384E-2,-3.6140904E-3,6.1286396E-1,-0E0,9.50625E-3,-0E0,8.608127E-1,-0E0,4.8310496E-2,-0E0,-0E0,8.203255E-3],"categories":[],"categories_nodes":[],"categories_segments":[],"categories_sizes":[],"default_left":[0,0,0,0,0,0,0,0,0,0,0,0,0,0,0],"id":3,"left_children":[1,3,5,7,-1,9,-1,-1,-1,11,13,-1,-1,-1,-1],"loss_changes":[5.1609845E0,1.0426122E-1,1.2633886E0,6.982997E-2,0E0,2.1413493E0,0E0,0E0,0E0,1.1846304E0,5.383471E-2,0E0,0E0,0E0,0E0],"parents":[2147483647,0,0,1,1,2,2,3,3,5,5,9,9,10,10],"right_children":[2,4,6,8,-1,10,-1,-1,-1,12,14,-1,-1,-1,-1],"split_conditions":[9.592347E-1,-1.5196964E0,2.3839467E0,-4.9159053E-1,-3.6140904E-3,5.108686E-1,-0E0,9.50625E-3,-0E0,5.00293E0,5.00293E0,4.8310496E-2,-0E0,-0E0,8.203255E-3],"split_indices":[8,2,7,0,0,0,0,0,0,6,6,0,0,0,0],"split_type":[0,0,0,0,0,0,0,0,0,0,0,0,0,0,0],"sum_hessian":[1.26E2,1.08E2,1.8E1,4E0,1.04E2,1.5E1,3E0,1E0,3E0,1E1,5E0,9E0,1E0,4E0,1E0],"tree_param":{"num_deleted":"0","num_feature":"10","num_nodes":"15","size_leaf_vector":"1"}},{"base_weights":[6.606738E-3,-3.799118E-2,6.610225E-1,-6.066249E-2,1.1655986E-1,8.753751E-1,-0E0,2.0302596E-2,-3.435107E-3,2.7294067E-1,-1.4020593E-3,7.026983E-2,1.5097577E-3,9.268594E-3,-0E0,2.4941664E-2,-0E0,-0E0,7.998175E-3],"categories":[],"categories_nodes":[],"categories_segments":[],"categories_sizes":[],"default_left":[0,0,0,0,0,0,0,0,0,0,0,0,0,0,0,0,0,0,0],"id":4,"left_children":[1,3,5,7,9,11,-1,13,-1,15,-1,-1,17,-1,-1,-1,-1,-1,-1],"loss_changes":[4.101569E0,4.030909E-1,1.4314141E0,9.654608E-2,4.2407003E-1,2.5365968E0,0E0,6.666449E-2,0E0,6.4820033E-1,0E0,0E0,5.1167518E-2,0E0,0E0,0E0,0E0,0E0,0E0],"parents":[2147483647,0,0,1,1,2,2,3,3,4,4,5,5,7,7,9,9,12,12],"right_children":[2,4,6,8,10,12,-1,14,-1,16,-1,-1,18,-1,-1,-1,-1,-1,-1],"split_conditions":[2.2492402E0,9.592347E-1,2.3839467E0,-1.5196964E0,9.63903E-3,5.108686E-1,-0E0,-4.9159053E-1,-3.435107E-3,2.3839467E0,-1.4020593E-3,7.026983E-2,5.00293E0,9.268594E-3,-0E0,2.4941664E-2,-0E0,-0E0,7.998175E-3],"split_indices":[8,8,7,2,0,0,0,0,0,7,0,0,6,0,0,0,0,0,0],"split_type":[0,0,0,0,0,0,0,0,0,0,0,0,0,0,0,0,0,0,0],"sum_hessian":[1.28E2,1.2E2,8E0,1.08E2,1.2E1,6E0,2E0,4E0,1.04E2,7E0,5E0,3E0,3E0,1E0,3E0,4E0,3E0,2E0,1E0],"tree_param":{"num_deleted":"0","num_feature":"10","num_nodes":"19","size_leaf_vector":"1"}},{"base_weights":[3.7052853E-3,-3.0369092E-2,5.396764E-1,5.395588E-2,-5.7561222E-2,7.3851055E-1,-0E0,2.123546E-1,-2.679337E-3,-3.2087571E-3,-0E0,8.7655294E-1,-0E0,1.7349878E-2,-0E0,1.13939495E-4,-1.0992715E-3,2.5477433E-3,5.758066E-2],"categories":[],"categories_nodes":[],"categories_segments":[],"categories_sizes":[],"default_left":[0,0,0,0,0,0,0,0,0,0,0,0,0,0,0,0,0,0,0],"id":5,"left_children":[1,3,5,7,9,11,-1,13,-1,-1,15,17,-1,-1,-1,-1,-1,-1,-1],"loss_changes":[2.7365324E0,2.9611632E-1,1.1965289E0,5.506979E-1,2.3662388E-2,7.922852E-1,0E0,4.9743748E-1,0E0,0E0,5.3429143E-3,7.025709E-1,0E0,0E0,0E0,0E0,0E0,0E0,0E0],"parents":[2147483647,0,0,1,1,2,2,3,3,4,4,5,5,7,7,10,10,11,11],"right_children":[2,4,6,8,10,12,-1,14,-1,-1,16,18,-1,-1,-1,-1,-1,-1,-1],"split_conditions":[2.6128707E0,-8.98681E-1,1.0120982E0,9.63903E-3,3.143303E-1,2.3839467E0,-0E0,2.3839467E0,-2.679337E-3,-3.2087571E-3,9.63903E-3,-9.928201E-1,-0E0,1.7349878E-2,-0E0,1.13939495E-4,-1.0992715E-3,2.5477433E-3,5.758066E-2],"split_indices":[9,2,0,0,9,7,0,7,0,0,0,0,0,0,0,0,0,0,0],"split_type":[0,0,0,0,0,0,0,0,0,0,0,0,0,0,0,0,0,0,0],"sum_hessian":[1.34E2,1.26E2,8E0,2.6E1,1E2,6E0,2E0,1.2E1,1.4E1,8.6E1,1.4E1,5E0,1E0,8E0,4E0,4E0,1E1,2E0,3E0],"tree_param":{"num_deleted":"0","num_feature":"10","num_nodes":"19","size_leaf_vector":"1"}},{"base_weights":[-0E0,-5.5759586E-2,3.258559E-1,-0E0,-3.1507853E-3,6.079107E-1,-0E0,8.603132E-3,-0E0,2.3582913E-1,4.164132E-2,-2.9253021E-3,6.3587027E-3,1.5048324E-2,-0E0],"categories":[],"categories_nodes":[],"categories_segments":[],"categories_sizes":[],"default_left":[0,0,0,0,0,0,0,0,0,0,0,0,0,0,0],"id":6,"left_children":[1,3,5,7,-1,9,11,-1,-1,13,-1,-1,-1,-1,-1],"loss_changes":[2.2501726E0,7.408655E-2,1.7842767E0,5.92111E-2,0E0,1.06137276E-1,5.9730135E-2,0E0,0E0,1.1921176E-1,0E0,0E0,0E0,0E0,0E0],"parents":[2147483647,0,0,1,1,2,2,3,3,5,5,6,6,9,9],"right_children":[2,4,6,8,-1,10,12,-1,-1,14,-1,-1,-1,-1,-1],"split_conditions":[9.592347E-1,-1.5196964E0,9.63903E-3,-4.9159053E-1,-3.1507853E-3,1.0805105E0,5.00293E0,8.603132E-3,-0E0,8.091115E-1,4.164132E-2,-2.9253021E-3,6.3587027E-3,1.5048324E-2,-0E0],"split_indices":[8,2,0,0,0,9,6,0,0,2,0,0,0,0,0],"split_type":[0,0,0,0,0,0,0,0,0,0,0,0,0,0,0],"sum_hessian":[1.25E2,1.08E2,1.7E1,5E0,1.03E2,9E0,8E0,1E0,4E0,5E0,4E0,7E0,1E0,4E0,1E0],"tree_param":{"num_deleted":"0","num_feature":"10","num_nodes":"15","size_leaf_vector":"1"}},{"base_weights":[-0E0,-5.2123636E-2,3.064351E-1,3.5341114E-2,-2.993432E-3,5.1631236E-1,-0E0,8.388055E-3,-0E0,3.805255E-2,-0E0,-2.939952E-3,6.1997357E-3],"categories":[],"categories_nodes":[],"categories_segments":[],"categories_sizes":[],"default_left":[0,0,0,0,0,0,0,0,0,0,0,0,0],"id":7,"left_children":[1,3,5,7,-1,9,11,-1,-1,-1,-1,-1,-1],"loss_changes":[1.9782333E0,8.6185545E-2,1.2421184E0,5.1291585E-2,0E0,1.7012258E0,5.4950662E-2,0E0,0E0,0E0,0E0,0E0,0E0],"parents":[2147483647,0,0,1,1,2,2,3,3,5,5,6,6],"right_children":[2,4,6,8,-1,10,12,-1,-1,-1,-1,-1,-1],"split_conditions":[9.592347E-1,-1.5196964E0,9.63903E-3,-4.9159053E-1,-2.993432E-3,2.3839467E0,7.621914E0,8.388055E-3,-0E0,3.805255E-2,-0E0,-2.939952E-3,6.1997357E-3],"split_indices":[8,2,0,0,0,7,6,0,0,0,0,0,0],"split_type":[0,0,0,0,0,0,0,0,0,0,0,0,0],"sum_hessian":[1.22E2,1.05E2,1.7E1,3E0,1.02E2,1E1,7E0,1E0,2E0,7E0,3E0,6E0,1E0],"tree_param":{"num_deleted":"0","num_feature":"10","num_nodes":"13","size_leaf_vector":"1"}},{"base_weights":[-9.112829E-3,-4.969304E-2,2.2458929E-1,3.324409E-2,-2.8500985E-3,4.016912E-1,-0E0,8.178352E-3,-0E0,3.763118E-2,-0E0,-3.1477425E-3,6.0447427E-3],"categories":[],"categories_nodes":[],"categories_segments":[],"categories_sizes":[],"default_left":[0,0,0,0,0,0,0,0,0,0,0,0,0],"id":8,"left_children":[1,3,5,7,-1,9,11,-1,-1,-1,-1,-1,-1],"loss_changes":[1.1186562E0,8.045387E-2,7.560725E-1,4.9087673E-2,0E0,1.7850953E0,5.697432E-2,0E0,0E0,0E0,0E0,0E0,0E0],"parents":[2147483647,0,0,1,1,2,2,3,3,5,5,6,6],"right_children":[2,4,6,8,-1,10,12,-1,-1,-1,-1,-1,-1],"split_conditions":[9.592347E-1,-1.5196964E0,9.63903E-3,-4.9159053E-1,-2.8500985E-3,2.3839467E0,7.621914E0,8.178352E-3,-0E0,3.763118E-2,-0E0,-3.1477425E-3,6.0447427E-3],"split_indices":[8,2,0,0,0,7,6,0,0,0,0,0,0],"split_type":[0,0,0,0,0,0,0,0,0,0,0,0,0],"sum_hessian":[1.25E2,1.09E2,1.6E1,3E0,1.06E2,9E0,7E0,1E0,2E0,5E0,4E0,6E0,1E0],"tree_param":{"num_deleted":"0","num_feature":"10","num_nodes":"13","size_leaf_vector":"1"}},{"base_weights":[1.3442937E-3,-3.5675477E-2,5.6680065E-1,-4.766496E-2,4.636785E-2,7.5873685E-1,-0E0,3.11995E-2,-2.7291006E-3,1.4233504E-1,-0E0,9.2122555E-1,-0E0,7.973894E-3,-0E0,1.7047374E-2,-0E0,6.315786E-2,-0E0],"categories":[],"categories_nodes":[],"categories_segments":[],"categories_sizes":[],"default_left":[0,0,0,0,0,0,0,0,0,0,0,0,0,0,0,0,0,0,0],"id":9,"left_children":[1,3,5,7,9,11,-1,13,-1,15,-1,17,-1,-1,-1,-1,-1,-1,-1],"loss_changes":[3.0489478E0,1.2483217E-1,1.1384046E0,7.5582266E-2,1.18165106E-1,1.0621681E0,0E0,4.697274E-2,0E0,3.2316586E-1,0E0,1.2903242E0,0E0,0E0,0E0,0E0,0E0,0E0,0E0],"parents":[2147483647,0,0,1,1,2,2,3,3,4,4,5,5,7,7,9,9,11,11],"right_children":[2,4,6,8,10,12,-1,14,-1,16,-1,18,-1,-1,-1,-1,-1,-1,-1],"split_conditions":[2.2492402E0,9.592347E-1,2.3839467E0,-1.5196964E0,9.63903E-3,1.0120982E0,-0E0,-4.9159053E-1,-2.7291006E-3,2.3839467E0,-0E0,5.00293E0,-0E0,7.973894E-3,-0E0,1.7047374E-2,-0E0,6.315786E-2,-0E0],"split_indices":[8,8,7,2,0,0,0,0,0,7,0,6,0,0,0,0,0,0,0],"split_type":[0,0,0,0,0,0,0,0,0,0,0,0,0,0,0,0,0,0,0],"sum_hessian":[1.31E2,1.23E2,8E0,1.13E2,1E1,6E0,2E0,3E0,1.1E2,6E0,4E0,5E0,1E0,1E0,2E0,3E0,3E0,3E0,2E0],"tree_param":{"num_deleted":"0","num_feature":"10","num_nodes":"19","size_leaf_vector":"1"}},{"base_weights":[-0E0,-3.46956E-2,4.7715873E-1,-4.5587674E-2,4.7300454E-2,6.2269247E-1,-0E0,-0E0,-2.5451311E-3,1.6767232E-1,-3.3029387E-4,9.20427E-1,-0E0,9.924643E-4,-4.6063346E-4,1.6045263E-2,-0E0,6.0789444E-2,-0E0,-0E0,5.893624E-3],"categories":[],"categories_nodes":[],"categories_segments":[],"categories_sizes":[],"default_left":[0,0,0,0,0,0,0,0,0,0,0,0,0,0,0,0,0,0,0,0,0],"id":10,"left_children":[1,3,5,7,9,11,-1,13,-1,15,-1,17,19,-1,-1,-1,-1,-1,-1,-1,-1],"loss_changes":[2.429685E0,1.1472453E-1,8.2516265E-1,2.9422313E-2,1.465289E-1,1.1339624E0,0E0,2.73383E-3,0E0,2.4323668E-1,0E0,1.67664E0,2.7787842E-2,0E0,0E0,0E0,0E0,0E0,0E0,0E0,0E0],"parents":[2147483647,0,0,1,1,2,2,3,3,4,4,5,5,7,7,9,9,11,11,12,12],"right_children":[2,4,6,8,10,12,-1,14,-1,16,-1,18,20,-1,-1,-1,-1,-1,-1,-1,-1],"split_conditions":[2.2492402E0,9.592347E-1,2.3839467E0,-9.987738E-1,9.63903E-3,5.108686E-1,-0E0,-4.9159053E-1,-2.5451311E-3,2.3839467E0,-3.3029387E-4,5.00293E0,5.00293E0,9.924643E-4,-4.6063346E-4,1.6045263E-2,-0E0,6.0789444E-2,-0E0,-0E0,5.893624E-3],"split_indices":[8,8,7,1,0,0,0,0,0,7,0,6,6,0,0,0,0,0,0,0,0],"split_type":[0,0,0,0,0,0,0,0,0,0,0,0,0,0,0,0,0,0,0,0,0],"sum_hessian":[1.35E2,1.26E2,9E0,1.17E2,9E0,7E0,2E0,1.2E1,1.05E2,5E0,4E0,4E0,3E0,4E0,8E0,3E0,2E0,3E0,1E0,2E0,1E0],"tree_param":{"num_deleted":"0","num_feature":"10","num_nodes":"21","size_leaf_vector":"1"}},{"base_weights":[1.0518597E-2,-2.4779258E-2,4.583325E-1,-4.2134568E-2,8.313916E-2,5.9915966E-1,-0E0,-0E0,-2.3794677E-3,1.801386E-1,-0E0,8.839533E-1,-0E0,9.527655E-4,-6.108925E-4,1.8085536E-2,-0E0,5.8509834E-2,-0E0,-0E0,5.7462826E-3],"categories":[],"categories_nodes":[],"categories_segments":[],"categories_sizes":[],"default_left":[0,0,0,0,0,0,0,0,0,0,0,0,0,0,0,0,0,0,0,0,0],"id":11,"left_children":[1,3,5,7,9,11,-1,13,-1,15,-1,17,19,-1,-1,-1,-1,-1,-1,-1,-1],"loss_changes":[2.1565719E0,1.9464496E-1,7.7125144E-1,2.2744358E-2,1.7665389E-1,1.0349286E0,0E0,3.1590068E-3,0E0,3.945738E-1,0E0,1.5705736E0,2.6415812E-2,0E0,0E0,0E0,0E0,0E0,0E0,0E0,0E0],"parents":[2147483647,0,0,1,1,2,2,3,3,4,4,5,5,7,7,9,9,11,11,12,12],"right_children":[2,4,6,8,10,12,-1,14,-1,16,-1,18,20,-1,-1,-1,-1,-1,-1,-1,-1],"split_conditions":[2.2492402E0,9.592347E-1,2.3839467E0,-9.987738E-1,9.63903E-3,5.108686E-1,-0E0,-4.9159053E-1,-2.3794677E-3,2.3839467E0,-0E0,5.00293E0,5.00293E0,9.527655E-4,-6.108925E-4,1.8085536E-2,-0E0,5.8509834E-2,-0E0,-0E0,5.7462826E-3],"split_indices":[8,8,7,1,0,0,0,0,0,7,0,6,6,0,0,0,0,0,0,0,0],"split_type":[0,0,0,0,0,0,0,0,0,0,0,0,0,0,0,0,0,0,0,0,0],"sum_hessian":[1.21E2,1.12E2,9E0,1.01E2,1.1E1,7E0,2E0,1.2E1,8.9E1,7E0,4E0,4E0,3E0,4E0,8E0,4E0,3E0,3E0,1E0,2E0,1E0],"tree_param":{"num_deleted":"0","num_feature":"10","num_nodes":"21","size_leaf_vector":"1"}},{"base_weights":[-0E0,-2.523918E-2,4.204936E-1,-4.082073E-2,7.9326734E-2,5.956502E-1,-0E0,-0E0,-2.2963916E-3,1.7441997E-1,-0E0,5.3435612E-2,-0E0,9.146547E-4,-1.861453E-4,1.7628044E-2,-0E0,-0E0,5.602625E-3],"categories":[],"categories_nodes":[],"categories_segments":[],"categories_sizes":[],"default_left":[0,0,0,0,0,0,0,0,0,0,0,0,0,0,0,0,0,0,0],"id":12,"left_children":[1,3,5,7,9,11,-1,13,-1,15,-1,-1,17,-1,-1,-1,-1,-1,-1],"loss_changes":[1.492235E0,1.827596E-1,7.1427596E-1,2.5973722E-2,1.6786583E-1,1.2976425E0,0E0,1.7840668E-3,0E0,3.7811726E-1,0E0,0E0,2.5111526E-2,0E0,0E0,0E0,0E0,0E0,0E0],"parents":[2147483647,0,0,1,1,2,2,3,3,4,4,5,5,7,7,9,9,12,12],"right_children":[2,4,6,8,10,12,-1,14,-1,16,-1,-1,18,-1,-1,-1,-1,-1,-1],"split_conditions":[2.2492402E0,9.592347E-1,2.3839467E0,-9.987738E-1,9.63903E-3,5.108686E-1,-0E0,-4.9159053E-1,-2.2963916E-3,2.3839467E0,-0E0,5.3435612E-2,5.00293E0,9.146547E-4,-1.861453E-4,1.7628044E-2,-0E0,-0E0,5.602625E-3],"split_indices":[8,8,7,1,0,0,0,0,0,7,0,0,6,0,0,0,0,0,0],"split_type":[0,0,0,0,0,0,0,0,0,0,0,0,0,0,0,0,0,0,0],"sum_hessian":[1.28E2,1.21E2,7E0,1.1E2,1.1E1,5E0,2E0,1.1E1,9.9E1,7E0,4E0,2E0,3E0,4E0,7E0,4E0,3E0,2E0,1E0],"tree_param":{"num_deleted":"0","num_feature":"10","num_nodes":"19","size_leaf_vector":"1"}},{"base_weights":[3.704933E-3,-3.8374662E-2,2.6680028E-1,-0E0,-2.2308605E-3,3.7044966E-1,-0E0,7.7030496E-3,-0E0,5.3493524E-1,-0E0,3.14656E-2,-0E0,-1.110971E-4,5.4625603E-3],"categories":[],"categories_nodes":[],"categories_segments":[],"categories_sizes":[],"default_left":[0,0,0,0,0,0,0,0,0,0,0,0,0,0,0],"id":13,"left_children":[1,3,5,7,-1,9,-1,-1,-1,11,13,-1,-1,-1,-1],"loss_changes":[1.5083196E0,4.5481145E-2,7.060287E-1,4.746958E-2,0E0,8.030627E-1,0E0,0E0,0E0,7.027452E-1,2.3896335E-2,0E0,0E0,0E0,0E0],"parents":[2147483647,0,0,1,1,2,2,3,3,5,5,9,9,10,10],"right_children":[2,4,6,8,-1,10,-1,-1,-1,12,14,-1,-1,-1,-1],"split_conditions":[9.592347E-1,-1.5196964E0,2.3839467E0,-4.9159053E-1,-2.2308605E-3,5.108686E-1,-0E0,7.7030496E-3,-0E0,5.00293E0,5.00293E0,3.14656E-2,-0E0,-1.110971E-4,5.4625603E-3],"split_indices":[8,2,7,0,0,0,0,0,0,6,6,0,0,0,0],"split_type":[0,0,0,0,0,0,0,0,0,0,0,0,0,0,0],"sum_hessian":[1.24E2,1.06E2,1.8E1,5E0,1.01E2,1.4E1,4E0,1E0,4E0,9E0,5E0,8E0,1E0,4E0,1E0],"tree_param":{"num_deleted":"0","num_feature":"10","num_nodes":"15","size_leaf_vector":"1"}},{"base_weights":[1.6187843E-2,-1.7485406E-2,6.529386E-1,-3.599871E-2,1.07381985E-1,7.7485627E-1,-0E0,4.593992E-3,-2.1237049E-3,2.2434147E-1,-6.147936E-5,5.313192E-2,-0E0,7.510473E-3,-0E0,1.7269325E-2,-0E0,-0E0,5.325997E-3],"categories":[],"categories_nodes":[],"categories_segments":[],"categories_sizes":[],"default_left":[0,0,0,0,0,0,0,0,0,0,0,0,0,0,0,0,0,0,0],"id":14,"left_children":[1,3,5,7,9,11,-1,13,-1,15,-1,-1,17,-1,-1,-1,-1,-1,-1],"loss_changes":[2.9878855E0,2.4095547E-1,6.1811185E-1,4.7260493E-2,2.6426965E-1,9.1438746E-1,0E0,4.5020238E-2,0E0,3.1311816E-1,0E0,0E0,2.2692993E-2,0E0,0E0,0E0,0E0,0E0,0E0],"parents":[2147483647,0,0,1,1,2,2,3,3,4,4,5,5,7,7,9,9,12,12],"right_children":[2,4,6,8,10,12,-1,14,-1,16,-1,-1,18,-1,-1,-1,-1,-1,-1],"split_conditions":[2.2492402E0,9.592347E-1,2.3839467E0,-1.5196964E0,9.63903E-3,5.00293E0,-0E0,-4.9159053E-1,-2.1237049E-3,2.3839467E0,-6.147936E-5,5.313192E-2,5.108686E-1,7.510473E-3,-0E0,1.7269325E-2,-0E0,-0E0,5.325997E-3],"split_indices":[8,8,7,2,0,6,0,0,0,7,0,0,0,0,0,0,0,0,0],"split_type":[0,0,0,0,0,0,0,0,0,0,0,0,0,0,0,0,0,0,0],"sum_hessian":[1.23E2,1.17E2,6E0,1.06E2,1.1E1,5E0,1E0,4E0,1.02E2,7E0,4E0,3E0,2E0,1E0,3E0,5E0,2E0,1E0,1E0],"tree_param":{"num_deleted":"0","num_feature":"10","num_nodes":"19","size_leaf_vector":"1"}},{"base_weights":[1.0420342E-2,-1.7012132E-2,4.831049E-1,6.923967E-2,-1.7377575E-3,5.708892E-1,-0E0,-0E0,2.7104926E-1,6.789977E-1,-0E0,2.0065515E-3,-6.8443205E-4,-0E0,1.9317737E-2,-0E0,4.54723E-2],"categories":[],"categories_nodes":[],"categories_segments":[],"categories_sizes":[],"default_left":[0,0,0,0,0,0,0,0,0,0,0,0,0,0,0,0,0],"id":15,"left_children":[1,3,5,7,-1,9,-1,11,13,15,-1,-1,-1,-1,-1,-1,-1],"loss_changes":[1.8880624E0,1.6880824E-1,4.1427815E-1,2.171647E-1,0E0,4.8482585E-1,0E0,8.315787E-3,1.5393904E-1,5.4214144E-1,0E0,0E0,0E0,0E0,0E0,0E0,0E0],"parents":[2147483647,0,0,1,1,2,2,3,3,5,5,7,7,8,8,9,9],"right_children":[2,4,6,8,-1,10,-1,12,14,16,-1,-1,-1,-1,-1,-1,-1],"split_conditions":[2.6128707E0,-9.987738E-1,2.3839467E0,3.143303E-1,-1.7377575E-3,1.0120982E0,-0E0,-4.9159053E-1,-9.928201E-1,-9.928201E-1,-0E0,2.0065515E-3,-6.8443205E-4,-0E0,1.9317737E-2,-0E0,4.54723E-2],"split_indices":[9,1,7,9,0,0,0,0,0,0,0,0,0,0,0,0,0],"split_type":[0,0,0,0,0,0,0,0,0,0,0,0,0,0,0,0,0],"sum_hessian":[1.26E2,1.19E2,7E0,1.5E1,1.04E2,6E0,1E0,1.2E1,3E0,5E0,1E0,3E0,9E0,1E0,2E0,2E0,3E0],"tree_param":{"num_deleted":"0","num_feature":"10","num_nodes":"17","size_leaf_vector":"1"}},{"base_weights":[9.043341E-3,-1.6797774E-2,4.3864882E-1,8.4207095E-2,-1.7791315E-3,6.426947E-1,-0E0,-0E0,2.6139042E-1,3.9875533E-2,-0E0,-0E0,1.8673813E-2],"categories":[],"categories_nodes":[],"categories_segments":[],"categories_sizes":[],"default_left":[0,0,0,0,0,0,0,0,0,0,0,0,0],"id":16,"left_children":[1,3,5,7,-1,9,-1,-1,11,-1,-1,-1,-1],"loss_changes":[1.5615734E0,1.949833E-1,9.390367E-1,1.740281E-1,0E0,7.017772E-1,0E0,0E0,1.4515376E-1,0E0,0E0,0E0,0E0],"parents":[2147483647,0,0,1,1,2,2,3,3,5,5,8,8],"right_children":[2,4,6,8,-1,10,-1,-1,12,-1,-1,-1,-1],"split_conditions":[2.6128707E0,-9.987738E-1,1.595448E0,3.143303E-1,-1.7791315E-3,2.3839467E0,-0E0,-0E0,-1.3644426E0,3.9875533E-2,-0E0,-0E0,1.8673813E-2],"split_indices":[9,1,3,9,0,7,0,0,2,0,0,0,0],"split_type":[0,0,0,0,0,0,0,0,0,0,0,0,0],"sum_hessian":[1.2E2,1.13E2,7E0,1.3E1,1E2,5E0,2E0,1E1,3E0,4E0,1E0,1E0,2E0],"tree_param":{"num_deleted":"0","num_feature":"10","num_nodes":"13","size_leaf_vector":"1"}},{"base_weights":[1.1126328E-2,-9.620535E-3,6.192739E-1,-3.110749E-2,9.677504E-2,4.641571E-2,-0E0,3.101249E-3,-1.8660233E-3,2.2980954E-1,-2.7337808E-3,-0E0,3.0591504E-3,7.2725476E-3,-0E0,2.1544171E-2,-0E0],"categories":[],"categories_nodes":[],"categories_segments":[],"categories_sizes":[],"default_left":[0,0,0,0,0,0,0,0,0,0,0,0,0,0,0,0,0],"id":17,"left_children":[1,3,5,7,9,-1,11,13,-1,15,-1,-1,-1,-1,-1,-1,-1],"loss_changes":[1.9131631E0,2.5136906E-1,6.6780055E-1,3.996691E-2,4.4265068E-1,0E0,7.4867206E-3,4.226387E-2,0E0,7.1868694E-1,0E0,0E0,0E0,0E0,0E0,0E0,0E0],"parents":[2147483647,0,0,1,1,2,2,3,3,4,4,6,6,7,7,9,9],"right_children":[2,4,6,8,10,-1,12,14,-1,16,-1,-1,-1,-1,-1,-1,-1],"split_conditions":[3.5392454E0,9.592347E-1,5.00293E0,-1.5196964E0,9.63903E-3,4.641571E-2,5.108686E-1,-4.9159053E-1,-1.8660233E-3,2.3839467E0,-2.7337808E-3,-0E0,3.0591504E-3,7.2725476E-3,-0E0,2.1544171E-2,-0E0],"split_indices":[8,8,6,2,0,0,0,0,0,7,0,0,0,0,0,0,0],"split_type":[0,0,0,0,0,0,0,0,0,0,0,0,0,0,0,0,0],"sum_hessian":[1.26E2,1.22E2,4E0,1.06E2,1.6E1,2E0,2E0,4E0,1.02E2,1E1,6E0,1E0,1E0,1E0,3E0,6E0,4E0],"tree_param":{"num_deleted":"0","num_feature":"10","num_nodes":"17","size_leaf_vector":"1"}},{"base_weights":[7.4923746E-3,-2.1321671E-2,3.0027106E-1,1.4697852E-2,-3.2341976E-2,4.8764575E-1,-0E0,6.8911366E-2,-0E0,-1.8675644E-3,-0E0,6.841446E-1,-0E0,5.5591045E-3,-0E0,-0E0,4.710119E-2],"categories":[],"categories_nodes":[],"categories_segments":[],"categories_sizes":[],"default_left":[0,0,0,0,0,0,0,0,0,0,0,0,0,0,0,0,0],"id":18,"left_children":[1,3,5,7,9,11,-1,13,-1,-1,-1,15,-1,-1,-1,-1,-1],"loss_changes":[1.2172666E0,5.4946225E-2,7.302718E-1,4.38153E-2,2.8981954E-2,9.059359E-1,0E0,5.1403895E-2,0E0,0E0,0E0,7.413118E-1,0E0,0E0,0E0,0E0,0E0],"parents":[2147483647,0,0,1,1,2,2,3,3,4,4,5,5,7,7,11,11],"right_children":[2,4,6,8,10,12,-1,14,-1,-1,-1,16,-1,-1,-1,-1,-1],"split_conditions":[1.8466907E0,-8.98681E-1,5.108686E-1,9.63903E-3,1.0805105E0,2.3839467E0,-0E0,2.3839467E0,-0E0,-1.8675644E-3,-0E0,-9.928201E-1,-0E0,5.5591045E-3,-0E0,-0E0,4.710119E-2],"split_indices":[9,2,0,0,9,7,0,7,0,0,0,0,0,0,0,0,0],"split_type":[0,0,0,0,0,0,0,0,0,0,0,0,0,0,0,0,0],"sum_hessian":[1.26E2,1.14E2,1.2E1,1.6E1,9.8E1,7E0,5E0,9E0,7E0,9.4E1,4E0,5E0,2E0,7E0,2E0,2E0,3E0],"tree_param":{"num_deleted":"0","num_feature":"10","num_nodes":"17","size_leaf_vector":"1"}},{"base_weights":[-8.366915E-3,-2.1908538E-2,1.9148096E-2,-0E0,-2.0698642E-3,-1.3338311E-2,9.385341E-2,2.7893302E-3,-1.4739347E-3,9.903389E-3,-0E0],"categories":[],"categories_nodes":[],"categories_segments":[],"categories_sizes":[],"default_left":[0,0,0,0,0,0,0,0,0,0,0],"id":19,"left_children":[1,3,-1,5,-1,7,9,-1,-1,-1,-1],"loss_changes":[4.9026692E-1,6.2637135E-2,0E0,8.728213E-2,0E0,3.8697172E-2,1.5610892E-1,0E0,0E0,0E0,0E0],"parents":[2147483647,0,0,1,1,3,3,5,5,6,6],"right_children":[2,4,-1,6,-1,8,10,-1,-1,-1,-1],"split_conditions":[3.5392454E0,9.63903E-3,1.9148096E-2,9.592347E-1,-2.0698642E-3,-1.5196964E0,2.3839467E0,2.7893302E-3,-1.4739347E-3,9.903389E-3,-0E0],"split_indices":[8,0,0,8,0,2,6,0,0,0,0],"split_type":[0,0,0,0,0,0,0,0,0,0,0],"sum_hessian":[1.24E2,1.22E2,2E0,5.2E1,7E1,4.4E1,8E0,2E0,4.2E1,5E0,3E0],"tree_param":{"num_deleted":"0","num_feature":"10","num_nodes":"11","size_leaf_vector":"1"}},{"base_weights":[-7.367569E-3,-2.778376E-2,9.0029575E-2,-0E0,-1.6518276E-3,2.3976687E-1,-3.079292E-2,6.882024E-3,-0E0,1.9732846E-2,-0E0,-5.483094E-3,2.5039688E-3],"categories":[],"categories_nodes":[],"categories_segments":[],"categories_sizes":[],"default_left":[0,0,0,0,0,0,0,0,0,0,0,0,0],"id":20,"left_children":[1,3,5,7,-1,9,11,-1,-1,-1,-1,-1,-1],"loss_changes":[2.2391525E-1,2.968534E-2,4.375195E-1,3.78898E-2,0E0,5.1539713E-1,9.2687875E-2,0E0,0E0,0E0,0E0,0E0,0E0],"parents":[2147483647,0,0,1,1,2,2,3,3,5,5,6,6],"right_children":[2,4,6,8,-1,10,12,-1,-1,-1,-1,-1,-1],"split_conditions":[9.592347E-1,-1.5196964E0,9.63903E-3,-4.9159053E-1,-1.6518276E-3,2.3839467E0,7.621914E0,6.882024E-3,-0E0,1.9732846E-2,-0E0,-5.483094E-3,2.5039688E-3],"split_indices":[8,2,0,0,0,7,6,0,0,0,0,0,0],"split_type":[0,0,0,0,0,0,0,0,0,0,0,0,0],"sum_hessian":[1.26E2,1.09E2,1.7E1,5E0,1.04E2,9E0,8E0,1E0,4E0,6E0,3E0,7E0,1E0],"tree_param":{"num_deleted":"0","num_feature":"10","num_nodes":"13","size_leaf_vector":"1"}},{"base_weights":[6.7217057E-3,-1.2992379E-2,5.6274414E-1,-2.1794455E-2,1.24811595E-2,3.928772E-2,-0E0,4.5154262E-3,-1.9805736E-3,-0E0,6.1146426E-3],"categories":[],"categories_nodes":[],"categories_segments":[],"categories_sizes":[],"default_left":[0,0,0,0,0,0,0,0,0,0,0],"id":21,"left_children":[1,3,5,7,-1,-1,-1,9,-1,-1,-1],"loss_changes":[1.5975641E0,1.5966724E-1,8.86235E-1,7.1634695E-2,0E0,0E0,0E0,7.404369E-2,0E0,0E0,0E0],"parents":[2147483647,0,0,1,1,2,2,3,3,7,7],"right_children":[2,4,6,8,-1,-1,-1,10,-1,-1,-1],"split_conditions":[3.5392454E0,4.9114113E0,1.0120982E0,-4.9159053E-1,1.24811595E-2,3.928772E-2,-0E0,9.592347E-1,-1.9805736E-3,-0E0,6.1146426E-3],"split_indices":[8,9,0,0,0,0,0,8,0,0,0],"split_type":[0,0,0,0,0,0,0,0,0,0,0],"sum_hessian":[1.19E2,1.15E2,4E0,1.14E2,1E0,3E0,1E0,3.5E1,7.9E1,3.1E1,4E0],"tree_param":{"num_deleted":"0","num_feature":"10","num_nodes":"11","size_leaf_vector":"1"}},{"base_weights":[3.8026432E-3,-8.529158E-3,3.4562405E-2,-2.4061512E-2,6.94804E-2,-0E0,-1.4027442E-3,2.2588025E-1,-4.622259E-3,1.7053242E-3,-0E0,1.8756328E-2,-0E0],"categories":[],"categories_nodes":[],"categories_segments":[],"categories_sizes":[],"default_left":[0,0,0,0,0,0,0,0,0,0,0,0,0],"id":22,"left_children":[1,3,-1,5,7,9,-1,11,-1,-1,-1,-1,-1],"loss_changes":[1.440845E0,1.3284472E-1,0E0,1.5438683E-2,4.928013E-1,4.653008E-3,0E0,4.748206E-1,0E0,0E0,0E0,0E0,0E0],"parents":[2147483647,0,0,1,1,3,3,4,4,5,5,7,7],"right_children":[2,4,-1,6,8,10,-1,12,-1,-1,-1,-1,-1],"split_conditions":[4.829251E0,9.592347E-1,3.4562405E-2,-9.987738E-1,9.63903E-3,-4.9159053E-1,-1.4027442E-3,2.3839467E0,-4.622259E-3,1.7053242E-3,-0E0,1.8756328E-2,-0E0],"split_indices":[8,8,0,1,0,0,0,7,0,0,0,0,0],"split_type":[0,0,0,0,0,0,0,0,0,0,0,0,0],"sum_hessian":[1.28E2,1.26E2,2E0,1.11E2,1.5E1,1E1,1.01E2,9E0,6E0,3E0,7E0,6E0,3E0],"tree_param":{"num_deleted":"0","num_feature":"10","num_nodes":"13","size_leaf_vector":"1"}},{"base_weights":[5.780395E-3,-2.2987695E-2,2.0288639E-1,-0E0,-1.417725E-3,2.8846648E-1,-0E0,6.6673397E-3,-0E0,4.455072E-1,-0E0,-0E0,2.5513709E-2,-1.5187928E-3,5.9511664E-4],"categories":[],"categories_nodes":[],"categories_segments":[],"categories_sizes":[],"default_left":[0,0,0,0,0,0,0,0,0,0,0,0,0,0,0],"id":23,"left_children":[1,3,5,7,-1,9,-1,-1,-1,11,13,-1,-1,-1,-1],"loss_changes":[8.374307E-1,2.792051E-2,4.6609896E-1,3.5562735E-2,0E0,7.3657286E-1,0E0,0E0,0E0,3.586508E-1,4.896795E-3,0E0,0E0,0E0,0E0],"parents":[2147483647,0,0,1,1,2,2,3,3,5,5,9,9,10,10],"right_children":[2,4,6,8,-1,10,-1,-1,-1,12,14,-1,-1,-1,-1],"split_conditions":[9.592347E-1,-1.5196964E0,2.3839467E0,-4.9159053E-1,-1.417725E-3,5.108686E-1,-0E0,6.6673397E-3,-0E0,-1.5196964E0,6.119256E0,-0E0,2.5513709E-2,-1.5187928E-3,5.9511664E-4],"split_indices":[8,2,7,0,0,0,0,0,0,2,8,0,0,0,0],"split_type":[0,0,0,0,0,0,0,0,0,0,0,0,0,0,0],"sum_hessian":[1.3E2,1.12E2,1.8E1,4E0,1.08E2,1.4E1,4E0,1E0,3E0,9E0,5E0,1E0,8E0,4E0,1E0],"tree_param":{"num_deleted":"0","num_feature":"10","num_nodes":"15","size_leaf_vector":"1"}},{"base_weights":[3.525223E-3,-1.2718103E-2,4.1655198E-1,6.072209E-3,-1.7242812E-3,3.6512572E-2,-0E0,-3.8090989E-4,1.4824432E-1,1.55303795E-2,-0E0],"categories":[],"categories_nodes":[],"categories_segments":[],"categories_sizes":[],"default_left":[0,0,0,0,0,0,0,0,0,0,0],"id":24,"left_children":[1,3,5,7,-1,-1,-1,-1,9,-1,-1],"loss_changes":[1.0592487E0,6.431636E-2,1.0919752E0,1.7654769E-1,0E0,0E0,0E0,0E0,3.0657429E-1,0E0,0E0],"parents":[2147483647,0,0,1,1,2,2,3,3,8,8],"right_children":[2,4,6,8,-1,-1,-1,-1,10,-1,-1],"split_conditions":[2.6128707E0,9.63903E-3,1.0120982E0,9.592347E-1,-1.7242812E-3,3.6512572E-2,-0E0,-3.8090989E-4,2.3839467E0,1.55303795E-2,-0E0],"split_indices":[9,0,0,8,0,0,0,0,7,0,0],"split_type":[0,0,0,0,0,0,0,0,0,0,0],"sum_hessian":[1.26E2,1.21E2,5E0,5.3E1,6.8E1,3E0,2E0,4.6E1,7E0,4E0,3E0],"tree_param":{"num_deleted":"0","num_feature":"10","num_nodes":"11","size_leaf_vector":"1"}},{"base_weights":[4.8947665E-3,-1.4765211E-2,3.567676E-1,1.2013266E-3,-1.3430236E-3,4.5949733E-1,-0E0,7.060757E-2,-8.894626E-4,5.4548633E-1,-0E0,6.27735E-3,-0E0,-7.674168E-4,-0E0,-0E0,3.514335E-2],"categories":[],"categories_nodes":[],"categories_segments":[],"categories_sizes":[],"default_left":[0,0,0,0,0,0,0,0,0,0,0,0,0,0,0,0,0],"id":25,"left_children":[1,3,5,7,-1,9,-1,11,13,15,-1,-1,-1,-1,-1,-1,-1],"loss_changes":[1.0409954E0,3.5649933E-2,4.5969963E-1,3.9855726E-2,0E0,3.0736732E-1,0E0,5.468885E-2,6.103496E-3,1.9075608E-1,0E0,0E0,0E0,0E0,0E0,0E0,0E0],"parents":[2147483647,0,0,1,1,2,2,3,3,5,5,7,7,8,8,9,9],"right_children":[2,4,6,8,-1,10,-1,12,14,16,-1,-1,-1,-1,-1,-1,-1],"split_conditions":[2.2492402E0,-4.9159053E-1,1.0120982E0,-1.0539348E0,-1.3430236E-3,2.3839467E0,-0E0,2.3839467E0,9.592347E-1,-1.2091887E0,-0E0,6.27735E-3,-0E0,-7.674168E-4,-0E0,-0E0,3.514335E-2],"split_indices":[8,0,0,2,0,7,0,7,8,2,0,0,0,0,0,0,0],"split_type":[0,0,0,0,0,0,0,0,0,0,0,0,0,0,0,0,0],"sum_hessian":[1.24E2,1.17E2,7E0,3.3E1,8.4E1,6E0,1E0,7E0,2.6E1,5E0,1E0,5E0,2E0,2.5E1,1E0,2E0,3E0],"tree_param":{"num_deleted":"0","num_feature":"10","num_nodes":"17","size_leaf_vector":"1"}},{"base_weights":[8.512352E-3,-2.6586144E-3,3.0586645E-2,3.0459248E-2,-3.5785034E-2,-3.011151E-3,2.0094083E-1,-9.372729E-4,-4.397863E-3,2.4055748E-3,-9.635035E-4,1.9576168E-2,-3.031414E-4],"categories":[],"categories_nodes":[],"categories_segments":[],"categories_sizes":[],"default_left":[0,0,0,0,0,0,0,0,0,0,0,0,0],"id":26,"left_children":[1,3,-1,5,7,9,11,-1,-1,-1,-1,-1,-1],"loss_changes":[1.1147902E0,1.3320789E-1,0E0,3.962864E-1,4.562348E-3,2.1416757E-2,6.2906814E-1,0E0,0E0,0E0,0E0,0E0,0E0],"parents":[2147483647,0,0,1,1,3,3,4,4,5,5,6,6],"right_children":[2,4,-1,6,8,10,12,-1,-1,-1,-1,-1,-1],"split_conditions":[4.829251E0,9.63903E-3,3.0586645E-2,9.592347E-1,9.592347E-1,-1.5196964E0,2.3839467E0,-9.372729E-4,-4.397863E-3,2.4055748E-3,-9.635035E-4,1.9576168E-2,-3.031414E-4],"split_indices":[8,0,0,8,8,2,7,0,0,0,0,0,0],"split_type":[0,0,0,0,0,0,0,0,0,0,0,0,0],"sum_hessian":[1.19E2,1.17E2,2E0,5.1E1,6.6E1,4.1E1,1E1,5.8E1,8E0,2E0,3.9E1,6E0,4E0],"tree_param":{"num_deleted":"0","num_feature":"10","num_nodes":"13","size_leaf_vector":"1"}},{"base_weights":[-0E0,-1.6854998E-2,3.0456164E-1,-0E0,-1.3826523E-3,4.440594E-1,-0E0,-6.3836765E-3,3.629177E-2,3.708487E-2,-0E0,-5.609007E-4,-0E0,7.719128E-3,-0E0],"categories":[],"categories_nodes":[],"categories_segments":[],"categories_sizes":[],"default_left":[0,0,0,0,0,0,0,0,0,0,0,0,0,0,0],"id":27,"left_children":[1,3,5,7,-1,9,-1,11,13,-1,-1,-1,-1,-1,-1],"loss_changes":[5.914899E-1,2.1643944E-2,4.2939705E-1,1.1012707E-2,0E0,6.644012E-1,0E0,4.7213084E-4,8.611625E-2,0E0,0E0,0E0,0E0,0E0,0E0],"parents":[2147483647,0,0,1,1,2,2,3,3,5,5,7,7,8,8],"right_children":[2,4,6,8,-1,10,-1,12,14,-1,-1,-1,-1,-1,-1],"split_conditions":[3.5392454E0,9.63903E-3,1.0120982E0,9.592347E-1,-1.3826523E-3,5.00293E0,-0E0,-9.928201E-1,2.3839467E0,3.708487E-2,-0E0,-5.609007E-4,-0E0,7.719128E-3,-0E0],"split_indices":[8,0,0,8,0,6,0,0,7,0,0,0,0,0,0],"split_type":[0,0,0,0,0,0,0,0,0,0,0,0,0,0,0],"sum_hessian":[1.27E2,1.22E2,5E0,4.9E1,7.3E1,4E0,1E0,4.3E1,6E0,2E0,2E0,1.7E1,2.6E1,3E0,3E0],"tree_param":{"num_deleted":"0","num_feature":"10","num_nodes":"15","size_leaf_vector":"1"}},{"base_weights":[-0E0,-1.802464E-2,2.1339235E-1,-0E0,-1.5772727E-3,5.3021127E-1,-0E0,3.2350626E-2,-6.947675E-3,-0E0,3.2899342E-2,-2.2703884E-3,8.588594E-3,4.711592E-3,-0E0,-7.4575096E-4,-0E0],"categories":[],"categories_nodes":[],"categories_segments":[],"categories_sizes":[],"default_left":[0,0,0,0,0,0,0,0,0,0,0,0,0,0,0,0,0],"id":28,"left_children":[1,3,5,7,-1,9,11,13,15,-1,-1,-1,-1,-1,-1,-1,-1],"loss_changes":[4.02952E-1,3.0001342E-2,4.790817E-1,1.2492978E-2,0E0,2.2521257E-2,6.9320485E-2,5.1691856E-2,6.8709645E-3,0E0,0E0,0E0,0E0,0E0,0E0,0E0,0E0],"parents":[2147483647,0,0,1,1,2,2,3,3,5,5,6,6,7,7,8,8],"right_children":[2,4,6,8,-1,10,12,14,16,-1,-1,-1,-1,-1,-1,-1,-1],"split_conditions":[2.6128707E0,9.63903E-3,3.379051E0,-8.98681E-1,-1.5772727E-3,-9.928201E-1,4.9114113E0,2.3839467E0,9.592347E-1,-0E0,3.2899342E-2,-2.2703884E-3,8.588594E-3,4.711592E-3,-0E0,-7.4575096E-4,-0E0],"split_indices":[9,0,9,2,0,0,9,7,8,0,0,0,0,0,0,0,0],"split_type":[0,0,0,0,0,0,0,0,0,0,0,0,0,0,0,0,0],"sum_hessian":[1.25E2,1.18E2,7E0,5E1,6.8E1,2E0,5E0,9E0,4.1E1,1E0,1E0,4E0,1E0,6E0,3E0,3.9E1,2E0],"tree_param":{"num_deleted":"0","num_feature":"10","num_nodes":"17","size_leaf_vector":"1"}},{"base_weights":[-6.139234E-3,-1.5999453E-2,1.0079318E-1,-0E0,-1.9139495E-2,1.4481594E-1,-0E0,-1.0684681E-3,-0E0,-0E0,1.9657868E-1,1.8843639E-3,-3.2803367E-3,1.2910659E-2,-0E0],"categories":[],"categories_nodes":[],"categories_segments":[],"categories_sizes":[],"default_left":[0,0,0,0,0,0,0,0,0,0,0,0,0,0,0],"id":29,"left_children":[1,3,5,-1,7,9,-1,-1,11,-1,13,-1,-1,-1,-1],"loss_changes":[9.839355E-2,1.1704631E-2,5.4715082E-2,0E0,5.3597316E-3,6.738594E-2,0E0,0E0,3.43042E-2,0E0,7.348034E-2,0E0,0E0,0E0,0E0],"parents":[2147483647,0,0,1,1,2,2,4,4,5,5,8,8,10,10],"right_children":[2,4,6,-1,8,10,-1,-1,12,-1,14,-1,-1,-1,-1],"split_conditions":[2.6128707E0,-1.5196964E0,2.3839467E0,-0E0,9.592347E-1,9.592347E-1,-0E0,-1.0684681E-3,2.3839467E0,-0E0,1.595448E0,1.8843639E-3,-3.2803367E-3,1.2910659E-2,-0E0],"split_indices":[9,2,7,0,8,8,0,0,6,0,3,0,0,0,0],"split_type":[0,0,0,0,0,0,0,0,0,0,0,0,0,0,0],"sum_hessian":[1.31E2,1.25E2,6E0,6E0,1.19E2,5E0,1E0,1.07E2,1.2E1,1E0,4E0,8E0,4E0,3E0,1E0],"tree_param":{"num_deleted":"0","num_feature":"10","num_nodes":"15","size_leaf_vector":"1"}},{"base_weights":[-0E0,-1.3061795E-2,2.8374112E-1,7.016385E-3,-1.3330877E-3,4.1862068E-1,-0E0,1.11295655E-1,-0E0,-0E0,2.8008172E-2,7.2018066E-3,-0E0,-4.9121154E-4,-0E0,8.337939E-3,-0E0],"categories":[],"categories_nodes":[],"categories_segments":[],"categories_sizes":[],"default_left":[0,0,0,0,0,0,0,0,0,0,0,0,0,0,0,0,0],"id":30,"left_children":[1,3,5,7,-1,9,-1,11,13,15,-1,-1,-1,-1,-1,-1,-1],"loss_changes":[5.033567E-1,4.250418E-2,3.9316222E-1,7.264653E-2,0E0,6.5132976E-2,0E0,2.9411688E-2,2.702434E-3,5.561698E-2,0E0,0E0,0E0,0E0,0E0,0E0,0E0],"parents":[2147483647,0,0,1,1,2,2,3,3,5,5,7,7,8,8,9,9],"right_children":[2,4,6,8,-1,10,-1,12,14,16,-1,-1,-1,-1,-1,-1,-1],"split_conditions":[3.5392454E0,-4.9159053E-1,1.0120982E0,-1.0539348E0,-1.3330877E-3,-1.2091887E0,-0E0,2.3839467E0,9.592347E-1,9.63903E-3,2.8008172E-2,7.2018066E-3,-0E0,-4.9121154E-4,-0E0,8.337939E-3,-0E0],"split_indices":[8,0,0,2,0,2,0,7,8,0,0,0,0,0,0,0,0],"split_type":[0,0,0,0,0,0,0,0,0,0,0,0,0,0,0,0,0],"sum_hessian":[1.23E2,1.18E2,5E0,3.3E1,8.5E1,4E0,1E0,5E0,2.8E1,2E0,2E0,4E0,1E0,2.7E1,1E0,1E0,1E0],"tree_param":{"num_deleted":"0","num_feature":"10","num_nodes":"17","size_leaf_vector":"1"}},{"base_weights":[1.8845301E-3,-6.933201E-3,2.7301538E-1,-1.3460586E-2,8.051115E-3,4.057498E-1,-0E0,-0E0,-1.1821237E-3,3.4455582E-2,-0E0,-3.901173E-4,2.1462396E-3],"categories":[],"categories_nodes":[],"categories_segments":[],"categories_sizes":[],"default_left":[0,0,0,0,0,0,0,0,0,0,0,0,0],"id":31,"left_children":[1,3,5,7,-1,9,-1,11,-1,-1,-1,-1,-1],"loss_changes":[4.529049E-1,6.871429E-2,3.759402E-1,1.6116858E-2,0E0,6.0146E-1,0E0,1.7845009E-2,0E0,0E0,0E0,0E0,0E0],"parents":[2147483647,0,0,1,1,2,2,3,3,5,5,7,7],"right_children":[2,4,6,8,-1,10,-1,12,-1,-1,-1,-1,-1],"split_conditions":[3.5392454E0,4.9114113E0,1.0120982E0,9.63903E-3,8.051115E-3,5.00293E0,-0E0,9.592347E-1,-1.1821237E-3,3.4455582E-2,-0E0,-3.901173E-4,2.1462396E-3],"split_indices":[8,9,0,0,0,6,0,8,0,0,0,0,0],"split_type":[0,0,0,0,0,0,0,0,0,0,0,0,0],"sum_hessian":[1.32E2,1.27E2,5E0,1.26E2,1E0,4E0,1E0,5.7E1,6.9E1,2E0,2E0,5E1,7E0],"tree_param":{"num_deleted":"0","num_feature":"10","num_nodes":"13","size_leaf_vector":"1"}},{"base_weights":[-0E0,-1.0358855E-2,2.3737253E-1,-0E0,-1.1541215E-3,4.0194178E-1,-0E0,-7.2884313E-3,5.9371084E-2,3.3307068E-2,-0E0,-0E0,-7.913457E-4,9.337096E-3,-2.674061E-4],"categories":[],"categories_nodes":[],"categories_segments":[],"categories_sizes":[],"default_left":[0,0,0,0,0,0,0,0,0,0,0,0,0,0,0],"id":32,"left_children":[1,3,5,7,-1,9,-1,11,13,-1,-1,-1,-1,-1,-1],"loss_changes":[2.9481992E-1,2.1540591E-2,3.645002E-1,3.7852198E-2,0E0,6.850039E-1,0E0,8.168181E-3,1.7412901E-1,0E0,0E0,0E0,0E0,0E0,0E0],"parents":[2147483647,0,0,1,1,2,2,3,3,5,5,7,7,8,8],"right_children":[2,4,6,8,-1,10,-1,12,14,-1,-1,-1,-1,-1,-1],"split_conditions":[3.5392454E0,9.63903E-3,5.00293E0,9.592347E-1,-1.1541215E-3,5.108686E-1,-0E0,-9.987738E-1,2.3839467E0,3.3307068E-2,-0E0,-0E0,-7.913457E-4,9.337096E-3,-2.674061E-4],"split_indices":[8,0,6,8,0,0,0,1,7,0,0,0,0,0,0],"split_type":[0,0,0,0,0,0,0,0,0,0,0,0,0,0,0],"sum_hessian":[1.25E2,1.21E2,4E0,5.7E1,6.4E1,3E0,1E0,4.8E1,9E0,2E0,1E0,6E0,4.2E1,5E0,4E0],"tree_param":{"num_deleted":"0","num_feature":"10","num_nodes":"15","size_leaf_vector":"1"}},{"base_weights":[-7.244045E-3,9.221198E-3,-2.7690828E-2,-5.9553995E-3,1.1868291E-1,-3.3632994E-2,-0E0,4.1670542E-2,-1.0054616E-3,7.3470064E-3,-0E0,-6.010714E-4,-1.09939076E-1,6.005022E-3,-0E0,-5.8505596E-3,-0E0],"categories":[],"categories_nodes":[],"categories_segments":[],"categories_sizes":[],"default_left":[0,0,0,0,0,0,0,0,0,0,0,0,0,0,0,0,0],"id":33,"left_children":[1,3,5,7,9,11,-1,13,-1,-1,-1,-1,15,-1,-1,-1,-1],"loss_changes":[5.1909473E-2,1.5176217E-1,2.4376556E-2,2.1739516E-2,6.0972005E-2,5.148559E-2,0E0,2.3638928E-2,0E0,0E0,0E0,0E0,2.3585632E-3,0E0,0E0,0E0,0E0],"parents":[2147483647,0,0,1,1,2,2,3,3,4,4,5,5,7,7,12,12],"right_children":[2,4,6,8,10,12,-1,14,-1,-1,-1,-1,16,-1,-1,-1,-1],"split_conditions":[9.63903E-3,9.592347E-1,7.621914E0,-1.5196964E0,5.00293E0,9.592347E-1,-0E0,-4.9159053E-1,-1.0054616E-3,7.3470064E-3,-0E0,-6.010714E-4,1.5133277E0,6.005022E-3,-0E0,-5.8505596E-3,-0E0],"split_indices":[0,8,6,2,6,8,0,0,0,0,0,0,0,0,0,0,0],"split_type":[0,0,0,0,0,0,0,0,0,0,0,0,0,0,0,0,0],"sum_hessian":[1.25E2,5.6E1,6.9E1,4.6E1,1E1,6.8E1,1E0,2E0,4.4E1,9E0,1E0,5.9E1,9E0,1E0,1E0,8E0,1E0],"tree_param":{"num_deleted":"0","num_feature":"10","num_nodes":"17","size_leaf_vector":"1"}},{"base_weights":[-0E0,-8.107522E-3,2.6514572E-1,1.4632358E-2,-2.2668945E-2,2.9506085E-2,-0E0,-0E0,1.4408663E-1,-0E0,-2.505429E-2,5.854897E-3,-6.9010345E-4,1.0750728E-2,-0E0,-5.1987683E-4,-3.7098892E-3],"categories":[],"categories_nodes":[],"categories_segments":[],"categories_sizes":[],"default_left":[0,0,0,0,0,0,0,0,0,0,0,0,0,0,0,0,0],"id":34,"left_children":[1,3,5,7,9,-1,-1,11,13,-1,15,-1,-1,-1,-1,-1,-1],"loss_changes":[2.1912324E-1,4.5740623E-2,4.8558044E-1,9.609697E-2,2.0179525E-4,0E0,0E0,3.3329267E-2,8.112024E-2,0E0,1.023189E-2,0E0,0E0,0E0,0E0,0E0,0E0],"parents":[2147483647,0,0,1,1,2,2,3,3,4,4,7,7,8,8,10,10],"right_children":[2,4,6,8,10,-1,-1,12,14,-1,16,-1,-1,-1,-1,-1,-1],"split_conditions":[4.829251E0,-4.9159053E-1,5.108686E-1,9.592347E-1,9.63903E-3,2.9506085E-2,-0E0,-1.5196964E0,2.3839467E0,-0E0,9.592347E-1,5.854897E-3,-6.9010345E-4,1.0750728E-2,-0E0,-5.1987683E-4,-3.7098892E-3],"split_indices":[8,0,0,8,0,0,0,2,6,0,8,0,0,0,0,0,0],"split_type":[0,0,0,0,0,0,0,0,0,0,0,0,0,0,0,0,0],"sum_hessian":[1.26E2,1.24E2,2E0,3.5E1,8.9E1,1E0,1E0,3.1E1,4E0,1.6E1,7.3E1,1E0,3E1,3E0,1E0,6.5E1,8E0],"tree_param":{"num_deleted":"0","num_feature":"10","num_nodes":"17","size_leaf_vector":"1"}},{"base_weights":[5.3103804E-3,-2.781916E-3,2.1470541E-1,4.184258E-2,-1.3267533E-2,4.58568E-1,-0E0,1.0980335E-1,-0E0,-0E0,-9.841423E-4,-0E0,2.8768433E-2,-1.9915607E-3,7.1639656E-3,-0E0,8.817833E-3,-5.514763E-4,1.0770686E-3],"categories":[],"categories_nodes":[],"categories_segments":[],"categories_sizes":[],"default_left":[0,0,0,0,0,0,0,0,0,0,0,0,0,0,0,0,0,0,0],"id":35,"left_children":[1,3,5,7,9,11,13,15,-1,17,-1,-1,-1,-1,-1,-1,-1,-1,-1],"loss_changes":[3.2006437E-1,4.2417474E-2,3.08165E-1,7.1942985E-2,4.0225126E-3,3.1244278E-2,4.7404025E-2,9.015582E-2,0E0,9.163944E-3,0E0,0E0,0E0,0E0,0E0,0E0,0E0,0E0,0E0],"parents":[2147483647,0,0,1,1,2,2,3,3,4,4,5,5,6,6,7,7,9,9],"right_children":[2,4,6,8,10,12,14,16,-1,18,-1,-1,-1,-1,-1,-1,-1,-1,-1],"split_conditions":[2.6128707E0,-9.987738E-1,3.379051E0,9.63903E-3,9.63903E-3,-9.928201E-1,4.9114113E0,-9.928201E-1,-0E0,3.143303E-1,-9.841423E-4,-0E0,2.8768433E-2,-1.9915607E-3,7.1639656E-3,-0E0,8.817833E-3,-5.514763E-4,1.0770686E-3],"split_indices":[9,1,9,0,0,0,9,0,0,9,0,0,0,0,0,0,0,0,0],"split_type":[0,0,0,0,0,0,0,0,0,0,0,0,0,0,0,0,0,0,0],"sum_hessian":[1.25E2,1.19E2,6E0,1.3E1,1.06E2,2E0,4E0,7E0,6E0,4.8E1,5.8E1,1E0,1E0,3E0,1E0,2E0,5E0,4E1,8E0],"tree_param":{"num_deleted":"0","num_feature":"10","num_nodes":"19","size_leaf_vector":"1"}},{"base_weights":[9.0252E-3,9.904074E-2,-6.4125337E-4,-0E0,3.1672832E-1,6.153827E-2,-1.0654916E-3,4.301495E-1,-0E0,5.2146106E-3,-0E0,2.6214857E-2,-0E0],"categories":[],"categories_nodes":[],"categories_segments":[],"categories_sizes":[],"default_left":[0,0,0,0,0,0,0,0,0,0,0,0,0],"id":36,"left_children":[1,3,-1,5,7,9,-1,11,-1,-1,-1,-1,-1],"loss_changes":[2.90236E-1,5.1807165E-1,0E0,4.3773007E-2,3.076368E-1,4.9145337E-2,0E0,2.6426578E-1,0E0,0E0,0E0,0E0,0E0],"parents":[2147483647,0,0,1,1,3,3,4,4,5,5,7,7],"right_children":[2,4,-1,6,8,10,-1,12,-1,-1,-1,-1,-1],"split_conditions":[-7.434271E-1,-1.0539348E0,-6.4125337E-4,9.63903E-3,2.3839467E0,2.3839467E0,-1.0654916E-3,1.0120982E0,-0E0,5.2146106E-3,-0E0,2.6214857E-2,-0E0],"split_indices":[2,2,0,0,7,7,0,0,0,0,0,0,0],"split_type":[0,0,0,0,0,0,0,0,0,0,0,0,0],"sum_hessian":[1.24E2,2.8E1,9.6E1,2.1E1,7E0,9E0,1.2E1,5E0,2E0,7E0,2E0,4E0,1E0],"tree_param":{"num_deleted":"0","num_feature":"10","num_nodes":"13","size_leaf_vector":"1"}},{"base_weights":[1.2840591E-3,-6.6432836E-3,2.4230821E-2,3.2903276E-2,-8.446902E-4,-0E0,8.039742E-3],"categories":[],"categories_nodes":[],"categories_segments":[],"categories_sizes":[],"default_left":[0,0,0,0,0,0,0],"id":37,"left_children":[1,3,-1,5,-1,-1,-1],"loss_changes":[7.096541E-1,4.1195862E-2,0E0,6.132555E-2,0E0,0E0,0E0],"parents":[2147483647,0,0,1,1,3,3],"right_children":[2,4,-1,6,-1,-1,-1],"split_conditions":[4.829251E0,-9.987738E-1,2.4230821E-2,9.592347E-1,-8.446902E-4,-0E0,8.039742E-3],"split_indices":[8,1,0,8,0,0,0],"split_type":[0,0,0,0,0,0,0],"sum_hessian":[1.21E2,1.19E2,2E0,1.4E1,1.05E2,1.2E1,2E0],"tree_param":{"num_deleted":"0","num_feature":"10","num_nodes":"7","size_leaf_vector":"1"}},{"base_weights":[2.153919E-3,-4.9341917E-3,3.481189E-1,-1.1054827E-2,6.3506127E-3,2.9992018E-2,-0E0,-0E0,-9.931069E-4,2.9940899E-3,-0E0],"categories":[],"categories_nodes":[],"categories_segments":[],"categories_sizes":[],"default_left":[0,0,0,0,0,0,0,0,0,0,0],"id":38,"left_children":[1,3,5,7,-1,-1,-1,9,-1,-1,-1],"loss_changes":[4.8719656E-1,4.4374883E-2,5.9467834E-1,1.8773451E-2,0E0,0E0,0E0,1.7929148E-2,0E0,0E0,0E0],"parents":[2147483647,0,0,1,1,2,2,3,3,7,7],"right_children":[2,4,6,8,-1,-1,-1,10,-1,-1,-1],"split_conditions":[3.5392454E0,4.9114113E0,5.108686E-1,-4.9159053E-1,6.3506127E-3,2.9992018E-2,-0E0,-9.987738E-1,-9.931069E-4,2.9940899E-3,-0E0],"split_indices":[8,9,0,0,0,0,0,1,0,0,0],"split_type":[0,0,0,0,0,0,0,0,0,0,0],"sum_hessian":[1.27E2,1.24E2,3E0,1.23E2,1E0,2E0,1E0,3.8E1,8.5E1,4E0,3.4E1],"tree_param":{"num_deleted":"0","num_feature":"10","num_nodes":"11","size_leaf_vector":"1"}},{"base_weights":[-0E0,-7.1627405E-3,2.0465238E-1,-0E0,-7.126452E-4,3.2699195E-1,-0E0,-0E0,2.6548406E-2,2.8992286E-2,-0E0,-3.1884797E-4,-0E0,3.4074932E-3,-0E0],"categories":[],"categories_nodes":[],"categories_segments":[],"categories_sizes":[],"default_left":[0,0,0,0,0,0,0,0,0,0,0,0,0,0,0],"id":39,"left_children":[1,3,5,7,-1,9,-1,11,13,-1,-1,-1,-1,-1,-1],"loss_changes":[2.5729826E-1,1.1061532E-2,2.8332308E-1,3.5240897E-3,0E0,4.7404438E-1,0E0,6.506498E-4,1.5053527E-2,0E0,0E0,0E0,0E0,0E0,0E0],"parents":[2147483647,0,0,1,1,2,2,3,3,5,5,7,7,8,8],"right_children":[2,4,6,8,-1,10,-1,12,14,-1,-1,-1,-1,-1,-1],"split_conditions":[3.5392454E0,-4.9159053E-1,1.0120982E0,9.592347E-1,-7.126452E-4,5.00293E0,-0E0,-9.928201E-1,2.3839467E0,2.8992286E-2,-0E0,-3.1884797E-4,-0E0,3.4074932E-3,-0E0],"split_indices":[8,0,0,8,0,6,0,0,6,0,0,0,0,0,0],"split_type":[0,0,0,0,0,0,0,0,0,0,0,0,0,0,0],"sum_hessian":[1.21E2,1.16E2,5E0,3.3E1,8.3E1,4E0,1E0,2.9E1,4E0,2E0,2E0,1.5E1,1.4E1,3E0,1E0],"tree_param":{"num_deleted":"0","num_feature":"10","num_nodes":"15","size_leaf_vector":"1"}},{"base_weights":[5.756263E-3,-3.0986178E-3,1.7873731E-1,-9.667821E-3,1.5163198E-2,3.1209338E-1,-0E0,-0E0,-6.9132406E-4,6.3755214E-2,-0E0,2.2796057E-2,-0E0,-1.6298151E-3,-0E0,2.1566032E-4,-0E0,4.5691417E-3,-0E0],"categories":[],"categories_nodes":[],"categories_segments":[],"categories_sizes":[],"default_left":[0,0,0,0,0,0,0,0,0,0,0,0,0,0,0,0,0,0,0],"id":40,"left_children":[1,3,5,7,9,11,13,15,-1,17,-1,-1,-1,-1,-1,-1,-1,-1,-1],"loss_changes":[2.8443417E-1,1.1794777E-2,2.9689047E-1,9.693965E-3,3.3823475E-2,4.5490676E-1,3.1875565E-3,7.4414995E-5,0E0,3.0224029E-2,0E0,0E0,0E0,0E0,0E0,0E0,0E0,0E0,0E0],"parents":[2147483647,0,0,1,1,2,2,3,3,4,4,5,5,6,6,7,7,9,9],"right_children":[2,4,6,8,10,12,14,16,-1,18,-1,-1,-1,-1,-1,-1,-1,-1,-1],"split_conditions":[2.2492402E0,9.592347E-1,5.00293E0,-1.5196964E0,2.3839467E0,1.595448E0,7.621914E0,1.595448E0,-6.9132406E-4,2.3839467E0,-0E0,2.2796057E-2,-0E0,-1.6298151E-3,-0E0,2.1566032E-4,-0E0,4.5691417E-3,-0E0],"split_indices":[8,8,6,2,6,3,6,3,0,7,0,0,0,0,0,0,0,0,0],"split_type":[0,0,0,0,0,0,0,0,0,0,0,0,0,0,0,0,0,0,0],"sum_hessian":[1.27E2,1.19E2,8E0,1.08E2,1.1E1,5E0,3E0,5E0,1.03E2,8E0,3E0,4E0,1E0,2E0,1E0,3E0,2E0,7E0,1E0],"tree_param":{"num_deleted":"0","num_feature":"10","num_nodes":"19","size_leaf_vector":"1"}},{"base_weights":[4.1799838E-5,-6.494102E-3,2.2060122E-2,-0E0,-4.3864246E-3,-8.09024E-3,5.1506806E-2,9.7239733E-4,-6.9120846E-4,9.083153E-3,-7.2894944E-4],"categories":[],"categories_nodes":[],"categories_segments":[],"categories_sizes":[],"default_left":[0,0,0,0,0,0,0,0,0,0,0],"id":41,"left_children":[1,3,-1,5,-1,7,9,-1,-1,-1,-1],"loss_changes":[5.8929235E-1,4.8560172E-2,0E0,4.1557178E-2,0E0,1.4510379E-2,1.9800973E-1,0E0,0E0,0E0,0E0],"parents":[2147483647,0,0,1,1,3,3,5,5,6,6],"right_children":[2,4,-1,6,-1,8,10,-1,-1,-1,-1],"split_conditions":[4.829251E0,2.3839467E0,2.2060122E-2,9.592347E-1,-4.3864246E-3,-1.5196964E0,9.63903E-3,9.7239733E-4,-6.9120846E-4,9.083153E-3,-7.2894944E-4],"split_indices":[8,6,0,8,0,2,0,0,0,0,0],"split_type":[0,0,0,0,0,0,0,0,0,0,0],"sum_hessian":[1.27E2,1.25E2,2E0,1.19E2,6E0,1.07E2,1.2E1,3E0,1.04E2,6E0,6E0],"tree_param":{"num_deleted":"0","num_feature":"10","num_nodes":"11","size_leaf_vector":"1"}},{"base_weights":[8.005589E-3,-4.4080676E-3,3.4034672E-1,2.6076647E-2,-1.2948604E-2,4.3908226E-1,-0E0,2.7412747E-3,-0E0,-4.6275314E-2,-4.4009704E-3,-0E0,2.4898428E-2,-0E0,-4.0252563E-3,-4.4555168E-4,-0E0],"categories":[],"categories_nodes":[],"categories_segments":[],"categories_sizes":[],"default_left":[0,0,0,0,0,0,0,0,0,0,0,0,0,0,0,0,0],"id":42,"left_children":[1,3,5,7,9,11,-1,-1,-1,13,15,-1,-1,-1,-1,-1,-1],"loss_changes":[6.892913E-1,2.527669E-2,2.6895076E-1,2.0538464E-2,5.2235685E-3,2.7924538E-2,0E0,0E0,0E0,1.0991324E-2,5.5467268E-3,0E0,0E0,0E0,0E0,0E0,0E0],"parents":[2147483647,0,0,1,1,2,2,3,3,4,4,5,5,9,9,10,10],"right_children":[2,4,6,8,10,12,-1,-1,-1,14,16,-1,-1,-1,-1,-1,-1],"split_conditions":[2.6128707E0,-9.987738E-1,2.3839467E0,1.595448E0,-1.0539348E0,-1.0539348E0,-0E0,2.7412747E-3,-0E0,9.592347E-1,9.592347E-1,-0E0,2.4898428E-2,-0E0,-4.0252563E-3,-4.4555168E-4,-0E0],"split_indices":[9,1,7,3,2,2,0,0,0,8,8,0,0,0,0,0,0],"split_type":[0,0,0,0,0,0,0,0,0,0,0,0,0,0,0,0,0],"sum_hessian":[1.25E2,1.2E2,5E0,1.3E1,1.07E2,4E0,1E0,9E0,4E0,9E0,9.8E1,1E0,3E0,5E0,4E0,9.3E1,5E0],"tree_param":{"num_deleted":"0","num_feature":"10","num_nodes":"17","size_leaf_vector":"1"}},{"base_weights":[8.714758E-3,-0E0,2.8470978E-1,-8.870236E-3,3.3481296E-2,2.3469413E-2,-0E0,-0E0,-6.6007813E-4,5.9782723E-3,-1.1425263E-3,5.1846295E-3,-0E0],"categories":[],"categories_nodes":[],"categories_segments":[],"categories_sizes":[],"default_left":[0,0,0,0,0,0,0,0,0,0,0,0,0],"id":43,"left_children":[1,3,5,7,9,-1,-1,11,-1,-1,-1,-1,-1],"loss_changes":[3.9610875E-1,2.5961425E-2,4.7600296E-1,8.879813E-3,1.2867802E-1,0E0,0E0,2.1504307E-2,0E0,0E0,0E0,0E0,0E0],"parents":[2147483647,0,0,1,1,2,2,3,3,4,4,7,7],"right_children":[2,4,6,8,10,-1,-1,12,-1,-1,-1,-1,-1],"split_conditions":[3.5392454E0,9.592347E-1,1.0120982E0,-1.5196964E0,9.63903E-3,2.3469413E-2,-0E0,-4.9159053E-1,-6.6007813E-4,5.9782723E-3,-1.1425263E-3,5.1846295E-3,-0E0],"split_indices":[8,8,0,2,0,0,0,0,0,0,0,0,0],"split_type":[0,0,0,0,0,0,0,0,0,0,0,0,0],"sum_hessian":[1.2E2,1.16E2,4E0,1.01E2,1.5E1,3E0,1E0,5E0,9.6E1,9E0,6E0,1E0,4E0],"tree_param":{"num_deleted":"0","num_feature":"10","num_nodes":"13","size_leaf_vector":"1"}},{"base_weights":[2.7369582E-3,-2.2456443E-3,1.5634339E-1,1.3154649E-2,-2.0662831E-2,2.2982871E-2,-0E0,-0E0,9.757569E-2,-1.9777915E-4,-4.1486374E-3,-1.2843519E-3,4.5377645E-3,1.2685679E-3,-3.9707366E-4,1.0573692E-2,-0E0,-3.373228E-3,-0E0],"categories":[],"categories_nodes":[],"categories_segments":[],"categories_sizes":[],"default_left":[0,0,0,0,0,0,0,0,0,0,0,0,0,0,0,0,0,0,0],"id":44,"left_children":[1,3,5,7,9,-1,11,13,15,-1,-1,17,-1,-1,-1,-1,-1,-1,-1],"loss_changes":[1.7077385E-1,3.6926996E-2,2.5146714E-1,7.720994E-2,2.699748E-2,0E0,1.6481292E-2,4.3907305E-3,1.8263799E-1,0E0,0E0,1.8197622E-2,0E0,0E0,0E0,0E0,0E0,0E0,0E0],"parents":[2147483647,0,0,1,1,2,2,3,3,4,4,6,6,7,7,8,8,11,11],"right_children":[2,4,6,8,10,-1,12,14,16,-1,-1,18,-1,-1,-1,-1,-1,-1,-1],"split_conditions":[2.6128707E0,9.63903E-3,3.379051E0,9.592347E-1,9.592347E-1,2.2982871E-2,4.9114113E0,-1.5196964E0,2.3839467E0,-1.9777915E-4,-4.1486374E-3,6.119256E0,4.5377645E-3,1.2685679E-3,-3.9707366E-4,1.0573692E-2,-0E0,-3.373228E-3,-0E0],"split_indices":[9,0,9,8,8,0,9,2,7,0,0,8,0,0,0,0,0,0,0],"split_type":[0,0,0,0,0,0,0,0,0,0,0,0,0,0,0,0,0,0,0],"sum_hessian":[1.21E2,1.15E2,6E0,4.8E1,6.7E1,1E0,5E0,4E1,8E0,6E1,7E0,4E0,1E0,2E0,3.8E1,5E0,3E0,3E0,1E0],"tree_param":{"num_deleted":"0","num_feature":"10","num_nodes":"19","size_leaf_vector":"1"}},{"base_weights":[6.3225096E-3,-6.315623E-3,1.03258766E-1,-0E0,-5.286733E-4,1.8257041E-1,-1.9732795E-3,5.0232993E-3,-0E0,3.0161342E-1,-0E0,1.924364E-2,-0E0],"categories":[],"categories_nodes":[],"categories_segments":[],"categories_sizes":[],"default_left":[0,0,0,0,0,0,0,0,0,0,0,0,0],"id":45,"left_children":[1,3,5,7,-1,9,-1,-1,-1,11,-1,-1,-1],"loss_changes":[1.9123453E-1,6.560207E-3,2.825123E-1,2.0186828E-2,0E0,4.4305924E-1,0E0,0E0,0E0,4.2343712E-1,0E0,0E0,0E0],"parents":[2147483647,0,0,1,1,2,2,3,3,5,5,9,9],"right_children":[2,4,6,8,-1,10,-1,-1,-1,12,-1,-1,-1],"split_conditions":[9.592347E-1,-1.5196964E0,5.108686E-1,-4.9159053E-1,-5.286733E-4,2.3839467E0,-1.9732795E-3,5.0232993E-3,-0E0,5.00293E0,-0E0,1.924364E-2,-0E0],"split_indices":[8,2,0,0,0,7,0,0,0,6,0,0,0],"split_type":[0,0,0,0,0,0,0,0,0,0,0,0,0],"sum_hessian":[1.15E2,9.8E1,1.7E1,5E0,9.3E1,1.3E1,4E0,1E0,4E0,9E0,4E0,8E0,1E0],"tree_param":{"num_deleted":"0","num_feature":"10","num_nodes":"13","size_leaf_vector":"1"}},{"base_weights":[-0E0,-5.5758236E-3,1.2644836E-1,3.6603787E-3,-2.0399392E-2,2.3528293E-1,-1.4908785E-4,-0E0,9.050889E-2,-1.4852783E-4,-4.3032872E-3,3.004861E-1,-0E0,1.1425607E-3,-5.483211E-4,8.559222E-3,-0E0,-0E0,2.2502843E-2],"categories":[],"categories_nodes":[],"categories_segments":[],"categories_sizes":[],"default_left":[0,0,0,0,0,0,0,0,0,0,0,0,0,0,0,0,0,0,0],"id":46,"left_children":[1,3,5,7,9,11,-1,13,15,-1,-1,17,-1,-1,-1,-1,-1,-1,-1],"loss_changes":[1.4763346E-1,2.4873793E-2,2.4363038E-1,5.6619503E-2,3.190688E-2,1.5424493E-1,0E0,7.098605E-3,8.917756E-2,0E0,0E0,2.684533E-1,0E0,0E0,0E0,0E0,0E0,0E0,0E0],"parents":[2147483647,0,0,1,1,2,2,3,3,4,4,5,5,7,7,8,8,11,11],"right_children":[2,4,6,8,10,12,-1,14,16,-1,-1,18,-1,-1,-1,-1,-1,-1,-1],"split_conditions":[2.6128707E0,9.63903E-3,1.0120982E0,9.592347E-1,9.592347E-1,2.3839467E0,-1.4908785E-4,-1.5196964E0,2.3839467E0,-1.4852783E-4,-4.3032872E-3,-9.928201E-1,-0E0,1.1425607E-3,-5.483211E-4,8.559222E-3,-0E0,-0E0,2.2502843E-2],"split_indices":[9,0,0,8,8,7,0,2,7,0,0,0,0,0,0,0,0,0,0],"split_type":[0,0,0,0,0,0,0,0,0,0,0,0,0,0,0,0,0,0,0],"sum_hessian":[1.27E2,1.19E2,8E0,5.3E1,6.6E1,6E0,2E0,4.7E1,6E0,5.9E1,7E0,5E0,1E0,2E0,4.5E1,4E0,2E0,2E0,3E0],"tree_param":{"num_deleted":"0","num_feature":"10","num_nodes":"19","size_leaf_vector":"1"}},{"base_weights":[-9.896017E-4,-5.960038E-3,3.3806562E-3,-0E0,-3.172262E-3,-6.537033E-3,2.7233005E-2,-0E0,-5.350667E-4,4.313906E-3,-0E0],"categories":[],"categories_nodes":[],"categories_segments":[],"categories_sizes":[],"default_left":[0,0,0,0,0,0,0,0,0,0,0],"id":47,"left_children":[1,3,-1,5,-1,7,9,-1,-1,-1,-1],"loss_changes":[1.3563561E-2,1.5579667E-2,0E0,1.3029541E-2,0E0,7.7255014E-3,5.1393304E-2,0E0,0E0,0E0,0E0],"parents":[2147483647,0,0,1,1,3,3,5,5,6,6],"right_children":[2,4,-1,6,-1,8,10,-1,-1,-1,-1],"split_conditions":[4.9114113E0,3.379051E0,3.3806562E-3,9.592347E-1,-3.172262E-3,-1.5196964E0,2.3839467E0,-0E0,-5.350667E-4,4.313906E-3,-0E0],"split_indices":[9,9,0,8,0,2,7,0,0,0,0],"split_type":[0,0,0,0,0,0,0,0,0,0,0],"sum_hessian":[1.28E2,1.27E2,1E0,1.23E2,4E0,1.13E2,1E1,4E0,1.09E2,7E0,3E0],"tree_param":{"num_deleted":"0","num_feature":"10","num_nodes":"11","size_leaf_vector":"1"}},{"base_weights":[-3.2820133E-3,-8.61922E-3,3.2961399E-3,-0E0,-1.1535979E-2,-6.469075E-4,-0E0,2.0425708E-3,-0E0],"categories":[],"categories_nodes":[],"categories_segments":[],"categories_sizes":[],"default_left":[0,0,0,0,0,0,0,0,0],"id":48,"left_children":[1,3,-1,-1,5,-1,7,-1,-1],"loss_changes":[1.623966E-2,6.3303597E-3,0E0,0E0,3.5773357E-3,0E0,3.3376762E-3,0E0,0E0],"parents":[2147483647,0,0,1,1,4,4,6,6],"right_children":[2,4,-1,-1,6,-1,8,-1,-1],"split_conditions":[4.1452312E0,-1.5196964E0,3.2961399E-3,-0E0,3.5392454E0,-6.469075E-4,5.00293E0,2.0425708E-3,-0E0],"split_indices":[9,2,0,0,8,0,6,0,0],"split_type":[0,0,0,0,0,0,0,0,0],"sum_hessian":[1.19E2,1.18E2,1E0,5E0,1.13E2,1.11E2,2E0,1E0,1E0],"tree_param":{"num_deleted":"0","num_feature":"10","num_nodes":"9","size_leaf_vector":"1"}},{"base_weights":[-7.223883E-4,-0E0,-4.8061237E-2,1.3670376E-2,-3.4782125E-4,-4.504065E-3,-0E0,-0E0,8.644809E-2,4.869153E-3,-4.4752774E-4,-0E0,6.694071E-3],"categories":[],"categories_nodes":[],"categories_segments":[],"categories_sizes":[],"default_left":[0,0,0,0,0,0,0,0,0,0,0,0,0],"id":49,"left_children":[1,3,5,7,-1,-1,-1,9,11,-1,-1,-1,-1],"loss_changes":[1.8412784E-2,1.3472216E-2,3.8323425E-2,7.192763E-2,0E0,0E0,0E0,2.2491863E-2,4.326366E-2,0E0,0E0,0E0,0E0],"parents":[2147483647,0,0,1,1,2,2,3,3,7,7,8,8],"right_children":[2,4,6,8,-1,-1,-1,10,12,-1,-1,-1,-1],"split_conditions":[2.3839467E0,9.63903E-3,7.621914E0,3.143303E-1,-3.4782125E-4,-4.504065E-3,-0E0,-1.5196964E0,-9.928201E-1,4.869153E-3,-4.4752774E-4,-0E0,6.694071E-3],"split_indices":[6,0,6,9,0,0,0,2,0,0,0,0,0],"split_type":[0,0,0,0,0,0,0,0,0,0,0,0,0],"sum_hessian":[1.26E2,1.19E2,7E0,5.4E1,6.5E1,6E0,1E0,4.4E1,1E1,1E0,4.3E1,4E0,6E0],"tree_param":{"num_deleted":"0","num_feature":"10","num_nodes":"13","size_leaf_vector":"1"}},{"base_weights":[6.2809247E-3,-0E0,1.831354E-2,1.6981171E-2,-1.7734002E-2,-0E0,1.5139547E-1,-1.4933867E-4,-3.4575842E-3,-0E0,-2.0519104E-4,1.1759914E-2,-0E0],"categories":[],"categories_nodes":[],"categories_segments":[],"categories_sizes":[],"default_left":[0,0,0,0,0,0,0,0,0,0,0,0,0],"id":50,"left_children":[1,3,-1,5,7,9,11,-1,-1,-1,-1,-1,-1],"loss_changes":[3.9749214E-1,3.787445E-2,0E0,1.9042549E-1,1.6803019E-2,6.904952E-4,1.8094233E-1,0E0,0E0,0E0,0E0,0E0,0E0],"parents":[2147483647,0,0,1,1,3,3,4,4,5,5,6,6],"right_children":[2,4,-1,6,8,10,12,-1,-1,-1,-1,-1,-1],"split_conditions":[4.829251E0,9.63903E-3,1.831354E-2,9.592347E-1,9.592347E-1,-9.987738E-1,2.3839467E0,-1.4933867E-4,-3.4575842E-3,-0E0,-2.0519104E-4,1.1759914E-2,-0E0],"split_indices":[8,0,0,8,8,1,7,0,0,0,0,0,0],"split_type":[0,0,0,0,0,0,0,0,0,0,0,0,0],"sum_hessian":[1.25E2,1.23E2,2E0,5.4E1,6.9E1,4.6E1,8E0,6.2E1,7E0,6E0,4E1,6E0,2E0],"tree_param":{"num_deleted":"0","num_feature":"10","num_nodes":"13","size_leaf_vector":"1"}},{"base_weights":[5.20935E-4,-3.7301516E-3,1.7703088E-2,5.533655E-3,-1.782251E-2,-1.4727842E-3,8.1695646E-2,-9.109859E-5,-3.8811974E-3,-0E0,-3.62591E-4,5.2510393E-3,-0E0],"categories":[],"categories_nodes":[],"categories_segments":[],"categories_sizes":[],"default_left":[0,0,0,0,0,0,0,0,0,0,0,0,0],"id":51,"left_children":[1,3,-1,5,7,9,11,-1,-1,-1,-1,-1,-1],"loss_changes":[3.778795E-1,2.3475502E-2,0E0,7.1715586E-2,3.094289E-2,2.1550371E-3,3.6877684E-2,0E0,0E0,0E0,0E0,0E0,0E0],"parents":[2147483647,0,0,1,1,3,3,4,4,5,5,6,6],"right_children":[2,4,-1,6,8,10,12,-1,-1,-1,-1,-1,-1],"split_conditions":[4.829251E0,9.63903E-3,1.7703088E-2,9.592347E-1,9.592347E-1,-9.987738E-1,5.00293E0,-9.109859E-5,-3.8811974E-3,-0E0,-3.62591E-4,5.2510393E-3,-0E0],"split_indices":[8,0,0,8,8,1,6,0,0,0,0,0,0],"split_type":[0,0,0,0,0,0,0,0,0,0,0,0,0],"sum_hessian":[1.33E2,1.31E2,2E0,5.8E1,7.3E1,4.8E1,1E1,6.5E1,8E0,6E0,4.2E1,9E0,1E0],"tree_param":{"num_deleted":"0","num_feature":"10","num_nodes":"13","size_leaf_vector":"1"}},{"base_weights":[-0E0,-9.719382E-3,1.13192074E-1,-0E0,-1.4788933E-2,2.3160875E-1,-0E0,4.747424E-3,-2.6307083E-3,-8.4312324E-4,-0E0,2.30645E-2,-0E0,-5.0722115E-4,-0E0],"categories":[],"categories_nodes":[],"categories_segments":[],"categories_sizes":[],"default_left":[0,0,0,0,0,0,0,0,0,0,0,0,0,0,0],"id":52,"left_children":[1,3,5,7,9,11,-1,-1,13,-1,-1,-1,-1,-1,-1],"loss_changes":[8.811617E-2,7.3490646E-3,1.9133839E-1,1.8265724E-2,1.7605163E-4,3.7015232E-1,0E0,0E0,2.9548877E-3,0E0,0E0,0E0,0E0,0E0,0E0],"parents":[2147483647,0,0,1,1,2,2,3,3,4,4,5,5,8,8],"right_children":[2,4,6,8,10,12,-1,-1,14,-1,-1,-1,-1,-1,-1],"split_conditions":[3.5392454E0,-4.9159053E-1,1.0120982E0,-1.5196964E0,9.643653E-1,5.00293E0,-0E0,4.747424E-3,9.592347E-1,-8.4312324E-4,-0E0,2.30645E-2,-0E0,-5.0722115E-4,-0E0],"split_indices":[8,0,0,2,2,6,0,0,8,0,0,0,0,0,0],"split_type":[0,0,0,0,0,0,0,0,0,0,0,0,0,0,0],"sum_hessian":[1.23E2,1.18E2,5E0,3.4E1,8.4E1,4E0,1E0,1E0,3.3E1,6.5E1,1.9E1,2E0,2E0,3E1,3E0],"tree_param":{"num_deleted":"0","num_feature":"10","num_nodes":"15","size_leaf_vector":"1"}},{"base_weights":[3.343644E-3,-8.3305617E-4,1.6728578E-2,7.475721E-3,-4.961094E-4,-0E0,6.5975495E-2,4.628739E-3,-4.4974574E-4,5.8425195E-3,-0E0],"categories":[],"categories_nodes":[],"categories_segments":[],"categories_sizes":[],"default_left":[0,0,0,0,0,0,0,0,0,0,0],"id":53,"left_children":[1,3,-1,5,-1,7,9,-1,-1,-1,-1],"loss_changes":[3.3454415E-1,1.0284238E-2,0E0,1.9863691E-2,0E0,1.9486524E-2,3.2852225E-2,0E0,0E0,0E0,0E0],"parents":[2147483647,0,0,1,1,3,3,5,5,6,6],"right_children":[2,4,-1,6,-1,8,10,-1,-1,-1,-1],"split_conditions":[3.5392454E0,-4.9159053E-1,1.6728578E-2,9.592347E-1,-4.961094E-4,-1.5196964E0,2.3839467E0,4.628739E-3,-4.4974574E-4,5.8425195E-3,-0E0],"split_indices":[8,0,0,8,0,2,6,0,0,0,0],"split_type":[0,0,0,0,0,0,0,0,0,0,0],"sum_hessian":[1.2E2,1.18E2,2E0,3.3E1,8.5E1,2.9E1,4E0,1E0,2.8E1,3E0,1E0],"tree_param":{"num_deleted":"0","num_feature":"10","num_nodes":"11","size_leaf_vector":"1"}},{"base_weights":[-1.418559E-4,1.5808674E-2,-1.8967368E-2,-0E0,1.1419866E-1,-8.3316634E-5,-7.9527356E-2,-1.6102254E-4,-0E0,1.0172642E-2,-0E0,-1.0984528E-1,-0E0,-6.092317E-3,-0E0],"categories":[],"categories_nodes":[],"categories_segments":[],"categories_sizes":[],"default_left":[0,0,0,0,0,0,0,0,0,0,0,0,0,0,0],"id":54,"left_children":[1,3,5,7,9,-1,11,-1,-1,-1,-1,13,-1,-1,-1],"loss_changes":[4.061491E-2,1.2945947E-1,3.6804166E-2,1.9705477E-4,1.8768978E-1,0E0,4.534787E-2,0E0,0E0,0E0,0E0,1.0178357E-2,0E0,0E0,0E0],"parents":[2147483647,0,0,1,1,2,2,3,3,4,4,6,6,11,11],"right_children":[2,4,6,8,10,-1,12,-1,-1,-1,-1,14,-1,-1,-1],"split_conditions":[9.63903E-3,9.592347E-1,9.592347E-1,-9.928201E-1,2.3839467E0,-8.3316634E-5,7.621914E0,-1.6102254E-4,-0E0,1.0172642E-2,-0E0,1.5E0,-0E0,-6.092317E-3,-0E0],"split_indices":[0,8,8,0,7,0,6,0,0,0,0,4,0,0,0],"split_type":[0,0,0,0,0,0,0,0,0,0,0,0,0,0,0],"sum_hessian":[1.28E2,5.5E1,7.3E1,4.5E1,1E1,6.4E1,9E0,1.8E1,2.7E1,7E0,3E0,8E0,1E0,7E0,1E0],"tree_param":{"num_deleted":"0","num_feature":"10","num_nodes":"15","size_leaf_vector":"1"}},{"base_weights":[4.076284E-3,-1.7064229E-3,1.7405464E-1,-0E0,-4.2766528E-4,2.8465167E-1,-0E0,6.60319E-3,-0E0,2.3612913E-2,-0E0,-0E0,3.7533087E-3],"categories":[],"categories_nodes":[],"categories_segments":[],"categories_sizes":[],"default_left":[0,0,0,0,0,0,0,0,0,0,0,0,0],"id":55,"left_children":[1,3,5,7,-1,9,-1,11,-1,-1,-1,-1,-1],"loss_changes":[2.1032092E-1,4.5522302E-3,2.7409434E-1,2.0929019E-3,0E0,4.0595192E-1,0E0,3.1716675E-2,0E0,0E0,0E0,0E0,0E0],"parents":[2147483647,0,0,1,1,2,2,3,3,5,5,7,7],"right_children":[2,4,6,8,-1,10,-1,12,-1,-1,-1,-1,-1],"split_conditions":[2.2492402E0,9.63903E-3,5.108686E-1,2.3839467E0,-4.2766528E-4,2.3839467E0,-0E0,9.592347E-1,-0E0,2.3612913E-2,-0E0,-0E0,3.7533087E-3],"split_indices":[8,0,0,7,0,7,0,8,0,0,0,0,0],"split_type":[0,0,0,0,0,0,0,0,0,0,0,0,0],"sum_hessian":[1.25E2,1.19E2,6E0,5.3E1,6.6E1,5E0,1E0,4.7E1,6E0,3E0,2E0,4.2E1,5E0],"tree_param":{"num_deleted":"0","num_feature":"10","num_nodes":"13","size_leaf_vector":"1"}},{"base_weights":[-2.7571726E-3,-9.806171E-3,8.995848E-2,-1.0899907E-3,-3.8685815E-3,1.8985076E-2,-0E0,-0E0,-5.9189405E-3,4.513019E-3,-0E0,-3.808247E-4,-0E0],"categories":[],"categories_nodes":[],"categories_segments":[],"categories_sizes":[],"default_left":[0,0,0,0,0,0,0,0,0,0,0,0,0],"id":56,"left_children":[1,3,5,7,-1,-1,-1,9,11,-1,-1,-1,-1],"loss_changes":[3.400387E-2,2.546525E-2,2.6406884E-1,3.4136714E-3,0E0,0E0,0E0,1.6293874E-2,1.9146127E-3,0E0,0E0,0E0,0E0],"parents":[2147483647,0,0,1,1,2,2,3,3,7,7,8,8],"right_children":[2,4,6,8,-1,-1,-1,10,12,-1,-1,-1,-1],"split_conditions":[4.829251E0,2.3839467E0,5.108686E-1,-1.5196964E0,-3.8685815E-3,1.8985076E-2,-0E0,-4.9159053E-1,9.592347E-1,4.513019E-3,-0E0,-3.808247E-4,-0E0],"split_indices":[8,6,0,2,0,0,0,0,8,0,0,0,0],"split_type":[0,0,0,0,0,0,0,0,0,0,0,0,0],"sum_hessian":[1.11E2,1.09E2,2E0,1.04E2,5E0,1E0,1E0,4E0,1E2,1E0,3E0,9.3E1,7E0],"tree_param":{"num_deleted":"0","num_feature":"10","num_nodes":"13","size_leaf_vector":"1"}},{"base_weights":[-9.362116E-3,-0E0,-1.0190604E-1,6.9037573E-3,-7.180852E-3,-7.2041596E-3,-0E0,-1.4956336E-4,4.6968564E-2,-8.3486614E-4,-0E0,6.102917E-3,-0E0],"categories":[],"categories_nodes":[],"categories_segments":[],"categories_sizes":[],"default_left":[0,0,0,0,0,0,0,0,0,0,0,0,0],"id":57,"left_children":[1,3,5,7,9,-1,-1,-1,11,-1,-1,-1,-1],"loss_changes":[7.185963E-2,6.1542885E-3,6.2241018E-2,3.6004625E-2,1.3686889E-3,0E0,0E0,0E0,5.188663E-2,0E0,0E0,0E0,0E0],"parents":[2147483647,0,0,1,1,2,2,3,3,4,4,8,8],"right_children":[2,4,6,8,10,-1,-1,-1,12,-1,-1,-1,-1],"split_conditions":[2.3839467E0,-4.9159053E-1,7.621914E0,-9.928201E-1,-7.434271E-1,-7.2041596E-3,-0E0,-1.4956336E-4,-3.413531E-1,-8.3486614E-4,-0E0,6.102917E-3,-0E0],"split_indices":[6,0,6,0,2,0,0,0,1,0,0,0,0],"split_type":[0,0,0,0,0,0,0,0,0,0,0,0,0],"sum_hessian":[1.27E2,1.2E2,7E0,3.4E1,8.6E1,6E0,1E0,1.8E1,1.6E1,2E1,6.6E1,5E0,1.1E1],"tree_param":{"num_deleted":"0","num_feature":"10","num_nodes":"13","size_leaf_vector":"1"}},{"base_weights":[-0E0,-3.233299E-3,7.5371206E-2,-0E0,-5.708517E-3,1.6551246E-1,-0E0,-3.8176263E-4,-0E0,2.734851E-1,-0E0,-1.6368183E-3,-0E0,1.6709821E-2,-0E0],"categories":[],"categories_nodes":[],"categories_segments":[],"categories_sizes":[],"default_left":[0,0,0,0,0,0,0,0,0,0,0,0,0,0,0],"id":58,"left_children":[1,3,5,-1,7,9,11,-1,-1,13,-1,-1,-1,-1,-1],"loss_changes":[5.79686E-2,2.2612337E-3,1.3495243E-1,0E0,2.1165705E-3,2.5700396E-1,3.215009E-3,0E0,0E0,1.0967168E-1,0E0,0E0,0E0,0E0,0E0],"parents":[2147483647,0,0,1,1,2,2,4,4,5,5,6,6,9,9],"right_children":[2,4,6,-1,8,10,12,-1,-1,14,-1,-1,-1,-1,-1],"split_conditions":[2.2492402E0,-1.5196964E0,5.00293E0,-0E0,9.592347E-1,1.595448E0,7.621914E0,-3.8176263E-4,-0E0,2.3839467E0,-0E0,-1.6368183E-3,-0E0,1.6709821E-2,-0E0],"split_indices":[8,2,6,0,8,3,6,0,0,7,0,0,0,0,0],"split_type":[0,0,0,0,0,0,0,0,0,0,0,0,0,0,0],"sum_hessian":[1.19E2,1.1E2,9E0,6E0,1.04E2,6E0,3E0,9.4E1,1E1,5E0,1E0,2E0,1E0,4E0,1E0],"tree_param":{"num_deleted":"0","num_feature":"10","num_nodes":"15","size_leaf_vector":"1"}},{"base_weights":[2.4894697E-3,2.5644341E-2,-0E0,8.324332E-2,-1.185072E-2,1.15047544E-1,-0E0,-2.650677E-2,-0E0,-0E0,7.3159668E-3,-1.5846234E-3,-0E0],"categories":[],"categories_nodes":[],"categories_segments":[],"categories_sizes":[],"default_left":[0,0,0,0,0,0,0,0,0,0,0,0,0],"id":59,"left_children":[1,3,-1,5,7,9,-1,11,-1,-1,-1,-1,-1],"loss_changes":[2.0232365E-2,1.05792455E-1,0E0,1.00280836E-1,7.7299313E-3,9.612927E-2,0E0,1.2120139E-3,0E0,0E0,0E0,0E0,0E0],"parents":[2147483647,0,0,1,1,3,3,4,4,5,5,7,7],"right_children":[2,4,-1,6,8,10,-1,12,-1,-1,-1,-1,-1],"split_conditions":[-7.434271E-1,5.108686E-1,-0E0,5.00293E0,5.00293E0,-9.928201E-1,-0E0,-8.98681E-1,-0E0,-0E0,7.3159668E-3,-1.5846234E-3,-0E0],"split_indices":[2,0,0,6,6,0,0,2,0,0,0,0,0],"split_type":[0,0,0,0,0,0,0,0,0,0,0,0,0],"sum_hessian":[1.3E2,3.1E1,9.9E1,1.7E1,1.4E1,1.6E1,1E0,1.3E1,1E0,2E0,1.4E1,1E1,3E0],"tree_param":{"num_deleted":"0","num_feature":"10","num_nodes":"13","size_leaf_vector":"1"}},{"base_weights":[-0E0,-4.3746387E-3,5.4088958E-2,-0E0,-4.0091906E-4,9.455067E-2,-0E0,4.064721E-3,-0E0,8.59516E-3,-0E0],"categories":[],"categories_nodes":[],"categories_segments":[],"categories_sizes":[],"default_left":[0,0,0,0,0,0,0,0,0,0,0],"id":60,"left_children":[1,3,5,7,-1,9,-1,-1,-1,-1,-1],"loss_changes":[2.2833217E-2,5.29713E-3,1.5280006E-2,1.3217565E-2,0E0,5.2892826E-2,0E0,0E0,0E0,0E0,0E0],"parents":[2147483647,0,0,1,1,2,2,3,3,5,5],"right_children":[2,4,6,8,-1,10,-1,-1,-1,-1,-1],"split_conditions":[2.2492402E0,-1.5196964E0,9.63903E-3,-4.9159053E-1,-4.0091906E-4,5.00293E0,-0E0,4.064721E-3,-0E0,8.59516E-3,-0E0],"split_indices":[8,2,0,0,0,6,0,0,0,0,0],"split_type":[0,0,0,0,0,0,0,0,0,0,0],"sum_hessian":[1.28E2,1.22E2,6E0,4E0,1.18E2,3E0,3E0,1E0,3E0,2E0,1E0],"tree_param":{"num_deleted":"0","num_feature":"10","num_nodes":"11","size_leaf_vector":"1"}},{"base_weights":[-0E0,7.648248E-3,-2.7899622E-4,5.158272E-2,-1.1931312E-2,-0E0,1.808991E-2,-2.9036753E-2,-0E0,1.8798944E-3,-1.1566941E-3,-1.8033714E-3,-0E0],"categories":[],"categories_nodes":[],"categories_segments":[],"categories_sizes":[],"default_left":[0,0,0,0,0,0,0,0,0,0,0,0,0],"id":61,"left_children":[1,3,-1,5,7,9,-1,11,-1,-1,-1,-1,-1],"loss_changes":[4.8099305E-3,4.538747E-2,0E0,2.165626E-1,8.266966E-3,1.7003821E-2,0E0,2.8927624E-4,0E0,0E0,0E0,0E0,0E0],"parents":[2147483647,0,0,1,1,3,3,4,4,5,5,7,7],"right_children":[2,4,-1,6,8,10,-1,12,-1,-1,-1,-1,-1],"split_conditions":[-8.98681E-1,5.108686E-1,-2.7899622E-4,2.6128707E0,5.00293E0,-9.987738E-1,1.808991E-2,1.5133277E0,-0E0,1.8798944E-3,-1.1566941E-3,-1.8033714E-3,-0E0],"split_indices":[2,0,0,9,6,1,0,0,0,0,0,0,0],"split_type":[0,0,0,0,0,0,0,0,0,0,0,0,0],"sum_hessian":[1.27E2,2.8E1,9.9E1,1.6E1,1.2E1,1.5E1,1E0,1.1E1,1E0,8E0,7E0,7E0,4E0],"tree_param":{"num_deleted":"0","num_feature":"10","num_nodes":"13","size_leaf_vector":"1"}},{"base_weights":[-0E0,-0E0,1.0497625E-1,7.3303175E-3,-1.4657827E-2,1.4980674E-2,-0E0,-0E0,7.005776E-2,-0E0,-7.314192E-2,5.9778034E-4,-4.318601E-4,9.25144E-3,-2.4566174E-4,-3.9573745E-3,-0E0],"categories":[],"categories_nodes":[],"categories_segments":[],"categories_sizes":[],"default_left":[0,0,0,0,0,0,0,0,0,0,0,0,0,0,0,0,0],"id":62,"left_children":[1,3,5,7,9,-1,-1,11,13,-1,15,-1,-1,-1,-1,-1,-1],"loss_changes":[4.4080053E-2,1.6168777E-2,2.2522467E-1,5.092618E-2,2.4342213E-2,0E0,0E0,3.7858663E-3,1.8578127E-1,0E0,1.3776869E-4,0E0,0E0,0E0,0E0,0E0,0E0],"parents":[2147483647,0,0,1,1,2,2,3,3,4,4,7,7,8,8,10,10],"right_children":[2,4,6,8,10,-1,-1,12,14,-1,16,-1,-1,-1,-1,-1,-1],"split_conditions":[4.829251E0,9.63903E-3,1.0120982E0,9.592347E-1,9.592347E-1,1.4980674E-2,-0E0,-1.5196964E0,2.3839467E0,-0E0,2.3839467E0,5.9778034E-4,-4.318601E-4,9.25144E-3,-2.4566174E-4,-3.9573745E-3,-0E0],"split_indices":[8,0,0,8,8,0,0,2,7,0,7,0,0,0,0,0,0],"split_type":[0,0,0,0,0,0,0,0,0,0,0,0,0,0,0,0,0],"sum_hessian":[1.19E2,1.16E2,3E0,5.6E1,6E1,2E0,1E0,4.6E1,1E1,5.4E1,6E0,2E0,4.4E1,6E0,4E0,5E0,1E0],"tree_param":{"num_deleted":"0","num_feature":"10","num_nodes":"17","size_leaf_vector":"1"}},{"base_weights":[-8.723326E-4,-0E0,-3.9617587E-2,-1.7590008E-3,4.2650457E-2,-0E0,-9.196201E-2,-0E0,-3.3371858E-4,-0E0,5.7672594E-2,-6.5289247E-3,-0E0,1.5429858E-3,-0E0,3.4760113E-3,-0E0],"categories":[],"categories_nodes":[],"categories_segments":[],"categories_sizes":[],"default_left":[0,0,0,0,0,0,0,0,0,0,0,0,0,0,0,0,0],"id":63,"left_children":[1,3,5,7,9,-1,11,13,-1,-1,15,-1,-1,-1,-1,-1,-1],"loss_changes":[1.5604216E-2,2.0322178E-2,5.196056E-2,4.008579E-3,9.925475E-3,0E0,5.1699094E-2,2.856966E-3,0E0,0E0,8.729346E-3,0E0,0E0,0E0,0E0,0E0,0E0],"parents":[2147483647,0,0,1,1,2,2,3,3,4,4,6,6,7,7,10,10],"right_children":[2,4,6,8,10,-1,12,14,-1,-1,16,-1,-1,-1,-1,-1,-1],"split_conditions":[2.3839467E0,9.592347E-1,-9.987738E-1,-1.5196964E0,-1.2091887E0,-0E0,7.621914E0,1.595448E0,-3.3371858E-4,-0E0,2.3839467E0,-6.5289247E-3,-0E0,1.5429858E-3,-0E0,3.4760113E-3,-0E0],"split_indices":[6,8,1,2,2,0,6,3,0,0,7,0,0,0,0,0,0],"split_type":[0,0,0,0,0,0,0,0,0,0,0,0,0,0,0,0,0],"sum_hessian":[1.19E2,1.1E2,9E0,1E2,1E1,2E0,7E0,4E0,9.6E1,2E0,8E0,6E0,1E0,2E0,2E0,7E0,1E0],"tree_param":{"num_deleted":"0","num_feature":"10","num_nodes":"17","size_leaf_vector":"1"}},{"base_weights":[7.3137167E-3,-0E0,1.953505E-1,-0E0,-1.8841041E-4,1.6348857E-2,-0E0,-0E0,4.4044843E-3,6.1962934E-4,-0E0],"categories":[],"categories_nodes":[],"categories_segments":[],"categories_sizes":[],"default_left":[0,0,0,0,0,0,0,0,0,0,0],"id":64,"left_children":[1,3,5,7,-1,-1,-1,-1,9,-1,-1],"loss_changes":[2.6044643E-1,9.513593E-4,2.6743755E-1,6.595823E-4,0E0,0E0,0E0,0E0,4.254856E-3,0E0,0E0],"parents":[2147483647,0,0,1,1,2,2,3,3,8,8],"right_children":[2,4,6,8,-1,-1,-1,-1,10,-1,-1],"split_conditions":[2.2492402E0,9.63903E-3,5.00293E0,-9.928201E-1,-1.8841041E-4,1.6348857E-2,-0E0,-0E0,2.3839467E0,6.1962934E-4,-0E0],"split_indices":[8,0,6,0,0,0,0,0,6,0,0],"split_type":[0,0,0,0,0,0,0,0,0,0,0],"sum_hessian":[1.24E2,1.18E2,6E0,5.2E1,6.6E1,4E0,2E0,1.9E1,3.3E1,3.1E1,2E0],"tree_param":{"num_deleted":"0","num_feature":"10","num_nodes":"11","size_leaf_vector":"1"}},{"base_weights":[-0E0,-3.4944182E-3,1.4317654E-2,2.9005806E-3,-1.4938809E-2,-0E0,7.79471E-2,-0E0,-7.316842E-2,5.4181146E-4,-1.9850659E-4,7.3706964E-3,-0E0,-3.8827022E-3,-0E0],"categories":[],"categories_nodes":[],"categories_segments":[],"categories_sizes":[],"default_left":[0,0,0,0,0,0,0,0,0,0,0,0,0,0,0],"id":65,"left_children":[1,3,-1,5,7,9,11,-1,13,-1,-1,-1,-1,-1,-1],"loss_changes":[2.4752063E-1,1.52108045E-2,0E0,2.3857094E-2,3.1891294E-2,1.108845E-3,4.08896E-2,0E0,5.863607E-5,0E0,0E0,0E0,0E0,0E0,0E0],"parents":[2147483647,0,0,1,1,3,3,4,4,5,5,6,6,8,8],"right_children":[2,4,-1,6,8,10,12,-1,14,-1,-1,-1,-1,-1,-1],"split_conditions":[4.829251E0,9.63903E-3,1.4317654E-2,2.2492402E0,9.592347E-1,-1.5196964E0,5.00293E0,-0E0,1.0120982E0,5.4181146E-4,-1.9850659E-4,7.3706964E-3,-0E0,-3.8827022E-3,-0E0],"split_indices":[8,0,0,8,8,2,6,0,0,0,0,0,0,0,0],"split_type":[0,0,0,0,0,0,0,0,0,0,0,0,0,0,0],"sum_hessian":[1.26E2,1.24E2,2E0,5.2E1,7.2E1,4.9E1,3E0,6.4E1,8E0,2E0,4.7E1,2E0,1E0,7E0,1E0],"tree_param":{"num_deleted":"0","num_feature":"10","num_nodes":"15","size_leaf_vector":"1"}},{"base_weights":[3.365992E-3,-1.4696334E-3,1.3435291E-1,-0E0,-1.9082874E-4,2.2541375E-1,-7.682592E-5,3.5158485E-1,-0E0,1.9923609E-2,-0E0],"categories":[],"categories_nodes":[],"categories_segments":[],"categories_sizes":[],"default_left":[0,0,0,0,0,0,0,0,0,0,0],"id":66,"left_children":[1,3,5,-1,-1,7,-1,9,-1,-1,-1],"loss_changes":[1.4328092E-1,9.3364593E-4,2.112786E-1,0E0,0E0,2.6238006E-1,0E0,1.7060697E-2,0E0,0E0,0E0],"parents":[2147483647,0,0,1,1,2,2,5,5,7,7],"right_children":[2,4,6,-1,-1,8,-1,10,-1,-1,-1],"split_conditions":[2.2492402E0,-4.9159053E-1,1.0120982E0,-0E0,-1.9082874E-4,2.3839467E0,-7.682592E-5,5.108686E-1,-0E0,1.9923609E-2,-0E0],"split_indices":[8,0,0,0,0,7,0,0,0,0,0],"split_type":[0,0,0,0,0,0,0,0,0,0,0],"sum_hessian":[1.2E2,1.13E2,7E0,3.3E1,8E1,6E0,1E0,4E0,2E0,3E0,1E0],"tree_param":{"num_deleted":"0","num_feature":"10","num_nodes":"11","size_leaf_vector":"1"}},{"base_weights":[-0E0,-5.9594274E-3,6.1177157E-2,-0E0,-1.4382533E-2,2.437607E-1,-0E0,2.2994058E-2,-0E0,-0E0,-3.8325854E-3,-0E0,1.6161619E-2,-2.518144E-2,-0E0,-0E0,2.8217619E-3,-3.1512433E-3,-0E0],"categories":[],"categories_nodes":[],"categories_segments":[],"categories_sizes":[],"default_left":[0,0,0,0,0,0,0,0,0,0,0,0,0,0,0,0,0,0,0],"id":67,"left_children":[1,3,5,7,9,11,13,15,-1,-1,-1,-1,-1,17,-1,-1,-1,-1,-1],"loss_changes":[3.7874542E-2,1.0496121E-2,1.4457405E-1,4.75854E-3,3.2317013E-2,3.0700475E-2,3.8046297E-3,1.753601E-2,0E0,0E0,0E0,0E0,0E0,1.6056037E-2,0E0,0E0,0E0,0E0,0E0],"parents":[2147483647,0,0,1,1,2,2,3,3,4,4,5,5,6,6,7,7,13,13],"right_children":[2,4,6,8,10,12,14,16,-1,-1,-1,-1,-1,18,-1,-1,-1,-1,-1],"split_conditions":[2.6128707E0,9.63903E-3,3.379051E0,-1.2091887E0,9.592347E-1,-9.928201E-1,4.9114113E0,-9.928201E-1,-0E0,-0E0,-3.8325854E-3,-0E0,1.6161619E-2,6.119256E0,-0E0,-0E0,2.8217619E-3,-3.1512433E-3,-0E0],"split_indices":[9,0,9,2,8,0,9,0,0,0,0,0,0,8,0,0,0,0,0],"split_type":[0,0,0,0,0,0,0,0,0,0,0,0,0,0,0,0,0,0,0],"sum_hessian":[1.25E2,1.17E2,8E0,4.7E1,7E1,2E0,6E0,8E0,3.9E1,6.3E1,7E0,1E0,1E0,5E0,1E0,2E0,6E0,4E0,1E0],"tree_param":{"num_deleted":"0","num_feature":"10","num_nodes":"19","size_leaf_vector":"1"}},{"base_weights":[-0E0,-2.3437864E-3,4.4144303E-2,-0E0,-4.387833E-3,1.6856645E-1,-2.637404E-3,3.7630082E-3,-0E0,-2.9240272E-4,-0E0,2.938785E-1,-0E0,1.8939182E-2,-0E0],"categories":[],"categories_nodes":[],"categories_segments":[],"categories_sizes":[],"default_left":[0,0,0,0,0,0,0,0,0,0,0,0,0,0,0],"id":68,"left_children":[1,3,5,7,9,11,-1,-1,-1,-1,-1,13,-1,-1,-1],"loss_changes":[1.6248956E-2,1.5356507E-3,1.632452E-1,1.1328184E-2,1.3619219E-3,2.61335E-1,0E0,0E0,0E0,0E0,0E0,1.4208534E-1,0E0,0E0,0E0],"parents":[2147483647,0,0,1,1,2,2,3,3,4,4,5,5,11,11],"right_children":[2,4,6,8,10,12,-1,-1,-1,-1,-1,14,-1,-1,-1],"split_conditions":[2.2492402E0,-1.5196964E0,5.108686E-1,-4.9159053E-1,9.592347E-1,5.00293E0,-2.637404E-3,3.7630082E-3,-0E0,-2.9240272E-4,-0E0,2.3839467E0,-0E0,1.8939182E-2,-0E0],"split_indices":[8,2,0,0,8,6,0,0,0,0,0,7,0,0,0],"split_type":[0,0,0,0,0,0,0,0,0,0,0,0,0,0,0],"sum_hessian":[1.26E2,1.19E2,7E0,6E0,1.13E2,5E0,2E0,1E0,5E0,1.03E2,1E1,4E0,1E0,3E0,1E0],"tree_param":{"num_deleted":"0","num_feature":"10","num_nodes":"15","size_leaf_vector":"1"}},{"base_weights":[-0E0,-1.8518395E-3,5.719186E-2,1.5645537E-3,-1.2411224E-2,2.3206048E-1,-0E0,-0E0,4.928335E-2,-0E0,-3.6484264E-3,-0E0,1.5284101E-2,-2.2152746E-2,-0E0,3.701553E-4,-3.8967366E-4,5.3518E-3,-0E0,-2.9958955E-3,-0E0],"categories":[],"categories_nodes":[],"categories_segments":[],"categories_sizes":[],"default_left":[0,0,0,0,0,0,0,0,0,0,0,0,0,0,0,0,0,0,0,0,0],"id":69,"left_children":[1,3,5,7,9,11,13,15,17,-1,-1,-1,-1,19,-1,-1,-1,-1,-1,-1,-1],"loss_changes":[2.9832548E-2,9.591379E-3,1.32118E-1,1.9303503E-2,3.2736782E-2,2.5326788E-2,2.944465E-3,2.7761615E-3,4.930945E-2,0E0,0E0,0E0,0E0,1.5006314E-2,0E0,0E0,0E0,0E0,0E0,0E0,0E0],"parents":[2147483647,0,0,1,1,2,2,3,3,4,4,5,5,6,6,7,7,8,8,13,13],"right_children":[2,4,6,8,10,12,14,16,18,-1,-1,-1,-1,20,-1,-1,-1,-1,-1,-1,-1],"split_conditions":[2.6128707E0,9.63903E-3,3.379051E0,9.592347E-1,9.592347E-1,-9.928201E-1,4.9114113E0,-1.5196964E0,2.3839467E0,-0E0,-3.6484264E-3,-0E0,1.5284101E-2,7.621914E0,-0E0,3.701553E-4,-3.8967366E-4,5.3518E-3,-0E0,-2.9958955E-3,-0E0],"split_indices":[9,0,9,8,8,0,9,2,7,0,0,0,0,6,0,0,0,0,0,0,0],"split_type":[0,0,0,0,0,0,0,0,0,0,0,0,0,0,0,0,0,0,0,0,0],"sum_hessian":[1.22E2,1.14E2,8E0,5.1E1,6.3E1,2E0,6E0,4.4E1,7E0,5.6E1,7E0,1E0,1E0,5E0,1E0,2E0,4.2E1,5E0,2E0,4E0,1E0],"tree_param":{"num_deleted":"0","num_feature":"10","num_nodes":"21","size_leaf_vector":"1"}},{"base_weights":[4.0954372E-4,-2.4426654E-3,1.0421538E-1,-0E0,-4.558662E-3,2.6267502E-1,-0E0,3.6596775E-3,-0E0,-6.666077E-3,-0E0,1.7971016E-2,-0E0,-2.4387515E-3,-0E0,-4.7703806E-4,-0E0],"categories":[],"categories_nodes":[],"categories_segments":[],"categories_sizes":[],"default_left":[0,0,0,0,0,0,0,0,0,0,0,0,0,0,0,0,0],"id":70,"left_children":[1,3,5,7,9,11,13,-1,-1,15,-1,-1,-1,-1,-1,-1,-1],"loss_changes":[8.755826E-2,1.5938266E-3,2.5810406E-1,1.07145915E-2,2.2021409E-3,1.717411E-1,7.13701E-3,0E0,0E0,6.093676E-4,0E0,0E0,0E0,0E0,0E0,0E0,0E0],"parents":[2147483647,0,0,1,1,2,2,3,3,4,4,5,5,6,6,9,9],"right_children":[2,4,6,8,10,12,14,-1,-1,16,-1,-1,-1,-1,-1,-1,-1],"split_conditions":[2.2492402E0,-1.5196964E0,5.108686E-1,-4.9159053E-1,9.592347E-1,5.00293E0,5.00293E0,3.6596775E-3,-0E0,5.108686E-1,-0E0,1.7971016E-2,-0E0,-2.4387515E-3,-0E0,-4.7703806E-4,-0E0],"split_indices":[8,2,0,0,8,6,6,0,0,0,0,0,0,0,0,0,0],"split_type":[0,0,0,0,0,0,0,0,0,0,0,0,0,0,0,0,0],"sum_hessian":[1.22E2,1.15E2,7E0,6E0,1.09E2,4E0,3E0,1E0,5E0,1E2,9E0,3E0,1E0,2E0,1E0,5.5E1,4.5E1],"tree_param":{"num_deleted":"0","num_feature":"10","num_nodes":"17","size_leaf_vector":"1"}},{"base_weights":[-0E0,-2.941999E-3,1.2413033E-2,-0E0,-6.545616E-3,-0E0,-2.6803527E-3,-1.8493465E-5,-0E0],"categories":[],"categories_nodes":[],"categories_segments":[],"categories_sizes":[],"default_left":[0,0,0,0,0,0,0,0,0],"id":71,"left_children":[1,3,-1,-1,5,7,-1,-1,-1],"loss_changes":[1.8593004E-1,3.4259013E-3,0E0,0E0,1.8533839E-2,1.2449099E-5,0E0,0E0,0E0],"parents":[2147483647,0,0,1,1,4,4,5,5],"right_children":[2,4,-1,-1,6,8,-1,-1,-1],"split_conditions":[4.829251E0,-9.987738E-1,1.2413033E-2,-0E0,1.8466907E0,9.592347E-1,-2.6803527E-3,-1.8493465E-5,-0E0],"split_indices":[8,1,0,0,9,8,0,0,0],"split_type":[0,0,0,0,0,0,0,0,0],"sum_hessian":[1.2E2,1.18E2,2E0,1.5E1,1.03E2,9.6E1,7E0,9E1,6E0],"tree_param":{"num_deleted":"0","num_feature":"10","num_nodes":"9","size_leaf_vector":"1"}},{"base_weights":[-0E0,-3.5517726E-3,5.0506957E-2,-0E0,-6.531965E-3,2.1773122E-1,-0E0,-4.58569E-2,-0E0,-0E0,1.4142397E-2,-2.2467017E-2,-0E0,-0E0,-4.0438464E-3,-6.274775E-5,-0E0,-2.8906213E-3,-0E0],"categories":[],"categories_nodes":[],"categories_segments":[],"categories_sizes":[],"default_left":[0,0,0,0,0,0,0,0,0,0,0,0,0,0,0,0,0,0,0],"id":72,"left_children":[1,3,5,-1,7,9,11,13,15,-1,-1,17,-1,-1,-1,-1,-1,-1,-1],"loss_changes":[2.4447154E-2,2.9914095E-3,1.1926207E-1,0E0,1.4445707E-2,1.7785266E-2,3.0286012E-3,1.3779685E-2,1.4331701E-4,0E0,0E0,1.3682783E-2,0E0,0E0,0E0,0E0,0E0,0E0,0E0],"parents":[2147483647,0,0,1,1,2,2,4,4,5,5,6,6,7,7,8,8,11,11],"right_children":[2,4,6,-1,8,10,12,14,16,-1,-1,18,-1,-1,-1,-1,-1,-1,-1],"split_conditions":[2.6128707E0,-9.987738E-1,3.379051E0,-0E0,-1.0539348E0,-1.0539348E0,4.9114113E0,9.592347E-1,9.592347E-1,-0E0,1.4142397E-2,7.621914E0,-0E0,-0E0,-4.0438464E-3,-6.274775E-5,-0E0,-2.8906213E-3,-0E0],"split_indices":[9,1,9,0,2,2,9,8,8,0,0,6,0,0,0,0,0,0,0],"split_type":[0,0,0,0,0,0,0,0,0,0,0,0,0,0,0,0,0,0,0],"sum_hessian":[1.25E2,1.17E2,8E0,1.3E1,1.04E2,2E0,6E0,8E0,9.6E1,1E0,1E0,5E0,1E0,4E0,4E0,9E1,6E0,4E0,1E0],"tree_param":{"num_deleted":"0","num_feature":"10","num_nodes":"19","size_leaf_vector":"1"}},{"base_weights":[-0E0,-4.0496085E-3,4.615675E-2,-0E0,-7.131719E-3,2.1301709E-1,-0E0,3.5681874E-3,-0E0,-4.5094322E-4,-0E0,-0E0,1.3788837E-2,-3.1515637E-3,-0E0],"categories":[],"categories_nodes":[],"categories_segments":[],"categories_sizes":[],"default_left":[0,0,0,0,0,0,0,0,0,0,0,0,0,0,0],"id":73,"left_children":[1,3,5,7,9,11,13,-1,-1,-1,-1,-1,-1,-1,-1],"loss_changes":[1.6864639E-2,3.8466807E-3,1.2121571E-1,1.0185569E-2,7.0899166E-4,1.5976802E-2,1.5891762E-2,0E0,0E0,0E0,0E0,0E0,0E0,0E0,0E0],"parents":[2147483647,0,0,1,1,2,2,3,3,4,4,5,5,6,6],"right_children":[2,4,6,8,10,12,14,-1,-1,-1,-1,-1,-1,-1,-1],"split_conditions":[2.6128707E0,-1.5196964E0,3.379051E0,-4.9159053E-1,1.0120982E0,-9.928201E-1,4.9114113E0,3.5681874E-3,-0E0,-4.5094322E-4,-0E0,-0E0,1.3788837E-2,-3.1515637E-3,-0E0],"split_indices":[9,2,9,0,0,0,9,0,0,0,0,0,0,0,0],"split_type":[0,0,0,0,0,0,0,0,0,0,0,0,0,0,0],"sum_hessian":[1.24E2,1.18E2,6E0,5E0,1.13E2,2E0,4E0,1E0,4E0,7.9E1,3.4E1,1E0,1E0,3E0,1E0],"tree_param":{"num_deleted":"0","num_feature":"10","num_nodes":"15","size_leaf_vector":"1"}},{"base_weights":[-0E0,-1.9570591E-3,1.158627E-2,-0E0,-1.0145209E-2,3.8528252E-2,-0E0,-0E0,-5.1122576E-2,3.0494311E-3,-0E0,-7.961837E-5,-0E0,-2.9209042E-3,-0E0],"categories":[],"categories_nodes":[],"categories_segments":[],"categories_sizes":[],"default_left":[0,0,0,0,0,0,0,0,0,0,0,0,0,0,0],"id":74,"left_children":[1,3,-1,5,7,9,11,-1,13,-1,-1,-1,-1,-1,-1],"loss_changes":[1.615343E-1,6.0400027E-3,0E0,8.906557E-3,1.4423851E-2,9.6915E-3,1.0396097E-4,0E0,2.9805638E-3,0E0,0E0,0E0,0E0,0E0,0E0],"parents":[2147483647,0,0,1,1,3,3,4,4,5,5,6,6,8,8],"right_children":[2,4,-1,6,8,10,12,-1,14,-1,-1,-1,-1,-1,-1],"split_conditions":[4.829251E0,9.63903E-3,1.158627E-2,-9.987738E-1,9.592347E-1,2.3839467E0,9.592347E-1,-0E0,9.734884E-1,3.0494311E-3,-0E0,-7.961837E-5,-0E0,-2.9209042E-3,-0E0],"split_indices":[8,0,0,1,8,7,8,0,1,0,0,0,0,0,0],"split_type":[0,0,0,0,0,0,0,0,0,0,0,0,0,0,0],"sum_hessian":[1.17E2,1.15E2,2E0,5.3E1,6.2E1,5E0,4.8E1,5.5E1,7E0,4E0,1E0,4E1,8E0,6E0,1E0],"tree_param":{"num_deleted":"0","num_feature":"10","num_nodes":"15","size_leaf_vector":"1"}},{"base_weights":[-0E0,-6.584586E-4,6.888209E-2,4.1739917E-3,-1.11396415E-2,1.800148E-1,-4.8386792E-4,-0E0,3.3970047E-3,-0E0,-3.4735005E-3,2.6246178E-1,-0E0,1.3570538E-4,-2.7037598E-4,-0E0,1.6039157E-2],"categories":[],"categories_nodes":[],"categories_segments":[],"categories_sizes":[],"default_left":[0,0,0,0,0,0,0,0,0,0,0,0,0,0,0,0,0],"id":75,"left_children":[1,3,5,7,9,11,-1,13,-1,-1,-1,15,-1,-1,-1,-1,-1],"loss_changes":[3.8013004E-2,9.961845E-3,1.5675499E-1,3.1352773E-2,2.4723887E-2,8.111282E-2,0E0,1.3964388E-3,0E0,0E0,0E0,3.3160686E-2,0E0,0E0,0E0,0E0,0E0],"parents":[2147483647,0,0,1,1,2,2,3,3,4,4,5,5,7,7,11,11],"right_children":[2,4,6,8,10,12,-1,14,-1,-1,-1,16,-1,-1,-1,-1,-1],"split_conditions":[2.6128707E0,9.63903E-3,1.0120982E0,9.592347E-1,9.592347E-1,5.00293E0,-4.8386792E-4,-1.5196964E0,3.3970047E-3,-0E0,-3.4735005E-3,-9.928201E-1,-0E0,1.3570538E-4,-2.7037598E-4,-0E0,1.6039157E-2],"split_indices":[9,0,0,8,8,6,0,2,0,0,0,0,0,0,0,0,0],"split_type":[0,0,0,0,0,0,0,0,0,0,0,0,0,0,0,0,0],"sum_hessian":[1.33E2,1.26E2,7E0,5.4E1,7.2E1,5E0,2E0,4.8E1,6E0,6.6E1,6E0,3E0,2E0,2E0,4.6E1,1E0,2E0],"tree_param":{"num_deleted":"0","num_feature":"10","num_nodes":"17","size_leaf_vector":"1"}},{"base_weights":[1.2716143E-3,-1.8232228E-4,3.96743E-2,-0E0,-2.2454657E-4,8.01685E-2,-4.6773892E-4,3.3993528E-3,-0E0,1.3442181E-1,-0E0,-0E0,1.1943943E-2,-9.393263E-4,-0E0],"categories":[],"categories_nodes":[],"categories_segments":[],"categories_sizes":[],"default_left":[0,0,0,0,0,0,0,0,0,0,0,0,0,0,0],"id":76,"left_children":[1,3,5,7,-1,9,-1,-1,-1,11,13,-1,-1,-1,-1],"loss_changes":[2.6565103E-2,2.0738284E-3,6.99085E-2,9.244479E-3,0E0,1.2042586E-1,0E0,0E0,0E0,1.2554798E-1,1.0588005E-3,0E0,0E0,0E0,0E0],"parents":[2147483647,0,0,1,1,2,2,3,3,5,5,9,9,10,10],"right_children":[2,4,6,8,-1,10,-1,-1,-1,12,14,-1,-1,-1,-1],"split_conditions":[9.592347E-1,-1.5196964E0,1.0120982E0,-4.9159053E-1,-2.2454657E-4,5.00293E0,-4.6773892E-4,3.3993528E-3,-0E0,1.0805105E0,5.108686E-1,-0E0,1.1943943E-2,-9.393263E-4,-0E0],"split_indices":[8,2,0,0,0,6,0,0,0,9,0,0,0,0,0],"split_type":[0,0,0,0,0,0,0,0,0,0,0,0,0,0,0],"sum_hessian":[1.21E2,1.05E2,1.6E1,3E0,1.02E2,1.4E1,2E0,1E0,2E0,1.1E1,3E0,6E0,5E0,2E0,1E0],"tree_param":{"num_deleted":"0","num_feature":"10","num_nodes":"15","size_leaf_vector":"1"}},{"base_weights":[-0E0,-2.6020845E-3,1.0733675E-2,-0E0,-5.8164126E-3,-0E0,-2.3924469E-3,-9.900539E-5,-0E0],"categories":[],"categories_nodes":[],"categories_segments":[],"categories_sizes":[],"default_left":[0,0,0,0,0,0,0,0,0],"id":77,"left_children":[1,3,-1,-1,5,7,-1,-1,-1],"loss_changes":[1.3914111E-1,3.0712062E-3,0E0,0E0,7.4894163E-3,4.0776594E-4,0E0,0E0,0E0],"parents":[2147483647,0,0,1,1,4,4,5,5],"right_children":[2,4,-1,-1,6,8,-1,-1,-1],"split_conditions":[4.829251E0,-9.987738E-1,1.0733675E-2,-0E0,2.3839467E0,9.592347E-1,-2.3924469E-3,-9.900539E-5,-0E0],"split_indices":[8,1,0,0,6,8,0,0,0],"split_type":[0,0,0,0,0,0,0,0,0],"sum_hessian":[1.32E2,1.3E2,2E0,1.4E1,1.16E2,1.12E2,4E0,1.03E2,9E0],"tree_param":{"num_deleted":"0","num_feature":"10","num_nodes":"9","size_leaf_vector":"1"}},{"base_weights":[-0E0,-5.2466E-4,4.2285822E-2,-0E0,-2.5119104E-3,1.0262397E-1,-6.2699323E-3,3.31437E-3,-0E0,-1.6550737E-4,-0E0,1.9028349E-1,-0E0,-4.8780144E-4,-0E0,-0E0,1.38497045E-2],"categories":[],"categories_nodes":[],"categories_segments":[],"categories_sizes":[],"default_left":[0,0,0,0,0,0,0,0,0,0,0,0,0,0,0,0,0],"id":78,"left_children":[1,3,5,7,9,11,13,-1,-1,-1,-1,15,-1,-1,-1,-1,-1],"loss_changes":[2.148792E-2,6.379975E-4,8.3977625E-2,8.788038E-3,3.282664E-4,1.4813787E-1,7.2424045E-5,0E0,0E0,0E0,0E0,1.3017395E-1,0E0,0E0,0E0,0E0,0E0],"parents":[2147483647,0,0,1,1,2,2,3,3,4,4,5,5,6,6,11,11],"right_children":[2,4,6,8,10,12,14,-1,-1,-1,-1,16,-1,-1,-1,-1,-1],"split_conditions":[1.8466907E0,-1.5196964E0,1.0120982E0,-4.9159053E-1,3.143303E-1,2.3839467E0,1.5133277E0,3.31437E-3,-0E0,-1.6550737E-4,-0E0,-9.928201E-1,-0E0,-4.8780144E-4,-0E0,-0E0,1.38497045E-2],"split_indices":[9,2,0,0,9,7,0,0,0,0,0,0,0,0,0,0,0],"split_type":[0,0,0,0,0,0,0,0,0,0,0,0,0,0,0,0,0],"sum_hessian":[1.22E2,1.11E2,1.1E1,6E0,1.05E2,9E0,2E0,1E0,5E0,9E1,1.5E1,6E0,3E0,1E0,1E0,2E0,4E0],"tree_param":{"num_deleted":"0","num_feature":"10","num_nodes":"17","size_leaf_vector":"1"}},{"base_weights":[-0E0,-3.0647893E-3,4.6182506E-2,-0E0,-1.10895615E-2,1.7213045E-1,-6.229123E-4,-0E0,8.916921E-4,-0E0,-3.5669156E-3,-0E0,2.4729802E-1,1.9286823E-5,-3.038346E-4,1.4465834E-2,-0E0],"categories":[],"categories_nodes":[],"categories_segments":[],"categories_sizes":[],"default_left":[0,0,0,0,0,0,0,0,0,0,0,0,0,0,0,0,0],"id":79,"left_children":[1,3,5,7,9,11,-1,13,-1,-1,-1,-1,15,-1,-1,-1,-1],"loss_changes":[1.6085098E-2,7.3301774E-3,1.336803E-1,2.8624132E-3,2.7138576E-2,9.648079E-2,0E0,1.6621245E-3,0E0,0E0,0E0,0E0,6.4871907E-3,0E0,0E0,0E0,0E0],"parents":[2147483647,0,0,1,1,2,2,3,3,4,4,5,5,7,7,12,12],"right_children":[2,4,6,8,10,12,-1,14,-1,-1,-1,-1,16,-1,-1,-1,-1],"split_conditions":[2.6128707E0,9.63903E-3,1.0120982E0,9.592347E-1,9.592347E-1,-9.928201E-1,-6.229123E-4,-1.5196964E0,8.916921E-4,-0E0,-3.5669156E-3,-0E0,5.108686E-1,1.9286823E-5,-3.038346E-4,1.4465834E-2,-0E0],"split_indices":[9,0,0,8,8,0,0,2,0,0,0,0,0,0,0,0,0],"split_type":[0,0,0,0,0,0,0,0,0,0,0,0,0,0,0,0,0],"sum_hessian":[1.28E2,1.22E2,6E0,5.4E1,6.8E1,4E0,2E0,4.6E1,8E0,6.2E1,6E0,1E0,3E0,2E0,4.4E1,2E0,1E0],"tree_param":{"num_deleted":"0","num_feature":"10","num_nodes":"17","size_leaf_vector":"1"}},{"base_weights":[-9.068969E-3,-0E0,-6.9769206E-3,-0E0,-3.9438102E-3,3.2310279E-3,-0E0,-4.7661974E-3,-0E0,-2.593996E-4,6.2545936E-4,-2.9251966E-4,-0E0],"categories":[],"categories_nodes":[],"categories_segments":[],"categories_sizes":[],"default_left":[0,0,0,0,0,0,0,0,0,0,0,0,0],"id":80,"left_children":[1,3,-1,5,7,-1,9,11,-1,-1,-1,-1,-1],"loss_changes":[1.0662727E-1,1.0265402E-3,0E0,8.351632E-3,1.3200834E-4,0E0,2.3603751E-3,1.07854255E-4,0E0,0E0,0E0,0E0,0E0],"parents":[2147483647,0,0,1,1,3,3,4,4,6,6,7,7],"right_children":[2,4,-1,6,8,-1,10,12,-1,-1,-1,-1,-1],"split_conditions":[2.3839467E0,9.63903E-3,-6.9769206E-3,-1.5196964E0,2.04939E0,3.2310279E-3,9.592347E-1,9.643653E-1,-0E0,-2.593996E-4,6.2545936E-4,-2.9251966E-4,-0E0],"split_indices":[6,0,0,2,5,0,8,2,0,0,0,0,0],"split_type":[0,0,0,0,0,0,0,0,0,0,0,0,0],"sum_hessian":[1.23E2,1.18E2,5E0,5.3E1,6.5E1,1E0,5.2E1,5E1,1.5E1,4.6E1,6E0,3.6E1,1.4E1],"tree_param":{"num_deleted":"0","num_feature":"10","num_nodes":"13","size_leaf_vector":"1"}},{"base_weights":[-7.814061E-3,-0E0,-5.0665166E-2,-0E0,-4.618397E-3,-0E0,-9.1496356E-2,3.1502515E-3,-0E0,-2.749407E-4,-0E0,-1.2288425E-1,-0E0,-4.2192425E-4,5.986549E-4,-6.6745095E-3,-0E0],"categories":[],"categories_nodes":[],"categories_segments":[],"categories_sizes":[],"default_left":[0,0,0,0,0,0,0,0,0,0,0,0,0,0,0,0,0],"id":81,"left_children":[1,3,5,7,9,-1,11,-1,13,-1,-1,15,-1,-1,-1,-1,-1],"loss_changes":[1.8037152E-2,1.3864234E-3,4.1303072E-2,7.939268E-3,9.518769E-5,0E0,3.8731106E-2,0E0,4.2078467E-3,0E0,0E0,1.214005E-3,0E0,0E0,0E0,0E0,0E0],"parents":[2147483647,0,0,1,1,2,2,3,3,4,4,6,6,8,8,11,11],"right_children":[2,4,6,8,10,-1,12,-1,14,-1,-1,16,-1,-1,-1,-1,-1],"split_conditions":[2.3839467E0,9.63903E-3,-9.987738E-1,-1.5196964E0,9.643653E-1,-0E0,7.621914E0,3.1502515E-3,9.592347E-1,-2.749407E-4,-0E0,9.734884E-1,-0E0,-4.2192425E-4,5.986549E-4,-6.6745095E-3,-0E0],"split_indices":[6,0,1,2,2,0,6,0,8,0,0,1,0,0,0,0,0],"split_type":[0,0,0,0,0,0,0,0,0,0,0,0,0,0,0,0,0],"sum_hessian":[1.24E2,1.15E2,9E0,5.1E1,6.4E1,2E0,7E0,1E0,5E1,4.8E1,1.6E1,6E0,1E0,4.4E1,6E0,5E0,1E0],"tree_param":{"num_deleted":"0","num_feature":"10","num_nodes":"17","size_leaf_vector":"1"}},{"base_weights":[-0E0,-4.492552E-3,1.5682133E-1,-0E0,-2.7089792E-3,2.3144385E-1,-0E0,-0E0,-2.52291E-3,-0E0,1.4190762E-2,3.071496E-3,-0E0,-5.918196E-4,-0E0],"categories":[],"categories_nodes":[],"categories_segments":[],"categories_sizes":[],"default_left":[0,0,0,0,0,0,0,0,0,0,0,0,0,0,0],"id":82,"left_children":[1,3,5,7,-1,9,-1,11,13,-1,-1,-1,-1,-1,-1],"loss_changes":[1.4999972E-1,1.223499E-2,6.670746E-2,5.3466635E-4,0E0,2.7388215E-2,0E0,7.5472696E-3,1.566836E-3,0E0,0E0,0E0,0E0,0E0,0E0],"parents":[2147483647,0,0,1,1,2,2,3,3,5,5,7,7,8,8],"right_children":[2,4,6,8,-1,10,-1,12,14,-1,-1,-1,-1,-1,-1],"split_conditions":[2.6128707E0,2.3839467E0,5.00293E0,-4.9159053E-1,-2.7089792E-3,-9.928201E-1,-0E0,-1.5196964E0,-1.0539348E0,-0E0,1.4190762E-2,3.071496E-3,-0E0,-5.918196E-4,-0E0],"split_indices":[9,6,6,0,0,0,0,2,2,0,0,0,0,0,0],"split_type":[0,0,0,0,0,0,0,0,0,0,0,0,0,0,0],"sum_hessian":[1.25E2,1.2E2,5E0,1.16E2,4E0,3E0,2E0,3.3E1,8.3E1,1E0,2E0,1E0,3.2E1,1.4E1,6.9E1],"tree_param":{"num_deleted":"0","num_feature":"10","num_nodes":"15","size_leaf_vector":"1"}},{"base_weights":[-0E0,5.8619822E-3,-6.2173707E-3,3.3998836E-2,-0E0,-1.955132E-2,-0E0,8.464738E-2,-3.9810818E-4,-1.5053167E-3,-0E0,-0E0,1.2611887E-2],"categories":[],"categories_nodes":[],"categories_segments":[],"categories_sizes":[],"default_left":[0,0,0,0,0,0,0,0,0,0,0,0,0],"id":83,"left_children":[1,3,5,7,-1,9,-1,11,-1,-1,-1,-1,-1],"loss_changes":[4.7805877E-3,2.1697126E-2,3.5304364E-3,8.364712E-2,0E0,6.9556683E-3,0E0,1.4701785E-1,0E0,0E0,0E0,0E0,0E0],"parents":[2147483647,0,0,1,1,2,2,3,3,5,5,7,7],"right_children":[2,4,6,8,-1,10,-1,12,-1,-1,-1,-1,-1],"split_conditions":[5.108686E-1,-7.434271E-1,-8.98681E-1,2.3839467E0,-0E0,5.00293E0,-0E0,-1.0539348E0,-3.9810818E-4,-1.5053167E-3,-0E0,-0E0,1.2611887E-2],"split_indices":[0,2,2,7,0,6,0,2,0,0,0,0,0],"split_type":[0,0,0,0,0,0,0,0,0,0,0,0,0],"sum_hessian":[1.3E2,7.4E1,5.6E1,2E1,5.4E1,1.4E1,4.2E1,1.4E1,6E0,1.3E1,1E0,1.1E1,3E0],"tree_param":{"num_deleted":"0","num_feature":"10","num_nodes":"13","size_leaf_vector":"1"}},{"base_weights":[-0E0,-6.750907E-3,9.570229E-3,-0E0,-1.0253272E-2,1.01527E-2,-0E0,-3.6468636E-2,-0E0,-0E0,1.994482E-3,-2.6377288E-3,-0E0],"categories":[],"categories_nodes":[],"categories_segments":[],"categories_sizes":[],"default_left":[0,0,0,0,0,0,0,0,0,0,0,0,0],"id":84,"left_children":[1,3,-1,5,7,9,-1,11,-1,-1,-1,-1,-1],"loss_changes":[1.1592301E-1,6.284297E-3,0E0,9.276959E-4,1.5629027E-2,1.0210589E-2,0E0,1.1033438E-2,0E0,0E0,0E0,0E0,0E0],"parents":[2147483647,0,0,1,1,3,3,4,4,5,5,7,7],"right_children":[2,4,-1,6,8,10,-1,12,-1,-1,-1,-1,-1],"split_conditions":[4.829251E0,-9.987738E-1,9.570229E-3,9.63903E-3,-7.434271E-1,-9.928201E-1,-0E0,1.0120982E0,-0E0,-0E0,1.994482E-3,-2.6377288E-3,-0E0],"split_indices":[8,1,0,0,2,0,0,0,0,0,0,0,0],"split_type":[0,0,0,0,0,0,0,0,0,0,0,0,0],"sum_hessian":[1.33E2,1.31E2,2E0,1.5E1,1.16E2,8E0,7E0,2E1,9.6E1,2E0,6E0,1.3E1,7E0],"tree_param":{"num_deleted":"0","num_feature":"10","num_nodes":"13","size_leaf_vector":"1"}},{"base_weights":[-0E0,-1.0076342E-3,2.6456945E-2,-0E0,-8.811565E-3,1.7113073E-1,-0E0,3.696498E-2,-0E0,-0E0,-3.3596705E-3,-0E0,1.0910618E-2,-3.1244006E-2,-0E0,-0E0,2.9332058E-3,-9.2516326E-5,-0E0,-3.4358583E-3,-0E0],"categories":[],"categories_nodes":[],"categories_segments":[],"categories_sizes":[],"default_left":[0,0,0,0,0,0,0,0,0,0,0,0,0,0,0,0,0,0,0,0,0],"id":85,"left_children":[1,3,5,7,9,11,13,15,17,-1,-1,-1,-1,19,-1,-1,-1,-1,-1,-1,-1],"loss_changes":[5.715506E-3,5.008736E-3,8.225743E-2,9.564867E-3,2.1965245E-2,7.3760897E-3,4.8809396E-3,1.10840015E-2,8.901641E-5,0E0,0E0,0E0,0E0,1.4007258E-2,0E0,0E0,0E0,0E0,0E0,0E0,0E0],"parents":[2147483647,0,0,1,1,2,2,3,3,4,4,5,5,6,6,7,7,8,8,13,13],"right_children":[2,4,6,8,10,12,14,16,18,-1,-1,-1,-1,20,-1,-1,-1,-1,-1,-1,-1],"split_conditions":[2.6128707E0,9.63903E-3,3.379051E0,-1.2091887E0,9.592347E-1,-9.928201E-1,4.9114113E0,-9.928201E-1,6.538576E-1,-0E0,-3.3596705E-3,-0E0,1.0910618E-2,7.621914E0,-0E0,-0E0,2.9332058E-3,-9.2516326E-5,-0E0,-3.4358583E-3,-0E0],"split_indices":[9,0,9,2,8,0,9,0,2,0,0,0,0,6,0,0,0,0,0,0,0],"split_type":[0,0,0,0,0,0,0,0,0,0,0,0,0,0,0,0,0,0,0,0,0],"sum_hessian":[1.2E2,1.13E2,7E0,4.8E1,6.5E1,2E0,5E0,6E0,4.2E1,6E1,5E0,1E0,1E0,4E0,1E0,1E0,5E0,2.5E1,1.7E1,3E0,1E0],"tree_param":{"num_deleted":"0","num_feature":"10","num_nodes":"21","size_leaf_vector":"1"}},{"base_weights":[-0E0,1.9998937E-3,-5.7891295E-3,-0E0,1.0637856E-2,-9.98087E-4,-0E0,1.6804615E-3,-1.7365236E-2,-0E0,2.062294E-3,-0E0,-2.7337526E-3],"categories":[],"categories_nodes":[],"categories_segments":[],"categories_sizes":[],"default_left":[0,0,0,0,0,0,0,0,0,0,0,0,0],"id":86,"left_children":[1,3,5,7,-1,-1,-1,9,11,-1,-1,-1,-1],"loss_changes":[2.029181E-3,9.021121E-2,3.072437E-3,6.499193E-3,0E0,0E0,0E0,2.0248055E-2,1.16035845E-2,0E0,0E0,0E0,0E0],"parents":[2147483647,0,0,1,1,2,2,3,3,7,7,8,8],"right_children":[2,4,6,8,-1,-1,-1,10,12,-1,-1,-1,-1],"split_conditions":[5.108686E-1,4.829251E0,-8.98681E-1,9.63903E-3,1.0637856E-2,-9.98087E-4,-0E0,9.592347E-1,9.592347E-1,-0E0,2.062294E-3,-0E0,-2.7337526E-3],"split_indices":[0,8,2,0,0,0,0,8,8,0,0,0,0],"split_type":[0,0,0,0,0,0,0,0,0,0,0,0,0],"sum_hessian":[1.29E2,7.9E1,5E1,7.8E1,1E0,1.1E1,3.9E1,5.8E1,2E1,4.7E1,1.1E1,1.5E1,5E0],"tree_param":{"num_deleted":"0","num_feature":"10","num_nodes":"13","size_leaf_vector":"1"}},{"base_weights":[-0E0,4.9042534E-3,-6.9791554E-3,-0E0,1.0371911E-2,-0E0,-2.8540567E-3,4.005882E-3,-1.3189374E-2,-0E0,3.2267112E-3,-0E0,-2.2575723E-3],"categories":[],"categories_nodes":[],"categories_segments":[],"categories_sizes":[],"default_left":[0,0,0,0,0,0,0,0,0,0,0,0,0],"id":87,"left_children":[1,3,5,7,-1,-1,-1,9,11,-1,-1,-1,-1],"loss_changes":[4.5303493E-3,8.4161155E-2,7.144503E-3,4.4259694E-3,0E0,0E0,0E0,4.069988E-2,6.714074E-3,0E0,0E0,0E0,0E0],"parents":[2147483647,0,0,1,1,2,2,3,3,7,7,8,8],"right_children":[2,4,6,8,-1,-1,-1,10,12,-1,-1,-1,-1],"split_conditions":[5.108686E-1,4.829251E0,2.2492402E0,9.63903E-3,1.0371911E-2,-0E0,-2.8540567E-3,9.592347E-1,9.592347E-1,-0E0,3.2267112E-3,-0E0,-2.2575723E-3],"split_indices":[0,8,8,0,0,0,0,8,8,0,0,0,0],"split_type":[0,0,0,0,0,0,0,0,0,0,0,0,0],"sum_hessian":[1.31E2,7.8E1,5.3E1,7.7E1,1E0,5.1E1,2E0,5.8E1,1.9E1,4.9E1,9E0,1.5E1,4E0],"tree_param":{"num_deleted":"0","num_feature":"10","num_nodes":"13","size_leaf_vector":"1"}},{"base_weights":[-7.2272136E-3,-0E0,-8.889394E-2,-0E0,-1.671992E-3,-1.241264E-1,-0E0,2.8715164E-3,-0E0,-3.8505723E-3,-0E0,-6.9779665E-3,-0E0,-3.2457258E-4,-0E0],"categories":[],"categories_nodes":[],"categories_segments":[],"categories_sizes":[],"default_left":[0,0,0,0,0,0,0,0,0,0,0,0,0,0,0],"id":88,"left_children":[1,3,5,7,9,11,-1,-1,-1,13,-1,-1,-1,-1,-1],"loss_changes":[4.8994787E-2,3.131024E-4,3.7129242E-2,6.5964847E-3,1.2140692E-3,4.939869E-3,0E0,0E0,0E0,2.8480298E-4,0E0,0E0,0E0,0E0,0E0],"parents":[2147483647,0,0,1,1,2,2,3,3,4,4,5,5,9,9],"right_children":[2,4,6,8,10,12,-1,-1,-1,14,-1,-1,-1,-1,-1],"split_conditions":[2.2492402E0,-1.5196964E0,6.119256E0,-4.9159053E-1,9.592347E-1,5.00293E0,-0E0,2.8715164E-3,-0E0,9.63903E-3,-0E0,-6.9779665E-3,-0E0,-3.2457258E-4,-0E0],"split_indices":[8,2,8,0,8,7,0,0,0,0,0,0,0,0,0],"split_type":[0,0,0,0,0,0,0,0,0,0,0,0,0,0,0],"sum_hessian":[1.2E2,1.14E2,6E0,3E0,1.11E2,5E0,1E0,1E0,2E0,1.02E2,9E0,4E0,1E0,4.2E1,6E1],"tree_param":{"num_deleted":"0","num_feature":"10","num_nodes":"15","size_leaf_vector":"1"}},{"base_weights":[-0E0,-0E0,-6.2853433E-3,-0E0,1.0287064E-2,-0E0,-2.5263228E-3,-0E0,-2.8811526E-3,-0E0,3.1391578E-4],"categories":[],"categories_nodes":[],"categories_segments":[],"categories_sizes":[],"default_left":[0,0,0,0,0,0,0,0,0,0,0],"id":89,"left_children":[1,3,5,7,-1,-1,-1,9,-1,-1,-1],"loss_changes":[2.2913213E-3,8.465895E-2,5.3674467E-3,1.9922497E-2,0E0,0E0,0E0,1.8131934E-3,0E0,0E0,0E0],"parents":[2147483647,0,0,1,1,2,2,3,3,7,7],"right_children":[2,4,6,8,-1,-1,-1,10,-1,-1,-1],"split_conditions":[5.108686E-1,4.829251E0,2.2492402E0,2.3839467E0,1.0287064E-2,-0E0,-2.5263228E-3,-9.928201E-1,-2.8811526E-3,-0E0,3.1391578E-4],"split_indices":[0,8,8,6,0,0,0,0,0,0,0],"split_type":[0,0,0,0,0,0,0,0,0,0,0],"sum_hessian":[1.26E2,6.9E1,5.7E1,6.8E1,1E0,5.5E1,2E0,6.3E1,5E0,1.8E1,4.5E1],"tree_param":{"num_deleted":"0","num_feature":"10","num_nodes":"11","size_leaf_vector":"1"}},{"base_weights":[-0E0,-2.0418908E-3,3.49188E-2,-0E0,-2.4021294E-3,1.0029889E-2,-0E0,-2.524453E-3,-0E0,-1.7206174E-3,-0E0],"categories":[],"categories_nodes":[],"categories_segments":[],"categories_sizes":[],"default_left":[0,0,0,0,0,0,0,0,0,0,0],"id":90,"left_children":[1,3,5,-1,-1,-1,7,9,-1,-1,-1],"loss_changes":[9.00639E-3,1.3377409E-2,7.194366E-2,0E0,0E0,0E0,3.1864314E-5,4.704974E-3,0E0,0E0,0E0],"parents":[2147483647,0,0,1,1,2,2,6,6,7,7],"right_children":[2,4,6,-1,-1,-1,8,10,-1,-1,-1],"split_conditions":[2.6128707E0,2.3839467E0,3.379051E0,-0E0,-2.4021294E-3,1.0029889E-2,4.9114113E0,7.621914E0,-0E0,-1.7206174E-3,-0E0],"split_indices":[9,6,9,0,0,0,9,6,0,0,0],"split_type":[0,0,0,0,0,0,0,0,0,0,0],"sum_hessian":[1.18E2,1.12E2,6E0,1.07E2,5E0,1E0,5E0,4E0,1E0,3E0,1E0],"tree_param":{"num_deleted":"0","num_feature":"10","num_nodes":"11","size_leaf_vector":"1"}},{"base_weights":[-1.0039168E-5,1.011018E-3,-7.3845047E-3,1.3535711E-2,-3.5333802E-4,-1.418254E-3,-0E0,-0E0,5.132119E-2,-0E0,5.7460847E-3],"categories":[],"categories_nodes":[],"categories_segments":[],"categories_sizes":[],"default_left":[0,0,0,0,0,0,0,0,0,0,0],"id":91,"left_children":[1,3,5,7,-1,-1,-1,-1,9,-1,-1],"loss_changes":[4.1429577E-3,8.591058E-3,4.7605364E-3,1.809395E-2,0E0,0E0,0E0,0E0,5.2903324E-2,0E0,0E0],"parents":[2147483647,0,0,1,1,2,2,3,3,8,8],"right_children":[2,4,6,8,-1,-1,-1,-1,10,-1,-1],"split_conditions":[9.63903E-3,2.3839467E0,-1.2091887E0,3.143303E-1,-3.5333802E-4,-1.418254E-3,-0E0,-0E0,-9.928201E-1,-0E0,5.7460847E-3],"split_indices":[0,7,2,9,0,0,0,0,0,0,0],"split_type":[0,0,0,0,0,0,0,0,0,0,0],"sum_hessian":[1.25E2,5.1E1,7.4E1,4.4E1,7E0,1E1,6.4E1,3.5E1,9E0,4E0,5E0],"tree_param":{"num_deleted":"0","num_feature":"10","num_nodes":"11","size_leaf_vector":"1"}},{"base_weights":[-0E0,7.43064E-3,-3.6731223E-3,4.0120278E-2,-0E0,-6.2996577E-3,-0E0,8.195151E-2,-0E0,-1.2969984E-3,-0E0,-0E0,5.6935167E-3],"categories":[],"categories_nodes":[],"categories_segments":[],"categories_sizes":[],"default_left":[0,0,0,0,0,0,0,0,0,0,0,0,0],"id":92,"left_children":[1,3,5,7,-1,9,-1,11,-1,-1,-1,-1,-1],"loss_changes":[5.03653E-3,2.3001885E-2,1.2700073E-3,5.9944823E-2,0E0,4.784221E-3,0E0,5.5322334E-2,0E0,