{"learner":{"attributes":{"scikit_learn":"{\"_estimator_type\": \"regressor\"}"},"feature_names":[],"feature_types":[],"gradient_booster":{"model":{"cats":{"enc":[],"feature_segments":[],"sorted_idx":[]},"gbtree_model_param":{"num_parallel_tree":"1","num_trees":"200"},"iteration_indptr":[0,1,2,3,4,5,6,7,8,9,10,11,12,13,14,15,16,17,18,19,20,21,22,23,24,25,26,27,28,29,30,31,32,33,34,35,36,37,38,39,40,41,42,43,44,45,46,47,48,49,50,51,52,53,54,55,56,57,58,59,60,61,62,63,64,65,66,67,68,69,70,71,72,73,74,75,76,77,78,79,80,81,82,83,84,85,86,87,88,89,90,91,92,93,94,95,96,97,98,99,100,101,102,103,104,105,106,107,108,109,110,111,112,113,114,115,116,117,118,119,120,121,122,123,124,125,126,127,128,129,130,131,132,133,134,135,136,137,138,139,140,141,142,143,144,145,146,147,148,149,150,151,152,153,154,155,156,157,158,159,160,161,162,163,164,165,166,167,168,169,170,171,172,173,174,175,176,177,178,179,180,181,182,183,184,185,186,187,188,189,190,191,192,193,194,195,196,197,198,199,200],"tree_info":[0,0,0,0,0,0,0,0,0,0,0,0,0,0,0,0,0,0,0,0,0,0,0,0,0,0,0,0,0,0,0,0,0,0,0,0,0,0,0,0,0,0,0,0,0,0,0,0,0,0,0,0,0,0,0,0,0,0,0,0,0,0,0,0,0,0,0,0,0,0,0,0,0,0,0,0,0,0,0,0,0,0,0,0,0,0,0,0,0,0,0,0,0,0,0,0,0,0,0,0,0,0,0,0,0,0,0,0,0,0,0,0,0,0,0,0,0,0,0,0,0,0,0,0,0,0,0,0,0,0,0,0,0,0,0,0,0,0,0,0,0,0,0,0,0,0,0,0,0,0,0,0,0,0,0,0,0,0,0,0,0,0,0,0,0,0,0,0,0,0,0,0,0,0,0,0,0,0,0,0,0,0,0,0,0,0,0,0,0,0,0,0,0,0,0,0,0,0,0,0],"trees":[{"base_weights":[-0E0,-5.207816E-2,2.8971535E-1,5.151515E-2,-2.8737092E-3,4.42029E-1,-4.8209375E-4,1.0984848E-2,-0E0,5.2575763E-2,2.3205741E-1,1.6829005E-2,-0E0],"categories":[],"categories_nodes":[],"categories_segments":[],"categories_sizes":[],"default_left":[0,0,0,0,0,0,0,0,0,0,0,0,0],"id":0,"left_children":[1,3,5,7,-1,9,-1,-1,-1,-1,11,-1,-1],"loss_changes":[3.266175E0,1.08235836E-1,1.7251298E0,8.326446E-2,0E0,2.0576215E0,0E0,0E0,0E0,0E0,5.628439E-1,0E0,0E0],"parents":[2147483647,0,0,1,1,2,2,3,3,5,5,10,10],"right_children":[2,4,6,8,-1,10,-1,-1,-1,-1,12,-1,-1],"split_conditions":[1.826075E0,-1.6201462E0,3.4988625E0,-9.492624E-3,-2.8737092E-3,-5.1070315E-1,-4.8209375E-4,1.0984848E-2,-0E0,5.2575763E-2,2.3996751E0,1.6829005E-2,-0E0],"split_indices":[8,2,6,0,0,0,0,0,0,0,9,0,0],"split_type":[0,0,0,0,0,0,0,0,0,0,0,0,0],"sum_hessian":[2.14E2,1.82E2,3.2E1,4E0,1.78E2,2.2E1,1E1,1E0,3E0,4E0,1.8E1,1.3E1,5E0],"tree_param":{"num_deleted":"0","num_feature":"10","num_nodes":"13","size_leaf_vector":"1"}},{"base_weights":[9.502715E-3,-4.9009327E-2,3.364305E-1,4.9318183E-2,-2.7244862E-3,7.333626E-1,1.8212715E-1,1.0710227E-2,-0E0,5.0472725E-2,7.990702E-2,2.548025E-1,-0E0,1.09969005E-2,-0E0,1.6682731E-2,-0E0],"categories":[],"categories_nodes":[],"categories_segments":[],"categories_sizes":[],"default_left":[0,0,0,0,0,0,0,0,0,0,0,0,0,0,0,0,0],"id":1,"left_children":[1,3,5,7,-1,9,11,-1,-1,-1,13,15,-1,-1,-1,-1,-1],"loss_changes":[4.1390753E0,1.0011491E-1,1.4298723E0,7.960576E-2,0E0,8.179674E-1,4.3605834E-1,0E0,0E0,0E0,7.120493E-2,4.8272038E-1,0E0,0E0,0E0,0E0,0E0],"parents":[2147483647,0,0,1,1,2,2,3,3,5,5,6,6,10,10,11,11],"right_children":[2,4,6,8,-1,10,12,-1,-1,-1,14,16,-1,-1,-1,-1,-1],"split_conditions":[1.826075E0,-1.6201462E0,-5.1070315E-1,-9.492624E-3,-2.7244862E-3,3.4988625E0,3.4988625E0,1.0710227E-2,-0E0,5.0472725E-2,-1.0119137E0,2.3996751E0,-0E0,1.09969005E-2,-0E0,1.6682731E-2,-0E0],"split_indices":[8,2,0,0,0,6,6,0,0,0,0,9,0,0,0,0,0],"split_type":[0,0,0,0,0,0,0,0,0,0,0,0,0,0,0,0,0],"sum_hessian":[2.07E2,1.75E2,3.2E1,4E0,1.71E2,7E0,2.5E1,1E0,3E0,4E0,3E0,1.9E1,6E0,1E0,2E0,1.5E1,4E0],"tree_param":{"num_deleted":"0","num_feature":"10","num_nodes":"17","size_leaf_vector":"1"}},{"base_weights":[-2.059696E-3,-4.613934E-2,2.1793027E-1,7.4121684E-2,-2.5852125E-3,3.7753742E-2,1.4028479E-1,1.0442472E-2,-0E0,1.953677E-2,2.4117278E-1,4.7142054E-3,-9.1288115E-5,2.1183413E-2,-0E0],"categories":[],"categories_nodes":[],"categories_segments":[],"categories_sizes":[],"default_left":[0,0,0,0,0,0,0,0,0,0,0,0,0,0,0],"id":2,"left_children":[1,3,5,7,-1,-1,9,-1,-1,11,13,-1,-1,-1,-1],"loss_changes":[1.8829696E0,1.0706401E-1,7.810137E-1,6.526007E-2,0E0,0E0,2.303943E-1,0E0,0E0,7.354679E-2,8.011525E-1,0E0,0E0,0E0,0E0],"parents":[2147483647,0,0,1,1,2,2,3,3,6,6,9,9,10,10],"right_children":[2,4,6,8,-1,-1,10,-1,-1,12,14,-1,-1,-1,-1],"split_conditions":[1.826075E0,-1.6201462E0,-1.0119137E0,-9.492624E-3,-2.5852125E-3,3.7753742E-2,9.612499E-1,1.0442472E-2,-0E0,-2.4248269E-1,4.9171788E-1,4.7142054E-3,-9.1288115E-5,2.1183413E-2,-0E0],"split_indices":[8,2,0,0,0,0,1,0,0,2,0,0,0,0,0],"split_type":[0,0,0,0,0,0,0,0,0,0,0,0,0,0,0],"sum_hessian":[2.01E2,1.7E2,3.1E1,3E0,1.67E2,2E0,2.9E1,1E0,2E0,1.6E1,1.3E1,8E0,8E0,8E0,5E0],"tree_param":{"num_deleted":"0","num_feature":"10","num_nodes":"15","size_leaf_vector":"1"}},{"base_weights":[8.53855E-3,-4.4066593E-2,2.9161805E-1,7.151106E-2,-2.4641945E-3,4.155371E-1,-0E0,1.0181409E-2,-0E0,4.7109373E-2,2.3809764E-1,9.7781345E-3,-7.1538164E-4,1.6968688E-2,-0E0],"categories":[],"categories_nodes":[],"categories_segments":[],"categories_sizes":[],"default_left":[0,0,0,0,0,0,0,0,0,0,0,0,0,0,0],"id":3,"left_children":[1,3,5,7,-1,9,11,-1,-1,-1,13,-1,-1,-1,-1],"loss_changes":[3.3085024E0,1.00348264E-1,1.1676676E0,6.2473547E-2,0E0,1.4282904E0,7.874132E-2,0E0,0E0,0E0,5.9380877E-1,0E0,0E0,0E0,0E0],"parents":[2147483647,0,0,1,1,2,2,3,3,5,5,6,6,10,10],"right_children":[2,4,6,8,-1,10,12,-1,-1,-1,14,-1,-1,-1,-1],"split_conditions":[1.826075E0,-1.6201462E0,3.4988625E0,-9.492624E-3,-2.4641945E-3,-5.1070315E-1,-1.0119137E0,1.0181409E-2,-0E0,4.7109373E-2,2.3996751E0,9.7781345E-3,-7.1538164E-4,1.6968688E-2,-0E0],"split_indices":[8,2,6,0,0,0,0,0,0,0,9,0,0,0,0],"split_type":[0,0,0,0,0,0,0,0,0,0,0,0,0,0,0],"sum_hessian":[2.12E2,1.78E2,3.4E1,3E0,1.75E2,2.3E1,1.1E1,1E0,2E0,4E0,1.9E1,1E0,1E1,1.4E1,5E0],"tree_param":{"num_deleted":"0","num_feature":"10","num_nodes":"15","size_leaf_vector":"1"}},{"base_weights":[1.0775435E-2,-4.2191636E-2,3.3056235E-1,6.896572E-2,-2.3508754E-3,4.8534235E-1,-0E0,9.926875E-3,-0E0,3.342796E-2,1.4862616E-1,9.533681E-3,-6.8327924E-4,1.6127681E-2,-0E0],"categories":[],"categories_nodes":[],"categories_segments":[],"categories_sizes":[],"default_left":[0,0,0,0,0,0,0,0,0,0,0,0,0,0,0],"id":4,"left_children":[1,3,5,7,-1,9,11,-1,-1,-1,13,-1,-1,-1,-1],"loss_changes":[3.9184074E0,9.419039E-2,1.5762999E0,5.98092E-2,0E0,8.492675E-1,7.476709E-2,0E0,0E0,0E0,4.0334767E-1,0E0,0E0,0E0,0E0],"parents":[2147483647,0,0,1,1,2,2,3,3,5,5,6,6,10,10],"right_children":[2,4,6,8,-1,10,12,-1,-1,-1,14,-1,-1,-1,-1],"split_conditions":[1.826075E0,-1.6201462E0,3.4988625E0,-9.492624E-3,-2.3508754E-3,4.9171788E-1,-1.0119137E0,9.926875E-3,-0E0,3.342796E-2,1.2909944E0,9.533681E-3,-6.8327924E-4,1.6127681E-2,-0E0],"split_indices":[8,2,6,0,0,0,0,0,0,0,4,0,0,0,0],"split_type":[0,0,0,0,0,0,0,0,0,0,0,0,0,0,0],"sum_hessian":[2.21E2,1.89E2,3.2E1,3E0,1.86E2,2.1E1,1.1E1,1E0,2E0,1.2E1,9E0,1E0,1E1,5E0,4E0],"tree_param":{"num_deleted":"0","num_feature":"10","num_nodes":"15","size_leaf_vector":"1"}},{"base_weights":[-0E0,-3.9393544E-2,1.1034621E-1,3.0027052E-2,-2.2144376E-3,2.089976E-1,-0E0,9.678702E-3,-0E0,1.4193489E-1,2.5059363E-2,3.2685697E-2,-1.5292831E-3,7.825754E-3,-0E0,-0E0,5.245982E-3],"categories":[],"categories_nodes":[],"categories_segments":[],"categories_sizes":[],"default_left":[0,0,0,0,0,0,0,0,0,0,0,0,0,0,0,0,0],"id":5,"left_children":[1,3,5,7,-1,9,11,-1,-1,13,-1,15,-1,-1,-1,-1,-1],"loss_changes":[9.806638E-1,6.589168E-2,6.356792E-1,7.04337E-2,0E0,2.1474898E-1,3.0057563E-2,0E0,0E0,7.284683E-2,0E0,8.304787E-2,0E0,0E0,0E0,0E0,0E0],"parents":[2147483647,0,0,1,1,2,2,3,3,5,5,6,6,9,9,11,11],"right_children":[2,4,6,8,-1,10,12,-1,-1,14,-1,16,-1,-1,-1,-1,-1],"split_conditions":[9.090534E-1,-1.6201462E0,4.9171788E-1,-9.492624E-3,-2.2144376E-3,1.6175408E0,7.678039E-1,9.678702E-3,-0E0,1.5025578E0,2.5059363E-2,-5.180154E-1,-1.5292831E-3,7.825754E-3,-0E0,-0E0,5.245982E-3],"split_indices":[9,2,0,0,0,5,2,0,0,2,0,2,0,0,0,0,0],"split_type":[0,0,0,0,0,0,0,0,0,0,0,0,0,0,0,0,0],"sum_hessian":[2.26E2,1.68E2,5.8E1,4E0,1.64E2,3E1,2.8E1,1E0,3E0,2.7E1,3E0,1.4E1,1.4E1,2.5E1,2E0,6E0,8E0],"tree_param":{"num_deleted":"0","num_feature":"10","num_nodes":"17","size_leaf_vector":"1"}},{"base_weights":[8.791709E-3,-3.8587127E-2,2.921285E-1,3.9130248E-2,-2.1694691E-3,4.3787748E-1,-0E0,9.436736E-3,-0E0,4.3402515E-2,2.5618678E-1,9.099695E-3,-9.604646E-4,1.8416652E-2,-0E0],"categories":[],"categories_nodes":[],"categories_segments":[],"categories_sizes":[],"default_left":[0,0,0,0,0,0,0,0,0,0,0,0,0,0,0],"id":6,"left_children":[1,3,5,7,-1,9,11,-1,-1,-1,13,-1,-1,-1,-1],"loss_changes":[2.9839668E0,7.138005E-2,1.29562E0,6.35857E-2,0E0,8.568249E-1,7.030252E-2,0E0,0E0,0E0,6.479615E-1,0E0,0E0,0E0,0E0],"parents":[2147483647,0,0,1,1,2,2,3,3,5,5,6,6,10,10],"right_children":[2,4,6,8,-1,10,12,-1,-1,-1,14,-1,-1,-1,-1],"split_conditions":[1.826075E0,-1.6201462E0,3.4988625E0,-9.492624E-3,-2.1694691E-3,-5.1070315E-1,-1.0119137E0,9.436736E-3,-0E0,4.3402515E-2,2.3996751E0,9.099695E-3,-9.604646E-4,1.8416652E-2,-0E0],"split_indices":[8,2,6,0,0,0,0,0,0,0,9,0,0,0,0],"split_type":[0,0,0,0,0,0,0,0,0,0,0,0,0,0,0],"sum_hessian":[2.11E2,1.8E2,3.1E1,4E0,1.76E2,2E1,1.1E1,1E0,3E0,4E0,1.6E1,1E0,1E1,1.2E1,4E0],"tree_param":{"num_deleted":"0","num_feature":"10","num_nodes":"15","size_leaf_vector":"1"}},{"base_weights":[-0E0,-3.6505587E-2,2.2069113E-1,6.1705142E-2,-2.061837E-3,3.745669E-1,-9.851309E-4,9.200818E-3,-0E0,3.1932596E-2,2.3025248E-2,6.3189636E-3,-2.802311E-4],"categories":[],"categories_nodes":[],"categories_segments":[],"categories_sizes":[],"default_left":[0,0,0,0,0,0,0,0,0,0,0,0,0],"id":7,"left_children":[1,3,5,7,-1,9,-1,-1,-1,-1,11,-1,-1],"loss_changes":[1.6576418E0,7.780579E-2,1.2575448E0,5.2493937E-2,0E0,1.4183567E0,0E0,0E0,0E0,0E0,9.0685755E-2,0E0,0E0],"parents":[2147483647,0,0,1,1,2,2,3,3,5,5,10,10],"right_children":[2,4,6,8,-1,10,-1,-1,-1,-1,12,-1,-1],"split_conditions":[1.826075E0,-1.6201462E0,3.4988625E0,-9.492624E-3,-2.061837E-3,4.9171788E-1,-9.851309E-4,9.200818E-3,-0E0,3.1932596E-2,9.612499E-1,6.3189636E-3,-2.802311E-4],"split_indices":[8,2,6,0,0,0,0,0,0,0,1,0,0],"split_type":[0,0,0,0,0,0,0,0,0,0,0,0,0],"sum_hessian":[2.11E2,1.83E2,2.8E1,3E0,1.8E2,1.8E1,1E1,1E0,2E0,9E0,9E0,5E0,4E0],"tree_param":{"num_deleted":"0","num_feature":"10","num_nodes":"13","size_leaf_vector":"1"}},{"base_weights":[3.078438E-3,-3.471149E-2,2.2769901E-1,5.940494E-2,-1.9693952E-3,3.05023E-1,-1.5825315E-3,8.970797E-3,-0E0,4.1380933E-1,-0E0,4.2550217E-2,1.2369876E-2,8.8968305E-3,-0E0],"categories":[],"categories_nodes":[],"categories_segments":[],"categories_sizes":[],"default_left":[0,0,0,0,0,0,0,0,0,0,0,0,0,0,0],"id":8,"left_children":[1,3,5,7,-1,9,-1,-1,-1,11,13,-1,-1,-1,-1],"loss_changes":[1.9294026E0,7.2874606E-2,8.0812097E-1,5.0264373E-2,0E0,7.4147105E-1,0E0,0E0,0E0,6.225965E-1,6.332288E-2,0E0,0E0,0E0,0E0],"parents":[2147483647,0,0,1,1,2,2,3,3,5,5,9,9,10,10],"right_children":[2,4,6,8,-1,10,-1,-1,-1,12,14,-1,-1,-1,-1],"split_conditions":[1.826075E0,-1.6201462E0,9.929284E-1,-9.492624E-3,-1.9693952E-3,3.4988625E0,-1.5825315E-3,8.970797E-3,-0E0,-5.1070315E-1,-1.0119137E0,4.2550217E-2,1.2369876E-2,8.8968305E-3,-0E0],"split_indices":[8,2,0,0,0,6,0,0,0,0,0,0,0,0,0],"split_type":[0,0,0,0,0,0,0,0,0,0,0,0,0,0,0],"sum_hessian":[2.14E2,1.82E2,3.2E1,3E0,1.79E2,2.6E1,6E0,1E0,2E0,1.8E1,8E0,3E0,1.5E1,1E0,7E0],"tree_param":{"num_deleted":"0","num_feature":"10","num_nodes":"15","size_leaf_vector":"1"}},{"base_weights":[2.1347774E-3,-3.285851E-2,2.6811934E-1,9.641832E-2,-1.8691088E-3,4.1443005E-1,-0E0,8.746526E-3,-0E0,2.8255446E-2,-0E0,8.67441E-3,-7.6532393E-4,-0E0,7.254942E-4],"categories":[],"categories_nodes":[],"categories_segments":[],"categories_sizes":[],"default_left":[0,0,0,0,0,0,0,0,0,0,0,0,0,0,0],"id":9,"left_children":[1,3,5,7,-1,9,11,-1,-1,-1,13,-1,-1,-1,-1],"loss_changes":[2.146206E0,8.578393E-2,9.788127E-1,3.331189E-2,0E0,9.123881E-1,6.253919E-2,0E0,0E0,0E0,8.421468E-4,0E0,0E0,0E0,0E0],"parents":[2147483647,0,0,1,1,2,2,3,3,5,5,6,6,10,10],"right_children":[2,4,6,8,-1,10,12,-1,-1,-1,14,-1,-1,-1,-1],"split_conditions":[1.826075E0,-1.6201462E0,3.4988625E0,-9.492624E-3,-1.8691088E-3,9.929284E-1,-1.0119137E0,8.746526E-3,-0E0,2.8255446E-2,-2.2274686E-1,8.67441E-3,-7.6532393E-4,-0E0,7.254942E-4],"split_indices":[8,2,6,0,0,0,0,0,0,0,1,0,0,0,0],"split_type":[0,0,0,0,0,0,0,0,0,0,0,0,0,0,0],"sum_hessian":[2.16E2,1.9E2,2.6E1,2E0,1.88E2,1.6E1,1E1,1E0,1E0,1.1E1,5E0,1E0,9E0,2E0,3E0],"tree_param":{"num_deleted":"0","num_feature":"10","num_nodes":"15","size_leaf_vector":"1"}},{"base_weights":[4.8298915E-3,-3.1208547E-2,2.3991318E-1,2.5828353E-3,-1.7670889E-3,3.5930404E-1,-0E0,4.382086E-2,-0E0,3.7556883E-2,1.9351158E-1,8.457551E-3,-9.384771E-4,-0E0,5.063187E-3,1.5501216E-2,-2.4061943E-3],"categories":[],"categories_nodes":[],"categories_segments":[],"categories_sizes":[],"default_left":[0,0,0,0,0,0,0,0,0,0,0,0,0,0,0,0,0],"id":10,"left_children":[1,3,5,7,-1,9,11,13,-1,-1,15,-1,-1,-1,-1,-1,-1],"loss_changes":[2.0265193E0,4.370594E-2,8.6922073E-1,9.541301E-3,0E0,7.4654555E-1,6.109938E-2,2.1161687E-2,0E0,0E0,6.2448114E-1,0E0,0E0,0E0,0E0,0E0,0E0],"parents":[2147483647,0,0,1,1,2,2,3,3,5,5,6,6,7,7,10,10],"right_children":[2,4,6,8,-1,10,12,14,-1,-1,16,-1,-1,-1,-1,-1,-1],"split_conditions":[1.826075E0,-1.4067435E0,3.4988625E0,-9.492624E-3,-1.7670889E-3,-5.1070315E-1,-1.0119137E0,-5.1070315E-1,-0E0,3.7556883E-2,2.3996751E0,8.457551E-3,-9.384771E-4,-0E0,5.063187E-3,1.5501216E-2,-2.4061943E-3],"split_indices":[8,1,6,0,0,0,0,0,0,0,9,0,0,0,0,0,0],"split_type":[0,0,0,0,0,0,0,0,0,0,0,0,0,0,0,0,0],"sum_hessian":[2.25E2,1.94E2,3.1E1,8E0,1.86E2,2E1,1.1E1,4E0,4E0,4E0,1.6E1,1E0,1E1,2E0,2E0,1.2E1,4E0],"tree_param":{"num_deleted":"0","num_feature":"10","num_nodes":"17","size_leaf_vector":"1"}},{"base_weights":[-0E0,-2.9163571E-2,1.3868804E-1,-0E0,-1.6735357E-3,1.9919509E-1,-0E0,4.179559E-2,-0E0,2.6797828E-1,-0E0,8.246112E-3,-8.906281E-4,-0E0,4.894414E-3,-0E0,1.4850917E-2],"categories":[],"categories_nodes":[],"categories_segments":[],"categories_sizes":[],"default_left":[0,0,0,0,0,0,0,0,0,0,0,0,0,0,0,0,0],"id":11,"left_children":[1,3,5,7,-1,9,11,13,-1,15,-1,-1,-1,-1,-1,-1,-1],"loss_changes":[8.0280864E-1,3.712797E-2,2.5864106E-1,8.734357E-3,0E0,3.0820042E-1,5.788885E-2,2.0011986E-2,0E0,1.9070828E-1,0E0,0E0,0E0,0E0,0E0,0E0,0E0],"parents":[2147483647,0,0,1,1,2,2,3,3,5,5,6,6,7,7,9,9],"right_children":[2,4,6,8,-1,10,12,14,-1,16,-1,-1,-1,-1,-1,-1,-1],"split_conditions":[1.826075E0,-1.4067435E0,3.4988625E0,-9.492624E-3,-1.6735357E-3,9.929284E-1,-1.0119137E0,-5.1070315E-1,-0E0,-1.4067435E0,-0E0,8.246112E-3,-8.906281E-4,-0E0,4.894414E-3,-0E0,1.4850917E-2],"split_indices":[8,1,6,0,0,0,0,0,0,1,0,0,0,0,0,0,0],"split_type":[0,0,0,0,0,0,0,0,0,0,0,0,0,0,0,0,0],"sum_hessian":[2.07E2,1.74E2,3.3E1,9E0,1.65E2,2.2E1,1.1E1,4E0,5E0,1.6E1,6E0,1E0,1E1,2E0,2E0,1E0,1.5E1],"tree_param":{"num_deleted":"0","num_feature":"10","num_nodes":"17","size_leaf_vector":"1"}},{"base_weights":[-0E0,-2.7663782E-2,1.5019912E-1,-0E0,-1.5847288E-3,2.8394049E-2,4.8769176E-2,3.9837822E-2,-0E0,1.067882E-1,-5.270999E-4,-0E0,4.7312663E-3,7.2944947E-3,-0E0],"categories":[],"categories_nodes":[],"categories_segments":[],"categories_sizes":[],"default_left":[0,0,0,0,0,0,0,0,0,0,0,0,0,0,0],"id":12,"left_children":[1,3,5,7,-1,-1,9,11,-1,13,-1,-1,-1,-1,-1],"loss_changes":[8.386349E-1,3.550917E-2,9.773088E-1,7.9352595E-3,0E0,0E0,1.4216065E-1,1.8926596E-2,0E0,1.352748E-1,0E0,0E0,0E0,0E0,0E0],"parents":[2147483647,0,0,1,1,2,2,3,3,6,6,7,7,9,9],"right_children":[2,4,6,8,-1,-1,10,12,-1,14,-1,-1,-1,-1,-1],"split_conditions":[1.826075E0,-1.4067435E0,-1.0119137E0,-9.492624E-3,-1.5847288E-3,2.8394049E-2,3.4988625E0,-5.1070315E-1,-0E0,4.0374684E0,-5.270999E-4,-0E0,4.7312663E-3,7.2944947E-3,-0E0],"split_indices":[8,1,0,0,0,0,6,0,0,8,0,0,0,0,0],"split_type":[0,0,0,0,0,0,0,0,0,0,0,0,0,0,0],"sum_hessian":[2.11E2,1.81E2,3E1,8E0,1.73E2,4E0,2.6E1,4E0,4E0,1.7E1,9E0,2E0,2E0,1.5E1,2E0],"tree_param":{"num_deleted":"0","num_feature":"10","num_nodes":"15","size_leaf_vector":"1"}},{"base_weights":[4.893596E-3,-2.5998507E-2,1.8371858E-1,2.8921496E-2,-1.5188147E-3,4.4976246E-1,6.059403E-2,8.160642E-3,-0E0,3.4608748E-2,1.7397447E-2,1.19970776E-1,-1.3695813E-4,7.330108E-3,-0E0,8.171846E-3,-0E0],"categories":[],"categories_nodes":[],"categories_segments":[],"categories_sizes":[],"default_left":[0,0,0,0,0,0,0,0,0,0,0,0,0,0,0,0,0],"id":13,"left_children":[1,3,5,7,-1,9,11,-1,-1,-1,13,15,-1,-1,-1,-1,-1],"loss_changes":[1.2271622E0,4.3680824E-2,7.985343E-1,4.9094595E-2,0E0,5.764681E-1,1.5295738E-1,0E0,0E0,0E0,4.1471027E-2,1.5599361E-1,0E0,0E0,0E0,0E0,0E0],"parents":[2147483647,0,0,1,1,2,2,3,3,5,5,6,6,10,10,11,11],"right_children":[2,4,6,8,-1,10,12,-1,-1,-1,14,16,-1,-1,-1,-1,-1],"split_conditions":[1.826075E0,-1.6201462E0,-5.1070315E-1,-9.492624E-3,-1.5188147E-3,3.4988625E0,3.4988625E0,8.160642E-3,-0E0,3.4608748E-2,-1.0119137E0,4.0374684E0,-1.3695813E-4,7.330108E-3,-0E0,8.171846E-3,-0E0],"split_indices":[8,2,0,0,0,6,6,0,0,0,0,8,0,0,0,0,0],"split_type":[0,0,0,0,0,0,0,0,0,0,0,0,0,0,0,0,0],"sum_hessian":[2.06E2,1.74E2,3.2E1,4E0,1.7E2,8E0,2.4E1,1E0,3E0,4E0,4E0,1.6E1,8E0,1E0,3E0,1.4E1,2E0],"tree_param":{"num_deleted":"0","num_feature":"10","num_nodes":"17","size_leaf_vector":"1"}},{"base_weights":[-0E0,-2.4503589E-2,1.5542303E-1,4.9263224E-2,-1.4440896E-3,2.658498E-1,-7.0138567E-4,7.956626E-3,-0E0,3.592203E-2,1.14307836E-1,1.2361674E-2,-4.3630702E-3],"categories":[],"categories_nodes":[],"categories_segments":[],"categories_sizes":[],"default_left":[0,0,0,0,0,0,0,0,0,0,0,0,0],"id":14,"left_children":[1,3,5,7,-1,9,-1,-1,-1,-1,11,-1,-1],"loss_changes":[8.321658E-1,4.9043022E-2,6.909973E-1,4.093885E-2,0E0,8.7323236E-1,0E0,0E0,0E0,0E0,5.5705315E-1,0E0,0E0],"parents":[2147483647,0,0,1,1,2,2,3,3,5,5,10,10],"right_children":[2,4,6,8,-1,10,-1,-1,-1,-1,12,-1,-1],"split_conditions":[1.826075E0,-1.6201462E0,3.4988625E0,-9.492624E-3,-1.4440896E-3,-5.1070315E-1,-7.0138567E-4,7.956626E-3,-0E0,3.592203E-2,2.3996751E0,1.2361674E-2,-4.3630702E-3],"split_indices":[8,2,6,0,0,0,0,0,0,0,9,0,0],"split_type":[0,0,0,0,0,0,0,0,0,0,0,0,0],"sum_hessian":[2.07E2,1.78E2,2.9E1,3E0,1.75E2,1.9E1,1E1,1E0,2E0,3E0,1.6E1,1.1E1,5E0],"tree_param":{"num_deleted":"0","num_feature":"10","num_nodes":"13","size_leaf_vector":"1"}},{"base_weights":[3.3710583E-4,-2.0897156E-2,5.8741935E-2,-0E0,-1.2763458E-3,1.5246189E-1,-2.964141E-2,5.6724668E-2,-0E0,1.9019832E-1,-0E0,-0E0,-2.3932536E-3,4.599133E-3,-0E0,1.1220251E-3,1.1920569E-2,7.164389E-3,-6.43203E-5,1.9430874E-3,-0E0],"categories":[],"categories_nodes":[],"categories_segments":[],"categories_sizes":[],"default_left":[0,0,0,0,0,0,0,0,0,0,0,0,0,0,0,0,0,0,0,0,0],"id":15,"left_children":[1,3,5,7,-1,9,11,13,-1,15,17,19,-1,-1,-1,-1,-1,-1,-1,-1,-1],"loss_changes":[2.781081E-1,2.6382074E-2,5.794929E-1,1.2870751E-2,0E0,1.373123E-1,2.6336096E-2,1.2511676E-2,0E0,6.642693E-2,4.1076016E-2,6.040942E-3,0E0,0E0,0E0,0E0,0E0,0E0,0E0,0E0,0E0],"parents":[2147483647,0,0,1,1,2,2,3,3,5,5,6,6,7,7,9,9,10,10,11,11],"right_children":[2,4,6,8,-1,10,12,14,-1,16,18,20,-1,-1,-1,-1,-1,-1,-1,-1,-1],"split_conditions":[9.090534E-1,-1.4067435E0,4.9171788E-1,-9.492624E-3,-1.2763458E-3,3.4988625E0,-2.2274686E-1,3.5973794E0,-0E0,1.7191872E-1,-1.0119137E0,9.929284E-1,-2.3932536E-3,4.599133E-3,-0E0,1.1220251E-3,1.1920569E-2,7.164389E-3,-6.43203E-5,1.9430874E-3,-0E0],"split_indices":[9,1,0,0,0,6,1,7,0,1,0,0,0,0,0,0,0,0,0,0,0],"split_type":[0,0,0,0,0,0,0,0,0,0,0,0,0,0,0,0,0,0,0,0,0],"sum_hessian":[2.07E2,1.46E2,6.1E1,8E0,1.38E2,3.2E1,2.9E1,3E0,5E0,2.4E1,8E0,7E0,2.2E1,2E0,1E0,8E0,1.6E1,1E0,7E0,3E0,4E0],"tree_param":{"num_deleted":"0","num_feature":"10","num_nodes":"21","size_leaf_vector":"1"}},{"base_weights":[5.160507E-3,-1.8936086E-2,6.319091E-2,2.4778211E-2,-1.2118177E-3,1.2309733E-1,-1.8383485E-3,8.170106E-2,-0E0,1.5822794E-1,-0E0,7.642731E-3,-0E0,-0E0,8.194383E-3],"categories":[],"categories_nodes":[],"categories_segments":[],"categories_sizes":[],"default_left":[0,0,0,0,0,0,0,0,0,0,0,0,0,0,0],"id":16,"left_children":[1,3,5,7,-1,9,-1,11,-1,13,-1,-1,-1,-1,-1],"loss_changes":[3.0299103E-1,3.1840462E-2,4.369188E-1,1.695539E-2,0E0,2.59605E-1,0E0,2.670388E-2,0E0,4.0595174E-2,0E0,0E0,0E0,0E0,0E0],"parents":[2147483647,0,0,1,1,2,2,3,3,5,5,7,7,9,9],"right_children":[2,4,6,8,-1,10,-1,12,-1,14,-1,-1,-1,-1,-1],"split_conditions":[9.090534E-1,-1.6201462E0,1.572795E0,1.572795E0,-1.2118177E-3,3.4988625E0,-1.8383485E-3,3.4988625E0,-0E0,-1.4067435E0,-0E0,7.642731E-3,-0E0,-0E0,8.194383E-3],"split_indices":[9,2,3,3,0,6,0,6,0,1,0,0,0,0,0],"split_type":[0,0,0,0,0,0,0,0,0,0,0,0,0,0,0],"sum_hessian":[1.99E2,1.35E2,6.4E1,4E0,1.31E2,4.3E1,2.1E1,2E0,2E0,3.6E1,7E0,1E0,1E0,1E0,3.5E1],"tree_param":{"num_deleted":"0","num_feature":"10","num_nodes":"15","size_leaf_vector":"1"}},{"base_weights":[1.173344E-2,-2.1913469E-2,2.3509263E-1,2.3249662E-2,-1.2979441E-3,3.7222353E-1,-0E0,7.4516623E-3,-0E0,2.4909211E-2,3.1687524E-2,6.98528E-3,-7.3522166E-4,1.0652258E-2,-1.6296E-3],"categories":[],"categories_nodes":[],"categories_segments":[],"categories_sizes":[],"default_left":[0,0,0,0,0,0,0,0,0,0,0,0,0,0,0],"id":17,"left_children":[1,3,5,7,-1,9,11,-1,-1,-1,13,-1,-1,-1,-1],"loss_changes":[1.6599026E0,3.4479395E-2,8.9111876E-1,4.1719083E-2,0E0,4.913726E-1,4.1413732E-2,0E0,0E0,0E0,1.7877322E-1,0E0,0E0,0E0,0E0],"parents":[2147483647,0,0,1,1,2,2,3,3,5,5,6,6,10,10],"right_children":[2,4,6,8,-1,10,12,-1,-1,-1,14,-1,-1,-1,-1],"split_conditions":[1.826075E0,-1.6201462E0,3.4988625E0,-9.492624E-3,-1.2979441E-3,4.9171788E-1,-1.0119137E0,7.4516623E-3,-0E0,2.4909211E-2,1.2909944E0,6.98528E-3,-7.3522166E-4,1.0652258E-2,-1.6296E-3],"split_indices":[8,2,6,0,0,0,0,0,0,0,4,0,0,0,0],"split_type":[0,0,0,0,0,0,0,0,0,0,0,0,0,0,0],"sum_hessian":[2.05E2,1.77E2,2.8E1,4E0,1.73E2,1.7E1,1.1E1,1E0,3E0,1.1E1,6E0,1E0,1E1,3E0,3E0],"tree_param":{"num_deleted":"0","num_feature":"10","num_nodes":"15","size_leaf_vector":"1"}},{"base_weights":[9.42198E-3,-1.7675446E-2,8.5429914E-2,2.1759331E-2,-1.1117918E-3,1.3376336E-1,-0E0,7.2653713E-3,-0E0,-0E0,6.9052265E-3,7.148669E-3,-1.2806783E-3,-0E0,7.2299303E-3],"categories":[],"categories_nodes":[],"categories_segments":[],"categories_sizes":[],"default_left":[0,0,0,0,0,0,0,0,0,0,0,0,0,0,0],"id":18,"left_children":[1,3,5,7,-1,9,11,-1,-1,-1,-1,13,-1,-1,-1],"loss_changes":[4.740862E-1,2.823731E-2,3.062962E-1,3.986115E-2,0E0,3.0496538E-2,1.1357345E-2,0E0,0E0,0E0,0E0,4.16131E-2,0E0,0E0,0E0],"parents":[2147483647,0,0,1,1,2,2,3,3,5,5,6,6,11,11],"right_children":[2,4,6,8,-1,10,12,-1,-1,-1,-1,14,-1,-1,-1],"split_conditions":[9.090534E-1,-1.6201462E0,9.929284E-1,-9.492624E-3,-1.1117918E-3,-1.4067435E0,-2.4248269E-1,7.2653713E-3,-0E0,-0E0,6.9052265E-3,-2.2274686E-1,-1.2806783E-3,-0E0,7.2299303E-3],"split_indices":[9,2,0,0,0,1,2,0,0,0,0,1,0,0,0],"split_type":[0,0,0,0,0,0,0,0,0,0,0,0,0,0,0],"sum_hessian":[2.12E2,1.52E2,6E1,4E0,1.48E2,4.1E1,1.9E1,1E0,3E0,1E0,4E1,3E0,1.6E1,2E0,1E0],"tree_param":{"num_deleted":"0","num_feature":"10","num_nodes":"15","size_leaf_vector":"1"}},{"base_weights":[-0E0,-2.1553932E-2,1.3808078E-1,2.0306265E-2,-1.2719755E-3,1.8009654E-1,-8.210241E-4,7.0837378E-3,-0E0,3.8949406E-1,9.207465E-2,2.0706677E-3,2.7855186E-2,7.952232E-3,-3.3716136E-3],"categories":[],"categories_nodes":[],"categories_segments":[],"categories_sizes":[],"default_left":[0,0,0,0,0,0,0,0,0,0,0,0,0,0,0],"id":19,"left_children":[1,3,5,7,-1,9,-1,-1,-1,11,13,-1,-1,-1,-1],"loss_changes":[6.7514294E-1,3.2523036E-2,2.8603137E-1,3.8081754E-2,0E0,2.2100544E-1,0E0,0E0,0E0,2.7719975E-2,2.9153883E-1,0E0,0E0,0E0,0E0],"parents":[2147483647,0,0,1,1,2,2,3,3,5,5,9,9,10,10],"right_children":[2,4,6,8,-1,10,-1,-1,-1,12,14,-1,-1,-1,-1],"split_conditions":[1.826075E0,-1.6201462E0,1.6175408E0,-9.492624E-3,-1.2719755E-3,-5.1070315E-1,-8.210241E-4,7.0837378E-3,-0E0,4.0374684E0,2.3996751E0,2.0706677E-3,2.7855186E-2,7.952232E-3,-3.3716136E-3],"split_indices":[8,2,5,0,0,0,0,0,0,8,9,0,0,0,0],"split_type":[0,0,0,0,0,0,0,0,0,0,0,0,0,0,0],"sum_hessian":[2.1E2,1.8E2,3E1,4E0,1.76E2,2.6E1,4E0,1E0,3E0,5E0,2.1E1,3E0,2E0,1.7E1,4E0],"tree_param":{"num_deleted":"0","num_feature":"10","num_nodes":"15","size_leaf_vector":"1"}},{"base_weights":[5.164648E-3,-2.0068396E-2,1.8319735E-1,1.8889511E-2,-1.1898068E-3,2.9390353E-1,-0E0,6.9066435E-3,-0E0,4.1323316E-1,-0E0,8.346775E-2,-3.4167615E-3,-0E0,2.6612017E-2,5.9416383E-3,-0E0,9.596521E-3,-0E0],"categories":[],"categories_nodes":[],"categories_segments":[],"categories_sizes":[],"default_left":[0,0,0,0,0,0,0,0,0,0,0,0,0,0,0,0,0,0,0],"id":20,"left_children":[1,3,5,7,-1,9,11,-1,-1,13,15,17,-1,-1,-1,-1,-1,-1,-1],"loss_changes":[1.0421022E0,2.9769443E-2,5.815502E-1,3.637731E-2,0E0,4.9431276E-1,7.448912E-2,0E0,0E0,5.0037813E-1,2.8242454E-2,1.05547935E-1,0E0,0E0,0E0,0E0,0E0,0E0,0E0],"parents":[2147483647,0,0,1,1,2,2,3,3,5,5,6,6,9,9,10,10,11,11],"right_children":[2,4,6,8,-1,10,12,-1,-1,14,16,18,-1,-1,-1,-1,-1,-1,-1],"split_conditions":[1.826075E0,-1.6201462E0,4.9171788E-1,-9.492624E-3,-1.1898068E-3,3.4988625E0,1.2909944E0,6.9066435E-3,-0E0,1.7191872E-1,-1.0119137E0,1.7191872E-1,-3.4167615E-3,-0E0,2.6612017E-2,5.9416383E-3,-0E0,9.596521E-3,-0E0],"split_indices":[8,2,0,0,0,6,4,0,0,1,0,1,0,0,0,0,0,0,0],"split_type":[0,0,0,0,0,0,0,0,0,0,0,0,0,0,0,0,0,0,0],"sum_hessian":[2.12E2,1.84E2,2.8E1,4E0,1.8E2,1.7E1,1.1E1,1E0,3E0,1.1E1,6E0,5E0,6E0,3E0,8E0,1E0,5E0,3E0,2E0],"tree_param":{"num_deleted":"0","num_feature":"10","num_nodes":"19","size_leaf_vector":"1"}},{"base_weights":[7.0988764E-3,-1.8417135E-2,1.6704091E-1,3.7036747E-2,-1.125333E-3,3.723345E-1,5.770686E-2,6.7339777E-3,-0E0,2.8708214E-2,-0E0,1.1598258E-1,-3.7641132E-3,5.793098E-3,-0E0,-0E0,8.413255E-3],"categories":[],"categories_nodes":[],"categories_segments":[],"categories_sizes":[],"default_left":[0,0,0,0,0,0,0,0,0,0,0,0,0,0,0,0,0],"id":21,"left_children":[1,3,5,7,-1,9,11,-1,-1,-1,13,15,-1,-1,-1,-1,-1],"loss_changes":[9.140102E-1,3.325504E-2,4.59306E-1,3.079028E-2,0E0,4.006263E-1,2.0733243E-1,0E0,0E0,0E0,2.6847985E-2,1.9742307E-1,0E0,0E0,0E0,0E0,0E0],"parents":[2147483647,0,0,1,1,2,2,3,3,5,5,6,6,10,10,11,11],"right_children":[2,4,6,8,-1,10,12,-1,-1,-1,14,16,-1,-1,-1,-1,-1],"split_conditions":[1.826075E0,-1.6201462E0,-5.1070315E-1,-9.492624E-3,-1.125333E-3,3.4988625E0,2.3996751E0,6.7339777E-3,-0E0,2.8708214E-2,-1.0119137E0,-1.012078E0,-3.7641132E-3,5.793098E-3,-0E0,-0E0,8.413255E-3],"split_indices":[8,2,0,0,0,6,9,0,0,0,0,1,0,0,0,0,0],"split_type":[0,0,0,0,0,0,0,0,0,0,0,0,0,0,0,0,0],"sum_hessian":[2.04E2,1.74E2,3E1,3E0,1.71E2,8E0,2.2E1,1E0,2E0,4E0,4E0,1.8E1,4E0,1E0,3E0,3E0,1.5E1],"tree_param":{"num_deleted":"0","num_feature":"10","num_nodes":"17","size_leaf_vector":"1"}},{"base_weights":[-0E0,-1.1369045E-2,3.154505E-1,-1.8084515E-2,1.878019E-2,3.5470486E-2,-1.6185663E-3,-0E0,-1.0759265E-3,9.40332E-2,-4.324026E-3,3.6797412E-3,-0E0,-0E0,1.1967769E-2,5.475964E-4,-4.73877E-3],"categories":[],"categories_nodes":[],"categories_segments":[],"categories_sizes":[],"default_left":[0,0,0,0,0,0,0,0,0,0,0,0,0,0,0,0,0],"id":22,"left_children":[1,3,5,7,9,-1,-1,11,-1,13,15,-1,-1,-1,-1,-1,-1],"loss_changes":[7.2357744E-1,4.2307235E-2,1.3206769E0,2.1918189E-2,8.872772E-2,0E0,0E0,1.6248593E-2,0E0,1.8919033E-1,6.367567E-2,0E0,0E0,0E0,0E0,0E0,0E0],"parents":[2147483647,0,0,1,1,2,2,3,3,4,4,7,7,9,9,10,10],"right_children":[2,4,6,8,10,-1,-1,12,-1,14,16,-1,-1,-1,-1,-1,-1],"split_conditions":[4.0374684E0,1.826075E0,-5.1070315E-1,-1.4067435E0,4.9171788E-1,3.5470486E-2,-1.6185663E-3,-9.492624E-3,-1.0759265E-3,-9.492624E-3,1.2909944E0,3.6797412E-3,-0E0,-0E0,1.1967769E-2,5.475964E-4,-4.73877E-3],"split_indices":[8,8,0,1,0,0,0,0,0,0,4,0,0,0,0,0,0],"split_type":[0,0,0,0,0,0,0,0,0,0,0,0,0,0,0,0,0],"sum_hessian":[2.14E2,2.08E2,6E0,1.84E2,2.4E1,3E0,3E0,7E0,1.77E2,1E1,1.4E1,2E0,5E0,6E0,4E0,8E0,6E0],"tree_param":{"num_deleted":"0","num_feature":"10","num_nodes":"17","size_leaf_vector":"1"}},{"base_weights":[7.857914E-3,-1.619798E-2,1.4968741E-1,1.5425432E-2,-9.922624E-4,3.447605E-1,5.717414E-2,6.473634E-3,-0E0,3.4796447E-4,5.2022094E-1,1.318953E-1,-6.527282E-3,2.4046758E-3,-0E0,1.0056283E-3,3.4012783E-2,1.3734171E-2,2.5833616E-4],"categories":[],"categories_nodes":[],"categories_segments":[],"categories_sizes":[],"default_left":[0,0,0,0,0,0,0,0,0,0,0,0,0,0,0,0,0,0,0],"id":23,"left_children":[1,3,5,7,-1,9,11,-1,-1,13,15,17,-1,-1,-1,-1,-1,-1,-1],"loss_changes":[7.9589033E-1,2.3277052E-2,3.9291418E-1,3.2336626E-2,0E0,2.834115E-1,3.8258582E-1,0E0,0E0,6.9383536E-3,3.6307693E-2,2.3865771E-1,0E0,0E0,0E0,0E0,0E0,0E0,0E0],"parents":[2147483647,0,0,1,1,2,2,3,3,5,5,6,6,9,9,10,10,11,11],"right_children":[2,4,6,8,-1,10,12,-1,-1,14,16,18,-1,-1,-1,-1,-1,-1,-1],"split_conditions":[1.826075E0,-1.6201462E0,-5.1070315E-1,-9.492624E-3,-9.922624E-4,4.0374684E0,2.3996751E0,6.473634E-3,-0E0,-1.0119137E0,-1.5063846E-1,4.9171788E-1,-6.527282E-3,2.4046758E-3,-0E0,1.0056283E-3,3.4012783E-2,1.3734171E-2,2.5833616E-4],"split_indices":[8,2,0,0,0,8,9,0,0,0,2,0,0,0,0,0,0,0,0],"split_type":[0,0,0,0,0,0,0,0,0,0,0,0,0,0,0,0,0,0,0],"sum_hessian":[2.12E2,1.79E2,3.3E1,4E0,1.75E2,8E0,2.5E1,1E0,3E0,4E0,4E0,2E1,5E0,2E0,2E0,2E0,2E0,7E0,1.3E1],"tree_param":{"num_deleted":"0","num_feature":"10","num_nodes":"19","size_leaf_vector":"1"}},{"base_weights":[8.94252E-3,-8.066955E-4,1.7239574E-1,2.543816E-1,-0E0,2.6122127E-2,1.3801013E-1,4.736367E-3,-1.3459311E-3,1.2385276E-2,-4.8369486E-3],"categories":[],"categories_nodes":[],"categories_segments":[],"categories_sizes":[],"default_left":[0,0,0,0,0,0,0,0,0,0,0],"id":24,"left_children":[1,-1,3,5,7,-1,9,-1,-1,-1,-1],"loss_changes":[9.8265344E-1,0E0,4.7257054E-1,2.8395343E-1,2.519266E-2,0E0,5.629621E-1,0E0,0E0,0E0,0E0],"parents":[2147483647,0,0,2,2,3,3,4,4,6,6],"right_children":[2,-1,4,6,8,-1,10,-1,-1,-1,-1],"split_conditions":[1.826075E0,-8.066955E-4,3.4988625E0,-5.1070315E-1,-1.0119137E0,2.6122127E-2,2.3996751E0,4.736367E-3,-1.3459311E-3,1.2385276E-2,-4.8369486E-3],"split_indices":[8,0,6,0,0,0,9,0,0,0,0],"split_type":[0,0,0,0,0,0,0,0,0,0,0],"sum_hessian":[2.19E2,1.88E2,3.1E1,2.1E1,1E1,4E0,1.7E1,1E0,9E0,1.3E1,4E0],"tree_param":{"num_deleted":"0","num_feature":"10","num_nodes":"11","size_leaf_vector":"1"}},{"base_weights":[-3.9444943E-3,-1.4923204E-2,1.9222869E-1,-0E0,-9.461503E-4,1.9367386E-2,-1.1753495E-3,4.0191483E-2,-7.7513995E-4,-0E0,3.761666E-3],"categories":[],"categories_nodes":[],"categories_segments":[],"categories_sizes":[],"default_left":[0,0,0,0,0,0,0,0,0,0,0],"id":25,"left_children":[1,3,5,7,-1,-1,-1,9,-1,-1,-1],"loss_changes":[3.7511382E-1,2.0010121E-2,5.6987286E-1,2.501834E-2,0E0,0E0,0E0,2.8325496E-2,0E0,0E0,0E0],"parents":[2147483647,0,0,1,1,2,2,3,3,7,7],"right_children":[2,4,6,8,-1,-1,-1,10,-1,-1,-1],"split_conditions":[4.0374684E0,-1.3446136E0,-5.1070315E-1,4.9171788E-1,-9.461503E-4,1.9367386E-2,-1.1753495E-3,-5.1070315E-1,-7.7513995E-4,-0E0,3.761666E-3],"split_indices":[8,2,0,0,0,0,0,0,0,0,0],"split_type":[0,0,0,0,0,0,0,0,0,0,0],"sum_hessian":[2.13E2,2.05E2,8E0,2.2E1,1.83E2,5E0,3E0,1.3E1,9E0,5E0,8E0],"tree_param":{"num_deleted":"0","num_feature":"10","num_nodes":"11","size_leaf_vector":"1"}},{"base_weights":[-2.9590316E-3,-1.3402927E-2,3.8623493E-2,3.173287E-2,-8.640825E-4,1.1980242E-1,-5.077667E-2,6.237918E-3,-0E0,1.2775056E-2,-0E0,1.4853199E-3,-5.6782546E-3,6.6034286E-3,-4.088861E-3],"categories":[],"categories_nodes":[],"categories_segments":[],"categories_sizes":[],"default_left":[0,0,0,0,0,0,0,0,0,0,0,0,0,0,0],"id":26,"left_children":[1,3,5,7,-1,9,11,-1,-1,-1,13,-1,-1,-1,-1],"loss_changes":[7.7369794E-2,2.3959897E-2,2.7283317E-1,2.71014E-2,0E0,2.3519412E-1,1.10997215E-1,0E0,0E0,0E0,1.6890736E-1,0E0,0E0,0E0,0E0],"parents":[2147483647,0,0,1,1,2,2,3,3,5,5,6,6,10,10],"right_children":[2,4,6,8,-1,10,12,-1,-1,-1,14,-1,-1,-1,-1],"split_conditions":[1.826075E0,-1.6201462E0,2.3996751E0,-9.492624E-3,-8.640825E-4,4.9171788E-1,-1.0119137E0,6.237918E-3,-0E0,1.2775056E-2,1.2909944E0,1.4853199E-3,-5.6782546E-3,6.6034286E-3,-4.088861E-3],"split_indices":[8,2,9,0,0,0,0,0,0,0,4,0,0,0,0],"split_type":[0,0,0,0,0,0,0,0,0,0,0,0,0,0,0],"sum_hessian":[2.05E2,1.74E2,3.1E1,3E0,1.71E2,1.9E1,1.2E1,1E0,2E0,7E0,1.2E1,2E0,1E1,6E0,6E0],"tree_param":{"num_deleted":"0","num_feature":"10","num_nodes":"15","size_leaf_vector":"1"}},{"base_weights":[3.9533554E-3,-6.863196E-4,1.15781575E-1,2.218135E-1,-0E0,1.725859E-2,-0E0,-0E0,-3.490497E-3,4.0966393E-3,-1.5344898E-3,1.9616007E-3,-0E0],"categories":[],"categories_nodes":[],"categories_segments":[],"categories_sizes":[],"default_left":[0,0,0,0,0,0,0,0,0,0,0,0,0],"id":27,"left_children":[1,-1,3,5,7,-1,9,11,-1,-1,-1,-1,-1],"loss_changes":[4.8757765E-1,0E0,5.282419E-1,5.648416E-1,3.411399E-2,0E0,2.0019006E-2,1.0774055E-2,0E0,0E0,0E0,0E0,0E0],"parents":[2147483647,0,0,2,2,3,3,4,4,6,6,7,7],"right_children":[2,-1,4,6,8,-1,10,12,-1,-1,-1,-1,-1],"split_conditions":[1.826075E0,-6.863196E-4,4.9171788E-1,3.4988625E0,1.2909944E0,1.725859E-2,-1.0119137E0,1.6175408E0,-3.490497E-3,4.0966393E-3,-1.5344898E-3,1.9616007E-3,-0E0],"split_indices":[8,0,0,6,4,0,0,5,0,0,0,0,0],"split_type":[0,0,0,0,0,0,0,0,0,0,0,0,0],"sum_hessian":[2.19E2,1.86E2,3.3E1,1.9E1,1.4E1,1.2E1,7E0,8E0,6E0,1E0,6E0,6E0,2E0],"tree_param":{"num_deleted":"0","num_feature":"10","num_nodes":"13","size_leaf_vector":"1"}},{"base_weights":[-2.931905E-3,-1.3202353E-2,4.607358E-2,1.2882926E-2,-8.334952E-4,1.583162E-2,-0E0,6.0991286E-3,-0E0,6.1531488E-2,-4.263354E-3,1.4359358E-2,-1.6780971E-3],"categories":[],"categories_nodes":[],"categories_segments":[],"categories_sizes":[],"default_left":[0,0,0,0,0,0,0,0,0,0,0,0,0],"id":28,"left_children":[1,3,5,7,-1,-1,9,-1,-1,11,-1,-1,-1],"loss_changes":[8.93641E-2,1.857052E-2,2.4133053E-1,2.8929647E-2,0E0,0E0,1.3358451E-1,0E0,0E0,5.2270186E-1,0E0,0E0,0E0],"parents":[2147483647,0,0,1,1,2,2,3,3,6,6,9,9],"right_children":[2,4,6,8,-1,-1,10,-1,-1,12,-1,-1,-1],"split_conditions":[1.826075E0,-1.6201462E0,-1.0119137E0,-9.492624E-3,-8.334952E-4,1.583162E-2,2.3996751E0,6.0991286E-3,-0E0,4.9171788E-1,-4.263354E-3,1.4359358E-2,-1.6780971E-3],"split_indices":[8,2,0,0,0,0,9,0,0,0,0,0,0],"split_type":[0,0,0,0,0,0,0,0,0,0,0,0,0],"sum_hessian":[2.08E2,1.81E2,2.7E1,4E0,1.77E2,2E0,2.5E1,1E0,3E0,1.7E1,8E0,6E0,1.1E1],"tree_param":{"num_deleted":"0","num_feature":"10","num_nodes":"13","size_leaf_vector":"1"}},{"base_weights":[3.5742265E-3,-1.1793944E-2,1.108163E-1,1.1663104E-2,-7.515933E-4,2.04351E-1,-2.0436377E-3,5.8330443E-2,-0E0,2.695447E-1,-0E0,5.946651E-3,-0E0,-0E0,1.5047411E-2],"categories":[],"categories_nodes":[],"categories_segments":[],"categories_sizes":[],"default_left":[0,0,0,0,0,0,0,0,0,0,0,0,0,0,0],"id":29,"left_children":[1,3,5,7,-1,9,-1,11,-1,13,-1,-1,-1,-1,-1],"loss_changes":[4.1669953E-1,1.6366549E-2,5.441136E-1,9.527182E-3,0E0,3.1641865E-1,0E0,1.8082805E-2,0E0,2.1399355E-1,0E0,0E0,0E0,0E0,0E0],"parents":[2147483647,0,0,1,1,2,2,3,3,5,5,7,7,9,9],"right_children":[2,4,6,8,-1,10,-1,12,-1,14,-1,-1,-1,-1,-1],"split_conditions":[1.826075E0,-1.6201462E0,3.4988625E0,1.572795E0,-7.515933E-4,1.572795E0,-2.0436377E-3,3.4988625E0,-0E0,-1.6201462E0,-0E0,5.946651E-3,-0E0,-0E0,1.5047411E-2],"split_indices":[8,2,6,3,0,3,0,6,0,2,0,0,0,0,0],"split_type":[0,0,0,0,0,0,0,0,0,0,0,0,0,0,0],"sum_hessian":[2.21E2,1.9E2,3.1E1,4E0,1.86E2,2.1E1,1E1,2E0,2E0,1.6E1,5E0,1E0,1E0,1E0,1.5E1],"tree_param":{"num_deleted":"0","num_feature":"10","num_nodes":"15","size_leaf_vector":"1"}},{"base_weights":[5.2658385E-3,-1.112388E-2,1.0095704E-1,1.0473765E-2,-7.2575774E-4,2.99898E-1,1.554899E-2,5.7979836E-3,-0E0,-0E0,4.6402514E-1,8.295769E-2,-6.3549825E-3,1.725162E-4,3.0162914E-2,1.3221147E-2,-0E0],"categories":[],"categories_nodes":[],"categories_segments":[],"categories_sizes":[],"default_left":[0,0,0,0,0,0,0,0,0,0,0,0,0,0,0,0,0],"id":30,"left_children":[1,3,5,7,-1,9,11,-1,-1,-1,13,15,-1,-1,-1,-1,-1],"loss_changes":[3.8323528E-1,1.5356561E-2,4.4929516E-1,2.6344793E-2,0E0,2.6714736E-1,2.577142E-1,0E0,0E0,0E0,1.5200734E-2,3.3803284E-1,0E0,0E0,0E0,0E0,0E0],"parents":[2147483647,0,0,1,1,2,2,3,3,5,5,6,6,10,10,11,11],"right_children":[2,4,6,8,-1,10,12,-1,-1,-1,14,16,-1,-1,-1,-1,-1],"split_conditions":[1.826075E0,-1.6201462E0,-5.1070315E-1,-9.492624E-3,-7.2575774E-4,4.0374684E0,2.3996751E0,5.7979836E-3,-0E0,-0E0,-1.5063846E-1,4.9171788E-1,-6.3549825E-3,1.725162E-4,3.0162914E-2,1.3221147E-2,-0E0],"split_indices":[8,2,0,0,0,8,9,0,0,0,2,0,0,0,0,0,0],"split_type":[0,0,0,0,0,0,0,0,0,0,0,0,0,0,0,0,0],"sum_hessian":[2.14E2,1.79E2,3.5E1,4E0,1.75E2,8E0,2.7E1,1E0,3E0,4E0,4E0,2.1E1,6E0,2E0,2E0,6E0,1.5E1],"tree_param":{"num_deleted":"0","num_feature":"10","num_nodes":"17","size_leaf_vector":"1"}},{"base_weights":[-0E0,-5.2967197E-3,1.6327238E-1,-1.0863377E-2,1.869581E-2,3.4534958E-1,-1.2830747E-3,9.314169E-3,-7.035015E-4,8.270466E-2,-3.399826E-3,2.2594549E-2,-0E0,5.6530344E-3,-0E0,7.4775233E-3,-0E0],"categories":[],"categories_nodes":[],"categories_segments":[],"categories_sizes":[],"default_left":[0,0,0,0,0,0,0,0,0,0,0,0,0,0,0,0,0],"id":31,"left_children":[1,3,5,7,9,11,-1,13,-1,15,-1,-1,-1,-1,-1,-1,-1],"loss_changes":[2.4581243E-1,2.4334101E-2,4.7831115E-1,1.4673037E-2,1.4060646E-1,3.054294E-1,0E0,2.5131667E-2,0E0,1.5210307E-1,0E0,0E0,0E0,0E0,0E0,0E0,0E0],"parents":[2147483647,0,0,1,1,2,2,3,3,4,4,5,5,7,7,9,9],"right_children":[2,4,6,8,10,12,-1,14,-1,16,-1,-1,-1,-1,-1,-1,-1],"split_conditions":[4.0374684E0,1.826075E0,-5.1070315E-1,-1.6201462E0,9.929284E-1,7.223458E0,-1.2830747E-3,-9.492624E-3,-7.035015E-4,3.4988625E0,-3.399826E-3,2.2594549E-2,-0E0,5.6530344E-3,-0E0,7.4775233E-3,-0E0],"split_indices":[8,8,0,2,0,6,0,0,0,6,0,0,0,0,0,0,0],"split_type":[0,0,0,0,0,0,0,0,0,0,0,0,0,0,0,0,0],"sum_hessian":[2.17E2,2.09E2,8E0,1.87E2,2.2E1,5E0,3E0,4E0,1.83E2,1.6E1,6E0,4E0,1E0,1E0,3E0,1.1E1,5E0],"tree_param":{"num_deleted":"0","num_feature":"10","num_nodes":"17","size_leaf_vector":"1"}},{"base_weights":[7.7486266E-3,-9.850077E-3,1.1487861E-1,-0E0,-6.3222944E-4,1.8164821E-1,-0E0,2.210589E-2,-0E0,4.358356E-1,7.888057E-2,3.0803473E-3,-1.7965917E-3,-0E0,2.959167E-3,-0E0,2.8404329E-2,1.00711E-2,-6.843141E-3],"categories":[],"categories_nodes":[],"categories_segments":[],"categories_sizes":[],"default_left":[0,0,0,0,0,0,0,0,0,0,0,0,0,0,0,0,0,0,0],"id":32,"left_children":[1,3,5,7,-1,9,11,13,-1,15,17,-1,-1,-1,-1,-1,-1,-1,-1],"loss_changes":[4.5333976E-1,9.813257E-3,3.102085E-1,2.4433518E-3,0E0,3.0907452E-1,2.1792894E-2,8.06465E-3,0E0,1.840365E-2,5.621593E-1,0E0,0E0,0E0,0E0,0E0,0E0,0E0,0E0],"parents":[2147483647,0,0,1,1,2,2,3,3,5,5,6,6,7,7,9,9,10,10],"right_children":[2,4,6,8,-1,10,12,14,-1,16,18,-1,-1,-1,-1,-1,-1,-1,-1],"split_conditions":[1.826075E0,-1.4067435E0,3.4988625E0,-9.492624E-3,-6.3222944E-4,-5.1070315E-1,-1.0119137E0,-5.1070315E-1,-0E0,4.0374684E0,2.3996751E0,3.0803473E-3,-1.7965917E-3,-0E0,2.959167E-3,-0E0,2.8404329E-2,1.00711E-2,-6.843141E-3],"split_indices":[8,1,6,0,0,0,0,0,0,8,9,0,0,0,0,0,0,0,0],"split_type":[0,0,0,0,0,0,0,0,0,0,0,0,0,0,0,0,0,0,0],"sum_hessian":[2.11E2,1.78E2,3.3E1,9E0,1.69E2,2.2E1,1.1E1,4E0,5E0,4E0,1.8E1,1E0,1E1,2E0,2E0,2E0,2E0,1.3E1,5E0],"tree_param":{"num_deleted":"0","num_feature":"10","num_nodes":"19","size_leaf_vector":"1"}},{"base_weights":[-0E0,-9.489882E-3,3.9611094E-2,7.591726E-3,-6.362688E-4,2.0822029E-1,-0E0,5.437729E-3,-0E0,2.7385047E-1,-0E0,3.2207586E-2,-1.19162664E-1,-0E0,1.803754E-2,7.7205263E-3,-0E0,-6.55801E-3,-0E0],"categories":[],"categories_nodes":[],"categories_segments":[],"categories_sizes":[],"default_left":[0,0,0,0,0,0,0,0,0,0,0,0,0,0,0,0,0,0,0],"id":33,"left_children":[1,3,5,7,-1,9,11,-1,-1,13,-1,15,17,-1,-1,-1,-1,-1,-1],"loss_changes":[6.659977E-2,1.2722112E-2,2.5328058E-1,2.3366943E-2,0E0,1.4647466E-1,1.2014476E-1,0E0,0E0,7.06E-2,0E0,9.8466486E-2,3.819801E-3,0E0,0E0,0E0,0E0,0E0,0E0],"parents":[2147483647,0,0,1,1,2,2,3,3,5,5,6,6,9,9,11,11,12,12],"right_children":[2,4,6,8,-1,10,12,-1,-1,14,-1,16,18,-1,-1,-1,-1,-1,-1],"split_conditions":[1.826075E0,-1.6201462E0,-5.1070315E-1,-9.492624E-3,-6.362688E-4,1.6175408E0,2.3996751E0,5.437729E-3,-0E0,-2.2274686E-1,-0E0,4.9171788E-1,3.4988625E0,-0E0,1.803754E-2,7.7205263E-3,-0E0,-6.55801E-3,-0E0],"split_indices":[8,2,0,0,0,5,9,0,0,1,0,0,6,0,0,0,0,0,0],"split_type":[0,0,0,0,0,0,0,0,0,0,0,0,0,0,0,0,0,0,0],"sum_hessian":[2.12E2,1.81E2,3.1E1,4E0,1.77E2,6E0,2.5E1,1E0,3E0,5E0,1E0,1.9E1,6E0,2E0,3E0,4E0,1.5E1,5E0,1E0],"tree_param":{"num_deleted":"0","num_feature":"10","num_nodes":"19","size_leaf_vector":"1"}},{"base_weights":[-0E0,-8.6926455E-3,5.5983562E-2,2.27147E-2,-6.050568E-4,2.0009059E-1,-0E0,5.3017857E-3,-0E0,4.5753244E-1,-0E0,2.0045117E-2,-8.7747315E-4,-0E0,2.7156893E-2,2.789026E-3,-0E0],"categories":[],"categories_nodes":[],"categories_segments":[],"categories_sizes":[],"default_left":[0,0,0,0,0,0,0,0,0,0,0,0,0,0,0,0,0],"id":34,"left_children":[1,3,5,7,-1,9,11,-1,-1,13,-1,15,-1,-1,-1,-1,-1],"loss_changes":[1.1419652E-1,1.46655915E-2,1.7996061E-1,2.0423312E-2,0E0,5.5709E-1,1.0473488E-2,0E0,0E0,4.7652423E-2,0E0,4.054191E-2,0E0,0E0,0E0,0E0,0E0],"parents":[2147483647,0,0,1,1,2,2,3,3,5,5,6,6,9,9,11,11],"right_children":[2,4,6,8,-1,10,12,-1,-1,14,-1,16,-1,-1,-1,-1,-1],"split_conditions":[1.826075E0,-1.6201462E0,-5.1070315E-1,-9.492624E-3,-6.050568E-4,3.4988625E0,4.0374684E0,5.3017857E-3,-0E0,4.0374684E0,-0E0,9.929284E-1,-8.7747315E-4,-0E0,2.7156893E-2,2.789026E-3,-0E0],"split_indices":[8,2,0,0,0,6,8,0,0,8,0,0,0,0,0,0,0],"split_type":[0,0,0,0,0,0,0,0,0,0,0,0,0,0,0,0,0],"sum_hessian":[2.14E2,1.83E2,3.1E1,3E0,1.8E2,6E0,2.5E1,1E0,2E0,3E0,3E0,2.2E1,3E0,1E0,2E0,1.5E1,7E0],"tree_param":{"num_deleted":"0","num_feature":"10","num_nodes":"17","size_leaf_vector":"1"}},{"base_weights":[-0E0,1.031875E-2,-2.3759913E-2,-7.2135136E-4,5.097579E-2,-0E0,-4.2390987E-2,4.7964998E-2,-3.2416475E-4,1.7550164E-1,1.2525608E-2,-2.3759578E-3,-0E0,5.1692426E-3,-0E0,1.7180486E-2,-0E0,3.2713672E-3,-9.586091E-4],"categories":[],"categories_nodes":[],"categories_segments":[],"categories_sizes":[],"default_left":[0,0,0,0,0,0,0,0,0,0,0,0,0,0,0,0,0,0,0],"id":35,"left_children":[1,3,5,7,9,-1,11,13,-1,15,17,-1,-1,-1,-1,-1,-1,-1,-1],"loss_changes":[4.935329E-2,9.518582E-2,4.9939677E-3,1.1550313E-2,1.0967388E-1,0E0,2.9083528E-3,1.4474932E-2,0E0,2.5666478E-1,8.642607E-2,0E0,0E0,0E0,0E0,0E0,0E0,0E0,0E0],"parents":[2147483647,0,0,1,1,2,2,3,3,4,4,6,6,7,7,9,9,10,10],"right_children":[2,4,6,8,10,-1,12,14,-1,16,18,-1,-1,-1,-1,-1,-1,-1,-1],"split_conditions":[9.929284E-1,9.090534E-1,9.090534E-1,-1.6201462E0,-1.0119137E0,-0E0,2.3996751E0,-9.492624E-3,-3.2416475E-4,5.665843E-1,2.3996751E0,-2.3759578E-3,-0E0,5.1692426E-3,-0E0,1.7180486E-2,-0E0,3.2713672E-3,-9.586091E-4],"split_indices":[0,9,9,2,0,0,9,0,0,1,9,0,0,0,0,0,0,0,0],"split_type":[0,0,0,0,0,0,0,0,0,0,0,0,0,0,0,0,0,0,0],"sum_hessian":[2.12E2,1.55E2,5.7E1,1.13E2,4.2E1,3.7E1,2E1,2E0,1.11E2,6E0,3.6E1,1.7E1,3E0,1E0,1E0,3E0,3E0,1.9E1,1.7E1],"tree_param":{"num_deleted":"0","num_feature":"10","num_nodes":"19","size_leaf_vector":"1"}},{"base_weights":[6.130044E-4,1.8370599E-2,-1.8896189E-2,-0E0,4.109528E-2,-1.31014E-3,-0E0,6.473089E-2,-1.5700998E-2,-0E0,6.963078E-2,5.169854E-3,-0E0,-1.1927926E-3,-0E0,4.304173E-3,-0E0],"categories":[],"categories_nodes":[],"categories_segments":[],"categories_sizes":[],"default_left":[0,0,0,0,0,0,0,0,0,0,0,0,0,0,0,0,0],"id":36,"left_children":[1,3,5,7,9,-1,-1,11,13,-1,15,-1,-1,-1,-1,-1,-1],"loss_changes":[7.491459E-2,3.6514807E-2,1.0432441E-2,1.0302965E-1,8.0624074E-2,0E0,0E0,4.0299617E-2,1.7400991E-2,0E0,6.231214E-2,0E0,0E0,0E0,0E0,0E0,0E0],"parents":[2147483647,0,0,1,1,2,2,3,3,4,4,7,7,8,8,10,10],"right_children":[2,4,6,8,10,-1,-1,12,14,-1,16,-1,-1,-1,-1,-1,-1],"split_conditions":[4.9171788E-1,1.2909944E0,1.494139E0,-1.0119137E0,-1.0119137E0,-1.31014E-3,-0E0,1.2489424E-1,9.612499E-1,-0E0,3.4988625E0,5.169854E-3,-0E0,-1.1927926E-3,-0E0,4.304173E-3,-0E0],"split_indices":[0,4,0,0,0,0,0,2,1,0,6,0,0,0,0,0,0],"split_type":[0,0,0,0,0,0,0,0,0,0,0,0,0,0,0,0,0],"sum_hessian":[2.15E2,1.26E2,8.9E1,8E1,4.6E1,6.1E1,2.8E1,2E1,6E1,1.4E1,3.2E1,1.1E1,9E0,5.6E1,4E0,2.9E1,3E0],"tree_param":{"num_deleted":"0","num_feature":"10","num_nodes":"17","size_leaf_vector":"1"}},{"base_weights":[5.538706E-3,-8.415271E-3,1.2277097E-1,3.8111762E-3,-5.7515374E-4,1.0209551E-2,-0E0,4.932407E-3,-0E0,-0E0,-2.0133448E-3,-1.8295563E-4,5.8144494E-3],"categories":[],"categories_nodes":[],"categories_segments":[],"categories_sizes":[],"default_left":[0,0,0,0,0,0,0,0,0,0,0,0,0],"id":37,"left_children":[1,3,5,7,-1,-1,9,-1,-1,11,-1,-1,-1],"loss_changes":[3.9846915E-1,1.0798565E-2,3.586009E-1,1.9390283E-2,0E0,0E0,8.107113E-3,0E0,0E0,2.7099814E-2,0E0,0E0,0E0],"parents":[2147483647,0,0,1,1,2,2,3,3,6,6,9,9],"right_children":[2,4,6,8,-1,-1,10,-1,-1,12,-1,-1,-1],"split_conditions":[1.826075E0,-1.6201462E0,9.929284E-1,-9.492624E-3,-5.7515374E-4,1.0209551E-2,1.7191872E-1,4.932407E-3,-0E0,-2.2274686E-1,-2.0133448E-3,-1.8295563E-4,5.8144494E-3],"split_indices":[8,2,0,0,0,0,1,0,0,1,0,0,0],"split_type":[0,0,0,0,0,0,0,0,0,0,0,0,0],"sum_hessian":[2.07E2,1.82E2,2.5E1,4E0,1.78E2,1.7E1,8E0,1E0,3E0,4E0,4E0,3E0,1E0],"tree_param":{"num_deleted":"0","num_feature":"10","num_nodes":"13","size_leaf_vector":"1"}},{"base_weights":[2.2328303E-3,-8.150469E-3,8.9355834E-2,-0E0,-5.3156953E-4,1.4672658E-2,2.227906E-2,1.4736771E-2,-0E0,1.2144317E-1,-5.0466293E-3,-0E0,2.4053806E-3,9.184344E-3,-0E0],"categories":[],"categories_nodes":[],"categories_segments":[],"categories_sizes":[],"default_left":[0,0,0,0,0,0,0,0,0,0,0,0,0,0,0],"id":38,"left_children":[1,3,5,7,-1,-1,9,11,-1,13,-1,-1,-1,-1,-1],"loss_changes":[2.3492052E-1,7.8093037E-3,2.1892135E-1,1.085862E-3,0E0,0E0,3.15749E-1,5.857164E-3,0E0,1.6891532E-1,0E0,0E0,0E0,0E0,0E0],"parents":[2147483647,0,0,1,1,2,2,3,3,6,6,7,7,9,9],"right_children":[2,4,6,8,-1,-1,10,12,-1,14,-1,-1,-1,-1,-1],"split_conditions":[1.826075E0,-1.4067435E0,-1.0119137E0,-9.492624E-3,-5.3156953E-4,1.4672658E-2,2.3996751E0,-5.1070315E-1,-0E0,3.4988625E0,-5.0466293E-3,-0E0,2.4053806E-3,9.184344E-3,-0E0],"split_indices":[8,1,0,0,0,0,9,0,0,6,0,0,0,0,0],"split_type":[0,0,0,0,0,0,0,0,0,0,0,0,0,0,0],"sum_hessian":[2.13E2,1.86E2,2.7E1,8E0,1.78E2,4E0,2.3E1,4E0,4E0,1.5E1,8E0,2E0,2E0,1.1E1,4E0],"tree_param":{"num_deleted":"0","num_feature":"10","num_nodes":"15","size_leaf_vector":"1"}},{"base_weights":[3.9404137E-3,-8.839773E-4,2.0644303E-1,-3.5150684E-4,2.8809153E-2,2.8466672E-1,-0E0,7.0893206E-2,-1.6024224E-4,2.5322644E-2,-0E0,8.400883E-3,-0E0,1.3715863E-3,-0E0],"categories":[],"categories_nodes":[],"categories_segments":[],"categories_sizes":[],"default_left":[0,0,0,0,0,0,0,0,0,0,0,0,0,0,0],"id":39,"left_children":[1,3,5,-1,7,9,-1,11,-1,-1,13,-1,-1,-1,-1],"loss_changes":[2.954215E-1,2.4170276E-2,1.8787974E-1,0E0,5.966969E-2,2.8327277E-1,0E0,1.22221805E-1,0E0,0E0,1.5049992E-3,0E0,0E0,0E0,0E0],"parents":[2147483647,0,0,1,1,2,2,4,4,5,5,7,7,10,10],"right_children":[2,4,6,-1,8,10,-1,12,-1,-1,14,-1,-1,-1,-1],"split_conditions":[4.0374684E0,1.826075E0,-5.1070315E-1,-3.5150684E-4,3.4988625E0,3.4988625E0,-0E0,4.9171788E-1,-1.6024224E-4,2.5322644E-2,-1.0119137E0,8.400883E-3,-0E0,1.3715863E-3,-0E0],"split_indices":[8,8,0,0,6,6,0,0,0,0,0,0,0,0,0],"split_type":[0,0,0,0,0,0,0,0,0,0,0,0,0,0,0],"sum_hessian":[1.96E2,1.9E2,6E0,1.72E2,1.8E1,5E0,1E0,1.4E1,4E0,2E0,3E0,6E0,8E0,1E0,2E0],"tree_param":{"num_deleted":"0","num_feature":"10","num_nodes":"15","size_leaf_vector":"1"}},{"base_weights":[4.6326598E-4,-6.2900046E-3,5.4060936E-2,2.6248277E-3,-4.6742187E-4,1.04263194E-1,-0E0,4.25956E-2,-0E0,1.6799381E-1,-0E0,-0E0,-9.839232E-4,4.7577503E-3,-0E0,1.4232292E-2,-0E0,-2.8592541E-3,3.0120695E-3],"categories":[],"categories_nodes":[],"categories_segments":[],"categories_sizes":[],"default_left":[0,0,0,0,0,0,0,0,0,0,0,0,0,0,0,0,0,0,0],"id":40,"left_children":[1,3,5,7,-1,9,11,13,-1,15,17,-1,-1,-1,-1,-1,-1,-1,-1],"loss_changes":[1.00598976E-1,8.294117E-3,1.3476439E-1,5.4087057E-3,0E0,1.6681984E-1,2.710694E-3,1.2665795E-2,0E0,3.3410224E-1,3.0507876E-2,0E0,0E0,0E0,0E0,0E0,0E0,0E0,0E0],"parents":[2147483647,0,0,1,1,2,2,3,3,5,5,6,6,7,7,9,9,10,10],"right_children":[2,4,6,8,-1,10,12,14,-1,16,18,-1,-1,-1,-1,-1,-1,-1,-1],"split_conditions":[1.826075E0,-1.6201462E0,3.4988625E0,1.572795E0,-4.6742187E-4,2.3996751E0,1.7191872E-1,3.4988625E0,-0E0,1.572795E0,1.6175408E0,-0E0,-9.839232E-4,4.7577503E-3,-0E0,1.4232292E-2,-0E0,-2.8592541E-3,3.0120695E-3],"split_indices":[8,2,6,3,0,9,1,6,0,3,5,0,0,0,0,0,0,0,0],"split_type":[0,0,0,0,0,0,0,0,0,0,0,0,0,0,0,0,0,0,0],"sum_hessian":[2.1E2,1.79E2,3.1E1,4E0,1.75E2,2E1,1.1E1,2E0,2E0,1.3E1,7E0,5E0,6E0,1E0,1E0,8E0,5E0,5E0,2E0],"tree_param":{"num_deleted":"0","num_feature":"10","num_nodes":"19","size_leaf_vector":"1"}},{"base_weights":[-3.8453394E-3,3.575278E-3,-1.4087153E-2,-2.5375842E-4,6.650326E-2,-5.1581603E-3,-4.1722354E-2,1.6732753E-3,-3.310513E-4,-0E0,9.584232E-2,-0E0,-1.3468151E-2,-0E0,-5.7446335E-2,4.638806E-3,-0E0,-0E0,6.7065805E-3,-2.4372479E-4,2.814295E-3,-0E0,-2.7854934E-3,-4.1673924E-3,-0E0],"categories":[],"categories_nodes":[],"categories_segments":[],"categories_sizes":[],"default_left":[0,0,0,0,0,0,0,0,0,0,0,0,0,0,0,0,0,0,0,0,0,0,0,0,0],"id":41,"left_children":[1,3,5,7,9,11,13,15,-1,-1,17,19,21,-1,23,-1,-1,-1,-1,-1,-1,-1,-1,-1,-1],"loss_changes":[2.1494424E-2,5.6273166E-2,5.4615643E-3,3.515629E-3,5.27341E-2,5.3955107E-3,1.6789734E-2,1.7200816E-2,0E0,0E0,1.571004E-2,2.0315453E-2,1.0458939E-2,0E0,1.2673851E-2,0E0,0E0,0E0,0E0,0E0,0E0,0E0,0E0,0E0,0E0],"parents":[2147483647,0,0,1,1,2,2,3,3,4,4,5,5,6,6,7,7,10,10,11,11,12,12,14,14],"right_children":[2,4,6,8,10,12,14,16,-1,-1,18,20,22,-1,24,-1,-1,-1,-1,-1,-1,-1,-1,-1,-1],"split_conditions":[-1.5063846E-1,1.826075E0,2.3996751E0,-1.6201462E0,-1.4067435E0,4.9171788E-1,-1.0119137E0,-9.492624E-3,-3.310513E-4,-0E0,-9.492624E-3,1.826075E0,1.826075E0,-0E0,4.9171788E-1,4.638806E-3,-0E0,-0E0,6.7065805E-3,-2.4372479E-4,2.814295E-3,-0E0,-2.7854934E-3,-4.1673924E-3,-0E0],"split_indices":[2,8,9,2,1,0,0,0,0,0,0,8,8,0,0,0,0,0,0,0,0,0,0,0,0],"split_type":[0,0,0,0,0,0,0,0,0,0,0,0,0,0,0,0,0,0,0,0,0,0,0,0,0],"sum_hessian":[2.12E2,9.5E1,1.17E2,8.3E1,1.2E1,1.03E2,1.4E1,4E0,7.9E1,1E0,1.1E1,5.9E1,4.4E1,2E0,1.2E1,1E0,3E0,5E0,6E0,5.4E1,5E0,3.9E1,5E0,7E0,5E0],"tree_param":{"num_deleted":"0","num_feature":"10","num_nodes":"25","size_leaf_vector":"1"}},{"base_weights":[2.069235E-3,-1.928717E-3,1.6975656E-1,-0E0,-1.8400574E-3,1.3223554E-2,-0E0,-5.1697856E-3,4.9680218E-2,8.2813494E-4,-4.2008935E-4,3.880264E-3,-0E0],"categories":[],"categories_nodes":[],"categories_segments":[],"categories_sizes":[],"default_left":[0,0,0,0,0,0,0,0,0,0,0,0,0],"id":42,"left_children":[1,3,5,7,-1,-1,-1,9,11,-1,-1,-1,-1],"loss_changes":[2.3038982E-1,1.411266E-2,1.8913141E-1,5.178534E-2,0E0,0E0,0E0,8.912511E-3,3.742174E-2,0E0,0E0,0E0,0E0],"parents":[2147483647,0,0,1,1,2,2,3,3,7,7,8,8],"right_children":[2,4,6,8,-1,-1,-1,10,12,-1,-1,-1,-1],"split_conditions":[4.0374684E0,3.4988625E0,7.223458E0,1.826075E0,-1.8400574E-3,1.3223554E-2,-0E0,-1.6201462E0,1.572795E0,8.2813494E-4,-4.2008935E-4,3.880264E-3,-0E0],"split_indices":[8,6,6,8,0,0,0,2,3,0,0,0,0],"split_type":[0,0,0,0,0,0,0,0,0,0,0,0,0],"sum_hessian":[2.17E2,2.1E2,7E0,2E2,1E1,5E0,2E0,1.82E2,1.8E1,3E0,1.79E2,1.3E1,5E0],"tree_param":{"num_deleted":"0","num_feature":"10","num_nodes":"13","size_leaf_vector":"1"}},{"base_weights":[-0E0,-5.7743024E-3,5.27778E-2,6.166451E-4,-4.3991642E-4,1.395208E-1,-0E0,4.5021325E-3,-0E0,-0E0,2.2735254E-1,5.99852E-2,-4.9245316E-3,-0E0,1.5785748E-2,9.128338E-3,-0E0],"categories":[],"categories_nodes":[],"categories_segments":[],"categories_sizes":[],"default_left":[0,0,0,0,0,0,0,0,0,0,0,0,0,0,0,0,0],"id":43,"left_children":[1,3,5,7,-1,9,11,-1,-1,-1,13,15,-1,-1,-1,-1,-1],"loss_changes":[8.1143364E-2,7.536364E-3,8.052001E-2,1.6213456E-2,0E0,1.544067E-1,1.1217579E-1,0E0,0E0,0E0,8.856863E-2,1.1267973E-1,0E0,0E0,0E0,0E0,0E0],"parents":[2147483647,0,0,1,1,2,2,3,3,5,5,6,6,10,10,11,11],"right_children":[2,4,6,8,-1,10,12,-1,-1,-1,14,16,-1,-1,-1,-1,-1],"split_conditions":[1.826075E0,-1.6201462E0,-5.1070315E-1,-9.492624E-3,-4.3991642E-4,1.7191872E-1,2.3996751E0,4.5021325E-3,-0E0,-0E0,4.0374684E0,1.2909944E0,-4.9245316E-3,-0E0,1.5785748E-2,9.128338E-3,-0E0],"split_indices":[8,2,0,0,0,1,9,0,0,0,8,4,0,0,0,0,0],"split_type":[0,0,0,0,0,0,0,0,0,0,0,0,0,0,0,0,0],"sum_hessian":[2.03E2,1.77E2,2.6E1,4E0,1.73E2,7E0,1.9E1,1E0,3E0,2E0,5E0,1.4E1,5E0,2E0,3E0,4E0,1E1],"tree_param":{"num_deleted":"0","num_feature":"10","num_nodes":"17","size_leaf_vector":"1"}},{"base_weights":[-0E0,-4.873073E-3,4.0257894E-2,1.434891E-2,-4.1288882E-4,1.4392252E-2,-0E0,4.38958E-3,-0E0,4.3868832E-2,-1.0307887E-1,7.078783E-3,-0E0,-5.6014466E-3,-0E0],"categories":[],"categories_nodes":[],"categories_segments":[],"categories_sizes":[],"default_left":[0,0,0,0,0,0,0,0,0,0,0,0,0,0,0],"id":44,"left_children":[1,3,5,7,-1,-1,9,-1,-1,11,13,-1,-1,-1,-1],"loss_changes":[5.432609E-2,8.263365E-3,2.8117746E-1,1.4591162E-2,0E0,0E0,1.25416E-1,0E0,0E0,1.1993539E-1,2.8513372E-3,0E0,0E0,0E0,0E0],"parents":[2147483647,0,0,1,1,2,2,3,3,6,6,9,9,10,10],"right_children":[2,4,6,8,-1,-1,10,-1,-1,12,14,-1,-1,-1,-1],"split_conditions":[1.826075E0,-1.6201462E0,-1.0119137E0,-9.492624E-3,-4.1288882E-4,1.4392252E-2,2.3996751E0,4.38958E-3,-0E0,4.9171788E-1,9.612499E-1,7.078783E-3,-0E0,-5.6014466E-3,-0E0],"split_indices":[8,2,0,0,0,0,9,0,0,0,1,0,0,0,0],"split_type":[0,0,0,0,0,0,0,0,0,0,0,0,0,0,0],"sum_hessian":[2.01E2,1.71E2,3E1,3E0,1.68E2,3E0,2.7E1,1E0,2E0,2E1,7E0,7E0,1.3E1,6E0,1E0],"tree_param":{"num_deleted":"0","num_feature":"10","num_nodes":"15","size_leaf_vector":"1"}},{"base_weights":[-0E0,-2.448704E-3,5.7842858E-2,-0E0,-2.7908418E-2,1.5384763E-2,-9.5035677E-4,-3.3857464E-3,3.0510273E-2,-0E0,-3.85607E-2,-0E0,-3.259955E-4,5.0281566E-3,-1.125519E-3,-2.6117326E-3,-0E0],"categories":[],"categories_nodes":[],"categories_segments":[],"categories_sizes":[],"default_left":[0,0,0,0,0,0,0,0,0,0,0,0,0,0,0,0,0],"id":45,"left_children":[1,3,5,7,9,-1,-1,11,13,-1,15,-1,-1,-1,-1,-1,-1],"loss_changes":[2.1268012E-2,1.2047722E-2,2.6539937E-1,1.8658686E-2,9.062959E-3,0E0,0E0,4.9835905E-3,1.08146556E-1,0E0,4.980672E-3,0E0,0E0,0E0,0E0,0E0,0E0],"parents":[2147483647,0,0,1,1,2,2,3,3,4,4,7,7,8,8,10,10],"right_children":[2,4,6,8,10,-1,-1,12,14,-1,16,-1,-1,-1,-1,-1,-1],"split_conditions":[4.0374684E0,2.3996751E0,-1.0119137E0,1.826075E0,-1.0119137E0,1.5384763E-2,-9.5035677E-4,-1.6201462E0,3.4988625E0,-0E0,4.9171788E-1,-0E0,-3.259955E-4,5.0281566E-3,-1.125519E-3,-2.6117326E-3,-0E0],"split_indices":[8,9,0,8,0,0,0,2,6,0,0,0,0,0,0,0,0],"split_type":[0,0,0,0,0,0,0,0,0,0,0,0,0,0,0,0,0],"sum_hessian":[2.03E2,1.98E2,5E0,1.82E2,1.6E1,2E0,3E0,1.65E2,1.7E1,2E0,1.4E1,4E0,1.61E2,1.1E1,6E0,9E0,5E0],"tree_param":{"num_deleted":"0","num_feature":"10","num_nodes":"17","size_leaf_vector":"1"}},{"base_weights":[4.7245445E-3,-0E0,1.9914751E-1,-4.5447606E-3,2.1392353E-2,1.703719E-2,-0E0,1.3251514E-2,-3.7794025E-4,-0E0,3.985974E-2,4.2798403E-3,-0E0,5.555413E-3,-0E0],"categories":[],"categories_nodes":[],"categories_segments":[],"categories_sizes":[],"default_left":[0,0,0,0,0,0,0,0,0,0,0,0,0,0,0],"id":46,"left_children":[1,3,5,7,9,-1,-1,11,-1,-1,13,-1,-1,-1,-1],"loss_changes":[2.727074E-1,1.4928263E-2,3.0291364E-1,7.4988147E-3,2.3970384E-2,0E0,0E0,1.3951213E-2,0E0,0E0,6.380678E-2,0E0,0E0,0E0,0E0],"parents":[2147483647,0,0,1,1,2,2,3,3,4,4,7,7,10,10],"right_children":[2,4,6,8,10,-1,-1,12,-1,-1,14,-1,-1,-1,-1],"split_conditions":[4.0374684E0,1.826075E0,-5.1070315E-1,-1.6201462E0,-1.012078E0,1.703719E-2,-0E0,-9.492624E-3,-3.7794025E-4,-0E0,7.678039E-1,4.2798403E-3,-0E0,5.555413E-3,-0E0],"split_indices":[8,8,0,2,1,0,0,0,0,0,2,0,0,0,0],"split_type":[0,0,0,0,0,0,0,0,0,0,0,0,0,0,0],"sum_hessian":[2.19E2,2.13E2,6E0,1.9E2,2.3E1,4E0,2E0,3E0,1.87E2,2E0,2.1E1,1E0,2E0,7E0,1.4E1],"tree_param":{"num_deleted":"0","num_feature":"10","num_nodes":"15","size_leaf_vector":"1"}},{"base_weights":[6.298355E-3,-3.9516925E-3,7.685775E-2,1.1854016E-2,-3.5646846E-4,1.4146258E-1,-6.322568E-3,3.603307E-2,-0E0,-0E0,1.6222145E-1,-0E0,-2.2124166E-3,4.172844E-3,-0E0,8.858447E-3,-0E0],"categories":[],"categories_nodes":[],"categories_segments":[],"categories_sizes":[],"default_left":[0,0,0,0,0,0,0,0,0,0,0,0,0,0,0,0,0],"id":47,"left_children":[1,3,5,7,-1,9,11,13,-1,-1,15,-1,-1,-1,-1,-1,-1],"loss_changes":[1.8935977E-1,6.7125414E-3,2.4580145E-1,3.333076E-3,0E0,1.1237529E-1,1.518362E-2,1.0034953E-2,0E0,0E0,1.2367129E-2,0E0,0E0,0E0,0E0,0E0,0E0],"parents":[2147483647,0,0,1,1,2,2,3,3,5,5,6,6,7,7,10,10],"right_children":[2,4,6,8,-1,10,12,14,-1,-1,16,-1,-1,-1,-1,-1,-1],"split_conditions":[1.826075E0,-1.6201462E0,3.4988625E0,3.4988625E0,-3.5646846E-4,-1.6201462E0,-1.5063846E-1,1.572795E0,-0E0,-0E0,1.572795E0,-0E0,-2.2124166E-3,4.172844E-3,-0E0,8.858447E-3,-0E0],"split_indices":[8,2,6,6,0,2,2,3,0,0,3,0,0,0,0,0,0],"split_type":[0,0,0,0,0,0,0,0,0,0,0,0,0,0,0,0,0],"sum_hessian":[2.1E2,1.78E2,3.2E1,3E0,1.75E2,2.1E1,1.1E1,2E0,1E0,1E0,2E1,4E0,7E0,1E0,1E0,1.7E1,3E0],"tree_param":{"num_deleted":"0","num_feature":"10","num_nodes":"17","size_leaf_vector":"1"}},{"base_weights":[1.6788025E-3,-1.2209094E-3,1.3863653E-1,-0E0,-2.5796864E-2,1.1281981E-2,-0E0,-3.006209E-3,2.8487124E-2,-1.5119269E-3,-0E0,-0E0,-2.984544E-4,3.975093E-3,-1.0379491E-3],"categories":[],"categories_nodes":[],"categories_segments":[],"categories_sizes":[],"default_left":[0,0,0,0,0,0,0,0,0,0,0,0,0,0,0],"id":48,"left_children":[1,3,5,7,9,-1,-1,11,13,-1,-1,-1,-1,-1,-1],"loss_changes":[1.5346746E-1,9.009629E-3,1.5171874E-1,1.9407772E-2,7.4136443E-4,0E0,0E0,4.431428E-3,8.6291894E-2,0E0,0E0,0E0,0E0,0E0,0E0],"parents":[2147483647,0,0,1,1,2,2,3,3,4,4,7,7,8,8],"right_children":[2,4,6,8,10,-1,-1,12,14,-1,-1,-1,-1,-1,-1],"split_conditions":[4.0374684E0,2.3996751E0,7.223458E0,1.826075E0,1.572795E0,1.1281981E-2,-0E0,-1.6201462E0,3.4988625E0,-1.5119269E-3,-0E0,-0E0,-2.984544E-4,3.975093E-3,-1.0379491E-3],"split_indices":[8,9,6,8,3,0,0,2,6,0,0,0,0,0,0],"split_type":[0,0,0,0,0,0,0,0,0,0,0,0,0,0,0],"sum_hessian":[2.12E2,2.05E2,7E0,1.92E2,1.3E1,5E0,2E0,1.71E2,2.1E1,1E1,3E0,4E0,1.67E2,1.5E1,6E0],"tree_param":{"num_deleted":"0","num_feature":"10","num_nodes":"15","size_leaf_vector":"1"}},{"base_weights":[-0E0,1.7638959E-2,-6.3196123E-3,-1.4864352E-4,1.7511776E-1,-0E0,-6.339406E-2,2.176286E-1,-0E0,1.08058825E-2,-6.240182E-3,-1.0685072E-1,-0E0,1.2527897E-2,-0E0,2.629317E-3,-0E0,-0E0,-1.3995795E-3,-5.7774424E-3,-0E0],"categories":[],"categories_nodes":[],"categories_segments":[],"categories_sizes":[],"default_left":[0,0,0,0,0,0,0,0,0,0,0,0,0,0,0,0,0,0,0,0,0],"id":49,"left_children":[1,3,5,-1,7,9,11,13,-1,15,17,19,-1,-1,-1,-1,-1,-1,-1,-1,-1],"loss_changes":[2.5560424E-2,2.8784043E-1,6.2049527E-2,0E0,1.19597584E-1,9.9656135E-3,3.4433976E-2,7.5974375E-2,0E0,1.546686E-2,2.3330098E-2,4.058607E-3,0E0,0E0,0E0,0E0,0E0,0E0,0E0,0E0,0E0],"parents":[2147483647,0,0,1,1,2,2,4,4,5,5,6,6,7,7,9,9,10,10,11,11],"right_children":[2,4,6,-1,8,10,12,14,-1,16,18,20,-1,-1,-1,-1,-1,-1,-1,-1,-1],"split_conditions":[-5.1070315E-1,2.3996751E0,2.3996751E0,-1.4864352E-4,7.223458E0,4.9171788E-1,4.9171788E-1,1.0433366E0,-0E0,-1.3446136E0,1.2909944E0,3.4988625E0,-0E0,1.2527897E-2,-0E0,2.629317E-3,-0E0,-0E0,-1.3995795E-3,-5.7774424E-3,-0E0],"split_indices":[0,9,9,0,6,0,0,2,0,2,4,6,0,0,0,0,0,0,0,0,0],"split_type":[0,0,0,0,0,0,0,0,0,0,0,0,0,0,0,0,0,0,0,0,0],"sum_hessian":[2.17E2,6.1E1,1.56E2,5.2E1,9E0,1.4E2,1.6E1,8E0,1E0,5.6E1,8.4E1,8E0,8E0,7E0,1E0,7E0,4.9E1,5.1E1,3.3E1,7E0,1E0],"tree_param":{"num_deleted":"0","num_feature":"10","num_nodes":"21","size_leaf_vector":"1"}},{"base_weights":[-3.3405728E-3,-9.59308E-3,8.0419645E-2,-1.1886013E-3,-2.2254799E-2,1.1028898E-2,-1.246137E-3,-0E0,-2.3442933E-4,-0E0,-4.138392E-2,1.0977713E-3,-0E0,2.8073588E-5,-4.0167706E-5,-0E0,-3.055222E-3],"categories":[],"categories_nodes":[],"categories_segments":[],"categories_sizes":[],"default_left":[0,0,0,0,0,0,0,0,0,0,0,0,0,0,0,0,0],"id":50,"left_children":[1,3,5,7,9,-1,-1,11,-1,13,15,-1,-1,-1,-1,-1,-1],"loss_changes":[7.429014E-2,9.534877E-3,2.362065E-1,1.6417069E-3,2.36434E-2,0E0,0E0,1.9281631E-3,0E0,1.3778925E-5,1.5828684E-2,0E0,0E0,0E0,0E0,0E0,0E0],"parents":[2147483647,0,0,1,1,2,2,3,3,4,4,7,7,9,9,10,10],"right_children":[2,4,6,8,10,-1,-1,12,-1,14,16,-1,-1,-1,-1,-1,-1],"split_conditions":[4.0374684E0,9.090534E-1,-5.1070315E-1,-9.492624E-3,1.2909944E0,1.1028898E-2,-1.246137E-3,-1.4067435E0,-2.3442933E-4,2.3996751E0,-9.492624E-3,1.0977713E-3,-0E0,2.8073588E-5,-4.0167706E-5,-0E0,-3.055222E-3],"split_indices":[8,9,0,0,4,0,0,1,0,9,0,0,0,0,0,0,0],"split_type":[0,0,0,0,0,0,0,0,0,0,0,0,0,0,0,0,0],"sum_hessian":[2.07E2,1.99E2,8E0,1.44E2,5.5E1,5E0,3E0,6.1E1,8.3E1,2.6E1,2.9E1,3E0,5.8E1,1.2E1,1.4E1,1.2E1,1.7E1],"tree_param":{"num_deleted":"0","num_feature":"10","num_nodes":"17","size_leaf_vector":"1"}},{"base_weights":[4.377778E-4,-2.7817932E-3,1.6931081E-1,-0E0,-1.8034058E-3,3.009041E-1,-0E0,-2.6852705E-3,1.50222955E-2,2.1537865E-2,-0E0,-0E0,-2.6551762E-4,-0E0,3.0590573E-3],"categories":[],"categories_nodes":[],"categories_segments":[],"categories_sizes":[],"default_left":[0,0,0,0,0,0,0,0,0,0,0,0,0,0,0],"id":51,"left_children":[1,3,5,7,-1,9,-1,11,13,-1,-1,-1,-1,-1,-1],"loss_changes":[2.0226182E-1,1.1368556E-2,2.5205332E-1,5.403234E-3,0E0,2.89491E-1,0E0,3.706586E-3,4.0855538E-2,0E0,0E0,0E0,0E0,0E0,0E0],"parents":[2147483647,0,0,1,1,2,2,3,3,5,5,7,7,8,8],"right_children":[2,4,6,8,-1,10,-1,12,14,-1,-1,-1,-1,-1,-1],"split_conditions":[4.0374684E0,3.4988625E0,-5.1070315E-1,1.826075E0,-1.8034058E-3,7.223458E0,-0E0,-1.4067435E0,-2.2274686E-1,2.1537865E-2,-0E0,-0E0,-2.6551762E-4,-0E0,3.0590573E-3],"split_indices":[8,6,0,8,0,6,0,1,1,0,0,0,0,0,0],"split_type":[0,0,0,0,0,0,0,0,0,0,0,0,0,0,0],"sum_hessian":[2.17E2,2.11E2,6E0,2.02E2,9E0,4E0,2E0,1.85E2,1.7E1,3E0,1E0,7E0,1.78E2,6E0,1.1E1],"tree_param":{"num_deleted":"0","num_feature":"10","num_nodes":"15","size_leaf_vector":"1"}},{"base_weights":[-0E0,-1.9867686E-3,1.2840664E-1,-0E0,-7.657858E-3,1.9702864E-1,-0E0,-0E0,2.7122222E-2,-1.09066125E-2,-0E0,2.0355634E-2,-0E0,6.417543E-5,-4.4967388E-4,-0E0,4.602462E-3,-0E0,-1.1032288E-3],"categories":[],"categories_nodes":[],"categories_segments":[],"categories_sizes":[],"default_left":[0,0,0,0,0,0,0,0,0,0,0,0,0,0,0,0,0,0,0],"id":52,"left_children":[1,3,5,7,9,11,-1,13,15,17,-1,-1,-1,-1,-1,-1,-1,-1,-1],"loss_changes":[1.16230994E-1,6.106716E-3,1.17503844E-1,4.41369E-3,6.4030197E-3,2.6430047E-1,0E0,2.2793799E-3,1.2532435E-2,5.664101E-3,0E0,0E0,0E0,0E0,0E0,0E0,0E0,0E0,0E0],"parents":[2147483647,0,0,1,1,2,2,3,3,4,4,5,5,7,7,8,8,9,9],"right_children":[2,4,6,8,10,12,-1,14,16,18,-1,-1,-1,-1,-1,-1,-1,-1,-1],"split_conditions":[4.0374684E0,-2.4248269E-1,-5.1070315E-1,-3.3432692E-1,3.5973794E0,3.4988625E0,-0E0,9.929284E-1,1.494139E0,9.090534E-1,-0E0,2.0355634E-2,-0E0,6.417543E-5,-4.4967388E-4,-0E0,4.602462E-3,-0E0,-1.1032288E-3],"split_indices":[8,2,0,2,7,6,0,0,0,9,0,0,0,0,0,0,0,0,0],"split_type":[0,0,0,0,0,0,0,0,0,0,0,0,0,0,0,0,0,0,0],"sum_hessian":[2.11E2,2.05E2,6E0,8.8E1,1.17E2,5E0,1E0,8.3E1,5E0,1.11E2,6E0,2E0,3E0,5.7E1,2.6E1,4E0,1E0,7.3E1,3.8E1],"tree_param":{"num_deleted":"0","num_feature":"10","num_nodes":"19","size_leaf_vector":"1"}},{"base_weights":[2.676722E-4,-0E0,6.0612004E-2,1.04998145E-2,-1.1609357E-2,1.9024344E-1,-1.1994073E-3,-0E0,1.08507894E-1,-0E0,-1.7588286E-2,1.9677116E-2,-0E0,1.6268479E-3,-4.8151163E-5,8.487402E-3,-0E0,-6.579554E-5,-0E0,-3.1529224E-5,-2.0590455E-3],"categories":[],"categories_nodes":[],"categories_segments":[],"categories_sizes":[],"default_left":[0,0,0,0,0,0,0,0,0,0,0,0,0,0,0,0,0,0,0,0,0],"id":53,"left_children":[1,3,5,7,9,11,-1,13,15,17,19,-1,-1,-1,-1,-1,-1,-1,-1,-1,-1],"loss_changes":[3.304922E-2,2.54094E-2,1.8639278E-1,8.4820785E-2,3.4504272E-3,2.4747118E-1,0E0,3.2464443E-3,7.8694716E-2,9.177592E-5,4.273113E-3,0E0,0E0,0E0,0E0,0E0,0E0,0E0,0E0,0E0,0E0],"parents":[2147483647,0,0,1,1,2,2,3,3,4,4,5,5,7,7,8,8,9,9,10,10],"right_children":[2,4,6,8,10,12,-1,14,16,18,20,-1,-1,-1,-1,-1,-1,-1,-1,-1,-1],"split_conditions":[4.0374684E0,-2.4248269E-1,-5.1070315E-1,1.826075E0,7.678039E-1,3.4988625E0,-1.1994073E-3,-1.6201462E0,3.4988625E0,6.7595965E-1,1.826075E0,1.9677116E-2,-0E0,1.6268479E-3,-4.8151163E-5,8.487402E-3,-0E0,-6.579554E-5,-0E0,-3.1529224E-5,-2.0590455E-3],"split_indices":[8,2,0,8,2,6,0,2,6,2,8,0,0,0,0,0,0,0,0,0,0],"split_type":[0,0,0,0,0,0,0,0,0,0,0,0,0,0,0,0,0,0,0,0,0],"sum_hessian":[2.1E2,2.02E2,8E0,8.4E1,1.18E2,5E0,3E0,7.7E1,7E0,5.6E1,6.2E1,2E0,3E0,2E0,7.5E1,5E0,2E0,5.2E1,4E0,4.9E1,1.3E1],"tree_param":{"num_deleted":"0","num_feature":"10","num_nodes":"21","size_leaf_vector":"1"}},{"base_weights":[-0E0,-4.631363E-3,5.66391E-2,-0E0,-1.5153028E-2,1.8368438E-1,-1.1544299E-3,3.5292525E-3,-3.2813642E-2,-0E0,-4.871643E-3,1.902121E-2,-0E0,-4.9724977E-6,3.7607513E-3,-0E0,-2.2803086E-3],"categories":[],"categories_nodes":[],"categories_segments":[],"categories_sizes":[],"default_left":[0,0,0,0,0,0,0,0,0,0,0,0,0,0,0,0,0],"id":54,"left_children":[1,3,5,7,9,11,-1,13,15,-1,-1,-1,-1,-1,-1,-1,-1],"loss_changes":[3.333339E-2,1.0233812E-2,1.7570016E-1,1.6718436E-2,5.1756825E-2,2.3172793E-1,0E0,7.190194E-2,9.884781E-3,0E0,0E0,0E0,0E0,0E0,0E0,0E0,0E0],"parents":[2147483647,0,0,1,1,2,2,3,3,4,4,5,5,7,7,8,8],"right_children":[2,4,6,8,10,12,-1,14,16,-1,-1,-1,-1,-1,-1,-1,-1],"split_conditions":[4.0374684E0,9.929284E-1,-5.1070315E-1,2.3996751E0,1.826075E0,3.4988625E0,-1.1544299E-3,1.826075E0,-1.0119137E0,-0E0,-4.871643E-3,1.902121E-2,-0E0,-4.9724977E-6,3.7607513E-3,-0E0,-2.2803086E-3],"split_indices":[8,0,0,9,8,6,0,8,0,0,0,0,0,0,0,0,0],"split_type":[0,0,0,0,0,0,0,0,0,0,0,0,0,0,0,0,0],"sum_hessian":[2.15E2,2.07E2,8E0,1.44E2,6.3E1,5E0,3E0,1.31E2,1.3E1,5.7E1,6E0,2E0,3E0,1.19E2,1.2E1,2E0,1.1E1],"tree_param":{"num_deleted":"0","num_feature":"10","num_nodes":"17","size_leaf_vector":"1"}},{"base_weights":[-1.2057967E-3,5.1938556E-4,-1.4857087E-2,-4.8779498E-4,2.5735948E-2,-0E0,-4.026601E-3,3.14557E-2,-2.569455E-4,6.876992E-2,-0E0,3.9331946E-3,-0E0,-0E0,4.698153E-3,-0E0,-2.188875E-3],"categories":[],"categories_nodes":[],"categories_segments":[],"categories_sizes":[],"default_left":[0,0,0,0,0,0,0,0,0,0,0,0,0,0,0,0,0],"id":55,"left_children":[1,3,5,7,9,-1,-1,11,-1,13,15,-1,-1,-1,-1,-1,-1],"loss_changes":[1.2098719E-2,1.6547866E-2,3.3036795E-2,6.3177245E-3,5.911035E-2,0E0,0E0,9.407631E-3,0E0,5.676703E-2,1.7248226E-2,0E0,0E0,0E0,0E0,0E0,0E0],"parents":[2147483647,0,0,1,1,2,2,3,3,4,4,7,7,9,9,10,10],"right_children":[2,4,6,8,10,-1,-1,12,-1,14,16,-1,-1,-1,-1,-1,-1],"split_conditions":[9.929284E-1,1.826075E0,1.826075E0,-1.6201462E0,3.4988625E0,-0E0,-4.026601E-3,-9.492624E-3,-2.569455E-4,-1.4067435E0,-1.0119137E0,3.9331946E-3,-0E0,-0E0,4.698153E-3,-0E0,-2.188875E-3],"split_indices":[0,8,8,2,6,0,0,0,0,1,0,0,0,0,0,0,0],"split_type":[0,0,0,0,0,0,0,0,0,0,0,0,0,0,0,0,0],"sum_hessian":[2.08E2,1.53E2,5.5E1,1.29E2,2.4E1,4.9E1,6E0,2E0,1.27E2,1.5E1,9E0,1E0,1E0,1E0,1.4E1,1E0,8E0],"tree_param":{"num_deleted":"0","num_feature":"10","num_nodes":"17","size_leaf_vector":"1"}},{"base_weights":[6.2279236E-3,-0E0,2.1385247E-1,1.0893722E-2,-8.835051E-3,1.9136393E-2,-0E0,-0E0,1.1561049E-1,-0E0,-1.7996171E-2,-0E0,-2.8903285E-5,8.865036E-3,-0E0,-1.08759814E-4,3.6708266E-4,-0E0,-5.316552E-3],"categories":[],"categories_nodes":[],"categories_segments":[],"categories_sizes":[],"default_left":[0,0,0,0,0,0,0,0,0,0,0,0,0,0,0,0,0,0,0],"id":56,"left_children":[1,3,5,7,9,-1,-1,11,13,15,17,-1,-1,-1,-1,-1,-1,-1,-1],"loss_changes":[2.6698896E-1,1.780546E-2,3.115252E-1,9.755109E-2,7.76283E-3,0E0,0E0,2.2722876E-5,8.168702E-2,6.772359E-4,6.295092E-2,0E0,0E0,0E0,0E0,0E0,0E0,0E0,0E0],"parents":[2147483647,0,0,1,1,2,2,3,3,4,4,7,7,8,8,9,9,10,10],"right_children":[2,4,6,8,10,-1,-1,12,14,16,18,-1,-1,-1,-1,-1,-1,-1,-1],"split_conditions":[4.0374684E0,-2.4248269E-1,7.223458E0,1.826075E0,4.9171788E-1,1.9136393E-2,-0E0,-1.6201462E0,3.4988625E0,1.826075E0,1.826075E0,-0E0,-2.8903285E-5,8.865036E-3,-0E0,-1.08759814E-4,3.6708266E-4,-0E0,-5.316552E-3],"split_indices":[8,2,6,8,0,0,0,2,6,8,8,0,0,0,0,0,0,0,0],"split_type":[0,0,0,0,0,0,0,0,0,0,0,0,0,0,0,0,0,0,0],"sum_hessian":[1.9E2,1.85E2,5E0,7.8E1,1.07E2,3E0,2E0,7.1E1,7E0,5.8E1,4.9E1,4E0,6.7E1,5E0,2E0,5.1E1,7E0,4.3E1,6E0],"tree_param":{"num_deleted":"0","num_feature":"10","num_nodes":"19","size_leaf_vector":"1"}},{"base_weights":[9.768477E-4,-9.87498E-4,1.5033448E-2,-0E0,-1.8564529E-4,2.7687421E-2,-4.8432822E-4,3.8348646E-3,-0E0,5.037475E-2,-0E0,3.450706E-3,-0E0,-2.541912E-4,-0E0],"categories":[],"categories_nodes":[],"categories_segments":[],"categories_sizes":[],"default_left":[0,0,0,0,0,0,0,0,0,0,0,0,0,0,0],"id":57,"left_children":[1,3,5,7,-1,9,-1,-1,-1,11,13,-1,-1,-1,-1],"loss_changes":[1.3057241E-2,1.111282E-3,2.7411394E-2,1.1764948E-2,0E0,4.6416078E-2,0E0,0E0,0E0,2.3268878E-2,1.550716E-4,0E0,0E0,0E0,0E0],"parents":[2147483647,0,0,1,1,2,2,3,3,5,5,9,9,10,10],"right_children":[2,4,6,8,-1,10,-1,-1,-1,12,14,-1,-1,-1,-1],"split_conditions":[9.090534E-1,-9.492624E-3,3.4988625E0,-1.6201462E0,-1.8564529E-4,9.929284E-1,-4.8432822E-4,3.8348646E-3,-0E0,1.1351808E0,-2.2274686E-1,3.450706E-3,-0E0,-2.541912E-4,-0E0],"split_indices":[9,0,6,2,0,0,0,0,0,2,1,0,0,0,0],"split_type":[0,0,0,0,0,0,0,0,0,0,0,0,0,0,0],"sum_hessian":[2.17E2,1.6E2,5.7E1,6.9E1,9.1E1,5.1E1,6E0,1E0,6.8E1,3.3E1,1.8E1,2.2E1,1.1E1,5E0,1.3E1],"tree_param":{"num_deleted":"0","num_feature":"10","num_nodes":"15","size_leaf_vector":"1"}},{"base_weights":[-7.0979376E-3,-0E0,-1.5660333E-2,-3.6490948E-3,2.2852838E-2,-1.9246168E-2,-0E0,-0E0,-4.2999611E-4,4.1262456E-3,-0E0,-4.26668E-4,-2.1500464E-3,2.139085E-4,-3.3893008E-4,-4.261101E-5,-0E0],"categories":[],"categories_nodes":[],"categories_segments":[],"categories_sizes":[],"default_left":[0,0,0,0,0,0,0,0,0,0,0,0,0,0,0,0,0],"id":58,"left_children":[1,3,5,7,9,11,-1,13,-1,-1,-1,15,-1,-1,-1,-1,-1],"loss_changes":[6.6443104E-3,4.368959E-3,3.821263E-3,1.5704413E-3,2.4630183E-2,3.3028051E-3,0E0,2.8177518E-3,0E0,0E0,0E0,1.2325811E-5,0E0,0E0,0E0,0E0,0E0],"parents":[2147483647,0,0,1,1,2,2,3,3,4,4,5,5,7,7,11,11],"right_children":[2,4,6,8,10,12,-1,14,-1,-1,-1,16,-1,-1,-1,-1,-1],"split_conditions":[6.7595965E-1,4.0374684E0,1.594402E0,1.572795E0,7.223458E0,1.826075E0,-0E0,-6.0985965E-1,-4.2999611E-4,4.1262456E-3,-0E0,1.572795E0,-2.1500464E-3,2.139085E-4,-3.3893008E-4,-4.261101E-5,-0E0],"split_indices":[2,8,2,3,6,8,0,2,0,0,0,3,0,0,0,0,0],"split_type":[0,0,0,0,0,0,0,0,0,0,0,0,0,0,0,0,0],"sum_hessian":[2.03E2,1.35E2,6.8E1,1.31E2,4E0,5.5E1,1.3E1,8.7E1,4.4E1,3E0,1E0,4.3E1,1.2E1,4.5E1,4.2E1,2.7E1,1.6E1],"tree_param":{"num_deleted":"0","num_feature":"10","num_nodes":"17","size_leaf_vector":"1"}},{"base_weights":[5.261252E-4,5.1004533E-3,-2.899639E-2,-0E0,1.1641106E-2,-0E0,-3.0330184E-3,-0E0,-5.5906433E-3,1.6947554E-2,-0E0,-2.9244504E-4,-0E0,2.2432876E-3,-0E0,3.272435E-4,-5.6775747E-4],"categories":[],"categories_nodes":[],"categories_segments":[],"categories_sizes":[],"default_left":[0,0,0,0,0,0,0,0,0,0,0,0,0,0,0,0,0],"id":59,"left_children":[1,3,5,7,9,-1,-1,-1,11,13,15,-1,-1,-1,-1,-1,-1],"loss_changes":[1.7909974E-2,1.1715921E-2,3.8903657E-2,7.5012696E-4,8.200394E-3,0E0,0E0,0E0,2.4850597E-6,2.1022186E-2,3.0910787E-3,0E0,0E0,0E0,0E0,0E0,0E0],"parents":[2147483647,0,0,1,1,2,2,3,3,4,4,8,8,9,9,10,10],"right_children":[2,4,6,8,10,-1,-1,-1,12,14,16,-1,-1,-1,-1,-1,-1],"split_conditions":[3.4988625E0,-3.3432692E-1,-1.0119137E0,9.929284E-1,1.1351808E0,-0E0,-3.0330184E-3,-0E0,-5.180154E-1,-5.1070315E-1,4.9171788E-1,-2.9244504E-4,-0E0,2.2432876E-3,-0E0,3.272435E-4,-5.6775747E-4],"split_indices":[6,2,0,0,2,0,0,0,2,0,0,0,0,0,0,0,0],"split_type":[0,0,0,0,0,0,0,0,0,0,0,0,0,0,0,0,0],"sum_hessian":[2.19E2,2.05E2,1.4E1,8E1,1.25E2,1E0,1.3E1,5.7E1,2.3E1,8.7E1,3.8E1,2.1E1,2E0,2.2E1,6.5E1,2.3E1,1.5E1],"tree_param":{"num_deleted":"0","num_feature":"10","num_nodes":"17","size_leaf_vector":"1"}},{"base_weights":[3.0884703E-3,-2.5307054E-3,5.2651662E-2,8.312606E-3,-5.502368E-3,1.8067634E-1,-0E0,3.7336454E-3,-0E0,-3.276963E-4,-0E0,2.941746E-1,-0E0,5.462879E-2,-3.864617E-3,-0E0,1.7369948E-2,4.7739865E-3,-0E0,-2.2100757E-3,-0E0],"categories":[],"categories_nodes":[],"categories_segments":[],"categories_sizes":[],"default_left":[0,0,0,0,0,0,0,0,0,0,0,0,0,0,0,0,0,0,0,0,0],"id":60,"left_children":[1,3,5,7,9,11,13,-1,-1,-1,-1,15,-1,17,19,-1,-1,-1,-1,-1,-1],"loss_changes":[8.507215E-2,4.601812E-3,1.4256945E-1,1.0875688E-2,7.3771924E-5,1.17647186E-1,2.4143271E-2,0E0,0E0,0E0,0E0,1.5903354E-2,0E0,3.0823834E-2,1.5361353E-2,0E0,0E0,0E0,0E0,0E0,0E0],"parents":[2147483647,0,0,1,1,2,2,3,3,4,4,5,5,6,6,11,11,13,13,14,14],"right_children":[2,4,6,8,10,12,14,-1,-1,-1,-1,16,-1,18,20,-1,-1,-1,-1,-1,-1],"split_conditions":[1.826075E0,-1.6201462E0,-5.1070315E-1,-9.492624E-3,9.929284E-1,3.4988625E0,-2.4248269E-1,3.7336454E-3,-0E0,-3.276963E-4,-0E0,-2.2274686E-1,-0E0,3.4988625E0,1.0433366E0,-0E0,1.7369948E-2,4.7739865E-3,-0E0,-2.2100757E-3,-0E0],"split_indices":[8,2,0,0,0,6,2,0,0,0,0,1,0,6,2,0,0,0,0,0,0],"split_type":[0,0,0,0,0,0,0,0,0,0,0,0,0,0,0,0,0,0,0,0,0],"sum_hessian":[2.14E2,1.84E2,3E1,3E0,1.81E2,6E0,2.4E1,1E0,2E0,1.29E2,5.2E1,3E0,3E0,7E0,1.7E1,1E0,2E0,5E0,2E0,7E0,1E1],"tree_param":{"num_deleted":"0","num_feature":"10","num_nodes":"21","size_leaf_vector":"1"}},{"base_weights":[9.2486956E-4,1.3105117E-2,-3.989061E-3,-0E0,6.443613E-2,8.372702E-4,-3.987763E-2,-1.9530724E-4,2.3343107E-2,1.6282144E-1,-0E0,-0E0,2.1128662E-2,-0E0,-6.440594E-2,-0E0,3.1012653E-3,1.2482683E-2,-0E0,-0E0,-9.83286E-4,3.4648073E-3,-0E0,-4.7292723E-3,-0E0],"categories":[],"categories_nodes":[],"categories_segments":[],"categories_sizes":[],"default_left":[0,0,0,0,0,0,0,0,0,0,0,0,0,0,0,0,0,0,0,0,0,0,0,0,0],"id":61,"left_children":[1,3,5,7,9,11,13,-1,15,17,19,-1,21,-1,23,-1,-1,-1,-1,-1,-1,-1,-1,-1,-1],"loss_changes":[1.7418824E-2,3.4195468E-2,4.1031625E-2,1.5536246E-2,1.09240755E-1,1.0645389E-2,2.3433924E-2,0E0,2.7606212E-2,1.5256979E-1,2.3204428E-3,0E0,4.2107426E-2,0E0,3.204047E-2,0E0,0E0,0E0,0E0,0E0,0E0,0E0,0E0,0E0,0E0],"parents":[2147483647,0,0,1,1,2,2,3,3,4,4,5,5,6,6,8,8,9,9,10,10,12,12,14,14],"right_children":[2,4,6,8,10,12,14,-1,16,18,20,-1,22,-1,24,-1,-1,-1,-1,-1,-1,-1,-1,-1,-1],"split_conditions":[-9.492624E-3,2.3996751E0,9.5149237E-1,-5.1070315E-1,3.4988625E0,9.090534E-1,9.090534E-1,-1.9530724E-4,1.2909944E0,-5.1070315E-1,-1.0119137E0,-0E0,9.929284E-1,-0E0,1.494139E0,-0E0,3.1012653E-3,1.2482683E-2,-0E0,-0E0,-9.83286E-4,3.4648073E-3,-0E0,-4.7292723E-3,-0E0],"split_indices":[0,9,2,0,6,9,9,0,4,0,0,0,0,0,0,0,0,0,0,0,0,0,0,0,0],"split_type":[0,0,0,0,0,0,0,0,0,0,0,0,0,0,0,0,0,0,0,0,0,0,0,0,0],"sum_hessian":[2.13E2,9E1,1.23E2,7.9E1,1.1E1,9.7E1,2.6E1,5.3E1,2.6E1,5E0,6E0,7.4E1,2.3E1,1.1E1,1.5E1,1.6E1,1E1,4E0,1E0,1E0,5E0,1E1,1.3E1,1E1,5E0],"tree_param":{"num_deleted":"0","num_feature":"10","num_nodes":"25","size_leaf_vector":"1"}},{"base_weights":[-8.127081E-3,-0E0,-1.1407725E-2,2.5480775E-2,-0E0,-0E0,-1.4428289E-2,-0E0,2.391129E-3,-0E0,6.0530106E-4,-7.680076E-3,-5.0947177E-3,-4.917664E-4,-0E0],"categories":[],"categories_nodes":[],"categories_segments":[],"categories_sizes":[],"default_left":[0,0,0,0,0,0,0,0,0,0,0,0,0,0,0],"id":62,"left_children":[1,3,5,7,-1,9,11,-1,-1,-1,-1,13,-1,-1,-1],"loss_changes":[1.0601103E-2,7.7912393E-3,9.024713E-3,1.0504752E-2,0E0,4.3966726E-4,3.8278326E-2,0E0,0E0,0E0,0E0,5.0396435E-3,0E0,0E0,0E0],"parents":[2147483647,0,0,1,1,2,2,3,3,5,5,6,6,11,11],"right_children":[2,4,6,8,-1,10,12,-1,-1,-1,-1,14,-1,-1,-1],"split_conditions":[-1.3446136E0,4.9171788E-1,-1.0119137E0,-5.1070315E-1,-0E0,1.826075E0,4.0374684E0,-0E0,2.391129E-3,-0E0,6.0530106E-4,3.5973794E0,-5.0947177E-3,-4.917664E-4,-0E0],"split_indices":[2,0,0,0,0,8,8,0,0,0,0,7,0,0,0],"split_type":[0,0,0,0,0,0,0,0,0,0,0,0,0,0,0],"sum_hessian":[2.03E2,1.9E1,1.84E2,1.1E1,8E0,2.6E1,1.58E2,4E0,7E0,2.4E1,2E0,1.53E2,5E0,1.45E2,8E0],"tree_param":{"num_deleted":"0","num_feature":"10","num_nodes":"15","size_leaf_vector":"1"}},{"base_weights":[3.0740234E-4,-2.4205924E-4,7.664288E-2,-0E0,-1.2291702E-3,8.661355E-3,-0E0,-1.6523156E-3,2.8788116E-2,3.316338E-4,-2.3534212E-4,3.2107427E-3,-0E0],"categories":[],"categories_nodes":[],"categories_segments":[],"categories_sizes":[],"default_left":[0,0,0,0,0,0,0,0,0,0,0,0,0],"id":63,"left_children":[1,3,5,7,-1,-1,-1,9,11,-1,-1,-1,-1],"loss_changes":[4.6985134E-2,6.0316026E-3,7.3037475E-2,1.4572081E-2,0E0,0E0,0E0,3.5475928E-3,3.539373E-2,0E0,0E0,0E0,0E0],"parents":[2147483647,0,0,1,1,2,2,3,3,7,7,8,8],"right_children":[2,4,6,8,-1,-1,-1,10,12,-1,-1,-1,-1],"split_conditions":[4.0374684E0,3.4988625E0,3.4988625E0,1.826075E0,-1.2291702E-3,8.661355E-3,-0E0,-1.6201462E0,1.572795E0,3.316338E-4,-2.3534212E-4,3.2107427E-3,-0E0],"split_indices":[8,6,6,8,0,0,0,2,3,0,0,0,0],"split_type":[0,0,0,0,0,0,0,0,0,0,0,0,0],"sum_hessian":[2.08E2,2.01E2,7E0,1.92E2,9E0,3E0,4E0,1.76E2,1.6E1,3E0,1.73E2,1.1E1,5E0],"tree_param":{"num_deleted":"0","num_feature":"10","num_nodes":"13","size_leaf_vector":"1"}},{"base_weights":[-1.3880772E-3,-5.2477918E-3,3.1126322E-2,1.1519636E-3,-1.4344634E-2,1.512357E-1,-1.5909665E-3,-0E0,2.7006017E-2,-1.0304065E-4,-6.440389E-2,1.616097E-2,-0E0,-0E0,-1.30211E-4,-0E0,3.6131348E-3,-4.2910487E-3,-0E0],"categories":[],"categories_nodes":[],"categories_segments":[],"categories_sizes":[],"default_left":[0,0,0,0,0,0,0,0,0,0,0,0,0,0,0,0,0,0,0],"id":64,"left_children":[1,3,5,7,9,11,-1,13,15,-1,17,-1,-1,-1,-1,-1,-1,-1,-1],"loss_changes":[1.3954793E-2,1.854746E-2,1.3256367E-1,9.3631195E-3,3.8580444E-2,1.7617895E-1,0E0,3.051883E-4,4.273775E-2,0E0,2.6164945E-2,0E0,0E0,0E0,0E0,0E0,0E0,0E0,0E0],"parents":[2147483647,0,0,1,1,2,2,3,3,4,4,5,5,7,7,8,8,10,10],"right_children":[2,4,6,8,10,12,-1,14,16,-1,18,-1,-1,-1,-1,-1,-1,-1,-1],"split_conditions":[4.0374684E0,-2.4248269E-1,-5.1070315E-1,9.090534E-1,1.826075E0,3.4988625E0,-1.5909665E-3,-9.492624E-3,-9.492624E-3,-1.0304065E-4,1.750581E0,1.616097E-2,-0E0,-0E0,-1.30211E-4,-0E0,3.6131348E-3,-4.2910487E-3,-0E0],"split_indices":[8,2,0,9,8,6,0,0,0,0,1,0,0,0,0,0,0,0,0],"split_type":[0,0,0,0,0,0,0,0,0,0,0,0,0,0,0,0,0,0,0],"sum_hessian":[2.12E2,2.04E2,8E0,8.8E1,1.16E2,5E0,3E0,7.6E1,1.2E1,1.02E2,1.4E1,2E0,3E0,3.2E1,4.4E1,3E0,9E0,1.1E1,3E0],"tree_param":{"num_deleted":"0","num_feature":"10","num_nodes":"19","size_leaf_vector":"1"}},{"base_weights":[-0E0,-0E0,6.615246E-2,2.192993E-3,-8.144397E-3,1.5622272E-2,-1.7762339E-3,-9.029478E-5,6.965834E-2,-0E0,-3.0487703E-2,1.3133414E-3,-2.8022003E-4,7.2019636E-3,-0E0,-8.559727E-4,7.886362E-4,-0E0,-4.4114986E-3],"categories":[],"categories_nodes":[],"categories_segments":[],"categories_sizes":[],"default_left":[0,0,0,0,0,0,0,0,0,0,0,0,0,0,0,0,0,0,0],"id":65,"left_children":[1,3,5,7,9,-1,-1,11,13,15,17,-1,-1,-1,-1,-1,-1,-1,-1],"loss_changes":[2.188074E-2,6.5988186E-3,2.7477172E-1,5.2813318E-2,1.25538595E-2,0E0,0E0,5.3669433E-3,1.12603396E-1,1.9888435E-2,3.5901695E-2,0E0,0E0,0E0,0E0,0E0,0E0,0E0,0E0],"parents":[2147483647,0,0,1,1,2,2,3,3,4,4,7,7,8,8,9,9,10,10],"right_children":[2,4,6,8,10,-1,-1,12,14,16,18,-1,-1,-1,-1,-1,-1,-1,-1],"split_conditions":[4.0374684E0,4.9171788E-1,-5.1070315E-1,1.826075E0,1.0433366E0,1.5622272E-2,-1.7762339E-3,-1.6201462E0,3.4988625E0,-3.3432692E-1,1.826075E0,1.3133414E-3,-2.8022003E-4,7.2019636E-3,-0E0,-8.559727E-4,7.886362E-4,-0E0,-4.4114986E-3],"split_indices":[8,0,0,8,2,0,0,2,6,2,8,0,0,0,0,0,0,0,0],"split_type":[0,0,0,0,0,0,0,0,0,0,0,0,0,0,0,0,0,0,0],"sum_hessian":[2.1E2,2.06E2,4E0,1.16E2,9E1,2E0,2E0,1.06E2,1E1,7.1E1,1.9E1,2E0,1.04E2,7E0,3E0,3.8E1,3.3E1,1.3E1,6E0],"tree_param":{"num_deleted":"0","num_feature":"10","num_nodes":"19","size_leaf_vector":"1"}},{"base_weights":[-0E0,-2.5367725E-3,2.9888522E-2,-0E0,-4.4440194E-3,8.062673E-3,-0E0,3.6734038E-3,-0E0,-2.823805E-4,-0E0,4.201466E-2,-4.315759E-2,-0E0,1.3915802E-3,4.603377E-3,-0E0,-5.82102E-3,-0E0],"categories":[],"categories_nodes":[],"categories_segments":[],"categories_sizes":[],"default_left":[0,0,0,0,0,0,0,0,0,0,0,0,0,0,0,0,0,0,0],"id":66,"left_children":[1,3,5,7,9,-1,11,13,-1,-1,-1,15,17,-1,-1,-1,-1,-1,-1],"loss_changes":[2.8883552E-2,2.3051128E-3,7.631767E-2,6.7469475E-5,4.275185E-4,0E0,5.2262522E-2,2.256325E-3,0E0,0E0,0E0,6.994301E-2,8.794131E-2,0E0,0E0,0E0,0E0,0E0,0E0],"parents":[2147483647,0,0,1,1,2,2,3,3,4,4,6,6,7,7,11,11,12,12],"right_children":[2,4,6,8,10,-1,12,14,-1,-1,-1,16,18,-1,-1,-1,-1,-1,-1],"split_conditions":[1.826075E0,-1.4067435E0,-1.0119137E0,-9.492624E-3,9.929284E-1,8.062673E-3,2.3996751E0,-5.1070315E-1,-0E0,-2.823805E-4,-0E0,9.929284E-1,9.612499E-1,-0E0,1.3915802E-3,4.603377E-3,-0E0,-5.82102E-3,-0E0],"split_indices":[8,1,0,0,0,0,9,0,0,0,0,0,1,0,0,0,0,0,0],"split_type":[0,0,0,0,0,0,0,0,0,0,0,0,0,0,0,0,0,0,0],"sum_hessian":[2.14E2,1.84E2,3E1,8E0,1.76E2,3E0,2.7E1,4E0,4E0,1.22E2,5.4E1,1.7E1,1E1,2E0,2E0,1.1E1,6E0,7E0,3E0],"tree_param":{"num_deleted":"0","num_feature":"10","num_nodes":"19","size_leaf_vector":"1"}},{"base_weights":[-1.1016862E-3,-0E0,-5.1763463E-3,-8.764994E-3,2.4141282E-2,-0E0,-2.9458344E-2,-0E0,-2.5464145E-2,-0E0,9.645008E-3,-1.375425E-4,1.988154E-2,-0E0,-5.6807566E-3,-0E0,8.998096E-4,-0E0,-5.426386E-3,3.4270808E-3,-3.255571E-4,3.5686032E-3,-0E0],"categories":[],"categories_nodes":[],"categories_segments":[],"categories_sizes":[],"default_left":[0,0,0,0,0,0,0,0,0,0,0,0,0,0,0,0,0,0,0,0,0,0,0],"id":67,"left_children":[1,3,5,7,9,11,13,15,17,19,-1,-1,21,-1,-1,-1,-1,-1,-1,-1,-1,-1,-1],"loss_changes":[3.1931223E-3,2.5635388E-2,2.3445116E-2,1.991991E-2,1.644887E-1,9.674013E-3,7.6365575E-2,1.2954517E-3,7.023449E-2,1.0752546E-2,0E0,0E0,4.184837E-2,0E0,0E0,0E0,0E0,0E0,0E0,0E0,0E0,0E0,0E0],"parents":[2147483647,0,0,1,1,2,2,3,3,4,4,5,5,6,6,7,7,8,8,9,9,12,12],"right_children":[2,4,6,8,10,12,14,16,18,20,-1,-1,22,-1,-1,-1,-1,-1,-1,-1,-1,-1,-1],"split_conditions":[-9.492624E-3,1.2909944E0,9.5149237E-1,-1.0119137E0,1.826075E0,9.090534E-1,1.826075E0,1.826075E0,1.826075E0,-1.6201462E0,9.645008E-3,-1.375425E-4,9.929284E-1,-0E0,-5.6807566E-3,-0E0,8.998096E-4,-0E0,-5.426386E-3,3.4270808E-3,-3.255571E-4,3.5686032E-3,-0E0],"split_indices":[0,4,2,0,8,9,8,8,8,2,0,0,0,0,0,0,0,0,0,0,0,0,0],"split_type":[0,0,0,0,0,0,0,0,0,0,0,0,0,0,0,0,0,0,0,0,0,0,0],"sum_hessian":[2.16E2,8.8E1,1.28E2,5.2E1,3.6E1,9.8E1,3E1,1.6E1,3.6E1,3.2E1,4E0,7.6E1,2.2E1,2.3E1,7E0,1.3E1,3E0,2.9E1,7E0,1E0,3.1E1,9E0,1.3E1],"tree_param":{"num_deleted":"0","num_feature":"10","num_nodes":"23","size_leaf_vector":"1"}},{"base_weights":[-1.5230322E-3,8.7374996E-4,-1.1025928E-2,-3.555086E-5,4.672132E-2,-0E0,-2.305638E-2,8.601467E-3,-0E0,3.3414036E-3,-0E0,-0E0,-3.999256E-3,-5.3617633E-3,4.005045E-3,-3.6863596E-4,-0E0],"categories":[],"categories_nodes":[],"categories_segments":[],"categories_sizes":[],"default_left":[0,0,0,0,0,0,0,0,0,0,0,0,0,0,0,0,0],"id":68,"left_children":[1,3,5,-1,7,9,11,-1,13,-1,15,-1,-1,-1,-1,-1,-1],"loss_changes":[1.0050972E-2,3.270185E-2,1.612472E-2,0E0,5.6039054E-2,8.931982E-3,4.3793984E-2,0E0,1.1524241E-1,0E0,1.8481376E-3,0E0,0E0,0E0,0E0,0E0,0E0],"parents":[2147483647,0,0,1,1,2,2,4,4,5,5,6,6,8,8,10,10],"right_children":[2,4,6,-1,8,10,12,-1,14,-1,16,-1,-1,-1,-1,-1,-1],"split_conditions":[1.2909944E0,1.826075E0,-9.492624E-3,-3.555086E-5,-1.0119137E0,-1.6201462E0,1.826075E0,8.601467E-3,-9.492624E-3,3.3414036E-3,1.826075E0,-0E0,-3.999256E-3,-5.3617633E-3,4.005045E-3,-3.6863596E-4,-0E0],"split_indices":[4,8,0,0,0,2,8,0,0,0,8,0,0,0,0,0,0],"split_type":[0,0,0,0,0,0,0,0,0,0,0,0,0,0,0,0,0],"sum_hessian":[2.17E2,1.32E2,8.5E1,1.18E2,1.4E1,3.6E1,4.9E1,2E0,1.2E1,1E0,3.5E1,3.9E1,1E1,4E0,8E0,3.3E1,2E0],"tree_param":{"num_deleted":"0","num_feature":"10","num_nodes":"17","size_leaf_vector":"1"}},{"base_weights":[-0E0,-1.6205927E-3,1.9549387E-2,2.87343E-3,-4.5711957E-3,7.404025E-3,-0E0,3.2578676E-3,-0E0,-5.778361E-3,-0E0,4.7180496E-2,-1.1177351E-1,-2.938567E-4,-0E0,5.1849782E-3,-0E0,-6.217064E-3,-0E0],"categories":[],"categories_nodes":[],"categories_segments":[],"categories_sizes":[],"default_left":[0,0,0,0,0,0,0,0,0,0,0,0,0,0,0,0,0,0,0],"id":69,"left_children":[1,3,5,7,9,-1,11,-1,-1,13,-1,15,17,-1,-1,-1,-1,-1,-1],"loss_changes":[1.1168484E-2,3.2223114E-3,7.701033E-2,8.457935E-3,5.5030175E-4,0E0,1.4001453E-1,0E0,0E0,6.893184E-6,0E0,7.822161E-2,8.278735E-3,0E0,0E0,0E0,0E0,0E0,0E0],"parents":[2147483647,0,0,1,1,2,2,3,3,4,4,6,6,9,9,11,11,12,12],"right_children":[2,4,6,8,10,-1,12,-1,-1,14,-1,16,18,-1,-1,-1,-1,-1,-1],"split_conditions":[1.826075E0,-1.6201462E0,-1.0119137E0,-9.492624E-3,9.929284E-1,7.404025E-3,2.3996751E0,3.2578676E-3,-0E0,1.750581E0,-0E0,9.929284E-1,7.223458E0,-2.938567E-4,-0E0,5.1849782E-3,-0E0,-6.217064E-3,-0E0],"split_indices":[8,2,0,0,0,0,9,0,0,1,0,0,6,0,0,0,0,0,0],"split_type":[0,0,0,0,0,0,0,0,0,0,0,0,0,0,0,0,0,0,0],"sum_hessian":[2.04E2,1.77E2,2.7E1,3E0,1.74E2,3E0,2.4E1,1E0,2E0,1.25E2,4.9E1,1.7E1,7E0,1.21E2,4E0,1E1,7E0,6E0,1E0],"tree_param":{"num_deleted":"0","num_feature":"10","num_nodes":"19","size_leaf_vector":"1"}},{"base_weights":[-0E0,6.658992E-3,-1.0612756E-2,-3.7376393E-4,6.1556414E-2,-0E0,-3.2159218E-3,2.1631123E-2,-2.4862352E-4,1.16529316E-1,-0E0,3.176421E-3,-0E0,-0E0,7.223965E-3,-0E0,-1.9699489E-3],"categories":[],"categories_nodes":[],"categories_segments":[],"categories_sizes":[],"default_left":[0,0,0,0,0,0,0,0,0,0,0,0,0,0,0,0,0],"id":70,"left_children":[1,3,5,7,9,-1,-1,11,-1,13,15,-1,-1,-1,-1,-1,-1],"loss_changes":[1.3702711E-2,8.814028E-2,2.1862296E-2,4.427486E-3,1.3611458E-1,0E0,0E0,6.6680033E-3,0E0,1.0314396E-1,1.2418235E-2,0E0,0E0,0E0,0E0,0E0,0E0],"parents":[2147483647,0,0,1,1,2,2,3,3,4,4,7,7,9,9,10,10],"right_children":[2,4,6,8,10,-1,-1,12,-1,14,16,-1,-1,-1,-1,-1,-1],"split_conditions":[9.929284E-1,1.826075E0,1.826075E0,-1.6201462E0,3.4988625E0,-0E0,-3.2159218E-3,-9.492624E-3,-2.4862352E-4,-1.6201462E0,-1.0119137E0,3.176421E-3,-0E0,-0E0,7.223965E-3,-0E0,-1.9699489E-3],"split_indices":[0,8,8,2,6,0,0,0,0,2,0,0,0,0,0,0,0],"split_type":[0,0,0,0,0,0,0,0,0,0,0,0,0,0,0,0,0],"sum_hessian":[2.1E2,1.48E2,6.2E1,1.24E2,2.4E1,5.6E1,6E0,2E0,1.22E2,1.6E1,8E0,1E0,1E0,1E0,1.5E1,1E0,7E0],"tree_param":{"num_deleted":"0","num_feature":"10","num_nodes":"17","size_leaf_vector":"1"}},{"base_weights":[-5.584445E-4,-4.886356E-3,4.657035E-3,-2.6791755E-4,-1.1519662E-3,-0E0,-5.689402E-3,-4.1433782E-4,-0E0],"categories":[],"categories_nodes":[],"categories_segments":[],"categories_sizes":[],"default_left":[0,0,0,0,0,0,0,0,0],"id":71,"left_children":[1,3,-1,5,-1,-1,7,-1,-1],"loss_changes":[3.9459884E-2,5.2755554E-3,0E0,1.2491951E-3,0E0,0E0,8.6637784E-4,0E0,0E0],"parents":[2147483647,0,0,1,1,3,3,6,6],"right_children":[2,4,-1,6,-1,-1,8,-1,-1],"split_conditions":[4.0374684E0,2.3996751E0,4.657035E-3,1.1351808E0,-1.1519662E-3,-0E0,1.750581E0,-4.1433782E-4,-0E0],"split_indices":[8,9,0,2,0,0,1,0,0],"split_type":[0,0,0,0,0,0,0,0,0],"sum_hessian":[2.04E2,2.01E2,3E0,1.83E2,1.8E1,1.45E2,3.8E1,3E1,8E0],"tree_param":{"num_deleted":"0","num_feature":"10","num_nodes":"9","size_leaf_vector":"1"}},{"base_weights":[-0E0,-2.8988975E-4,1.4331316E-2,1.2648646E-3,-1.53486E-4,4.7627967E-2,-1.7327159E-4,1.1203821E-3,-0E0,-0E0,6.654289E-2,4.3436047E-3,-0E0],"categories":[],"categories_nodes":[],"categories_segments":[],"categories_sizes":[],"default_left":[0,0,0,0,0,0,0,0,0,0,0,0,0],"id":72,"left_children":[1,3,5,7,-1,9,-1,-1,-1,-1,11,-1,-1],"loss_changes":[6.587918E-3,1.7058719E-3,4.1208625E-2,1.4999076E-3,0E0,4.092225E-2,0E0,0E0,0E0,0E0,2.4642274E-2,0E0,0E0],"parents":[2147483647,0,0,1,1,2,2,3,3,5,5,10,10],"right_children":[2,4,6,8,-1,10,-1,-1,-1,-1,12,-1,-1],"split_conditions":[1.826075E0,-1.6201462E0,3.4988625E0,3.4988625E0,-1.53486E-4,-1.4067435E0,-1.7327159E-4,1.1203821E-3,-0E0,-0E0,2.3996751E0,4.3436047E-3,-0E0],"split_indices":[8,2,6,6,0,1,0,0,0,0,9,0,0],"split_type":[0,0,0,0,0,0,0,0,0,0,0,0,0],"sum_hessian":[2.15E2,1.84E2,3.1E1,3E0,1.81E2,2E1,1.1E1,2E0,1E0,1E0,1.9E1,1.4E1,5E0],"tree_param":{"num_deleted":"0","num_feature":"10","num_nodes":"13","size_leaf_vector":"1"}},{"base_weights":[1.9007839E-3,6.309768E-3,-1.5220719E-3,-0E0,2.3734575E-2,2.1285973E-3,-1.5851596E-5,3.817898E-2,-0E0,3.0690015E-3,-0E0,6.401448E-3,8.531032E-5,1.0311507E-3,-1.9534992E-3],"categories":[],"categories_nodes":[],"categories_segments":[],"categories_sizes":[],"default_left":[0,0,0,0,0,0,0,0,0,0,0,0,0,0,0],"id":73,"left_children":[1,3,-1,5,7,9,-1,11,13,-1,-1,-1,-1,-1,-1],"loss_changes":[1.8356672E-2,2.2980705E-2,0E0,3.2597032E-5,2.4406958E-2,7.516892E-3,0E0,5.9442937E-2,1.7991256E-2,0E0,0E0,0E0,0E0,0E0,0E0],"parents":[2147483647,0,0,1,1,3,3,4,4,5,5,7,7,8,8],"right_children":[2,4,-1,6,8,10,-1,12,14,-1,-1,-1,-1,-1,-1],"split_conditions":[3.4988625E0,9.090534E-1,-1.5220719E-3,-1.6201462E0,1.1351808E0,-9.492624E-3,-1.5851596E-5,-5.1070315E-1,4.9171788E-1,3.0690015E-3,-0E0,6.401448E-3,8.531032E-5,1.0311507E-3,-1.9534992E-3],"split_indices":[6,9,0,2,2,0,0,0,0,0,0,0,0,0,0],"split_type":[0,0,0,0,0,0,0,0,0,0,0,0,0,0,0],"sum_hessian":[2.11E2,2E2,1.1E1,1.46E2,5.4E1,3E0,1.43E2,3.7E1,1.7E1,1E0,2E0,6E0,3.1E1,9E0,8E0],"tree_param":{"num_deleted":"0","num_feature":"10","num_nodes":"15","size_leaf_vector":"1"}},{"base_weights":[-0E0,4.1946787E-3,-9.23056E-3,-0E0,4.4224586E-2,-0E0,-5.405303E-2,1.9683206E-2,-2.3581456E-4,-0E0,9.722703E-2,-0E0,-5.4837973E-3,2.9922754E-3,-0E0,5.8605126E-3,-2.6631986E-3,6.876121E-3,-0E0],"categories":[],"categories_nodes":[],"categories_segments":[],"categories_sizes":[],"default_left":[0,0,0,0,0,0,0,0,0,0,0,0,0,0,0,0,0,0,0],"id":74,"left_children":[1,3,5,7,9,-1,11,13,-1,15,17,-1,-1,-1,-1,-1,-1,-1,-1],"loss_changes":[9.897351E-3,3.705763E-2,2.4300333E-2,3.2976526E-3,3.650848E-2,0E0,4.003385E-2,6.0006836E-3,0E0,9.4224684E-2,2.488494E-5,0E0,0E0,0E0,0E0,0E0,0E0,0E0,0E0],"parents":[2147483647,0,0,1,1,2,2,3,3,4,4,6,6,7,7,9,9,10,10],"right_children":[2,4,6,8,10,-1,12,14,-1,16,18,-1,-1,-1,-1,-1,-1,-1,-1],"split_conditions":[4.9171788E-1,1.826075E0,1.826075E0,-1.6201462E0,1.2909944E0,-0E0,1.2909944E0,-9.492624E-3,-2.3581456E-4,-1.0119137E0,-9.492624E-3,-0E0,-5.4837973E-3,2.9922754E-3,-0E0,5.8605126E-3,-2.6631986E-3,6.876121E-3,-0E0],"split_indices":[0,8,8,2,4,0,4,0,0,0,0,0,0,0,0,0,0,0,0],"split_type":[0,0,0,0,0,0,0,0,0,0,0,0,0,0,0,0,0,0,0],"sum_hessian":[2.07E2,1.16E2,9.1E1,9.7E1,1.9E1,8.1E1,1E1,2E0,9.5E1,1.2E1,7E0,5E0,5E0,1E0,1E0,4E0,8E0,3E0,4E0],"tree_param":{"num_deleted":"0","num_feature":"10","num_nodes":"19","size_leaf_vector":"1"}},{"base_weights":[-0E0,-2.0661927E-3,5.0809145E-2,-0E0,-2.4747817E-2,1.21378645E-1,-0E0,5.487536E-3,-8.224321E-3,-0E0,-3.282593E-2,1.3806576E-2,-0E0,-0E0,5.241185E-3,-0E0,-1.4085642E-3,-1.9513682E-3,-0E0],"categories":[],"categories_nodes":[],"categories_segments":[],"categories_sizes":[],"default_left":[0,0,0,0,0,0,0,0,0,0,0,0,0,0,0,0,0,0,0],"id":75,"left_children":[1,3,5,7,9,11,-1,13,15,-1,17,-1,-1,-1,-1,-1,-1,-1,-1],"loss_changes":[2.156615E-2,1.0110582E-2,6.774409E-2,8.926969E-3,5.138941E-3,1.4034918E-1,0E0,9.5308624E-2,2.3226848E-2,0E0,2.114499E-3,0E0,0E0,0E0,0E0,0E0,0E0,0E0,0E0],"parents":[2147483647,0,0,1,1,2,2,3,3,4,4,5,5,7,7,8,8,10,10],"right_children":[2,4,6,8,10,12,-1,14,16,-1,18,-1,-1,-1,-1,-1,-1,-1,-1],"split_conditions":[4.0374684E0,2.3996751E0,-5.1070315E-1,1.2909944E0,-1.0119137E0,3.4988625E0,-0E0,1.826075E0,4.9171788E-1,-0E0,9.929284E-1,1.3806576E-2,-0E0,-0E0,5.241185E-3,-0E0,-1.4085642E-3,-1.9513682E-3,-0E0],"split_indices":[8,9,0,4,0,6,0,8,0,0,0,0,0,0,0,0,0,0,0],"split_type":[0,0,0,0,0,0,0,0,0,0,0,0,0,0,0,0,0,0,0],"sum_hessian":[2.2E2,2.13E2,7E0,1.96E2,1.7E1,5E0,2E0,1.18E2,7.8E1,3E0,1.4E1,2E0,3E0,1.1E2,8E0,4.3E1,3.5E1,1.1E1,3E0],"tree_param":{"num_deleted":"0","num_feature":"10","num_nodes":"19","size_leaf_vector":"1"}},{"base_weights":[-0E0,-1.8150822E-3,3.5936262E-2,-0E0,-2.230048E-2,1.8094495E-1,-1.4654335E-3,2.6903169E-3,-5.886963E-3,-0E0,-2.941483E-2,-0E0,1.3346356E-2,-0E0,2.510106E-3,-0E0,-1.9204322E-3,-1.8619305E-3,-0E0],"categories":[],"categories_nodes":[],"categories_segments":[],"categories_sizes":[],"default_left":[0,0,0,0,0,0,0,0,0,0,0,0,0,0,0,0,0,0,0],"id":76,"left_children":[1,3,5,7,9,11,-1,13,15,-1,17,-1,-1,-1,-1,-1,-1,-1,-1],"loss_changes":[1.1013286E-2,8.76695E-3,1.5681006E-1,2.8557836E-3,4.3948004E-3,5.004488E-2,0E0,3.4299202E-2,6.9799027E-3,0E0,2.796851E-3,0E0,0E0,0E0,0E0,0E0,0E0,0E0,0E0],"parents":[2147483647,0,0,1,1,2,2,3,3,4,4,5,5,7,7,8,8,10,10],"right_children":[2,4,6,8,10,12,-1,14,16,-1,18,-1,-1,-1,-1,-1,-1,-1,-1],"split_conditions":[4.0374684E0,2.3996751E0,-5.1070315E-1,9.929284E-1,-1.0119137E0,1.7191872E-1,-1.4654335E-3,1.826075E0,1.826075E0,-0E0,9.929284E-1,-0E0,1.3346356E-2,-0E0,2.510106E-3,-0E0,-1.9204322E-3,-1.8619305E-3,-0E0],"split_indices":[8,9,0,0,0,1,0,8,8,0,0,0,0,0,0,0,0,0,0],"split_type":[0,0,0,0,0,0,0,0,0,0,0,0,0,0,0,0,0,0,0],"sum_hessian":[2.13E2,2.06E2,7E0,1.88E2,1.8E1,4E0,3E0,1.35E2,5.3E1,3E0,1.5E1,2E0,2E0,1.22E2,1.3E1,4.8E1,5E0,1.1E1,4E0],"tree_param":{"num_deleted":"0","num_feature":"10","num_nodes":"19","size_leaf_vector":"1"}},{"base_weights":[-1.5505524E-4,-4.1056825E-3,4.205595E-2,-0E0,-2.0520825E-2,6.0014776E-3,-0E0,-0E0,-4.1971835E-3,-1.240537E-3,-0E0,-0E0,2.8695198E-4,-3.7430096E-4,-0E0],"categories":[],"categories_nodes":[],"categories_segments":[],"categories_sizes":[],"default_left":[0,0,0,0,0,0,0,0,0,0,0,0,0,0,0],"id":77,"left_children":[1,3,5,7,9,-1,-1,11,13,-1,-1,-1,-1,-1,-1],"loss_changes":[1.7717963E-2,4.4273753E-3,4.347875E-2,1.6559368E-3,1.232611E-3,0E0,0E0,5.2698527E-4,3.3316663E-3,0E0,0E0,0E0,0E0,0E0,0E0],"parents":[2147483647,0,0,1,1,2,2,3,3,4,4,7,7,8,8],"right_children":[2,4,6,8,10,-1,-1,12,14,-1,-1,-1,-1,-1,-1],"split_conditions":[4.0374684E0,2.3996751E0,3.4988625E0,1.7191872E-1,1.572795E0,6.0014776E-3,-0E0,9.090534E-1,3.5973794E0,-1.240537E-3,-0E0,-0E0,2.8695198E-4,-3.7430096E-4,-0E0],"split_indices":[8,9,6,1,3,0,0,9,7,0,0,0,0,0,0],"split_type":[0,0,0,0,0,0,0,0,0,0,0,0,0,0,0],"sum_hessian":[2.18E2,2.11E2,7E0,1.93E2,1.8E1,3E0,4E0,1E2,9.3E1,1.4E1,4E0,8.5E1,1.5E1,8.8E1,5E0],"tree_param":{"num_deleted":"0","num_feature":"10","num_nodes":"15","size_leaf_vector":"1"}},{"base_weights":[-0E0,9.72274E-3,-5.4617114E-3,-0E0,2.4552332E-2,-0E0,-4.8682936E-2,2.9174685E-3,-0E0,-0E0,5.264485E-2,-1.5281914E-3,9.107401E-3,-0E0,-6.653057E-2,3.8203292E-3,-0E0,-2.2540078E-4,-0E0,2.5937601E-3,-0E0,-4.7059185E-3,-0E0],"categories":[],"categories_nodes":[],"categories_segments":[],"categories_sizes":[],"default_left":[0,0,0,0,0,0,0,0,0,0,0,0,0,0,0,0,0,0,0,0,0,0,0],"id":78,"left_children":[1,3,5,7,9,11,13,-1,-1,-1,15,17,19,-1,21,-1,-1,-1,-1,-1,-1,-1,-1],"loss_changes":[1.1878675E-2,5.9597557E-3,3.21796E-2,6.8092984E-3,3.5419032E-2,2.2487713E-3,1.3139058E-2,0E0,0E0,0E0,3.184488E-2,2.8069393E-5,2.2145707E-2,0E0,2.2176657E-2,0E0,0E0,0E0,0E0,0E0,0E0,0E0,0E0],"parents":[2147483647,0,0,1,1,2,2,3,3,4,4,5,5,6,6,10,10,11,11,12,12,14,14],"right_children":[2,4,6,8,10,12,14,-1,-1,-1,16,18,20,-1,22,-1,-1,-1,-1,-1,-1,-1,-1],"split_conditions":[-9.492624E-3,9.090534E-1,1.3188692E0,-1.6201462E0,-2.2274686E-1,9.090534E-1,9.090534E-1,2.9174685E-3,-0E0,-0E0,3.4988625E0,-1.4364578E0,-2.4248269E-1,-0E0,1.494139E0,3.8203292E-3,-0E0,-2.2540078E-4,-0E0,2.5937601E-3,-0E0,-4.7059185E-3,-0E0],"split_indices":[0,9,2,2,1,9,9,0,0,0,6,2,2,0,0,0,0,0,0,0,0,0,0],"split_type":[0,0,0,0,0,0,0,0,0,0,0,0,0,0,0,0,0,0,0,0,0,0,0],"sum_hessian":[2.01E2,8.9E1,1.12E2,6.6E1,2.3E1,9.8E1,1.4E1,1E0,6.5E1,6E0,1.7E1,7.4E1,2.4E1,4E0,1E1,1.3E1,4E0,9E0,6.5E1,8E0,1.6E1,7E0,3E0],"tree_param":{"num_deleted":"0","num_feature":"10","num_nodes":"23","size_leaf_vector":"1"}},{"base_weights":[-0E0,-1.3612093E-3,3.4081582E-2,-0E0,-6.8392353E-3,1.8026286E-1,-1.6082706E-3,-5.29207E-4,2.8532257E-2,-2.0150859E-2,-0E0,1.3984084E-2,-0E0,8.894224E-4,-2.9301023E-4,5.0093965E-3,-0E0,-0E0,-4.2437916E-3,4.008241E-4,-4.4931457E-4],"categories":[],"categories_nodes":[],"categories_segments":[],"categories_sizes":[],"default_left":[0,0,0,0,0,0,0,0,0,0,0,0,0,0,0,0,0,0,0,0,0],"id":79,"left_children":[1,3,5,7,9,11,-1,13,15,17,19,-1,-1,-1,-1,-1,-1,-1,-1,-1,-1],"loss_changes":[9.6815415E-3,3.9142054E-3,1.5731952E-1,1.1426942E-2,9.502631E-3,1.5041387E-1,0E0,4.491168E-3,6.89037E-2,2.9417494E-2,4.2680753E-3,0E0,0E0,0E0,0E0,0E0,0E0,0E0,0E0,0E0,0E0],"parents":[2147483647,0,0,1,1,2,2,3,3,4,4,5,5,7,7,8,8,9,9,10,10],"right_children":[2,4,6,8,10,12,-1,14,16,18,20,-1,-1,-1,-1,-1,-1,-1,-1,-1,-1],"split_conditions":[4.0374684E0,4.9171788E-1,-5.1070315E-1,1.826075E0,-5.180154E-1,7.223458E0,-1.6082706E-3,-1.6201462E0,2.3996751E0,1.826075E0,9.612499E-1,1.3984084E-2,-0E0,8.894224E-4,-2.9301023E-4,5.0093965E-3,-0E0,-0E0,-4.2437916E-3,4.008241E-4,-4.4931457E-4],"split_indices":[8,0,0,8,2,6,0,2,9,8,1,0,0,0,0,0,0,0,0,0,0],"split_type":[0,0,0,0,0,0,0,0,0,0,0,0,0,0,0,0,0,0,0,0,0],"sum_hessian":[2.16E2,2.09E2,7E0,1.18E2,9.1E1,4E0,3E0,1.05E2,1.3E1,3.3E1,5.8E1,3E0,1E0,2E0,1.03E2,7E0,6E0,2.8E1,5E0,3.4E1,2.4E1],"tree_param":{"num_deleted":"0","num_feature":"10","num_nodes":"21","size_leaf_vector":"1"}},{"base_weights":[-3.2938295E-3,2.4065843E-3,-1.5662834E-2,-0E0,2.4499858E-2,-0E0,-4.6803257E-3,1.71955E-2,-1.3020413E-4,8.469096E-2,-2.9215922E-3,2.8222979E-3,-0E0,-0E0,6.5044025E-3,-0E0,-2.3536987E-3],"categories":[],"categories_nodes":[],"categories_segments":[],"categories_sizes":[],"default_left":[0,0,0,0,0,0,0,0,0,0,0,0,0,0,0,0,0],"id":80,"left_children":[1,3,5,7,9,-1,-1,11,-1,13,15,-1,-1,-1,-1,-1,-1],"loss_changes":[2.1684118E-2,1.1315654E-2,9.060252E-2,1.5516179E-3,7.414266E-2,0E0,0E0,5.485236E-3,0E0,6.6235416E-2,1.765085E-2,0E0,0E0,0E0,0E0,0E0,0E0],"parents":[2147483647,0,0,1,1,2,2,3,3,4,4,7,7,9,9,10,10],"right_children":[2,4,6,8,10,-1,-1,12,-1,14,16,-1,-1,-1,-1,-1,-1],"split_conditions":[4.9171788E-1,1.826075E0,1.826075E0,-1.6201462E0,3.4988625E0,-0E0,-4.6803257E-3,-9.492624E-3,-1.3020413E-4,-1.5063846E-1,-1.0119137E0,2.8222979E-3,-0E0,-0E0,6.5044025E-3,-0E0,-2.3536987E-3],"split_indices":[0,8,8,2,6,0,0,0,0,2,0,0,0,0,0,0,0],"split_type":[0,0,0,0,0,0,0,0,0,0,0,0,0,0,0,0,0],"sum_hessian":[2.12E2,1.18E2,9.4E1,9.9E1,1.9E1,8.2E1,1.2E1,2E0,9.7E1,1.1E1,8E0,1E0,1E0,3E0,8E0,1E0,7E0],"tree_param":{"num_deleted":"0","num_feature":"10","num_nodes":"17","size_leaf_vector":"1"}},{"base_weights":[-0E0,2.3649288E-3,-3.653944E-2,-0E0,4.2245094E-2,-0E0,-6.32086E-2,-0E0,-2.04898E-3,8.415426E-2,-0E0,-0E0,-6.1895046E-3,2.7517395E-3,-0E0,-1.3396147E-4,-0E0,7.30441E-3,-0E0],"categories":[],"categories_nodes":[],"categories_segments":[],"categories_sizes":[],"default_left":[0,0,0,0,0,0,0,0,0,0,0,0,0,0,0,0,0,0,0],"id":81,"left_children":[1,3,5,7,9,-1,11,13,15,17,-1,-1,-1,-1,-1,-1,-1,-1,-1],"loss_changes":[3.30946E-2,3.4641497E-2,4.786341E-2,6.927226E-4,7.053614E-2,0E0,5.800935E-2,6.0576554E-3,1.5431311E-4,1.0718852E-1,0E0,0E0,0E0,0E0,0E0,0E0,0E0,0E0,0E0],"parents":[2147483647,0,0,1,1,2,2,3,3,4,4,6,6,7,7,8,8,9,9],"right_children":[2,4,6,8,10,-1,12,14,16,18,-1,-1,-1,-1,-1,-1,-1,-1,-1],"split_conditions":[2.3996751E0,1.826075E0,-1.0119137E0,-1.6201462E0,3.4988625E0,-0E0,1.826075E0,-9.492624E-3,9.929284E-1,9.929284E-1,-0E0,-0E0,-6.1895046E-3,2.7517395E-3,-0E0,-1.3396147E-4,-0E0,7.30441E-3,-0E0],"split_indices":[9,8,0,2,6,0,8,0,0,0,0,0,0,0,0,0,0,0,0],"split_type":[0,0,0,0,0,0,0,0,0,0,0,0,0,0,0,0,0,0,0],"sum_hessian":[2.1E2,1.87E2,2.3E1,1.68E2,1.9E1,4E0,1.9E1,4E0,1.64E2,1.4E1,5E0,1.1E1,8E0,1E0,3E0,1.17E2,4.7E1,9E0,5E0],"tree_param":{"num_deleted":"0","num_feature":"10","num_nodes":"19","size_leaf_vector":"1"}},{"base_weights":[1.6723254E-3,-6.8240444E-4,3.249012E-2,-0E0,-3.155649E-3,6.9701105E-2,-6.524528E-3,2.6829452E-3,-0E0,-4.1906633E-3,-0E0,1.3618481E-1,-0E0,-1.2157258E-3,-0E0,-0E0,-6.348244E-4,8.072919E-3,-0E0,-0E0,-1.3966289E-3],"categories":[],"categories_nodes":[],"categories_segments":[],"categories_sizes":[],"default_left":[0,0,0,0,0,0,0,0,0,0,0,0,0,0,0,0,0,0,0,0,0],"id":82,"left_children":[1,3,5,7,9,11,13,-1,-1,15,-1,17,19,-1,-1,-1,-1,-1,-1,-1,-1],"loss_changes":[3.1165222E-2,1.6783E-3,7.559626E-2,5.7585556E-3,3.7993514E-4,1.5276688E-1,3.1640488E-3,0E0,0E0,9.202927E-4,0E0,5.3177506E-2,6.2418315E-3,0E0,0E0,0E0,0E0,0E0,0E0,0E0,0E0],"parents":[2147483647,0,0,1,1,2,2,3,3,4,4,5,5,6,6,9,9,11,11,12,12],"right_children":[2,4,6,8,10,12,14,-1,-1,16,-1,18,20,-1,-1,-1,-1,-1,-1,-1,-1],"split_conditions":[1.826075E0,-1.6201462E0,9.929284E-1,-9.492624E-3,9.929284E-1,3.4988625E0,1.494139E0,2.6829452E-3,-0E0,9.090534E-1,-0E0,1.4107136E0,-1.0119137E0,-1.2157258E-3,-0E0,-0E0,-6.348244E-4,8.072919E-3,-0E0,-0E0,-1.3966289E-3],"split_indices":[8,2,0,0,0,6,0,0,0,9,0,2,0,0,0,0,0,0,0,0,0],"split_type":[0,0,0,0,0,0,0,0,0,0,0,0,0,0,0,0,0,0,0,0,0],"sum_hessian":[2.09E2,1.8E2,2.9E1,4E0,1.76E2,2.1E1,8E0,1E0,3E0,1.21E2,5.5E1,1.3E1,8E0,5E0,3E0,1.03E2,1.8E1,1.1E1,2E0,1E0,7E0],"tree_param":{"num_deleted":"0","num_feature":"10","num_nodes":"21","size_leaf_vector":"1"}},{"base_weights":[-6.5151276E-3,-0E0,-1.3147122E-2,1.3499689E-2,-2.8546338E-3,-8.394783E-4,-1.3216853E-3,-0E0,2.5301807E-2,-9.412718E-3,-0E0,-0E0,-5.8963826E-5,1.8063855E-3,-0E0,-0E0,-1.1901151E-3,-0E0,1.021735E-3],"categories":[],"categories_nodes":[],"categories_segments":[],"categories_sizes":[],"default_left":[0,0,0,0,0,0,0,0,0,0,0,0,0,0,0,0,0,0,0],"id":83,